wih 100 784
0,396740908257658 -0,779748136466971 -0,0802461637026271 -0,985132591023636 0,417834683666153 0,307323951672787 0,0684158781308438 -0,78074364279098 0,131695585191436 -0,0672220594792264 -0,97673179762569 -0,641870870017911 -0,114310189774542 0,00972021846619651 0,0756976595692459 -0,206396039622685 -0,738238283810256 -0,379891982139581 0,0392497784305112 -0,342189646192964 -0,0109963327323435 0,113719775732866 -0,379743840101895 0,498255825532747 -0,0109037478315268 0,514378475523062 -0,821994307155662 0,855205388101563 -0,907024459391787 0,158387652281003 -0,000617814097037264 0,555146261674362 -0,596446434620998 -0,998528843024178 -0,0587982119673955 -0,915755826216646 0,161003195240868 0,753280036080805 0,50633502111208 0,0527738482453552 -0,06217399674904 0,359876730564644 0,572311909541561 0,633361153866044 -0,539915470089784 0,402731930370195 -0,117136664697121 -0,327961082801506 0,401881906629816 0,250092429777543 0,864900992161037 -0,609710537563141 0,496016223945328 0,467286765052813 0,39170333022445 -0,717475699873478 0,605121707668697 0,421816345813153 0,0270254833800405 0,893918246488016 0,122889584994144 0,203483219123664 -0,876213983163317 -1,05869015813883 -1,09488232490401 -0,601006354655581 0,856953069752517 -0,185798373804897 -1,01724175849452 -0,189167629711982 0,373426876860139 -0,724475247181601 -0,0184425207329176 0,839379162213102 0,43544100816405 0,279493019238168 0,195044795076537 -0,351873342845897 -0,0707076559507039 0,4862050518963 -0,491655409086308 0,415062563931168 -0,574289867040158 -0,143446704007496 0,315243967436572 -0,376787408080304 -0,938146391748898 -0,0632969824043052 -0,386102433944401 -0,311788295262636 -0,517025308121875 0,720904499744675 -0,28035349004399 0,585037013496152 -1,14116913893758 0,768676260193475 0,406660710376411 0,775570542000947 0,778993704674061 -1,07630662943376 0,469130881841496 -1,04263804270807 -0,435996124619536 -0,658986393586634 0,50960068761744 0,356247316229164 0,348772586844981 0,584684462986571 0,915742348440139 -0,991584645633678 0,0532797009808321 -0,0619006607638004 -0,462060405032986 0,590601943974667 0,397868971085676 0,708495048035429 -0,210154721473117 0,280848750507008 -0,406587317460795 0,264037696258496 -0,662153005283952 -0,117381387627011 -0,859781570820137 0,303150220152063 -0,589547127920508 0,675700603689943 0,468567584347005 0,145541777233126 0,84762932444619 0,51900391082998 0,792695813216441 0,286485230861352 -0,32903032562752 -0,210716864378538 0,899019414305911 -0,476907900383202 -0,236486640936544 0,993989951358403 0,257365757167815 0,928951015426166 0,291622956034008 -0,484096048404956 0,0405471081700014 -0,376815771887819 0,647615583387761 0,563156197766524 0,203147067028586 0,184317806511371 -0,771347626371438 -0,836306017909983 -0,0673523271113188 -0,913344840563075 0,133471318209803 -0,545322151401443 0,41182487248345 -0,646502302069679 0,66093658988228 0,124916963931009 0,862724757919323 0,728392809468233 0,73537574315891 -1,0106412267021 0,582077076262706 -0,690842793780077 -0,879298821763485 0,675426147504083 -0,827866558653241 0,6850662890291 0,693135347612322 -0,0445148703245968 -0,0229929432914584 -0,196981100857877 -0,95160138820433 -0,274933432179854 -0,978883630872868 0,883491800794094 -1,10759437342331 0,608389718346353 0,618041789643917 -0,209297587321238 -0,550062683199182 -0,759860240953264 -0,096659521848096 0,555004405133378 -0,507937309824903 0,654625544422406 -0,818852306686211 -0,795727525325612 0,244974422039814 0,374596909998321 -0,306002137527353 0,493843874377286 1,04252424085246 0,38173408071193 -0,945134507362546 0,226348763741542 -0,127658889386055 -0,240340469032951 -0,472405341915214 0,95460853822117 0,411824547273641 0,545014653460885 0,508475434406348 0,281149593639043 0,180574123565141 -0,793542654178283 -0,993948114931141 -0,636612021985525 -0,570824367934575 0,596059489278976 -0,416794758437628 -0,960228072713006 0,478417835241274 0,115615538087055 0,271378162372799 0,469629556085817 0,0986507524891197 -0,999016018951982 0,743968901146064 -0,636036721975494 0,462366038580434 0,831256864355331 -0,666603243213942 -0,722472401956977 -0,771876947452875 0,50080935710733 -0,189720370126479 -0,425763009455921 -0,383484389435591 -0,2106192017865 2,88795071833074E-05 0,119556125617754 0,023361459290812 0,687496612688573 0,290619055925307 -0,188953632056869 -0,281654278566334 0,516845127667331 -0,727030118737969 -0,853642982819667 0,447795236248361 0,642908747066034 0,6866409014237 0,605926911778245 -0,139130777063523 -0,287455829030372 -0,970905227007559 -0,157122241042795 -0,896501283541459 -0,484109101171553 -0,93640123050189 -0,155056233365169 -0,0395507430873106 -0,8667029950407 -0,508509255552789 0,430166619709477 0,155254258711273 0,23133190865812 0,0826108291235095 0,698331901980428 0,384675316261695 0,504814354150792 0,634857964362735 0,523884540932423 -0,462947282127334 0,204838305407855 -0,25501205329294 0,62185208827032 0,572229687735867 -0,746757715510218 -0,31293459598608 0,466979068076015 0,643893230506883 0,572779800522846 -0,175044199288793 0,527975418540065 -0,930338725011543 -0,402433002085281 0,303648422592701 0,520750035646398 0,485618794150311 0,938150160750939 -0,546920212134843 -1,00839973264884 -0,321196595152375 -0,789458222940567 -0,790729433134313 -0,069085733950228 0,212832539445664 -1,04121790878965 0,576463584103488 0,387620389708785 -0,593577540002199 -0,621272441912823 -0,514515079466677 0,764869076540488 -1,02784398052717 -0,862995454466367 0,0127684628320462 0,482136852155922 0,778084820545128 -0,700126039760185 0,143027390469452 0,484679649411677 0,615502863019493 -0,68478333648467 -0,0539570844512891 0,338289655565471 0,262167733991094 -0,185810798569047 0,241760452491933 -0,593545342043218 0,831016997630816 0,577315861661795 -0,754134422603325 0,47270214949487 0,0864945255598051 0,690365233375001 -0,289021657368657 -0,829267211674049 -0,15290702192624 0,667985326597763 -0,850734466671047 0,479048101140112 -0,386058714332832 0,23033542077389 -0,0235744486183444 0,144451022318331 -0,183361151300455 -0,277559791278943 0,438385087973384 0,719229877230075 0,273937621284036 0,468997020465666 0,457191372856357 0,165375540289351 -0,290402199104804 -0,217722547756572 -0,803631005999004 -0,82748351120357 0,150847752610504 -0,0964948376816467 0,731954169676419 -0,539331649654308 -0,306206185171786 0,0880152108617285 0,365292756835833 -0,393888395795377 -0,971092900820015 -0,0913080885178404 -0,340310395433305 -0,846813898745617 0,206900136127363 -0,274743483995886 -0,60057591338914 -1,09164277059827 -1,15432784683017 0,290922038260677 -0,363712911258754 -0,832946040425462 0,0440794755732404 0,514773813017038 -0,84317675444328 -0,664131442866034 0,142450519463835 0,292564073938406 -0,143056577940133 -0,905789966505981 -0,990966724538458 0,199403807970809 -0,161411604215316 -0,670744864803877 0,495606308346734 -0,555480362837863 -0,0988627390065182 -1,05889544017248 0,821735984498717 0,683848342421015 -0,265011344816486 0,390794392665104 0,730421907941431 -0,679104252407115 -0,0255140132585292 -1,24171850692177 -0,965094739889096 0,194507499421114 -0,613555781521188 -0,578380128123832 -0,0840594275426585 0,261312288886571 -0,140534858937008 0,0889698045958878 0,856234656736601 0,761017630377556 -0,223389550151413 0,33233188380822 -0,417598441650225 0,395449765291159 0,30081650132688 0,415511394188761 -0,694603622478862 0,168309723273915 -0,527145375982587 -0,199909184956216 -0,944497418955141 -0,714337383288824 -0,390166861724217 -0,349343252946318 0,772971545511997 -0,550640983630739 -1,10734527221603 -0,922060737545252 -0,417855156157501 0,20638258700103 -0,671351081207725 -0,343580595302525 -0,605852003039881 -0,94358203561374 -1,07232825126259 0,626875213914453 -0,298286320616999 -0,831800910867017 -0,187735300508194 -0,637907029823587 -1,02445086077921 0,565794345619374 -0,627624756287329 0,698587580567666 0,7091234205216 0,393836344473027 0,196748232269889 -0,627061203104857 -0,802444530821775 0,229817304099497 -0,0605242736278687 -0,619370882647925 0,698961379944697 -0,864911815048484 0,502017989374816 0,589965849038967 -0,354251131916241 0,761158116378497 -0,478913985801008 -0,672248919489022 0,119298036001289 -0,467563725488877 -0,749316823848713 -0,667875063649962 0,167888671989773 -1,18869407368535 -0,429819075123846 -0,94479129481425 0,202881397245174 0,549135142369449 -0,312783647594535 -0,924312704281085 -0,651027231759481 -1,20431720194922 -0,485985754350044 -0,736354321789623 0,650435165348808 -0,198896652881354 -0,22014042918906 -0,779379505975034 0,203828691923756 0,512686345061968 0,65756133220333 0,16072266708026 -0,774361905667494 -0,960574687892499 -0,143333886251982 -0,859728514526609 -0,695197979288042 -0,901309336482465 -0,167693453408123 -0,201676993996681 0,499996991921478 -0,682592079657951 0,0133984604830532 0,133619504440284 0,237922306072079 -1,00878397680161 -0,575074669914336 0,593529840043673 -0,458949242172421 -0,277038321975486 -0,150565645141789 -0,467063315169112 -0,526388129364164 -0,0478723321153743 -0,966774221434105 0,802700278625794 0,46095645756267 0,232218481540153 -1,20031849772764 0,67148636024241 -0,215734792986827 -0,749420942788558 0,0553798170313672 0,522306149890239 -0,363694719687439 -0,142990749736906 -1,00165315989733 0,118035169311385 0,0791350850432085 -0,488117277241037 0,597937433012483 -0,17148186662647 -0,463973956898516 0,739001144268664 -0,620885518254785 0,594596856443843 -0,552312915847095 -0,0548075934821082 -0,285614317172678 0,477172157473736 -0,82033544655477 0,0921234861076257 0,479817200155873 -0,745353215660922 -0,585751989723744 0,153192194045668 -0,414497487386105 0,143330304486197 0,815498951784341 0,0345121842034757 -0,439069423294343 -0,0294446715776344 -0,923441648725672 -0,0215135385051745 0,890851693374699 0,190846547845331 0,475791446624782 0,670073928315081 -0,501604080233569 -0,735959579468688 -1,09641379199794 0,249472146953197 -0,478967418202589 0,805562511352902 -0,177755403052498 0,685272951432099 0,691376944472975 -0,476397911388485 -0,654680704903645 -0,728901748364907 0,0874585487352935 -0,687889142585804 -0,62724808481668 -0,762319825226208 0,303118983684011 0,535950778449454 -0,363649875920978 -0,236827299615533 -0,0718541336215474 0,355707802692336 -1,04572558373474 -0,410190428766694 0,0731241656501486 -0,992301167695359 -0,824764874368811 -0,0848215982341619 -0,0932321283071697 0,6124758632518 0,842767245039327 0,146114097461528 -0,761841861743209 -0,309722549058849 -0,705945448092474 -0,780603428923124 0,292211682966731 -0,260538769009605 -0,581721984883489 0,513141522638576 0,133838009207931 -0,456844179111176 0,303799387417916 -1,01825004589644 -0,318182257133514 0,364459663080805 0,614595018844782 -1,00030065931938 -0,664470423384482 0,589062866602895 0,240905718181141 -0,982842582185227 -0,647797829320678 -0,400489659017 -0,197117791787954 0,315641600223874 -0,628924933897512 0,310905650346465 -0,906150949641537 -0,4826231010113 0,8255234341378 -1,04127396362487 -0,255196190111437 -1,05409752278045 -0,503857406068733 0,0762959451913627 -1,08775768693099 -0,677974470710085 0,72481090085719 0,932317887602069 -0,276815679450549 -0,458871721092131 0,0372558612949361 -0,0778364258434944 0,224741625258563 -0,826223556422155 -1,06219821849933 0,846389307067101 0,736638385697587 0,578748614934541 -0,830570635304061 0,945376799982712 -0,514372307081091 0,298178490782026 -0,680437790611249 0,794334378042516 -0,198120483239782 0,725649319540922 -0,911777549073764 0,143908490636397 -0,987117747980687 -0,845773659496927 -0,225163330983432 -1,00192885375152 0,770967057791931 0,366342094521655 0,690227438049254 0,313287693218236 0,541561064716869 0,618252497904185 0,525318675549216 0,430526808735843 -0,849747517414871 -0,555633989496204 -0,034100864710835 -0,121657293850039 0,0222212163737415 0,399852854152683 0,166702303715871 -0,525218933472348 0,256695293884761 -0,533272471919645 0,55400547381535 -0,454386575733556 -0,621416407721257 0,903593669436479 0,630278077377779 0,586877834525608 0,820677987001811 -0,103768054933611 -0,545114578025296 -0,637679736232265 -0,712086404300933 -0,218348092067064 0,873756425661916 -0,461467596887878 0,734415135809051 0,0369699066377851 0,186315395385882 -0,910598439404259 -0,518721627547913 -0,257441195128331 -0,481219394904865 -0,686913829095507 -0,859930614281973 -0,215546360748176 0,759943371857873 0,971425796667347 -0,76011648011377 0,379050952010671 -0,291379536482115 0,402752115955999 -0,454060792726144 0,594997668438073 0,9617669740311 0,637811208658107 -0,240508408302052 -0,552694715859145 0,814601236063986 -0,941018162581131 0,782410367878673 -0,750219204154036 0,475048607507668 -0,449189854403973 0,122376168850143 0,170581863788934 0,12977767616644 0,456508057963774 -0,449472555384538 -0,460967644938699 0,2963619540637 -0,893423790654307 -0,773561670301265 0,13155107923524 1,03885770165972 -0,491361177468665 0,93482688745049 0,268400281222215 -0,60810233452206 0,637211189640888 -0,87439833096893 0,570521647787345 0,371880963409117 -0,585374752635557 -0,779693721719912 0,0973197753123998 0,868285919289412 -0,261342067107984 -0,237463933454946 -0,726842818300024 0,698610687045062 0,151737098181392 0,175951255723227 0,123357643442299 -0,729901787789728 -0,764108910795833 0,242214662583866 -1,04128602998806 0,106042115111853 -0,0903506295154963 0,503104874265777 -0,759885131310658 0,431497297518808 0,688080498840051 -0,919968384705132 -0,389542442388084 0,183414863354574 0,473515251165961 0,557387906605146 0,39855589930759 0,721293633997287 0,465069068911027 -0,961101930274971 -0,890652504789545 0,858194998452123 -0,847871955607384 -0,18754788948729 0,0181342977832022 -0,826210942642799 0,914236103337104 0,275165854947754 -0,628006184263782 -0,375364561100941 -0,721541539172215 -0,202958364607995 -0,958800732570008 -0,198192610491967 -0,0202594203132566 -0,359911640292421 0,657453465449172 0,227447425290087 0,897799748823667 -0,892277795084651 0,443483990761872 -0,886608106081262 0,934122491430865 -0,83380911897203 0,689680043209069 -0,620253782284077 0,643919380479587 1,02045552044721 -0,530674136205156 0,23626075861262 0,430641584453052 -0,444702709740532 -0,779981753284465 0,0949706362269455 0,0399555489004026 0,275770122602329 -0,829970685239354 0,559343302703481 -0,640719223529031 0,797313852754269 0,172036764197982 0,582546297385159 0,0241550496248951 0,407588550771612 0,025916469445975 -0,118732963132688 -0,986464725621118 
0,834180050394417 -0,780856564723622 -0,141471208761267 1,00608121534392 -0,753026321301577 0,889943874317409 0,419224825610316 -0,226904970566678 -0,387275345775394 2,42007530547183 0,62233768572307 -0,308560015823523 -2,17381769751211 -3,04762029974446 -3,58239569721287 -2,2465707806184 -1,52077170824734 1,41978688332757 2,80677957347466 0,667411172548191 0,229378216079726 0,855880453269436 0,782074480492768 -0,411539184977289 -0,826940030421892 -0,0307887015593311 -0,785325276923068 0,0288971021854391 0,92427990794746 0,135433394793364 -0,39233373084927 0,273061734820118 -0,0796884237421333 -0,542023675168277 1,27739534664857 2,75961589673372 3,3488148010612 2,14873831944393 -0,207116813475389 -1,97145682825185 0,386937979829699 -0,342740474679272 -0,0235458898215274 0,914778365204238 -1,73846609244309 -2,24991615520584 2,42460071530848 3,1488247730125 2,91260500425455 0,799760667838056 1,19242225537218 -0,824180514071431 0,258666270185204 -0,622852632413515 0,157115154622199 1,06507546191729 -0,523787422575545 -0,680608886982156 0,905210885550761 0,41144761962351 0,818026636800068 0,00201018612806835 2,0322415869985 3,43402604680351 2,08300789575056 0,384983827581165 -0,30202325958719 -0,8712775433437 -0,381064076581277 0,145890977174556 1,19308451259718 0,573113881300917 -1,09452050707375 0,0794997596234401 0,469115012785455 0,947782000217255 3,34180090793928 2,44122728363649 0,842570068722536 1,08146733230327 0,377273241514299 0,11800220098653 0,906036796006755 0,262033114058571 0,315547276773765 -0,497409979971102 -0,926082781939175 -0,331603668615723 0,623213949446556 2,2307884591641 3,53667121627883 3,32336054040859 2,1675302090177 1,86462615515392 0,0478508301907114 -1,11925529761391 0,457752461055188 -1,76963139365105 -0,388957975221818 -0,949526799313581 -1,35340154122568 0,329326885070053 -0,258535739601689 0,735106303549937 2,63809196172062 4,20843653770098 3,29421356062023 1,73869912165172 -0,107449315625293 -0,146144036183691 0,266063031796923 1,00623425628027 0,869024709775594 -0,818866638216199 -0,846056979321361 -0,172619048782001 0,128092460031637 1,84637881056729 4,08749887612355 1,32872765508505 -0,242205536582751 0,41306961682886 -1,3879251427757 -1,11266411309765 -0,542330601271378 0,0945688645415061 -1,9722109516468 -1,00138027443656 -1,53020280884073 -0,176656182236479 -0,651144936804416 -0,770926955538413 0,486133755322058 2,72396748650489 2,41140280559839 1,85572618618312 0,0870952672482615 0,12713593889373 0,91990479740363 0,480978611153982 -0,410021103072994 -0,890142793221799 -0,968072102705848 -0,251332303711133 0,339918546519566 1,98307326342809 3,43927618041878 0,481820426351809 0,264164917356113 -1,89648905622774 -0,681623219032629 -2,17339832925831 -2,02964565336279 -1,55647714429856 -2,20136078174164 -1,59760050162295 -1,66143183197884 -0,496927929615788 -1,67816015784901 -0,208170091669688 0,207678207183467 1,92802386463368 2,38163318271444 1,4453799323259 -0,277379851336869 -0,278603952787832 0,569673710628496 -0,337161679583212 -0,395510892743836 -0,577515997868483 -0,882072648752616 0,934709858225868 1,031544652092 0,942016580852811 1,82098843690179 0,225010071495874 0,610504657431849 -1,55742254928781 -2,18647822420598 -1,17073525875647 -1,4534151716957 -0,741151804199967 -1,60888960201987 0,633658215805951 -0,675193672243444 -1,91199574053669 -1,0919736694873 0,684487443606454 -0,335863856209495 0,822028034021634 2,00364944122977 1,06113607338708 0,792100134420305 0,0949907079951421 -0,542044139106267 0,00919468953890414 -0,46478328243181 -0,147372534106245 -0,473584602679277 -0,45659278933525 -1,09452313896593 1,44426436521204 1,52559130956838 1,04309282828364 -0,24995633919665 -1,37562260548314 -1,82641951816489 -0,382335349219625 -1,470323462606 -0,0892629925545565 -1,29357040188221 -1,2520513098832 -0,308147673658889 -0,989817278637826 -0,23022014859029 -0,336095057637581 0,44673977795463 0,762233836860573 2,03209749977624 1,50908801791019 1,79308476377839 1,40701185163359 0,957634883981823 0,369583306090159 0,230982813895966 -0,052898179121657 -0,128025234085594 0,659536169747034 -0,937390639051473 1,82116325568489 0,658817258980423 0,977271282535208 0,566386175722819 -0,752190051134326 -0,512534438767777 -0,325630125415587 -0,61722671293288 -0,235866188283443 0,032902842858728 0,0187642560628762 0,919287835050882 0,0319798972839046 0,861957453828594 1,77550972833451 0,672423339103476 0,413840661302311 1,74668293166373 -0,441965589484348 0,941971093474267 1,43191881331558 0,797340758993821 -0,16269238458638 0,148144763408388 -0,355149979581164 -0,537736537493231 -0,0785924526097229 0,214403304106168 1,65284216640495 0,040633709439597 1,31459361028243 2,07099510557602 1,03844049806072 0,450537176218828 -0,577207524176554 0,513645721047898 0,354529815120684 -1,32336910796882 0,233028168154625 0,583973987248824 1,61873769046413 1,51514688674174 0,194879445333322 2,07807809797119 -0,259019768986107 -0,418936376640401 0,112100445415377 -0,738177165600613 -0,602791300563829 -0,833204767009825 -1,07792557331711 0,0711587267057876 -0,577599619861909 1,17431021325427 -0,287329892790903 0,500250840598364 1,72210039718275 1,07142486297873 0,750630579426347 1,4986662010688 0,418404082965766 0,770825391079441 -1,00797274063546 -0,44060861081259 -0,565920874213117 0,293497654535533 -0,718498567580328 -0,172203545374172 0,441060875164714 -0,288385849321469 0,685187171282621 1,01649050878827 -0,547102743002398 0,526664016222495 0,310689866230482 -0,77670930532191 0,908910091809357 -0,521493532048204 -0,429157613531954 -0,336402204575233 -0,191190883074981 -0,0963855585753961 0,565930338368609 -0,506678578377751 0,117705986735223 -0,719785318846802 -0,114475530010996 0,559130603632557 0,728965918699415 -0,651381046958248 -0,52603486088626 0,439655915736832 -0,313044395673724 0,438881231070877 -0,456681411852602 0,770083006137061 -0,0363798175292206 0,580963508887589 0,649550135530865 0,0480861029831361 0,0249963098696523 -0,200015261866243 -0,336266173662366 0,715023859753824 0,393916203552292 -0,658353385470063 -0,81187591821737 0,243441918945862 -0,799618697195926 -0,223155621411457 -0,743468220833451 -1,06117513116389 0,528781028682847 -0,456589333529411 -0,32915832458664 -0,691907350860578 -0,143297447921943 0,305189968848742 -0,848250086860694 -1,06569083700884 -0,560693840878167 0,104988598015766 0,822503329277046 1,19868672123767 -0,251336074889775 0,768749876775898 0,000179492876800963 0,513375799036897 -0,851307373051505 -1,3220254249818 -0,614925408314389 -0,541700957058403 0,247990602299944 -1,41516026381264 0,0229377935347682 -0,914301484507995 0,433795866189556 0,856140929070698 0,265745882890815 -0,490517641256574 1,13533732730412 -1,36942825284753 -0,448708182667145 -0,774930056110165 -0,400493942322097 -0,71232847352618 -1,09479235415796 0,482227341402511 -1,14050749509364 -1,15880061687398 0,22482599418908 -0,043671693671331 -0,729134711651417 0,496155276351229 -0,887867898265011 -0,963131370722696 -0,766540713703069 -0,108333501129589 -0,758267292108008 -1,19670002797639 -0,951834585594749 -0,321766445756314 -0,665733912292031 1,01646454097764 0,421323223377427 0,734503344490942 -0,270773144290049 -0,77287666367087 0,72552601999371 -0,542432297892986 -1,28654920867172 -1,27573212582474 -0,655930033577854 -0,155141456038355 -1,32400030501138 -1,0958296762096 0,553805047944303 0,113498662710446 0,201739464261697 0,0985512868385749 -0,4911621776845 -0,177766149369605 -0,22864834224152 -1,05242612782638 -0,985795880668089 -1,23126669797629 -1,43340201990348 -1,05955588811608 0,885534474995581 -0,591278018168092 -0,0196451765422885 -0,939743503002918 -0,430019332072025 0,573746043803321 -0,239649412045001 -0,769659535484465 0,695169851759453 -0,589396124082268 -0,90001892294604 -1,61630572539257 -1,16850777214334 -0,00906350288309426 -1,22730422580438 -0,348129826037448 -0,269088277072235 -0,557087641103506 -0,67583293844005 -0,513313917604882 -0,0120660933440979 0,519282374338915 -0,551251888287 -1,68530866382381 -0,12679342704951 0,0294897019331433 -0,238858361031372 0,46177081634954 0,990131633465346 0,358216166416797 0,116347995893083 0,165408115231939 0,0787442188589263 -0,0269531715957595 -0,364992665898354 -0,548153216044717 -0,979774208139839 -1,16186137936543 -2,12507927207179 -1,85159033783818 -0,427302816039714 -0,408788344114143 -0,704191396281739 -1,05696425648215 0,485542082063751 -0,532110120935142 0,0100141009925288 -0,348039960886775 -0,543987181462662 -1,1680952687984 -0,363766958631222 -1,31985792069573 -0,0529162572118041 0,351775374965973 -0,412402178350243 -0,954954529214495 1,01916949187814 -0,208689883872326 -0,862762525075072 -0,337129991850069 0,616835732983249 0,284536149164702 -0,487561649813606 -1,38163297032906 -0,974458815276039 -2,06302356601368 -0,412991328565397 -1,5666287971241 -0,0611885530522624 -0,723667425452386 -0,896098433634721 0,246915598551279 -1,02964607251604 0,615519570646481 -1,33743086426654 -0,0305686759421384 -0,357991414978825 -0,43320838893638 -1,62458746407117 -0,62258138506846 -1,31727954503138 -1,13894419064623 -0,965991719373726 0,272966107515511 0,600106353522341 -0,375368503874214 0,46415949970925 0,431441243186148 0,760091442348518 -0,138856741007001 -0,2074831971489 -0,160179858585284 -0,837479591359901 -0,684807017761274 -0,915540701447468 -1,60263237843004 -0,374064899625559 -1,44136132591458 0,0468728981903092 -0,401771125289933 -0,535547124438407 -0,800789662168627 -1,09662378840508 -0,148969448289854 -0,0551439443429914 0,36224150245178 -1,8016258413775 -2,09721569289361 -0,25394613734351 -0,307163103302913 -0,181795630713671 -0,114743366010575 -0,825353557914701 0,0224880526101641 -0,655915169352873 0,221319866087204 -0,168338181746502 0,860381832176302 -0,663835327951147 0,71322955747579 -0,932606328714202 -1,1396068816342 -0,545393473502696 -2,38642776326741 1,3762566579234 -0,369576138033356 -0,678827960603976 -1,11674040005521 -1,02388422673259 -0,0562661241725332 -0,223823876224108 -1,20783514801874 -0,164017885270233 -0,115760750006392 -0,950915576901637 -2,20304508560167 -1,26477816677991 -0,213461153823941 -1,32119349013342 0,526243254142563 -0,681754592291672 0,796142359953887 0,610810988877866 1,02276015615714 0,585318954672867 1,54785262778586 0,135967858977867 -1,00234924749226 -0,607826211010132 0,782932474473041 -0,981108235781616 -0,835631005736473 -0,272115782965669 0,268343575790067 -0,367069963054954 -0,584967847676336 -0,211914130707574 1,69552694363135 0,419350848706149 0,612430585906647 0,161403046224145 0,850007261090761 -0,712213484818815 -1,30164922592455 -0,654221137683662 -0,0795019766374405 -1,30766643714233 0,142720691816386 -0,294351396572268 0,00678453182338301 -0,246762137978209 -0,0670254159994488 0,0761020124692747 0,0963488169508712 0,50076987012246 0,0842568617269211 -0,789959546116633 1,28849775809806 -0,258681542943251 0,958619659131937 0,175305741177958 -0,710883211744073 0,495164245486537 -0,401021568803412 1,50450094071717 1,70205394655148 0,661250540671061 -0,394517525457581 -1,03795849303856 -1,42356322495601 1,10183991124262 -1,09069814138561 -0,528397985109297 -0,120842290040721 -0,59536143746883 -0,436264480834422 0,943494713560659 0,773492894887387 0,561209422690583 0,672740740110514 0,815804866193777 -0,800231288509048 -1,34842450864249 -0,884682663926544 -0,0918621811034046 -0,0128330036450976 -0,488667330320031 1,01826456520985 1,53569867187658 0,0430063295832262 -1,07550819293637 -0,340302363485165 0,212094475792894 0,897629115408802 0,155151769774929 -1,5332900385456 -1,55481907018568 -0,294215319561606 -0,137854962775898 -0,462057654742429 0,705924569519834 0,176606051029449 -1,2252257321419 0,442099707157621 -0,386343123958194 -0,321594345484343 -0,0805297663679981 -0,818018005991915 1,0688156202932 0,67347411649246 -1,66420030969296 -0,647014913379945 -0,470387054892797 1,77985811031119 -0,444661757396355 0,55333601823051 0,323097789260702 -0,817078335493189 -0,271021377392144 0,713863434952561 1,1817102813627 0,219776684889145 -0,0610947687973343 -0,753714841404965 -1,35486352003846 -0,561982833438293 1,09832853599736 0,287420063558267 0,206562257967882 0,0098604183781636 0,0377640563210587 -0,742978019871956 0,948818765591363 -0,169830164787735 1,07189621795042 -0,379387474092979 0,455633042688214 -0,695834653026729 -1,22695377078435 -1,32984837170939 0,873154718534419 0,822719758277096 0,658963649162061 0,647313794252062 0,70748747703631 -1,26622358296492 -1,06633022624172 0,0999025731799175 0,764966549872083 0,64970022797181 -0,131015553569245 -0,166649605014826 -0,731464516455255 -0,807493422454601 0,441796362480651 0,895115381926572 1,05608222326798 1,62676043312555 -0,212376852646487 -1,50239012831118 -0,583047249023313 -0,897432083131215 -0,080910580923124 0,418184116868359 0,729156467789581 0,0553914015135023 -0,360047070927262 -0,311105454874671 1,39405345245589 2,45473295041115 0,0741474125225582 1,37466769847557 2,28798462298076 0,72084868878564 -0,449146066988332 0,600535399718314 1,13437213436099 1,06786551251026 0,861599964106312 0,611148057808055 -0,042286473379543 -0,456782366325376 1,15287700296267 1,00063350914308 0,454104771230206 0,0819655221699762 -1,63983140990947 -1,7513731044 0,381067431574029 -0,225755319539216 -0,280947599409918 0,586865681132372 -0,473853404916972 0,932141206358338 -1,26708301367922 -0,686726580380241 0,714758055138263 0,763977713513501 0,0895624463432713 0,394268667361785 1,40195975936208 0,705446099040451 1,79041143132562 1,96073242088088 1,7622674151494 2,35590342319848 2,10692136593007 0,973496013711091 1,01665935491561 0,136977959557729 -0,744345055370683 0,0832533886319063 0,190295457615995 -0,165957821567145 -2,09314782873968 -1,94899923160527 -0,207882059135952 0,127766093598163 -0,640807254687605 0,608563963720099 -0,326017727506743 -0,192873937125135 -1,17195579268505 -1,28290491512285 -1,18401052878083 0,0116958749777689 1,49247817806584 0,787383943710193 -0,648818866951288 -0,724902384947569 0,795075743150631 0,509977810546154 1,125444265524 1,86570470780795 0,276236984220442 -0,296433026188132 -0,355010038534576 -0,502587080725565 -0,343338729228183 0,177417671953379 0,383369913645779 -0,181675145245071 -0,579714985956264 -0,396787926285163 -0,768377310463673 0,50768589959966 0,172166710077462 
-0,592564070755643 0,811549307813027 -0,535614138554469 -0,396248685007199 -0,504824779219826 -0,986701002763223 -0,019815557551334 0,767330692976053 -0,94398091219909 -0,868598601213791 -0,449639797543954 -0,566072225368196 0,0964681233218336 -0,00949200284028288 0,917010863178352 0,67572198313851 0,630072901299579 -0,7381787732702 0,740734591365981 -0,284310785249826 0,231331277922034 0,327046913567716 0,500605614769577 0,234407407803664 0,0333899201800155 0,594854187456008 -0,954359470896576 0,268193187421068 0,336371382713797 -0,112499891900828 -0,0490519020232811 -0,335881953542448 0,601829018742407 -0,768622642411319 0,607771096067731 -0,81670279101821 -0,114717264642574 -0,648719519248254 0,000708962035669648 -0,550676303414125 0,184188665003437 0,120124046941481 -0,557167451987085 -0,922012778199933 -0,977896383696765 0,00179662289971169 -0,952139803882397 0,0604728366249071 -0,752341409556787 0,515099104494478 -0,815336519811637 -0,0665031210432109 -0,533594743065333 -0,220700916672556 0,882083774482636 0,0600738391816088 -0,700547358863902 0,234206901389589 0,571678893930173 -0,0997212196466381 0,971947858205621 0,719277804532124 -0,559723782266701 0,16182509864736 0,193777423469946 0,884817134276429 -0,160138109383478 -0,138029654343248 0,326408559212199 0,619890065421377 -0,346228110417618 0,207386003615571 0,234829060012251 0,202940202012307 0,242589044455239 0,73652051409369 -0,42450066251335 0,0949430031049483 -0,0614126923862792 0,795210652038193 0,338403473631783 -0,135257446247248 -0,0696274484183471 0,758250791354462 -0,32690844712825 -0,991665765658924 -0,805082508821464 -0,175112931377727 -0,661310617798207 -0,476960174355095 0,89635941801978 0,664420029690363 -0,14093744540797 -0,830316081888207 -0,466019729065607 0,58975460635458 -0,108741239292596 0,544648206793831 0,0860746671839657 -0,827449141703055 -0,837545217688527 0,208639404809059 0,690786498435649 -0,511650942747691 -0,268401369180606 -0,152848264891432 0,607551736599995 0,158101611126052 0,436703210338322 -0,970057798248008 -0,569830134796999 0,148641307077123 -0,740545077358482 0,760651382372944 0,552652810410028 0,0992474895489725 -0,232824046273483 -0,309405602713351 -0,501327753874314 0,182900904330126 0,724694363475626 -0,976682347125988 -0,456492042978557 -0,135633490587681 0,869227474078244 0,161093472664438 -0,545728218069575 -0,041644407663334 -0,346515293610948 0,583117338407286 -0,221757106820973 -0,0237107661058141 0,95501856785478 -0,377381887630538 0,529497093179917 -0,978377594432706 0,0849295886737809 -0,62508323030817 0,0135966298299192 0,805844034028159 -0,615711757914844 -0,0034699277846953 0,344054160714861 -0,735169620185792 -0,944703755683266 -0,260102708945746 0,360242136637105 0,0339043340973659 -0,401202234114762 0,387022254529129 -0,168984184400592 -0,705044838903035 0,0318576522498881 0,91041610569584 -0,48210651207996 -0,88617712997538 -0,311145382799219 -0,202914790113679 -0,488684227235716 0,464848173058075 -0,698560126555319 -0,520094506694371 -0,477650340208842 0,812649164365381 0,12271721705102 0,370306464589769 0,163281243449941 0,596205047387325 -0,737337351833478 0,499359598623371 -1,00300626966028 -0,618232476638792 0,651332098830056 -0,278706629645324 -0,211784780223187 -0,30367818280717 -0,344820561145522 -0,774702683862057 -0,252859672916945 0,220913112846614 0,70716200476867 0,366020007093742 -0,63762804853727 0,16257839281799 -0,317239690330471 -0,451144409045013 0,85260064252541 0,899314476796225 -0,956704631257853 0,240973644193294 0,375037444492189 -0,747919335745079 0,737317622218439 0,442265690818988 0,430489520904045 0,842875024443997 -0,481164255486362 0,527831384636019 0,151089277591198 -0,306516503259498 0,548895613782366 0,856688305549059 -0,163699171569671 0,162833795151601 0,443238032112693 -0,559361230215457 -0,376243829545707 -0,543789536714647 0,147833075389995 0,834374707612024 0,47058318567961 -0,621533215138448 -0,982071601709949 0,38504093716657 0,664949431008739 -0,0910353791830464 -0,880090627646093 0,303090642600444 0,16536892501407 -0,409047280562005 0,442321223134179 0,218031858403482 0,549721831489483 0,00730097324509812 -0,810570626445494 0,781679305659656 -0,351437968446076 -0,788179256584664 0,259680501136774 -0,00173093413990454 -0,787459942130845 0,179537600063393 0,102331967241926 -0,945323611951552 0,653593535471282 -0,940222884960185 -0,403721440355687 0,246308984350339 0,715253483707932 -0,734532001127642 0,976205861907328 0,461447355971459 -0,290354476733647 -0,801498426540328 0,70891058687337 -0,110713308614126 -0,791495501075535 -0,64373478022186 0,675760689283375 -0,506707692132964 0,725082397521322 0,224263045259834 -0,54684038185909 -0,402629279897093 0,256218004389992 -0,662445019853362 -0,760298676637243 0,825045875958135 -0,0413415108524002 0,685072700526816 0,804518164632488 -0,614183804563939 0,193615601878138 -0,743102624302438 0,679089459696804 -0,58279084623895 0,35008054336453 1,0467425740438 0,817805634124364 0,773937258677947 -0,618047270321911 -0,101619733305082 0,535041308938094 -0,173597327553255 -0,4272718761617 0,964752777792594 -0,544446299321938 0,405939466283028 0,306540194141249 0,294957110952955 0,655669833389364 -0,627262712065745 -0,416104358241088 -0,24782868446266 0,25853529121643 -0,0149628984919278 -0,305406930462467 -0,487923694665244 -0,219539204109808 0,305665878905311 0,766998424427459 -0,202535862838923 -0,6840298400191 -0,84378881842871 -0,436969470189435 0,709212989108116 -0,637827437565799 -0,462983086011782 -0,437252729472249 0,400875202986082 0,605092189098365 -0,854993182150985 -0,501120943604723 0,895776095149504 -0,813975746232776 -0,0130485989851575 0,711320199809156 0,601785550196674 -0,95949232470002 0,366524022789557 0,946552795486391 -0,134012185183949 -0,455964236188303 0,664577416988495 0,973512696135092 0,40513595012061 0,78984025395091 -0,537795677010061 -0,0144523498967229 -0,251187699690019 0,710036203977405 -0,122875010297417 0,338681526700626 -0,418735115420665 1,02755279683348 0,568380499433041 -0,45168205106331 0,54063985696115 -0,517008840012941 -0,0164240305132593 0,560920358060831 0,862050835287082 -0,0677236996042663 1,11800392060352 0,790473706637729 0,505161408900182 0,844917568831054 -0,295113142578973 -0,359143370194704 -0,601223447099972 0,345383760076752 0,101920896849997 -0,533865326104182 0,451833169608859 0,382159692418457 -0,0276355620954184 -0,719140083007546 -0,31739020909017 -0,970620220064661 -0,0504673643960823 0,805880614023607 0,915440833439206 0,51194785767211 0,777741229290363 0,620134654759768 -0,0803713607500291 0,0290223764903516 -0,936067688121346 0,907475579845839 -0,462856813472065 -0,62122703753786 -0,730338316807314 0,293316826259404 0,0608275106472481 0,728738881282407 -0,962603858055109 -0,988752893864277 -0,412716373267409 -0,986963602449106 -0,485876233484886 0,586405841403438 0,103772208027025 0,844838362553828 -0,305599280914643 0,448208645084721 -0,299466050384629 -0,652483172855453 0,784935412716454 0,160966505851372 0,0962293866391112 0,273161077359757 0,869430116771701 0,418256097321699 0,571769401434121 0,301292172933524 0,779364195721692 -0,670693155388588 0,113919069837148 -0,604854749340368 -0,0762343884082052 -0,35658599953606 0,855159389422519 -0,180604357395102 -0,850738147695277 -0,876128158132814 0,199770905849943 0,965101420749039 0,407836584141222 0,701755709149926 0,322055826068098 -0,01183482207885 0,681372100767419 -0,388525721032317 0,592259001274369 0,340283647449858 -0,240312075274225 -0,764052134350713 -0,0850628969575417 -0,713138979575723 0,0031778413541533 -0,533430868230835 0,263551963050977 -0,0603094642904425 -0,195823007810181 0,148938497669783 -0,572525205129791 -0,271908576879083 0,677809564165231 0,931511404477116 -0,961822718923523 0,760268368557984 0,000725027551871575 -0,701446965741458 0,247859935117822 -0,945198116215167 0,793131719130276 -0,762536922319612 0,588661293980455 -0,447670081050371 -0,76727444623576 -0,41559964780676 -0,0752434117423795 -0,991201810949218 0,932513027796176 -0,603445462102515 0,729706988038103 0,129786848974544 0,810548984748557 -0,918567259076755 -0,411042459048708 0,656083705144353 0,446849330331353 -0,326520198984227 0,328999675785575 -0,690233926722164 0,251870828130287 -0,0263441979770855 -0,885336972383528 0,122040881441901 0,872149367589048 -0,336563147544493 -0,519826022356647 0,671008535943619 0,730117016700024 0,535863296901121 0,900146298300016 0,46230321989047 0,518123049631077 0,586364105764352 0,736812560390898 -0,443458343529838 -0,323885582744823 -0,369870018623104 -0,563179369791653 -0,54643549526067 0,647615653393345 0,221631713079343 0,13154446205143 -0,355442753095337 0,625751144278397 0,235205263983628 -0,112651855110992 0,578047521503115 0,426330885727676 -0,413448592579952 -0,488653118607592 -0,512244819343492 0,226453447598963 0,14847116294184 -0,0388468666480207 -0,0201601904284703 -0,691920466459687 -0,326171925039129 -0,173866468497126 0,761937621576846 -0,602342149115684 0,443111731942991 -0,424576520972595 -0,476681725636758 -0,527278308161714 -0,533709432136154 1,08571917265046 -0,538806964689857 -0,398584714836992 -0,875005483214554 0,137426482337043 0,0266993743841213 -0,542445962344508 -0,0608810249516758 -0,280223680189489 1,02860748285243 0,892101963904063 0,606191984559448 0,585309044352347 -0,269222872648522 0,962250266718832 0,0691860782095814 -0,5742833882899 0,350927256046085 0,193578863467462 0,520351901185203 -0,667933462387052 -0,543290431670721 -0,228820048767547 -0,214678752251493 -0,605600052569948 1,1297475781314 0,821689847578849 -0,168481163391524 -0,594148648948643 -0,663561576959386 -0,0743348520040357 -0,151732587252242 -0,675075876414381 0,24512040161805 0,236676842113774 -0,649763952002555 -0,0406578327785221 0,235938829459559 0,369069742027624 0,539259265930338 -0,9021632607982 -0,673746448645274 -0,491680224881448 -0,0243841620951122 0,155181767426087 -0,241725414163921 0,090196092313219 1,07911454110665 0,781381817407718 0,255232834335207 0,0518036901393276 0,13797287257229 0,273176460255606 -0,00516335321428472 -0,895431073260798 0,637087268306652 0,898493563597305 0,786796825035599 0,778678810266324 0,0877601657831876 0,265151138132641 0,758149730800584 -0,400082853286265 -0,681360267419469 0,147737383037569 0,101725826784886 0,284441850541007 -0,581291603561942 0,587415380904641 0,637730061041299 -0,830122773066548 0,218202683305712 0,999064877418216 0,706878418521262 0,453608084496402 0,984220664184313 0,941901772368624 0,749158697614708 0,66608803394197 0,595892143201944 -0,00926191222379907 0,770060340360681 -0,00185665395812477 0,0836072776499202 0,415048201745331 0,719690865056043 0,427585841689896 0,299570010446995 0,142938907162052 0,639606816112933 -0,49884288663918 0,0876772125809827 0,429983963909104 -0,759208501270408 -0,805827850359116 -0,63519876245254 0,786109190347586 -0,747599395021618 0,942521481708612 -0,876707573300804 0,520547160549206 -0,288531408777887 -0,488957029407844 -0,92804514806587 0,0497215640541204 0,799858754082357 0,147295290537948 0,549195575596853 0,456575450965929 -0,898847598946752 0,634063258340611 -0,925271797651587 -0,796664925868482 -0,904782533395106 -0,973896660334107 0,477929394627118 -0,286218698828815 0,470059323871202 -0,169629654027977 0,259713207384302 0,553885635624437 0,882612768039241 0,158693226335256 0,887895996723976 0,134006245340137 0,132021365868383 0,893016175064611 0,822756450562322 0,53763950595142 0,128293087474955 -0,751588624684075 0,664238545356544 0,782551749790656 0,531130836542171 -0,901671638384991 -0,716655696850604 0,18660058415632 -0,0987555666895634 1,03631101493603 0,576903288464491 -0,403535180306016 0,794898391003434 0,756723989229485 0,0229926939064684 -1,01696210813138 -0,569387285915563 -0,16467301472451 0,139797945266833 -0,898136250562039 -0,405794022961145 0,523945179745993 -0,753915211663926 0,342445085034801 -0,320459445930174 -0,347589130452774 0,671880161111761 0,547235791627218 -0,367418509543606 -0,0324727437850476 0,939135957180363 0,901049680082854 0,345211312439676 -0,919264211517322 -0,586975874390127 0,857045071352751 0,946560608630348 -0,685254222745355 -0,352477134010161 -0,924054310305916 0,686855987112355 -0,735856340525356 0,857255720255096 0,532703554943459 0,347118103130331 -0,371893844838147 0,584331748897074 -0,933573623797426 -0,92821948860455 0,823665274786814 -0,322802828418466 -0,738122374052661 -0,244360202949975 0,780109167628787 -0,0190711556570875 0,608816428536905 0,996397622096393 -0,670933205502961 0,117614879678844 -0,127813811942417 -0,571907812294102 -0,146880165029945 -0,322934553225346 0,942619087072492 -0,997939771502008 0,675595744272214 0,335950588287449 0,816958211604239 0,320521404493288 0,131725706132984 -0,96252293866449 -0,808591922368149 -0,79586454337343 -0,0117859182990541 -0,745140004790549 -0,728842470441808 0,614871105128113 -0,326650404081987 0,998796544004064 -0,983620282956139 0,0345187548929957 0,647871488291985 0,493676821284963 -0,198746373146374 -0,697656531140075 0,650730166154459 0,128147695589681 0,520980795480545 0,0341381401726911 -0,154446979289757 0,923178241414152 0,611858398725657 0,0931963718258122 0,745796517429635 0,680693310702532 -0,0411826968041539 0,600748453491859 0,864479713004457 0,424747021474952 0,657573490603718 0,318278621576458 0,704339618165567 -0,413698571163991 -0,145531652878288 0,719053107553645 -0,566282632828116 -0,970969518030076 0,725148427839014 0,4778310199398 -0,253266222221603 1,00432670962876 0,321512626201162 -0,659208696963542 0,0677106161202463 0,8120008023913 -0,252956921445326 0,228050019943453 0,772890714110501 0,633937279573728 -0,739894853767523 -0,584493321161786 0,714860266860568 -0,269607454507448 -0,498277831772497 0,143856579812211 -0,692645609278051 -0,0327047585670649 -0,587044510932026 0,319469195604442 0,260756971585999 -0,489525268879984 0,64463794073728 0,143949022319293 -0,741483108611074 -0,35559517185757 0,262811642039568 0,0174276481791587 -0,340763625610121 0,0912163184449393 0,868892943866148 0,646222009339181 0,426828063686927 -0,9254656476116 -0,647460548928518 -0,196728477188771 -0,449930516752704 0,276467782092067 -1,03938910719915 0,772533290971853 -0,250029958888528 0,589580223394655 0,785384957611001 -0,782981334377738 0,0536831920400776 0,156558443184495 0,590666678560483 0,00881276400882846 -0,95496074192256 0,553906604434439 0,289949132438008 0,347674035748153 0,535866451075722 -0,664386462535912 -0,85077718183914 
-0,817481560119412 -0,641634464254966 -0,824219764754818 -0,92851255178998 -0,565054165599892 -0,395134882653007 0,787630798927114 -0,339343109672511 -0,236664000832174 0,795187537671666 -0,21977123993934 0,0698409201772563 0,564012532417865 -0,729916177036687 0,633299107733055 -0,45949622571987 0,0209635394313436 0,0157348951241185 -0,358321233405799 -0,456354769444687 0,691090604818067 -0,259789176937417 0,355723850273759 -0,990031784080709 0,00984017693254221 -0,0125479615266028 -0,795827512116374 -0,0707543658249792 0,0738050108138193 0,805949425814495 -0,48591202579414 -0,891047139780272 0,0866697291766632 0,931201675135523 -0,817155643194107 -0,514923422769068 -0,582729070823283 0,203894842102468 0,630298103338196 0,293697726609137 -0,0115013160980826 -0,147576545782677 -0,0934576281869441 -0,652541353450749 -0,64560200570816 -0,749946622507925 -0,92193259282872 -0,271726313317232 -0,575679601836521 0,00278639989054776 -0,758693182832228 -0,656515442143151 -0,10846925576631 0,77223666512238 -0,556544483254518 0,443251127492068 -0,0014867291399424 -0,83228891922188 0,0670819056292546 0,449132147666389 -0,602206211424003 -0,140055798939596 0,587817450676868 -0,070692417349872 0,233308113742281 -0,439621498825537 0,921444424260224 0,676639840962906 -0,879857631116963 0,11814896437142 -0,905416672050611 0,771063779174631 0,336055132296769 0,346708768533693 0,525680154800319 -0,307424272756704 0,672933916153599 -0,082684033846013 0,677272259625244 -0,156566524062406 -0,0326638151210052 0,481665459319832 -0,490980168982766 -0,902934179544696 0,58949249411191 -0,831684582146095 0,215602873079883 0,312344067867429 0,487609855645932 -0,251667058047876 0,486949397484753 -0,760087971014004 -0,886348022720927 -0,948595490021311 -0,230424541969248 -0,887999876001086 0,316556762633785 -1,0621899748188 0,0140829244642973 0,615161313886173 -0,836802473071202 -0,727403709798695 -0,467285222843335 0,181533326358392 -0,191297521379843 -0,554055139947808 -0,00877053669003919 0,527575889659508 -0,750794257991091 0,699982669566249 0,729785938305335 -0,91849706478918 -0,497344553190442 -0,769445543141642 -0,522832268415134 -0,0887534820075163 -0,653404264878114 0,487217911383144 0,345453614136317 0,0693897588745413 0,307581706664208 -0,484555770664379 -0,893693556749377 0,31025388318174 0,624761353457738 0,738194000375853 0,472795725453155 0,132218620562637 -0,48068696628924 0,324227595880049 0,333491270960254 0,562183887541842 0,711472658422822 0,943948692487122 -0,383453870983562 -0,367090221439554 -0,100637948871643 0,224731885382076 0,247881721563389 0,147921705533994 0,180622110686257 0,700750036717196 0,0761657033607177 0,782940190488445 0,00216688182863819 0,413244009630141 0,752233573522899 0,901492449030033 0,569836525759218 0,800020925832521 0,741394611955617 0,800816499847944 -0,334710149394389 -1,02100317517161 -0,792253313330501 0,507006555566328 -0,912274283490965 0,133437841322992 0,525060632552022 -0,145250127558645 -0,250243590811537 0,728002182955548 -0,0554755185894456 -0,162085573827237 -0,692360620729065 -0,935045696168635 -0,69900265643211 -0,477312514317109 0,579933174795555 0,824108707706524 -0,997247597264982 0,094970424971678 -0,773923087926898 -0,77652659393326 0,916954780087255 0,665134672880659 0,474437796047769 -0,675396949681996 -0,690509222648466 -0,818672217822306 -0,987192742794493 0,523891980312201 0,425282407644919 -0,43287928181367 0,498743277339832 0,486965316020321 -0,100065813034126 0,629533491194834 0,625136819676994 0,0679538196056863 -0,478790762586253 0,683160581622669 0,624437343006033 -0,745308631576199 -0,737039185306146 0,368895378924212 -0,299051865565761 -0,804648404051755 0,465285442772187 -0,0714890461783484 0,111897731677955 0,245465463404836 -0,645185523317193 0,809280815654231 0,804406271601499 -0,387719908853207 0,532960474647271 -0,629987577781253 -1,01482951212721 -0,562412148543947 0,862460852926824 0,631208957977158 -0,2532515713483 0,334481763863079 -0,132254273085365 0,177392093110778 -0,745678410882019 -0,612243317689649 0,321524924943656 -0,215624318073079 0,100728648195327 -0,446654892448726 -0,216294890849434 -0,553963380272259 0,273149841326716 -0,719934768269447 0,459537293455529 0,988316286535212 0,939181069133475 -0,463185879043543 -0,0126547530501109 0,327287373416228 -0,145560481738424 0,36636352255494 0,0197638845303789 -0,312099598619766 0,117257959875886 0,501056646175 -0,408815751494909 -0,270016057585287 0,790918303661812 -0,54105731437404 0,621489083040898 0,137009870347798 0,124834503508262 -0,163926842492537 -0,036720341524436 -0,750277247149717 0,287090808765135 -0,034647866230596 0,0281584725592827 -0,709898833276841 -0,143003438823108 -0,331923734592417 0,833895318198774 -0,405309554914854 -0,533634677886608 0,911666324169916 -0,434208299284531 0,588186053190701 0,173312127294838 0,543898220885525 -0,605505676260896 0,389876023563345 0,402376084662609 -0,547603067966253 -0,36231093378627 0,272694342972496 -0,793878255435438 -0,883582486587072 -0,996984596394673 -0,358904359568419 0,679902569768755 -0,495161563496871 -0,0766736766912529 -0,464351260156392 -0,210329503564813 0,504320025076732 0,207667289040967 -0,584149790129554 0,344957032608735 0,194915172547753 -0,306687285891736 -0,00909701823852604 0,532772683784038 -0,275395091668061 -0,486267580843692 -0,740165669104216 0,540903624962712 -0,567435620621564 -0,816927620410727 0,159812222692953 -0,0573723276914 -0,0828273739703982 0,427975074878227 -0,835571677846932 -0,987613502846308 -0,784903157353453 0,668772092145131 -0,472794681189946 -0,925050967482812 0,582351692871039 -0,992624778911369 0,0792119965629151 -0,162509483947404 -0,781618019427875 -0,569864475995229 -0,670998371693137 0,734665276964139 0,254203470361671 0,779156831248853 -0,0560955829453856 -0,323685940255226 -0,837093072183348 -0,72556309603183 -0,982826365669344 -0,156854932173841 0,401576169271361 0,809172988709105 -0,36149771389103 -1,02216549550345 -0,625306286647662 0,560271822843557 0,633048226244092 0,799110980401113 -0,212698980790326 0,656632341089029 -0,454709205139842 -0,175687485123526 -0,355985218674142 -0,503497811502771 -0,525690741010838 0,701042680483061 -0,469371159095114 -0,824495138958665 0,726493840314584 0,199728928057375 0,591106996765906 -0,864556803386268 0,290561869717922 -0,786088459117788 -0,837360578426817 -0,498585552880676 -0,712840309385516 -0,399100425506652 0,202244303994943 -0,610028743206012 -0,287279282524451 -0,318210955538145 0,399771553669471 0,128675753870615 -0,548552844607766 -0,750394557936935 -0,0624037846325945 -0,525701889909567 0,482196572336215 0,742509383818514 -0,789992316149354 0,150983216899727 0,901054179560252 -0,560191852846972 0,709476079851596 0,282781085837643 0,00773915303485846 -0,259841592328698 0,243100780136623 0,161523139820843 -0,926338904495493 0,870800214862459 -0,501573970102114 -0,253626790614521 0,237199915034729 0,226344942174162 -0,530909945559809 -0,665358765531445 0,715112942464652 0,807459958251809 0,181573075780428 -0,214027622820326 -0,556610888201357 -0,700341702552085 -0,122459432054583 -1,13894235140589 0,263636392708346 0,256018107577649 -1,10535524785655 -0,869206799145721 -0,345544426799504 0,900908977327879 -0,44627859964229 0,722658631226629 -0,131086114861061 -0,639164770329082 -0,85440389855831 -0,230299545378097 -0,576803076763462 -0,223262326509909 0,413087581143606 0,503408826025451 0,358899276992625 -0,956479953790192 -0,738678653237199 -0,245379325133791 -0,933948506042871 -0,481686669549373 0,757573917786245 -0,0309348904543649 0,55691685669911 -0,572786778311038 -0,332854302592272 0,562454902415985 -0,659606268034371 0,165913951969234 -0,41337412827928 0,524426713478343 0,436620492396596 0,637450911970941 0,814496905161283 0,465319475525669 -0,329732557529556 -0,00133555254682528 -0,624616143771769 -0,929372799942424 0,227417808491067 -0,359486975027261 0,801597673398487 -0,15953331335622 0,0533720761498685 0,716326785031878 -1,13470514805569 -0,144823679131585 -0,737948652588548 0,588897995253203 0,303113849648488 -0,872014568268715 0,718506286755754 -1,10574635795043 0,630617644001162 -0,453305165892169 0,235951131498826 -0,307654081093121 -0,60444211703591 -0,912990573261987 0,0570186701734174 -0,285235994494058 0,124534150356758 0,463445594739573 0,578620600890053 -0,520119211887352 0,134284220306508 -0,376842737576209 -0,183019586320625 0,840143923734686 -0,252637670898746 -0,694064362703577 0,623761503137366 -0,808230739749366 0,43052497015102 0,257392403861046 -0,453964602876117 -0,253796448660131 0,748805918986592 0,562884366724544 -0,701665440355488 0,660337398787461 0,194932994040609 -0,358649472693591 0,523632228026844 -0,836755676648528 0,591786423299785 0,356034283066533 0,768633798890737 -0,0335149973271302 -1,06036755223906 0,720108717872124 -0,580574497624951 -0,829219773816772 -0,18089937575992 -0,633421094052923 0,367309649843025 -0,796001259484695 0,192723687661786 -0,445578172621493 -0,485367425813624 0,208540453716725 -1,05399710174055 -0,688652149118429 -0,266894302553769 -0,129021094886616 -0,629495584452291 0,311202748070765 -0,731937164770661 -0,715026675087941 -1,1121729144636 -0,608734033311004 -0,313709970082805 -0,458944820547295 0,593138494619251 0,251467245008174 0,315651531386418 -0,721026604799796 0,685206961333515 0,109679719977288 -0,316957821170181 0,690491569970061 -0,251088820897732 0,711200853879877 0,724523924295955 -0,115924653348456 0,83866055019654 0,385318782570014 0,26385507625075 -0,0171849405585159 -1,19865161879026 -0,778169266507437 0,481628029854809 0,100798518318469 -0,0432339326780407 -0,159299443911504 0,449762096179792 -0,246084597781451 0,771732234939547 -0,438144244865366 0,619343746649631 -0,962202923131466 -0,100221780851354 0,347075877123306 -0,101746374183446 0,394581971875224 -0,122797089990783 0,612322049386351 -0,591210064561778 0,466972531720176 -0,0452247193776149 0,0189046715094268 -0,55965581979449 -0,998206957371469 0,846445083293607 -0,161961439283291 -0,53314488767035 -0,823399298800706 -0,485321944644339 0,701011890938658 -0,0843538064376595 -0,180939425868009 -1,128119808642 0,0572435736800159 -0,753760583598033 0,550744621904768 -0,157785660900769 0,529176252153653 0,493983823848497 -0,47399567067299 0,675352863546538 -0,500068531573852 -0,62674262060631 -0,0105864730676342 0,357629235630297 -0,61003585681893 -0,415604472312907 0,255165005459001 -0,277707574583019 -0,718630042839094 0,968229320602889 -0,816818274121293 0,0337169480298012 0,89647482249539 -0,882997572163902 -0,1840383267217 0,774319026153975 0,426501313884051 0,243007227576976 -0,954202100535597 -0,695955938618938 0,122781243005448 -0,903167334093432 -0,937452700914601 0,609345826220023 -0,226907067005034 -0,863699857506987 0,712246976207093 0,0293062646279927 0,319325909570675 -0,518593110219125 0,284905144103126 -0,955423956445036 0,689585049393004 0,639845140559151 -0,666590382974205 -0,426707654765235 0,41643841161818 -0,379472803566424 0,407354000024294 -0,709843664759158 0,295663303369708 0,55481539000383 -0,771872873143736 0,739780093119506 -0,26538319383681 0,80837773641923 -1,06122111244514 -0,139209828190456 0,294592278838646 0,671146589459769 0,416346869840129 -0,761254046142357 0,373631197342662 -0,855863851619384 -0,592206456809539 -0,682800016603889 -0,691372852143588 0,312304019736438 -0,480446882429166 -0,79050595058466 -0,297047222421743 -0,899027390256095 0,293077993535961 0,715466750473456 -0,369698095994234 -0,882330937125452 0,304627603793541 -0,733170790241622 0,829186470229855 -0,683851862412451 -0,60542536060689 -0,216648152252163 0,775768444712126 0,699335441079502 -0,0652862776508215 0,455378540863553 0,719936770855646 -0,851820859850043 -0,147351064752828 -0,104122156163981 -0,957539060773693 -0,248422086514088 0,582314360585341 0,559710390505886 0,0414084269383281 -0,00228096428863021 -0,440450303374079 0,454029125604983 0,0466139441783502 0,922660003639541 -0,821940714161841 -0,986116738766377 -0,958903157771439 0,170117244420187 0,55183934374996 0,204158469255526 -0,718404697653655 -0,463123694763258 0,148871010979754 -0,386728256399302 -0,535025353849319 0,639772829971724 -0,0235535196020985 -0,113064419847584 0,128169402009368 -0,497189815973177 -0,598059480316673 0,612809815306844 0,0905833807638547 -0,115346750480611 -0,526752866569484 -0,931537225318157 -0,531799198240639 0,579304232272188 -0,960016550944873 0,873845566931209 -0,647887426164793 0,615841845386608 -0,386983626306454 0,574061758974819 0,522171043235075 0,846572124356152 0,219077689836812 0,946583554486163 -0,788350350594394 -0,571812798430941 -0,220143783257528 -0,365099968852377 -0,862981318398709 0,721178966734963 0,168302884040755 0,102775537281998 -0,0890429012766274 -0,850375348479441 -0,622847166333914 -0,602472501973299 0,675838974029637 -0,369241003145853 -0,638370860445239 -0,48306463610746 -0,411906785364255 -0,142344531951384 -0,775220780298565 -0,922904933283447 0,302126512655053 -1,02890017511277 0,505884070612905 -0,551819741642963 0,134697522671169 0,688666404287131 -0,154217071196749 -0,319520599789603 -1,02598545229552 0,57153269524195 0,0825303648119892 -0,366783379950583 -0,579468555473146 0,0455215598614372 -0,311186212916928 -0,376612934135465 0,579133366589831 0,638840458534948 0,410936566165989 0,345304437094942 0,626759406082228 0,291649403721001 0,0984936014393227 -0,726025718669592 0,124564148749237 0,540407499237791 -0,947685143539712 0,651145806489084 0,150843982055461 -1,01558782061431 -0,0743198665021565 -0,387593622327587 0,604202385254425 0,143549634559641 -0,358881603372338 -0,746340970905297 -0,0221145846045922 -0,621925921701997 0,503988703425102 -0,555094751145848 -0,139288139034752 -0,521850294594606 0,188963948344251 0,293073422587267 -0,0983792866421997 0,665067918576131 0,928662510427056 -0,391335992933726 0,86579179761541 0,643762231495359 -0,129717507855639 -0,0991750019317054 0,356321952523658 -0,188104533467424 -0,655280268552974 0,952980800300268 -0,224414259434733 0,118633328440508 0,227934398062686 0,521202580513733 0,600772157312035 0,203272286917663 0,528408280461508 -1,00982202558316 -0,302388233223777 -0,443326935194755 0,115792473303279 0,384373009302808 -0,490785385700163 -0,441800463744753 0,774585709913506 0,207528300722073 -0,917572606946633 -0,00533357851421144 -0,495302709663946 0,248974707120759 -0,804307383656097 0,877721341039862 0,389805242611259 0,476583560236933 0,601229239090276 0,411946825055343 0,690319836460575 0,421042280804278 0,0282131658424615 0,957379092196068 
0,167843013692226 -0,274183047399472 -0,255039660323206 -0,349826294493416 0,449996348387758 0,876615487352104 0,208233376468321 -0,972660955381864 -0,278144360511107 0,348534953652595 -0,617512799228286 -0,462319151235555 -0,805138859971574 -0,0606489267875292 0,672179690636647 0,102275148865178 -1,19098976842807 -0,305772644147784 -1,35977304847926 0,641045306961519 -0,213878064368921 -0,583506555710845 -0,624725459302119 0,165992181769302 0,829371561535704 -0,0725332672212778 0,717362407791393 0,717044325992091 0,891051257938969 -0,822156070617973 0,490959001516122 -0,838210904959163 0,113437007680708 -0,0772397339668239 0,477530343722427 -0,80065657689723 -0,923080746557597 -0,0360361241859686 -0,858058525548337 0,164552601984817 -1,0373949670657 -1,00560179363987 -1,44802784807238 -0,331971713938644 -0,923647856193796 -0,519164144770706 -0,280151674413992 -0,363021893129872 -0,16381555412789 0,17280691956301 0,56253470321301 -0,386787566510743 0,738653037757684 0,56817820243338 0,240541716943821 -0,238905955615877 -0,586735495913693 0,704509694943679 -0,0757516036706419 -0,358320275321424 -0,754951505682019 0,526439462137642 -0,975765053531808 -0,597306739994189 -1,37329675912422 -0,778992461989268 -1,22848712929884 0,662997051559254 -0,303875952170809 -1,46339794384568 -2,12700531089368 -1,26047083044659 -0,860481270550592 -0,885370158992904 0,608115926978243 -0,293227465227507 -0,797971619462396 0,39051789378053 -0,0850597301353772 0,253318178473218 1,09714610279631 0,194822272041281 0,0711143441645508 -0,0868674950867459 -0,026780188685402 0,330042549409871 -0,235910853565893 0,817165481508551 0,700756098028181 -0,509943310243904 0,811537683096711 -0,468027652926726 -0,577884146278363 -0,933482984148543 0,2842149919364 -0,718435651992197 0,620352279221929 -0,261377807419087 -1,45055045810589 -0,0450165394629956 -0,400229471157529 -0,00514934175077533 -1,09939249021267 -0,339417290076891 -0,200869387753052 -0,135822113844322 1,00281378631875 0,690213070137229 1,22657029026555 -0,0231915506634147 -0,124448059566397 0,0117408317478685 -0,0358442378798766 -0,546714272609726 0,183210849019302 0,628755830480144 -0,323779575649876 0,164197427117524 0,435888780418904 -0,669055731876336 -1,3336326005929 -0,820092276848238 -1,29018538659605 -1,10701841226193 -1,23128452064626 -0,640693042467787 -0,610185348632583 0,261709545494255 -0,819599088060945 -0,387867212324068 -0,271290583722103 -0,0247138974041668 -0,282460757984648 0,205904806013563 0,924235084180254 -0,387838595888277 0,295151366926911 -0,0859215016118778 1,48949769982903 -0,83886882321343 0,480766896191403 0,727106405872595 -0,649024208239142 0,517357251948967 -0,623387336669868 -0,129282889026842 0,633049373753672 -0,900262580837044 0,244425820099108 -1,06107937464147 0,706817295341544 -0,653818200174551 0,373392817758625 0,155196712811847 -0,424373274936388 -0,988563878681426 0,157233180318164 0,324014556090725 -0,584335020130396 0,871959135086307 0,0267629517648023 -1,13905738006435 -0,0215474450500718 0,0419428821933601 1,22059752220138 1,28224346333684 -0,1842309307117 0,907930978344298 -0,383432593694082 0,142213204399185 0,0531908032427309 -0,175831324846215 0,534742756367175 0,268193205657683 -0,126907132004017 -0,839600068149439 -0,948714187369463 -0,541573609967982 -0,957937995526833 -0,13092672574135 -0,24742077998063 -0,934920696474783 -1,4931945311591 -1,38486730702786 -0,0237110795562035 -0,957634845280343 0,336659160059583 0,00359284705355708 0,412440529528854 0,128870450684727 -0,135691777176929 0,583913574867755 1,4640195888448 1,80496090347826 0,440124381498725 0,681113233431057 -0,228607122447532 0,922845630858465 1,25977221196335 0,13094811508148 0,0445560110679752 -0,976242682966989 -1,49122676898603 -0,763374715884994 0,245493357949447 0,178761717997415 0,105228925724412 0,76520315697396 -1,01487360563944 -0,860574720139542 0,363125692465635 -0,9552333421218 0,462304334911015 0,193136888998942 -0,265836069823716 -0,478726640537385 0,416301396153513 -0,569510126415064 0,282819283396539 0,874301859716182 -0,195357341128342 0,835521566073699 1,67481904892399 0,447964418483776 -0,767627158568674 1,01509349432972 0,428396408500458 0,629849508651317 0,201102484118325 -0,951545224458756 0,622122711002596 -0,624260777811144 -0,163207675725885 0,235448707467707 -0,985639758796142 -0,128679094812242 -0,391734044105303 0,036833685365088 -1,07550092063035 0,405376886320065 -0,156107007895449 0,472659681988134 0,0135118920201855 0,207940674465935 0,252696158177658 -0,742203800638257 0,685705233812048 0,0323125645039895 0,975743837627852 -0,118885173790458 1,62623593707275 1,32140044023824 -0,501451102216797 0,0673491414390504 0,255562166551234 -0,713568214357324 -0,294021333381465 -0,112025280615572 -0,910765606819808 0,555152965339732 -0,565524221841441 0,663964615614749 -0,287304366258822 -0,734302310549983 -0,55678195679114 -0,393240228689227 -0,098675552371619 -1,04817005976567 -0,0480546491722571 0,928873531595061 0,898146926308783 1,12431468226696 -0,871640891666493 0,521367195185378 -0,482293949448724 0,421499212981145 0,0599817738732538 0,509968670640341 1,76110909425914 1,18683799753825 -0,548550770736516 0,169477097223588 -0,191760817182765 0,409912446283394 -0,445762365727903 -1,00592707433737 -0,943302810239405 -0,841238720465689 -0,593626042979356 -0,992528820745295 -0,998830846546121 0,843956943174403 -0,269598011348488 -0,851081990058795 -0,406212545918515 -0,399543700892619 -0,821884627749515 -0,312481094834212 -0,276569307487377 -0,406889995207387 0,0374413436465062 0,384767647172339 0,51694067019126 0,843096679306336 0,0816470883002905 1,64777409883234 1,85847965626076 0,267379920988766 -0,496250740896573 1,64359133711518 -0,630714151945239 -0,834672022662188 0,225493355164245 -0,370736149310076 0,225615639671582 -1,12017387185592 0,483661519670814 0,847353530644133 0,506986165269692 -0,343739087731173 -0,506247372558614 -0,643836615530685 0,036501300199054 -0,265455112311535 0,398965503166353 0,805665458552064 0,0535853872051549 0,667202909554537 -0,695360025323358 0,259898232591811 -0,635915375460404 0,910513768446405 -0,306947500541617 1,28339069963853 0,941887203605477 0,405914730549174 0,50192735525788 0,767850628093477 0,123100389465359 -0,409770277918203 -0,623786565212153 0,617413321596807 -1,18072324186824 -0,48609270672995 -0,850178265413843 -0,832391191670911 -0,383080082336247 -0,624082442917612 -0,114538469262792 -0,218630175465421 0,261381706240177 -0,36782414203997 -0,284282816709077 0,872517415605669 0,785073396853098 1,29133760894595 0,866206422663827 -0,358352034593343 0,852801152067872 0,0201845861132789 0,541840019244274 0,131323110355737 0,736762348242741 0,55889954595254 0,988912054413568 0,391167556516461 1,00456007707196 0,391432132625287 1,04155768591399 -0,228392023680872 -0,506804367658946 -0,501606853441648 0,1120054803184 0,239516281989045 -0,295203863260741 0,383626586905508 -0,139931694826743 -0,185175317086369 -0,112490304310445 0,406305092342064 0,0854097176674421 -0,436007908755941 -0,258996187103357 0,605834468638408 0,891717631645847 0,913198158590631 -0,11526991820834 -0,12778260035003 -0,328264416906118 0,440164713572796 1,20250894345447 0,247590153162386 0,569242188430653 -0,000252513778931921 0,59263241181634 0,651912766104289 0,110185605900944 0,134254078117318 -0,19154168948787 0,571298465580345 -0,503575894164822 0,293159466147183 -0,284205854137269 -0,273974490432785 -0,761553595583937 -0,0902435247345506 0,612169892477406 0,649685502255187 0,387481209230647 -0,666009215447327 0,55248237012234 0,231986176824776 0,828405376747544 -0,264419706891671 0,63532840133307 0,199901958756221 -0,140658722532396 0,881167663996727 1,02822064134737 1,35553816681443 1,15476067714556 1,28609445081294 0,250320121769122 -0,0696976715348134 0,377954353628345 -0,819205741301279 0,195652384600691 -0,202993181210722 0,508985427332276 -0,186587760884173 -0,661955714884012 0,860796138834407 0,734617002887337 0,308793187471063 -0,103910465996732 0,753539499570401 1,05826595202026 0,960815879115279 0,222110470610081 -0,12467491007033 -0,546073113960662 0,396452551986866 -0,00751344696741878 1,3238867352096 1,34957183685536 -0,172295878521832 0,833799872593664 -0,121488754989248 0,228394128568527 0,533568047783771 0,233313021600042 0,489962919779554 0,80294954697299 0,283114650641522 0,581415627694189 -0,189944175686701 0,722898241493 0,432098428234335 0,240689415059889 -0,880050647738023 0,501709519358783 0,0358944875966765 0,993287232906044 -0,402929680827993 -0,825249604706665 0,657178730226679 0,383853128357613 -0,553356388335648 1,05942863704042 0,893304877383052 -0,409157506541006 -0,199360058373818 -0,0308107375977906 0,0692050304237464 1,26771260855371 -0,18994482442177 0,0316489424103974 0,869736244960144 0,147408447399587 -0,20489683226767 -0,244002399170563 -0,126678242973208 0,788807844176459 -0,424674945834787 0,199450931325674 -0,597488894305125 0,933820472325036 -0,325451442868526 0,504209905468985 -0,861915607958374 0,971840259567538 -0,434851865939181 -0,28061617036068 0,0977123522882976 0,439246075322674 0,332987410178018 0,509487526126701 -0,179970493911572 0,816507908357996 -0,532873637977533 0,779741536176295 0,20111554136748 0,131376680337708 0,293192761307467 -0,155690963350047 0,277698322225699 0,121711486042551 0,0488403660707146 -0,0571867920657413 0,0714567626450673 0,945458984625022 -0,722101798007644 0,755423105306637 -0,843684405879115 0,318907334165729 0,0123818964129838 0,21983184507691 0,46001344122754 0,386014682682517 0,699728426028983 0,656078999656535 0,00961722237111547 0,0571758876039964 1,11071460274398 0,956043571404622 -0,448061354094727 0,937832351010874 0,753263326945669 1,07123043465759 -0,0124860259679452 0,493595167217265 -0,598797003699678 1,05552816802472 0,301130560028138 0,541737935202547 0,9328709613564 0,836401491497937 -0,319384524816249 1,01534997374953 -0,667118197412099 -0,0459595385120519 -0,0545057330468618 0,519528496085194 -0,306346636704683 -0,88604952239552 0,699979147391888 -0,128311842246499 -0,3095230112214 1,03772611462917 -0,156593886587121 1,23439519735161 1,26263553194342 0,252645592342534 -0,653683291764775 -0,195529323091681 -0,128954385118717 -0,145732495537896 0,27889407877477 0,509168320619295 -0,369575816140996 0,353573948394553 0,804580252996939 0,412863297489096 -0,448604163466854 0,868080470270268 0,933510052789359 -0,412969702922597 -0,332753468955283 -0,744785689777335 0,384223168012801 -0,0769526210193735 -0,252440007290451 0,399684236918506 -0,068360348595772 -0,283278609568874 -0,345299763088413 0,295629565523448 -0,62566980955773 0,690813381969921 -0,654629901560024 0,42477877559386 0,442269075478674 0,882201657265866 0,517307346884683 0,511102320916065 0,379056308712034 0,174038714302147 0,76582197291049 -0,408091584876701 -0,119568771555703 0,287811234722829 0,039177971393138 0,537808333947168 0,775079180884111 0,286678895311263 0,346949507199877 0,57241416578463 0,15476522281523 -0,445559990733526 -0,471356364011195 0,12071764976793 0,863318977202522 -0,669944597145662 -0,572846826206697 0,628474126494236 0,37535076755585 -0,608401099557095 -0,543782903544913 0,642052474296954 -0,610682108263879 0,863548169965771 -0,363577319708212 1,09812559172196 0,35461936778671 0,139107914481837 0,93075214089035 -0,822638682190947 -1,07071682600614 0,103749235598331 -0,0791102285189351 -0,161303904931189 -0,152957009881911 -0,589210679323646 0,489000913752 -0,974940050290477 0,926100100835401 0,137682291419231 -0,876545256955884 0,58317468838392 0,245764978948412 -0,0927168252810982 0,815520630135424 0,287517567956608 0,025448743778789 -0,350790268942314 0,552940578087523 -0,0142072085038444 0,468518478714115 0,900146546076635 0,943925321922605 0,330250911786728 0,0753204117665904 -0,889939244783522 -0,734969325972806 0,418902753487721 -0,348543446414632 0,0473538706662232 -0,435218411369613 -0,498211089268104 0,434853973548802 0,322574227086601 0,504045329252642 0,835104092905078 0,761483942287985 0,783364973883425 -0,45814586422829 0,331176295679122 -0,241826688037176 -0,678094325980811 0,524858596377023 -1,06090147773175 -0,736294515163946 -0,812483610048264 -0,814418088877479 0,185071163953444 0,728788846366127 0,28900319636227 -0,0160770648122076 -0,2063988449953 0,884929672070928 -0,184156680099099 -0,476043815688798 -0,764201057265059 0,255302047222664 0,668136970249189 0,980537972374213 -0,473327664340133 1,18924163407371 0,867108135721453 0,332101888521733 -0,365315090247742 -0,177926023797441 0,820040291674508 -0,377041185861179 -1,18102474096591 0,34142210610801 -0,996632575996319 0,44532837551058 -0,0139819109176957 -0,688410546766557 0,622232143339651 -1,06785776146634 -0,0595990491946053 -0,995189470502396 0,832114015040379 -0,286463223638225 -0,311327316583735 1,02113100568857 -0,0846979253013599 0,519038759765191 0,713869549686109 -0,519758995760689 -1,07544467290218 -0,226924684158054 -0,630692097331378 -0,257445568409349 0,0866040578294159 -0,187193006039278 0,961268721986413 0,950592779532995 -0,825927057579546 0,603206734264006 -0,0523978654363267 0,251162513692202 0,154389645076327 0,126130131279312 -0,864890182270675 0,479110250307286 -1,01583211723271 0,471420005580867 0,672589685424977 0,42274240821571 0,544791302580332 -0,870216733782536 0,883750617323635 -0,131993408219475 0,400091724137617 -0,837391221598419 0,713209307864783 0,22331444749156 0,297737554878834 -0,29773589710731 0,135423966568525 -0,336253317676744 0,973086706621388 -0,0204787342815363 0,396641090282365 0,608261906489344 0,0655812380764512 0,961819757705578 -0,374292860407371 0,849790928437079 0,809569545842633 0,14462508595791 -1,1581529012076 -1,19013770362891 -0,325937797426039 0,689545775380353 0,115076191794323 -0,667665482225123 -0,998330341176036 -0,27320509153298 0,602262132629977 0,189801752200368 -1,2136304602149 -0,664629847408025 0,229961574314487 0,888184743588888 -0,31934469506563 -0,0558123317451961 -0,394834469340792 -0,243614529466274 0,15111642158501 0,427795934544191 0,434039575725125 1,27333138245938 0,527082487519111 0,297073571783414 0,859286478184924 -0,0965657441625607 -0,688624443586549 -0,222654290804877 -0,531590459253189 -0,865648844315504 0,143581258569461 -0,70617989435996 0,783760911772493 -0,846206893276546 0,721946378301566 0,356847577523786 0,564178436000059 0,461064569436719 0,110547490995074 0,379830470087702 
0,226831884813859 -0,430647813543081 -0,225712839201857 0,351065535740202 -0,965805788408029 -0,0839290478145329 -0,264360932737453 -0,255352286341171 -0,813448332962983 0,116805471665085 -0,681121609105374 0,2520936910142 -0,300109581902924 0,350067616061617 0,00260712060029657 -0,166348254427194 -0,0609571379977823 -1,45380540524127 -1,0116495323902 -0,989828587406745 0,803865421288032 -0,101521405223924 0,956711558540739 0,50450053536377 -0,764322345076083 0,919645440012764 -0,160619977554824 0,170909784283688 -0,952588859457889 0,120327520677732 0,261381475433934 0,125837395137195 0,47486237639504 0,245968490647644 0,14465504057146 0,537926292265217 -0,93283899375853 -0,218060725479611 -0,755387384119867 -0,513213163591586 -1,07180707160656 0,455603022283427 -0,26227278115657 0,37932115151283 0,232596798884427 0,0780288490717849 -0,162865520395867 -1,11474550261163 -0,159898529581657 0,107870376784056 -0,457410232428762 0,913688313685148 0,426649453643643 0,114413476615295 0,560517025871745 -0,691426834897645 -0,38482750706521 0,277364725823537 0,110954094686191 -0,903820835829504 -0,957804043157153 0,443465862364544 -0,702633205680128 -0,484838979095975 -1,38994969291792 0,391151779386488 -1,07970064573533 0,332248639112012 0,875288749980486 0,0291157681348178 -0,789831983961262 0,87481224648401 0,348440807129835 0,611206348442724 -1,10274040619625 -1,11318847498615 -1,58287337853834 -1,09808664254409 -1,13999361453648 -0,285625273942535 -0,486194270271882 -0,534876909157325 0,943593341760929 -0,165864414810809 -0,363061467231273 0,393738018437347 0,722433541582814 -0,653928032292249 0,634055047827064 -0,380035377329594 -0,272113708009873 -0,111285003955719 -0,80718697583539 -0,369708062428765 -0,548098551020354 -0,567521041870553 -0,170254998612269 0,717018912956694 0,53462498684675 0,937044250727362 0,44612452540792 -0,862498267083537 -0,367805291733137 -0,720766135578846 -0,106664310385749 -0,723410573576614 -0,743252894601005 0,740279127495868 0,100841663138782 0,391823711217475 -0,698129418506524 -0,804172256636957 0,249579660032891 -0,602721472037796 0,608449576022597 0,610586022379399 0,507059802475413 0,589128209594518 -0,866237267576297 -0,58207862157314 -1,00224709180299 0,753643669182848 0,592938310296494 -0,1292809390588 0,690300574175186 -0,249183163459531 0,460958133479028 -0,261942482439423 0,0566940875740223 0,641796129178436 0,482464805093055 -0,44821903400214 -0,0530739726226249 -0,959236848265538 0,0446166156900647 -0,675652026315788 0,907345151744712 0,691880325400442 0,720670080650254 0,874789638383695 -0,222352904304901 0,897947730605348 0,300880369929961 -0,677192425864656 -0,45883055852647 -0,298141980824631 -1,22858111923146 0,788806314497952 0,0775208617330946 -0,0549946897683795 -0,17443564170907 -0,0197006400216935 0,154388868386515 -0,193201494095641 0,954306505235001 0,696307248753628 -0,469441134685864 0,818577918890166 -0,260430225763287 -0,371727841860894 0,493349842464758 -1,02455255773463 -0,34581403434416 0,371314884476766 -0,986624109815915 0,948077631492547 0,202679601692322 -0,048354940182689 0,0221234430567331 0,161209884751464 0,723954229713325 -1,0684740259427 -0,93296637645556 -0,697296156467366 0,623455794494132 -1,11594988018729 -0,510088567567335 0,300813455928479 -0,797175843204678 -0,408787022312465 -0,353992213795507 0,406847415990912 0,659645821205038 1,07047053275778 -0,228856810307324 -0,517621463008409 0,363672667699086 -0,495279449390336 -0,350199078590273 0,729802137202999 -1,16374438947587 -0,854215689993932 0,0556244979610393 0,295890160426208 -0,509774159590797 -0,305078719682857 0,00558853207080382 0,763447080847732 -0,659985093057027 -0,297995268155385 0,696826587138249 -0,183442687399461 -0,323692802036036 0,674764522721288 0,157068054555084 -0,16285514367123 -0,295826553128065 -0,635033195560929 -0,33173136278363 0,628375007732395 0,131597000378697 0,0458081678935777 0,378948889640673 0,896142912437974 0,771561565832177 -0,937358835865135 -0,44317886660052 -0,281844450972171 -0,408637850593153 0,433829393435102 -0,395290238115439 -0,0832202082751243 -0,568707562202582 0,171017349444367 0,0633171341549917 0,452267160587002 -0,0665077082186688 -0,104959472429246 -0,970146312556656 0,00521547450454879 -0,179961617436825 -0,548547796876036 -0,239374962813405 0,407555733781383 -0,384023506620929 0,369229499935758 -0,6961741122852 0,617599002462089 -0,117027393668209 0,713809760390143 0,448333033233206 -0,514275845880012 0,441285506735735 -0,0737353432359402 -0,340507431766754 -0,219727378963706 -0,375917686846394 -0,0992241431373805 0,35421033163056 -0,548695111887518 -0,930648624632061 -0,939971941589222 -0,095940323864307 -0,265543109003198 -0,883783385701999 -0,0608961578766776 -0,44659177514338 0,606210641018167 -0,393281300698174 0,543482107459761 0,677044570912986 0,793759930584613 -0,912979069700859 0,420223920025827 -0,59866174777505 -0,600930960595162 -0,727712383142436 0,823205735014685 -0,105944163689355 -1,16329605194831 0,532760309336018 0,0947887315687387 -0,954525704556336 -0,10897061098455 0,848724403458114 0,638826730401519 0,186096510806286 0,335291656941766 -0,746236247881838 -1,0141136337618 -0,448102482965588 0,858829927346343 0,469234042414811 0,744260214525254 -0,0269844586590747 -0,139343575837376 0,576813544835851 -1,02299212702318 0,142957431978923 0,759029525405854 -0,372108454080778 -0,482704174252321 -0,430109903210744 -0,00753066851998628 1,01842300627295 0,628318289374585 -0,628456287992677 0,674409740068083 -0,638401559590897 -0,442109977941959 -0,198375011471084 -0,218856149192994 0,679861970858009 -0,0456722796668748 -0,447940571147036 -0,299555888583319 0,756158231677108 0,850712330347638 -0,256050014401891 -0,650486295031028 0,651583150829929 0,245541358786986 0,253043771985924 -0,263183440803586 -0,05337100203705 0,837423333424082 -0,7112533093547 -0,545790452729878 -0,756567520627467 0,330281599362825 -0,625584571906468 -1,06680073551115 -0,248459264738338 0,309440265971591 0,413178969658363 -0,271546944571957 -0,713158099228668 0,213150977761004 -0,0915668685528045 -1,12743954481441 -0,0830589729462324 0,167908768188702 -0,235239768149756 0,514205423921234 -0,0854791225994666 0,558360422800682 0,972611757740194 -0,627298672568252 0,0367541382883294 -0,858194477928682 -0,103880458611159 0,879721983665499 0,215650930643683 -0,197431310325878 -0,942890033312735 0,347257141267237 -0,0648431809321742 0,65456441550396 0,602436795269526 -1,12617241613257 0,557854967805736 -1,05914647402854 0,355498355878879 -0,404925781079495 -0,990511147840162 -0,0230906891190861 -0,944865565296356 -0,931721857475989 0,254702253339062 0,533449860246233 -0,708037427439383 -0,530185417303866 -0,412338692193126 -0,424293363263099 0,194430925891712 -0,595091898329468 -0,723692489722236 0,595387663432277 0,55767280586861 0,565037633345933 0,768323550780053 0,699825714149287 0,303039393826761 -1,02083278196987 -0,69078661329457 -0,600504507431764 -0,678403511606855 0,685498566395914 0,378368826503629 -1,14816929254528 0,51587635654476 -0,794723558672199 0,351670329219706 0,183474054882102 -0,738095066987161 -0,44935170074884 0,37688980587812 -0,989903757011702 0,461064169849508 -1,07730793339683 0,108206719948025 0,439309124641214 -0,16828163319063 0,347605901419452 0,611774233779828 -0,831978309068581 -0,0907790052711916 -0,273931705145871 0,449829402031614 0,577518553327097 0,232571443815148 0,310534062993873 -0,963476641521122 -0,928782293820977 -1,34144067194427 0,696681522830005 -0,0615892424024044 0,226776665333663 -0,98364958831211 0,151716731365023 -0,715030993677683 -0,389684328718022 -0,140762853743645 0,0541749925307121 0,572576056867037 -1,22866362851063 0,0920261175164911 0,449094729018955 -1,12203240753861 -0,843623571717748 -0,317344003186087 -1,02892718002388 0,788687910079101 0,19419474274474 -0,924083565262171 -0,548938949995679 -0,161919140012752 0,924099196860906 -0,539056839075311 -1,0365421227808 0,427489486795012 0,621800398197911 -1,13194091085263 0,72198323885447 0,00620778149247087 -0,975867821084511 -1,07684570306308 -0,151196431158963 -0,0138221247414245 -0,222882621289503 0,900687971949335 -1,17293948654509 0,497355664295621 -0,975031601909348 0,590426033443135 -0,454283901745878 -0,784277372068359 0,282635454084897 0,372524121687515 0,539571511484797 -0,210583109360021 -0,00982275953478945 -0,483622471367772 0,371869478260124 -0,28864531605575 0,008145371012285 0,564298249396649 -0,372570505537226 -1,11508881433309 0,326880276447021 -0,412542086684699 -0,0658795430307164 0,00653301997579385 -1,21236111720447 0,347929013634283 -0,773698300178209 -0,782684738725965 0,295563957271169 -0,549521127312018 0,264912688205346 0,544607820579312 -0,836539542199294 -0,376683666751331 0,370505703484007 -0,906916576755683 -0,572230614788216 -0,854033076403415 0,452527560034847 0,256038744450153 0,0212856692124379 0,841473694966214 0,478222162488558 -0,798053550387047 -0,32759889114841 0,258596925037919 -0,739118942405671 0,139118824250417 -0,536860168869996 -0,259202528290345 -0,973441121138031 -0,0766867574646814 0,0891751703618718 -0,444925541110109 0,263502980952672 0,581639051377593 0,103057110481618 0,266056172770268 0,500878776865535 -0,582740353278536 0,449059317267239 -0,398402902683973 0,241844565596098 -0,152555456556512 0,890670242957393 0,767582244822324 -0,599883833752566 -0,819442778718789 -0,283449082281955 0,0751615713531994 -0,742928665519654 -0,433771506281371 0,938781495408466 0,574847572103358 -0,262174018425778 0,464314767111917 0,0282202405632331 -0,569343721212751 -0,624150759531561 0,0225411852437719 0,0371237842401028 -0,191062808060136 0,338168428980348 -0,95322009612028 -0,405449118732724 -0,0913621142565566 -0,717268404382947 0,329746772767936 0,385670460579652 -1,01916859070154 0,391428201396682 0,331804836539169 -0,592084803613964 -0,159616660647092 0,703428306720766 -0,655139425423767 -0,762297600008435 -0,396102489496026 -0,555446027227146 -0,361105442265827 -0,226906723695138 -0,608027671369856 -0,549145986448117 0,582837713467624 -0,523818384103282 0,0613798231588464 -0,0434996301559191 0,976993069253121 0,724884834371962 0,494351311992921 -0,758021301825791 -0,813756970914948 -0,192660325115226 0,0578079406480938 0,248001079140711 -0,6154060985259 0,236868252074442 0,335011924767376 -0,357570146591367 0,160030034831625 0,176147305749425 -0,0758445610098872 -0,324093888947163 -0,34550380876031 0,401280980587663 -0,0629858759787003 -0,766415098549414 -0,294478326742945 0,648818658559893 -0,400236943498129 0,110784649650779 -0,484881822010105 -1,00321378517021 0,449105505053279 -0,6885616068876 0,110224271824081 -0,717555465419086 0,544953452340228 0,409502243908207 0,0492511463087369 0,774276092296202 -0,0147622922233181 0,513728693862672 0,64944051170993 0,739780400750616 0,350474484417435 -0,171151906577645 0,644632955646903 0,481492004895005 0,349873511343857 0,134357445170507 -0,0117803195783822 0,851697251091663 0,275566509094098 0,427165855310614 0,424959375689505 0,613265927121682 0,933898031337939 -1,00091483050286 0,532290008584463 -0,257857379664076 -1,11470978627298 -0,703449105405502 0,427553656966042 -0,785676844399198 0,4684249536691 -1,1267854334452 -0,103981405858578 -0,636476202910039 -0,360705608861415 0,815991195983578 0,223884613075135 0,854651999481408 0,564610474078069 0,563345577506752 -0,385205238752493 0,308556952123945 0,0220376189561235 -0,0196557773541575 -0,83706896520576 -0,946147541432728 -0,310199600794627 0,267727231853007 -1,11280855285772 0,36249513479258 -0,759754699325289 -0,398218731709728 -0,220704183327745 -1,05705028554869 -0,485379103227669 0,567303370695045 -0,234683191772049 0,497026898323286 0,707964225837333 -0,808043485782603 0,533493112776499 -0,853252818523911 -0,551276895392731 0,208250982490092 -1,16185318128155 0,316400413470361 0,90018329043661 0,44280756041888 0,236908795325375 0,471962876177878 0,870933568691738 0,276373023161712 -0,498759375864102 0,694641409665472 0,0443212628704453 -0,729704655787868 -0,813568281919409 -0,182676226527455 0,922716133089749 0,547489189557769 -0,741191701410034 -0,406187411679086 -0,918015684974324 -0,925287384400237 -0,714190105943714 -0,143626384997342 -0,0294535334611939 -0,194580030745189 0,456004112075803 -0,460112679863387 0,291111483081775 0,539565272311961 0,733602705968551 0,323493747039502 1,06606177182608 -0,452278987054601 0,16297198964181 0,696105156350493 0,0165748049216037 -0,113621743044792 -0,802212419478901 0,147590814204663 -0,65274968023241 -0,311543701609131 0,260608523508855 0,0202465436715082 -0,626050278475529 0,310460790876924 0,380704984440879 -0,477831712715101 0,262647792379616 1,03807968797656 0,867501940804491 -0,746604535090566 -1,07658482876423 -0,0720624466820735 -0,963043024341493 -0,97221754269356 0,0962864560317651 -0,121389655578342 -0,98170244412532 0,177977436883096 1,12814168601286 -0,181930022516124 -0,656333881928903 -0,78658037754047 0,408884963469925 0,249158586608257 0,629775210178699 -0,667786455782597 0,246094478136744 -0,411917770483662 0,512191077827252 0,0176887846091103 0,273977733018903 0,0676172121316157 -0,458846190564154 0,35074633812791 -0,53007597497049 0,157461807307348 -0,369709646994656 0,629433661255338 0,277717659005226 -0,192323451880948 0,0626607354403934 -0,148866189080976 0,738066699492357 0,303740406317074 -0,00671001495109233 0,156298258389405 -0,337083370962723 0,118428469894892 -0,38169311933029 -1,01992131414808 -0,24496616673473 0,160589263044418 0,0253433471705165 0,306346035038857 -0,563274409819688 0,0297676380750212 0,15443820042125 -0,12710963783202 0,534535554692525 -0,0987208945104059 0,37635375798111 -0,454299483535182 -0,880498042441926 -0,383449584860769 -0,217923503607099 -0,584618132380712 -1,00783964987937 -0,718557056040992 0,207412300774991 0,58931625055315 -0,880924243474772 -1,06657422226738 0,0980544780093573 -0,0315332834383237 0,563806283625235 0,200389846303582 -0,647726471931533 0,920210941188814 -0,922436459906318 -0,385417766398917 0,68986664954675 0,942333422819873 -0,954963048622913 0,651703164153616 -0,959787961928771 -0,957666947934827 -0,84734723395084 0,356573525787142 0,234752397631028 0,523962052853084 0,732431350783463 0,705166103421244 -0,764929036043697 -0,627765068407751 0,389877287322496 -0,496055142731478 -0,196799001800428 -0,0208127407836378 -0,66971397790287 -0,847461035172869 -0,513128504527179 -0,963412335277051 0,723833567606623 -0,138992099373778 0,664559135400895 -0,516676495494853 
