wih 100 784
-0,886689825636133 0,72038775893446 -0,57530342335983 0,160798887220234 -0,330107051312174 0,255975112043554 -0,52918606903281 0,328931888982251 0,924868886869027 0,385974735298824 -0,709496095441657 -0,346797023120528 0,193386074688091 0,136122640680661 -0,434986120292874 -0,752062463299675 0,337064221056955 -0,544532778144544 0,742884480686341 -0,630987765440788 -0,661210091755226 0,356670391974764 0,287984656752028 0,86899291737645 0,38779311723379 -0,940730162377347 0,513384658177058 0,543243318721736 0,163764936233373 0,803802227992458 0,116198704162902 0,865440795878959 -0,727705232563399 0,559884280000783 0,0901037380296332 0,727845488836974 0,660508894734339 0,702414949586458 0,418699960180548 -0,245205757431557 0,589067018804768 -0,47569785820605 0,217289865573316 -0,997124558755588 0,470416165584423 0,431106037014047 0,296448667724814 0,552547660395123 -0,302666632827847 0,204534319850636 -0,0891195194842372 -0,551182957744769 -0,899533448928527 -0,772067772839721 0,608400004978125 -0,258545793669979 -0,577994406547151 -0,45077340863982 0,76703211399091 -0,395900961155595 0,736232015096566 -0,0871854603963855 -0,860516820317257 -0,910163690993706 -0,76731395570786 -0,605157052995756 -0,64094341984602 0,564020244090137 -1,05220387784393 -0,255100458113487 -0,539128558599423 0,474335357250632 -0,0802136710787031 -0,103974944283602 -0,340617074218388 0,691975408035201 -0,97585580075745 0,14645215993845 -0,767456326011596 0,792441551563 -0,364383876326703 0,856619448451139 -0,238254717504113 0,901818918592858 -0,138965596565428 -0,347301787349047 0,754932858575082 -0,957077386394248 0,943370962182649 -0,669357377785193 0,289724955424286 0,105984941565941 0,955792283372938 -0,152115941491425 0,0619412437231034 -0,297596151153151 -0,637768790995829 0,0823572942807766 0,729101661567543 0,0408703094420887 0,0351026691799642 0,628431120171023 0,498533722909624 0,8354242144951 -0,398752587860316 0,261624687510261 0,377487513429305 0,0542064531847795 0,435071029646307 0,807514506001091 -0,36729378646785 0,218708762973307 -0,758594223625879 0,908408274860203 0,930511049494488 0,852172056937996 -0,873184811658462 -0,767570465722491 0,230648421990216 0,592256457336108 -0,362940948351283 -0,67970156178443 0,651302090008205 0,615624278439364 0,473992589699864 0,349069790776071 0,481987325250434 -0,983731478931744 0,775944335433104 0,865746113142332 0,218552589633098 -0,183073795288792 0,274753035794189 0,0851114127657868 -0,357023796858404 -0,144986577645009 -0,777016530970549 -0,156995957109431 0,206695773987539 0,499337890148698 0,185282221400549 -0,387009384009514 -0,464574988072521 -0,913909710157375 0,67391791262834 -0,92997178084381 -0,128000082875192 -0,943351805256485 -0,0847153588280239 0,181749459617664 -0,423537072905829 -0,857282000489849 0,860685106405054 -0,863695082649818 -0,601894147011267 -0,278525270172746 -1,00929152372286 0,852358577670415 -0,650335360838939 0,204860827177418 0,671559359795996 0,299218811330225 0,21245525840854 0,464927646376962 -0,529032120463984 0,697846010618265 0,808342035841694 0,056520672578042 0,177428642342374 -0,00995878289590336 0,568177279825918 0,26614838184119 0,0161792422015394 0,735009093216604 -0,586595023243798 -0,96369962671297 0,787836453208026 0,569634175502788 0,97543961794396 0,4144067279746 -0,506729961648731 0,456854423014978 0,0883104564415978 -0,398234259521079 0,322563922705096 0,0773750735765679 -0,0238419627403827 0,155169471812222 -0,354068010265623 0,891433086705363 -0,156148736901099 -0,681479916289939 -0,585844334146352 0,892303823002154 0,702224632534203 0,815837051939778 0,346137706495579 0,00193453632604501 0,563008130205152 0,954476120962593 -0,764492692093486 0,80602196259085 -0,122675303283844 0,930011591834313 0,628886166080593 0,307637346228666 0,104543329383639 -0,888952247560311 0,723807777074356 -0,657895224548105 -0,106764617908781 -0,616083926648345 0,836324423791233 -0,118413840592033 -0,283217033128007 -0,787849966549669 -0,855209321921889 -0,459122536332152 -0,90869059340998 0,308389850688236 -0,355526063962094 -0,449056850308312 -0,701750279414484 0,21348818801409 -0,898964174113116 0,188428831231941 -0,205136426811672 0,0903846152752226 -0,998249824394637 -0,417270325676568 -0,316755274035867 -0,2211394741909 -0,992208867464666 -0,993823632421101 0,164288629186756 -0,334862144529683 -0,408088699430274 0,151158417132027 -0,0410312639217424 -0,983263724080893 -0,996319051746565 -0,144548816732647 0,432050421634033 -0,690755652203892 -0,0497047152617103 -0,62081930153941 -0,616571091273877 0,418859950594395 0,0781923739665514 0,360323905058692 0,55838675197387 -0,275424532155583 -0,135964426695783 -0,808507933912247 0,244652659747571 0,613869853103439 0,472260429205447 0,638504997302342 0,820730010946474 -0,568650193398473 -0,499519502915385 -0,990604763519836 -0,893972765481483 0,11629336577731 0,653578332296537 -0,892590413336392 -0,620653870426107 0,844680826824651 0,758052444005175 -0,951068239819546 0,639484993104005 -0,0233791775518423 0,547176833117609 -0,992607842458769 0,252097175355695 0,720707629345568 0,0475217678351222 0,878296314704507 -0,845774494444661 0,640259499858955 -0,258189217903112 0,279954824595761 0,925096581082446 -0,442700394105986 -0,0126794493897602 0,919388760236538 0,885557022552894 0,795811865036283 -0,275055373954059 0,508895076238617 0,134733124500418 -0,128239021200073 0,308653796023946 -0,51488419539039 0,483339326961495 -1,04862626200834 -0,270510665802188 -0,712680172676461 -0,356428819166807 -0,199347661977055 -1,04959516968765 -0,538182978637866 0,611711469272791 -0,0254366980292182 0,670482996774442 -0,5159660230731 0,048977153257654 -0,251363272133493 -0,14813871171966 0,428515612194873 -0,516242905374078 0,519153781826244 0,461217223333736 -0,837991836814499 0,665643428857532 0,181889846869971 -1,01284538967925 0,457768788158226 -0,95588166762557 0,613941027122917 -0,87409564898178 -0,509000451847376 0,0452658838615573 -0,808940643118916 -0,126477738041699 -0,294130912664868 0,657675667901523 0,0127887397781053 -0,527727356376259 0,229685569405721 -0,0922480437045979 -0,306542047754791 0,200352838198351 0,283996533181433 0,561198634958421 -0,826383586447995 0,557225480874202 -0,152589036202727 -0,199408744265561 -0,565942544451782 -0,152614916071724 0,092408644044927 -0,114032081583221 0,250615247028864 -0,0725142456779143 0,550371277533457 0,380907807333648 0,051391112933842 -0,27056596881619 -0,831724429007102 0,802889307192723 0,153796392539343 -0,853674380252155 -0,0660349831802635 -0,398379097946074 0,367396210007641 0,32610243141341 0,347346684645835 -0,943835668801948 -0,0621814063582351 -0,207111254125073 -1,00477177281399 -0,836179987543869 0,49839063883229 -0,600000757292159 0,684621908356541 -0,760295714904322 -0,891482005665412 -0,452823188660234 0,413735869578393 0,611761459260482 0,201666191564007 -0,344171561835734 0,627079568262645 -0,218949236680153 0,00707642497707426 0,539781092356372 0,712365634652127 0,136039280268588 0,18342884282812 0,216294278608978 -0,503832317370912 -0,820815128815997 -0,793835719530874 0,322241853889221 0,686227921606188 -0,50422674072163 -0,762447470226143 -0,364021334691217 -0,90202801134508 -0,28499379413729 -0,916434825525434 -0,310667302978473 0,78470872125649 0,56997101383329 -0,185638006490823 -0,124733510092329 0,358818748127237 -0,114759659110917 0,303992962144418 0,326980204598119 0,292840557793765 -0,509203587054753 0,269698528024963 -0,461490159243863 -0,384764556376121 -0,540469158187489 -0,515146253865502 -0,915065049483489 0,481938139480104 0,71237954381902 0,509319675975942 -0,884001823432644 -0,267685505540748 0,599887161968472 -0,811803058859393 0,681178397316774 0,86256383489325 -0,976820557765414 -0,392089535136466 0,0833133873887928 0,926813103732988 0,394507914808444 -0,609431650095751 -0,301064916483127 0,515746813578189 -0,517897615729995 -0,135502832729264 -0,973649059658978 0,928518488972107 -0,981089007319885 -0,931132482177664 -0,217209593441634 0,787870976187196 0,853853517981524 0,916932478667743 -1,05378222906083 -0,166203537132701 0,56002782726826 -0,392424065090226 0,115310973365248 -1,10569619592182 -1,0146594508237 -0,0214271560136557 -0,779535488528688 0,0376545449857669 0,76322665695707 0,829232770787522 -0,900801978710142 0,293544390310629 0,0497173464766195 0,0141667310897296 0,318699831237061 -0,738775129016185 -0,811931066004009 0,343524318377851 0,846120716304665 -0,934563505216836 -0,528389508163208 -0,0345782528209127 -0,901854020290675 0,545870677891007 -0,572305047639786 -0,857955845293835 0,42132084087646 0,60748578677449 -0,360742450185164 -0,782661109245279 -0,216081586254636 0,575570786509666 -0,872366589418573 -0,25585536535844 -0,836370483089652 0,26053870093875 0,276352185896998 0,0708806554936573 0,836311878102452 -0,689093882519129 -0,893359313954492 0,633795574368556 0,68684159957631 -0,39068951674984 -0,237827375710925 -0,301115199941686 -0,153343905742212 0,00072915645626969 -0,30554112419825 -0,522354119282693 0,613023879332168 -0,547713061882504 -0,977703990827502 0,846248902432597 -0,689509328169478 -0,48364113727826 -0,551679533324084 0,462437762248264 0,36648176590233 0,788735868029423 0,440759891660974 -0,535963548782101 -0,764079698094642 0,388129489747394 -0,161698226990976 -0,620310630773203 0,0791594951657372 -0,746861112874297 -0,223146333431482 -0,984394254339408 -0,0839075079767586 0,0676024650684365 0,503167791442711 0,495693402033709 0,90414601712974 -0,198204983984245 0,229994841043118 0,432769248748392 -0,238104552878465 0,669453159249692 0,214178100667836 -0,62453731403297 -0,151406876941843 -0,884891866288676 -0,403594113479531 -0,71719053699491 0,486344630343825 -0,803338090226226 -0,716870822162625 0,492498111343721 -0,343794398075228 0,625878170096463 0,519867172508943 0,921873495539543 -0,233598283997521 0,541652245722507 0,323684951641763 -0,761289580727506 0,705585905612904 -0,650946669165249 0,628911622488139 -0,42752367881443 -0,807274912696141 -0,344920824972534 0,541843715824574 -0,489436928413164 -0,0442508894959503 -0,48204845481531 0,889675684669143 0,45738974295118 0,262275671927476 0,00323718670559136 -0,255422841501311 0,670973755689777 -0,462106290822604 0,0180126057875727 0,533473508583491 -0,99344075575624 -0,293163711901565 -0,540453983203756 -0,235035925279196 -0,227029834642815 0,882951032732974 0,204333762245408 0,280177268299422 0,213406433848832 0,486195990544241 0,55000978094165 -0,291220784172283 -0,657186165440724 0,454945727326987 -0,0344669702362596 0,680047168266693 -0,613213049738134 -0,95892416720385 -0,378941459292162 -0,860846223956726 -0,865623999108774 -0,4697066118754 -0,922608923891215 0,305677378944471 -0,0664001717537591 -0,719049721480993 -0,237377384799617 -0,863253241372684 0,578507961756004 -0,135106510019495 0,737714176412828 0,2540440434509 0,664084983384382 0,940343575109295 0,231665198534639 0,440439590426882 0,17196613011502 0,515319999565256 -0,182641059249324 -0,315578221496174 -0,0347422262709458 0,342158779174359 -0,727615692682485 -0,0690815561724117 0,35589382144693 0,774098847788409 0,494340431484069 -1,0733053403398 -0,761660275239346 0,259904712743526 -0,679834094682305 0,627386965304648 0,890925072311884 -0,16459852481113 0,315241433640321 0,398755307463545 -0,386292622814005 0,143581453402822 0,757003440502616 -0,599363419820085 0,0546052803322204 -0,000560673389936498 0,627860179416135 -0,705979557487072 0,683952938030298 -0,760923820030893 0,0385750090289931 -0,585450497146549 -0,773791367271323 0,490660581610927 -0,50221525061311 -0,192345902083955 0,152049230326741 0,910231311954448 0,117770180326666 -0,286932899658909 -0,792823863859846 0,0651514817318809 0,936322061499929 0,154807659179903 -0,280435686492346 -0,232995492913759 0,838641715369716 -0,735279839661048 -0,472587882763865 -0,883683620785045 0,313001658515943 -0,251211267340179 -0,425337362381124 0,788773788547341 -0,220415194442247 -1,01181834789679 0,712622483631881 -0,629422369209452 0,615386476023856 -1,02364464942477 0,714165404006194 -1,06888114014852 0,220831436911946 0,0626221126898384 -0,338366875420252 0,0233944466130533 0,635047186819188 -0,353129010512252 -0,272258281861269 0,449070645554146 -0,547967233498525 -1,01418129820405 0,645255257123506 -0,515422014157369 0,117554832263833 0,493819295853638 0,172697055366609 -0,408296450917932 0,586821402598436 -0,780149887989326 0,133807240335295 0,330921276888493 0,730242845467918 0,536871427135852 -0,131640964921656 -0,762036990884404 0,819936484001802 -0,563439948766889 -0,284259500503652 -0,561928619017672 0,0307018811064798 -0,276986988980559 -0,821253964877358 0,0565432772873921 -0,0466307279160662 -0,816230568651217 0,767051782197233 -0,172142380935936 -0,567906450050757 0,663281435422265 0,0325134107304283 0,0522721335421743 0,447623525618295 0,0188240419231735 0,63676911379588 0,31452712534286 0,029054201410878 -0,977193113680647 -0,348199941308745 0,264031879191042 -0,210826618467287 0,110513538449293 -0,255398546934989 0,378449684428581 -0,16341160591622 -0,627284305596587 -0,763439796078685 0,656302580468801 -0,884114794572025 -0,645914395514522 0,137787484757723 0,172761955928378 0,905986984365995 -0,819954508563995 -0,678175153313188 0,630469495950033 0,699779632907298 -0,494775131211992 0,450405836401845 -0,167771454637917 0,653863059309819 -0,690685942517865 -0,888366044521018 0,917232682532006 0,128954642438098 -0,99783856411708 0,837147335481939 -0,320459027919553 0,883620601701763 0,541289114767025 0,20056318024078 0,823701824007486 0,798861246386231 0,460358542225912 0,723318486367804 0,95809112821542 -1,03043402495332 -0,19445419255968 -0,773845550207955 -0,421284084984666 0,911757675772677 -0,957111665828034 -0,392325226934499 -1,02224024619363 -0,562752099371745 0,798416106982202 0,11794524770746 0,235607956759012 -0,317084029440335 -0,999501168342677 0,6072558466809 -0,468164276291216 -0,469052288718695 0,770994748005312 0,579467732527334 -0,547373964082288 -0,025971060604411 -0,192845595537006 -0,756763234709569 -0,136320260453924 -0,436166123557733 0,578435373741156 0,833591672834711 -0,382479145962191 0,178770467450889 0,32871367356522 0,373859449182488 -0,576289363906925 -0,531676892258191 -0,667506842645014 0,605497097914835 -0,158088624878212 -0,766298556015605 -0,177182875204307 -0,111212207535487 0,594491399366485 0,672430533001478 -0,893295822391209 0,461295290425509 0,323831874192072 -0,143571043826078 -0,440653102682283 0,956053086071497 
0,860460001619275 0,929328840529893 -0,328611200763919 0,298942717454354 -0,914215652123586 1,00616485938451 0,422212648884828 0,197297414624099 0,248401357297712 -0,13263738282136 1,00056841265194 -0,0837001879521648 -0,0804377546445196 -0,375413905697534 1,1098694884194 0,260580974442916 0,834670634336413 -0,0267007379485573 -0,106610746057688 -0,144058973367389 -0,435642339594082 -0,312932046712484 -0,0453854625220971 -0,588857601402532 0,739064711652776 -0,134077360656993 0,957404546566346 -0,250534056770595 -0,158255663545833 0,331356439593017 -0,0948212290654898 -0,998505244041823 -0,934431225089881 0,742758086569249 1,0465499789854 -0,467239963973796 -0,364227895597315 -0,290981020169673 0,997830692349156 0,0448546338926278 0,655383751202422 0,609516742728747 -0,187578799635874 -0,46907625222626 0,0370453077441905 -0,0187758090599915 0,0442942797316519 0,911259135130727 0,615421216501111 0,389501475122809 -0,322031157644783 0,173848125978422 -0,70097396354375 0,800691912660773 0,579257240166954 0,450605387524647 0,170909809306646 -0,633995453726114 0,571369667466187 0,190717257340313 1,00372712823928 -0,57816973679955 -1,29210306490854 0,635119784485299 0,976847087768003 0,709072978822377 -0,546323492724794 -0,0644585285347284 -1,02661313840717 0,0568446611632759 -0,704478992350303 -0,282353689191543 0,016155487485134 -0,470936883207101 0,85178186248249 0,6324063765297 -0,806866322156732 -0,846054082914235 0,335651260045624 0,172987884335613 -0,494383364010746 -0,376276079291861 0,0289018175038347 0,496354250247369 -0,0385561399385901 0,981415072138468 0,794393742831702 -0,800217836071076 -1,06158433941936 -0,883134519036875 -0,179002460311084 -0,926038279072108 -0,335188771013345 -0,662945863343542 -0,211699136511107 -0,139966548905382 -0,132828606971896 -0,468997842646774 -0,197065982482697 0,54783190322562 -0,0980136681095616 1,1804565864573 0,340252046547816 -0,259358291166532 0,229910006168549 -0,0165776449321327 0,380385934107222 -0,922692875394523 -0,629415822616371 -0,375921992722338 0,445835945164799 -0,293696281266304 -0,0753512827834558 -0,342512279990343 -0,169042561079018 0,262775795706511 0,165878469767504 -0,985029642475463 -0,792149511250613 0,521185983011663 0,529580174837013 0,754936492120308 -0,172680845118987 0,994848449614041 0,491153121022395 -1,01622499638035 -0,263984887163652 -0,0166370598157081 0,721724409288849 0,331126063371282 1,05869422729128 0,716671974720745 1,02836934141074 -1,07104434932002 -1,28007693696459 -0,557234633936819 0,60249495637394 -0,321776948710287 -0,561256591873026 0,657617508768119 -0,850502329755531 0,724229555455064 -1,08701003258817 0,293125880276559 -0,404766233633783 -1,09422079543482 -0,524102534890509 0,532323351045697 0,111705110579102 0,143669611484578 0,193255537808445 -0,378960842722787 0,562551620471409 -0,0367839057477244 1,05829144207804 0,166676458107607 0,342021418995154 0,63917522872216 -0,3472515594359 0,202906413767456 -0,0986963073904998 -0,257888693341284 -0,791319075135496 -0,032627830849006 -0,231486490273334 1,22752455206698 -0,105998176528275 -0,0940908852760698 -0,544721600972836 -0,721141806160321 0,797635708541555 -0,394794309731473 -1,47001538535889 -0,918118424526194 -0,173448956995654 0,224338005039374 0,228220659836732 0,260500488182673 -0,234415662861616 -0,102377282787619 -0,13325287018892 0,049052255333527 1,10018708012679 -0,16433059190258 0,940294148772985 0,228124376076542 0,741214427654669 0,118695136190963 -0,527798148729228 0,360010171824005 0,0908992147528659 0,689724575734311 1,00309912621545 0,847239313275978 0,0875916742847678 0,306885075789779 0,274898095642873 -0,312442602793932 -0,389958807920348 -0,326533489175445 -1,77068186223404 -1,85400205793752 -0,252387265018589 -0,8206919321132 -0,545958892745836 -0,827664123269887 -0,813505156424176 -0,551483170317017 0,346457432778869 -0,498803877035507 0,846788285892733 1,68193123350306 0,218610834657688 0,704635920641848 -0,975641391183948 0,795951290213042 0,359571113574315 -0,447753629322933 0,45058257874198 0,164788260771521 -0,544816334273471 1,39345064336052 0,160837620545958 0,250265241308293 -0,0965788022858633 0,803584838278611 -0,23872842589612 -0,620869290547002 -1,45259146375912 -1,72099823313916 -1,06669568164613 -0,751985682096177 -1,71134214123479 0,128162844747083 -0,331809318907164 -0,444899647924642 0,615843924922338 0,460728098668528 1,00505752527899 1,41614125622535 0,313194808389624 0,0899059352287677 0,146580081218492 -0,970720994361433 -0,850632110478287 0,621415247323138 0,258026414362632 -0,995494946397436 0,461420678007377 0,339790851031396 -0,602348862245527 0,245819079040939 0,269097078305608 0,39191677583007 -0,244159167803882 -1,21895209786677 -0,28600389993212 -1,78304840998685 0,359414544870378 -0,52698138697517 -1,06337426788781 -0,271580476018229 0,791642637013071 -0,00801491398190763 0,758314964194013 -0,0943493951169347 1,33264286634194 1,18551985420525 0,0743891644806527 0,0461568919396882 -0,924819007074697 -0,334824810054919 0,0797845290899705 1,02596786423399 -0,936666409672752 -0,781906717627193 -1,00780744713779 -0,164514511250991 0,183306453126261 0,488719061188528 -0,313802084981777 -0,236169392981308 0,237131345861035 -0,0275142757572474 -1,51054440063272 -0,545803860084603 0,0335291614992233 -1,08357059785897 -1,69905129328681 -1,30777343410739 -0,165013620044149 0,211204127730816 -0,0666344313937082 -0,362683811189528 0,0299916941836017 1,39859840288448 0,876858274119593 -0,488336641701092 -0,69215617424952 0,90052487720973 1,1534338514362 1,13574872558858 0,119707411678484 0,255886909130498 -0,81382314083304 0,696463540509029 -0,677936986734786 0,540838217202365 0,510934711016773 -0,720460105192455 -1,15088301574118 -0,612173252999645 -0,574959009161948 -1,1332731502741 -0,77674903161995 -1,3757634918481 -0,147957561313034 -1,19075904738524 -0,199650312633201 -0,850427665304309 -0,408638830264647 0,32873670187349 0,27157072577429 -0,286146606885667 -0,0452475533668052 0,134145838919949 0,0530030116661905 -0,0902838037843518 0,849341526459067 -0,281244266723047 -0,000409624741408701 0,378770342768105 -0,770497023093279 0,352117856134716 0,47264763196784 -0,0871188506084906 -1,07502923004167 0,655033940546553 -0,286119235634946 -0,942554483760642 -0,700073072920699 -1,28764086053091 -0,00141591913364561 0,622518003616984 -1,38298582948953 -1,55861009532362 -1,01392598844192 -0,700283576372898 0,636396441576595 -0,567005592325602 0,940110387213948 0,212240197214292 0,895703934039357 -0,999457308229766 -0,101875449450589 -0,27679379307654 0,29764067568485 -0,0407344340418895 0,11543996452964 0,121876098973133 -0,48080861724404 0,675623473003353 -1,32645784738886 0,322489372301034 0,517079471326864 -0,643076027708849 -0,733783051888624 0,202288792107073 -0,692184821512837 0,435059166802452 -0,623717772914804 0,665173766051488 -0,147829363118347 -1,10438112013629 0,367590634449348 -0,447165310616161 1,10053634831184 0,0519311539038481 -1,22994307821511 -0,640149562065287 -0,36000519363089 -0,0919299593539443 0,26056955783206 0,0207433758291792 -0,655434936774753 1,09355154640435 1,01936630028309 -0,765240269340204 -0,588725093560362 -0,02468464826252 0,52058702691136 0,259360665880938 -0,182262206302973 0,639587623259823 -1,06741878461915 -0,204588089944858 -1,17839523473714 0,610804434594442 -0,759255985587101 0,350221992577189 0,0292665364404422 -0,34887354964614 0,978259822861109 -0,858529213918306 -0,579649835739982 -1,09776023643036 0,177330331210587 0,12025916339956 -0,699906259913965 -0,517851178447948 0,0863058278746552 -0,483892860681209 0,153435334103684 0,0680430003337297 -0,0356269168699199 0,25656338694533 -0,830795781418937 -0,382146362691644 -0,391073961471923 0,608066533993856 -0,238235968216618 -0,684039452047491 0,128623620322293 0,294426604166095 0,386723025033659 -0,505482890112385 -0,0408684807327736 0,429357480391959 -0,727990199482527 -0,560874868730696 -0,418120563423503 -0,448195602972832 -0,277328372783987 -0,703069427811689 -0,341533783961155 -1,00328811926049 0,15228152280727 0,243851852550042 0,0992046193042878 -0,065374165118116 -0,182898713288035 0,0701019781484231 0,684599880261661 0,155107288917591 -1,23894752393506 0,334511103497189 -0,477105823907653 -0,650157024406901 0,191549218777284 -0,435121591645162 -0,466858558105158 -0,410493939814667 -0,569413453777599 -0,233875664553109 0,180871623156736 0,0129317329117566 0,219488463544578 1,04352241699461 -0,732169979177849 0,803300029921431 0,222894507845315 -0,946207912189122 -0,000368972781907013 -0,491073553154814 -0,58296108137681 -0,559760713041634 0,571118627682712 -0,134257158207507 1,11449755512074 -0,119797573378412 -0,776526530758243 -0,137365670380477 -0,818719135225258 -0,132914863385466 0,400639109983875 -0,75694193800008 0,0768805292412787 -1,06852390612226 0,467771935017572 0,370174620557274 0,57505131354778 -0,52146173033123 -0,857810820095598 0,190371150374565 0,400167279815883 0,438338748483773 0,833856868201465 -0,60302207244282 0,596748428473271 -0,899205858430193 -0,140107374924548 0,474787599427984 0,0988611140548955 -0,0134460464037396 0,176634432154179 -0,530835068881303 0,619847001786365 0,433645980714124 0,42143713069265 0,417679222236545 -0,422990429324312 -0,120904515121752 -0,177617556668002 -0,0449232599771648 -0,175803234416345 0,56255280909017 -0,245737061168356 0,367131873902169 -0,160472647934581 -0,352948390219978 0,925822916810378 0,0882621074287213 -0,675410806892552 -0,263059626014647 -0,763104153762391 -0,0967466859253901 1,02567559850778 0,889676990271522 -0,135593616405822 0,0983258673567668 -0,252209567474916 0,157901058046699 -0,0786552982364385 0,591512235680695 0,561445987343745 0,119864060150502 -0,376951334490572 0,286738729766193 1,11901487901125 0,955188493687309 0,208290112999893 -1,11872664197319 -0,266433354390915 -0,522870983018847 0,586603251547598 0,189833025729196 1,1955961764296 0,791367812355123 0,177721534284485 1,24561561773978 -0,0525792683477647 0,169559844790229 1,2295497699951 0,780439350632006 0,180443839819544 1,27025646642208 0,256003662052583 -0,258075870006026 0,157191450382859 -0,263489308140633 -0,592184529184579 0,458362178634803 -0,508571173382891 0,180986342026313 0,708874917620465 0,755942881557479 1,4192456656446 1,12051272820687 0,948768855160852 0,435499560295745 0,228646374456577 0,677342186878928 0,666609576871019 0,319636715110475 0,630629651935595 0,929172782575394 -0,23524073680908 -0,904568715204939 0,44090219920531 0,777665172685258 0,648397136213463 0,707038385991413 1,16555017199822 0,504756970925689 -0,947044192523895 1,12973407826693 0,561987552192725 0,621542938069717 -0,081900637876399 0,337040932562635 0,944010375042282 -0,321884441998747 -0,0270888065847513 0,751506304176227 0,975997572945466 1,51795467503461 1,22533259569359 -1,15377926922028 0,105302892602103 1,13696739174941 0,0841510059193173 -0,710331829187315 0,49758404774314 -0,494710079205206 -0,604597312569164 -0,514781609530631 -0,169687954863159 -0,148758860152261 1,15161799497214 0,384660702956002 0,873971999041174 0,233961296876844 -0,369140264018644 0,384815543797295 0,290307596704173 -0,130258919198277 0,266169096991443 -0,495862584397954 -0,747105015782614 0,155645040556857 -0,901555058764159 -0,713406254277968 -0,252890720917291 -0,469198385246047 1,00470320929212 -0,0359821162131386 0,198591442178183 -0,554500975407511 0,883225823593123 0,655535319139006 0,701483644808949 -0,900150369778026 -0,285043165146331 -0,417829506339215 -0,810266631787798 0,318571777028688 0,99559828377762 0,598084609442344 0,0292646145935964 -0,0269983328699261 -0,447309691465347 -0,0759023623710813 -1,13597533265924 -0,960766435155908 -1,13193079219438 -0,604411352875886 -0,133139872966536 -0,499569227981091 0,838187881075175 -0,702272765817376 -0,442749296257498 0,382321014190812 0,549723461806233 0,647492106224914 0,76240792817419 -0,0834129135667088 0,976507143296479 0,293479840603515 -0,385202376366431 0,00187133845171161 0,425196105162345 -1,05692514743402 -0,275893304094418 -0,227309873209366 0,781237168409064 0,999643145892087 1,29040224807128 0,626785991804628 0,0642013652867784 -0,395066756092277 0,587373265208301 -0,459619766624428 -0,521799151879893 0,309837052623414 -1,03652543310198 -0,398557235441728 -1,23875681633188 0,77639000336958 1,1652993459017 0,232213203439572 0,762399944253475 -0,832515702697748 -0,705239939339224 0,607282168546993 0,424632880723942 -0,40318745613308 -0,1955090756443 -0,0991701649146498 -0,0702341116153324 -0,354809088177353 -0,05602380110335 -0,163462229116371 0,0686707442232944 0,79889467665367 0,445463808757053 -0,631167653458774 -0,902970255463015 0,93553466756966 0,0783762797786347 -0,121172653989129 0,172116729926 0,454784006683111 0,168302559723754 -0,468011443410132 -1,07966595069621 0,117577189854924 -0,489083137700477 0,753421393265363 0,26885941739315 -0,390272723526594 -0,220855796717023 -1,03863963117738 0,282121389480533 0,428442913272496 0,440904195487421 0,11566091999218 -1,44208712762206 -0,706327471586191 -0,321576048041444 -0,00770586431093179 0,193535717877758 0,321769154203126 1,25040960955192 0,898977892684343 0,562199452889931 0,355435480459522 1,14378458372935 0,34395642278862 -0,29033502007842 -1,14625333542708 -0,580841477796872 -1,63158404078573 -0,812850345272903 -0,329432235565204 0,886369548872441 0,859053276157242 -0,756956291757767 -0,0999673903418198 0,0848651631585537 0,883787879225844 -0,810791949803769 0,0792276655223423 -1,08457276826653 -0,627335823947226 -1,18238213814146 -0,64338201116134 0,0461671107799536 0,561788252515162 1,53025929950851 1,45560380189246 1,3398939246766 0,361419490244416 0,284497202881713 -0,250519772159078 -0,219000955538464 0,048748712882368 1,3217416728252 -0,98553010476958 0,348679842598901 -0,485948500968279 -0,243624683919535 -0,222627863552481 -0,0316825006619876 0,15522944582205 0,686664018073493 -0,369162493086273 0,197147761770279 -0,745132879327899 0,581756147748991 0,611141199572148 0,17651813365389 0,0769061273918171 -1,81703382514936 -0,84725296966995 -0,758113514449948 0,699570479604241 0,0333425411662744 0,393976448499371 0,20152317995321 -0,357112170657646 -0,669618879505383 0,0467262934466449 0,72100999507307 0,493318548815001 -0,43282007398082 0,645689589193809 -0,586760222033947 -1,3374254093563 -0,69374932799786 0,272189792345254 0,996597711105541 -0,624901199190041 0,299404531607132 0,931427090919607 
-0,583314063162341 -0,0778609763736802 -0,985326706343655 -0,157738294443285 0,260301125984871 -0,93126832950823 0,741061744260672 -0,402536189407397 0,397548469488372 -0,95934948455465 -0,851969257691924 -0,752501244515787 0,0982682740929714 -0,619207480229544 -0,811380813073142 -0,0512823505052164 -1,0224002225641 0,0769545104532655 0,117566073978664 -0,0106677172663228 -0,34753860512527 -0,484935821037907 0,884558677600413 0,990916877995642 -0,152463581824855 0,959725449066183 0,689104836852953 -0,100372821806193 0,423180762752864 -0,874963637834367 0,681457217010782 -0,0495319684067329 -0,780453919585851 -0,922776026440566 -0,637703429746748 0,383990620780328 0,299684410705122 0,621347713547006 0,567845491321883 -0,166264644856949 -0,097015854160896 0,850695209757454 0,529250387407382 0,334167366228699 -0,0776984793331513 -0,970838297474762 -0,398271277464381 -0,467803104887794 -0,927777414914944 0,849638655419072 0,466900426368169 -0,146551530575094 0,167064062753043 -0,735756834353261 0,262973839497561 0,893625432520999 0,0325719833770312 -0,978431596357328 0,989165046873975 0,293942664571579 -0,627664114090746 -0,165561442079691 0,16631980628568 0,26508613900077 -0,648528597758918 0,199214355586941 -0,97432420532329 0,0193104018009709 -0,996359547633315 -0,219318515564959 0,632446058297753 -0,661973766480025 0,478918099231408 -0,800244848546717 -0,97001815376923 -0,248433760322205 -0,070533063937272 -0,495388797851305 0,0252523631501194 -0,238837190398554 0,320026376120217 0,140970564171789 -0,180636550888598 0,566120124199159 -0,348088181909319 -0,175363300206923 0,775345236241982 0,946195121592416 -0,19407191719545 -0,539336583106089 -0,653490209833489 0,275066688493071 0,630744131854712 -0,718038423572368 -0,514715815262797 -0,919533358562065 -0,305773102245968 -0,711155391319031 -0,00393505490861786 0,707158085384256 -1,01234067121094 0,532502146296409 -0,519433832919862 0,248994573473808 -0,82456637497217 0,0884242901411711 0,316978185472449 -0,0952563149160379 -0,804212540794299 -0,522970677269296 -0,0421990321612923 -0,479112949971768 -0,0099273534590145 0,215153023094004 0,966457213630858 0,221547009548681 -0,990731563166559 0,59611271637176 -0,390078497852759 0,525658275196003 0,422985432953812 -0,921738202160484 -0,806833856307497 0,529207501303753 -0,574885792152032 -0,629226806066406 -0,298548309546432 0,183573874322034 0,690312162557616 0,883989696278061 -1,01201915209373 -0,420112157777575 0,456726915623967 0,242197014759774 -0,300334674643885 0,705334571224252 -0,378707792074209 0,547373308634134 0,379959501644848 0,550752587767298 0,485364478635684 -0,152682268951255 0,720272454051664 -0,698468717734151 0,49575209626222 0,823021003393376 -0,718930007356479 -0,588819005878442 -0,688618046093139 0,266146064968978 -0,943874755570389 0,0928014006429623 0,672819862342994 0,462086271685904 -0,718805317831325 0,895947843968679 0,32990453330574 -0,115103552918056 -0,27419950209125 0,755213716619277 -0,646970458655017 -0,909067554346991 0,165838150489653 -0,728469521802507 -0,554902583569561 -0,675510626293531 0,0295445655493619 0,708803080287331 -0,528960350043155 -0,766919367536583 -0,418171015113982 -0,55162880788421 -0,788383901553657 0,057425552373788 -0,966536854706286 -0,426706502103236 -0,637115296055824 0,909723865447451 -0,964859619102692 -0,387519820564859 -0,922169622330528 -0,72117261267569 -0,119966666193342 -0,584509027967513 0,803909355905232 -0,136002924668471 -0,160524713598934 -1,01700891121777 -0,0494035307015113 -0,215366292003555 -0,66296920779289 0,658086955041914 -0,274597273914647 0,556228316929578 0,180593353935922 0,368890956589271 0,650015772392956 0,425354928535036 0,84033975195337 0,153488476764663 -0,211962388905427 -0,43347565171034 0,932448088974649 -0,922749037958303 -0,3136066358136 0,623168132507489 -0,128779865420592 -0,396061745472795 0,416716525368287 0,693750896620754 0,516002872016643 0,37780277437998 -0,19043230721139 -0,906671385617431 0,608402823442929 -0,988522541558179 0,171422983692015 -0,264257532508441 -0,561756295517323 0,504509775313834 0,37740253391455 -0,0129148594055642 -0,252297287199637 0,657910429369992 0,861210676116987 -0,112061938860869 0,688774228030492 -0,372956814004033 0,877744574699422 -0,342281747069189 -0,0848774937552783 -0,062161162417535 -0,928378763051985 -0,116466034374049 0,813275717806052 0,507215589182257 -0,652749905053315 -0,224466117812682 0,693046304423953 -0,852623358456601 -1,0289366178097 -0,804300741560505 -0,521282859028578 0,192649260025777 0,20010479037728 -0,107150477096061 -0,235938582540902 -0,435569025217565 0,835606905781173 0,0444125276029561 -0,865692652973633 -0,101261913682367 -0,0268106780251708 -0,690548711640832 0,743868893190515 0,766819301340065 0,823536093764345 -0,727780129410728 -0,792717535981494 0,79820381282518 0,937518982497947 -0,75321319843461 -0,268604732965433 -0,241343487534271 -0,222357361570955 -0,418464536504536 0,301602013988131 0,866792615947143 -0,830198769713938 -0,967558751168297 0,548134023342163 -0,68783756829844 -0,0177673252968252 -0,779833035782659 0,468944551101811 0,07784359062547 -0,620562594062985 0,396109178697201 -0,672262280997846 -0,0896465603486473 -0,92115287720343 0,0930920733437242 -0,25415213878731 -0,237086789239101 -0,505717359226288 -0,987719024539017 0,954316755186466 0,749150387903775 0,139694018275712 -0,954172540233019 0,670114823540813 -0,956116415558237 -0,436812033187006 0,888943270150873 -0,811844876949986 0,634403962081781 0,371691068456439 0,595860412348857 -0,75232869173902 -0,481109613896495 0,526795312102789 -0,209191053645883 -0,791484855365886 0,628859172149044 0,3082198428488 0,606772601821916 0,77150933250372 -0,300971595288239 -0,188264707150862 -0,376880680228943 0,312700200560485 -0,684096709857511 0,867631313867506 0,289370876146026 0,713461293523461 -0,167727252255088 0,483650683845343 0,914139095340613 -0,80112004603475 -0,324936807148452 -0,446248795851007 0,504495057365212 -0,305382984286977 -0,904873068424297 -0,70359695946178 0,384440992626422 0,568956719649587 -0,12081359498818 0,842175378273839 0,62236081589979 0,455160880273082 -0,461409023856725 -0,0813854930539108 0,560685193837408 0,178141735917901 0,220034642745995 -0,177662349427894 0,0286846055823541 0,341765948798172 -0,277398712780438 -0,903293461339501 0,20625377367777 -0,0837073995012949 -0,531552652228922 -0,33195522296846 0,276391934661604 -0,874814450512409 0,214874743719271 -0,891229913111881 0,297935852617919 -0,891514841781117 0,386118741322311 0,311796172258277 0,459594113214323 0,83052753675378 0,803262343661085 0,852583206905424 -1,10561335708514 0,0943818345153212 0,646502443591717 0,792123351755305 -0,300861280499181 -0,4095133661871 0,0571483039314757 0,0562493078041051 -0,357146666538592 0,21592008748039 -0,918698956334468 0,909504639681021 -0,59395053910448 -1,04988910460817 -0,578803848569653 -0,440666576953953 0,4491629109099 -0,454878903361286 0,286265355072205 -0,46560635051578 -0,84460361030736 0,340321223002704 -0,116308762916855 0,16698047961511 -0,729926066800038 -0,385433497157873 -0,605406584739164 0,329379428001662 -1,14224783161443 0,0193353059211645 0,312861534768383 0,653455081085485 0,19973460275031 0,0972560798419656 -0,225004096189992 0,774729385259384 0,492300320347723 -0,302991184999402 0,207298554152649 -0,580726732049722 0,799420024681759 0,378988750217728 -0,985737248554723 -0,954662941931922 -0,982588443680547 0,245798748741095 0,613701621305106 0,231087287380243 0,605860119968722 -0,235612665659798 0,746578153199988 -0,262161752820843 -0,637250434413755 0,0811474050064934 0,462092188574381 -0,670044647684959 -1,01609473752414 -0,66856484402477 0,394631433915227 -1,11446169817153 -0,973711954881979 0,455651401086739 -0,0198715921837508 0,441770302833221 0,72285506931495 -0,747755435310089 -0,497730385019018 0,103065273033811 0,0926276454445233 -0,428381728567452 0,00765353972699967 -0,268051762226236 0,307809605147026 -0,243283063311542 -0,395480066166893 -0,321786352244658 0,196932462083999 -0,219070956037477 0,0634241488785404 -0,114809600510243 -0,13553010164684 -0,0666813432959437 0,44965299766567 -0,100462446590551 0,0499745451317396 -0,652455878672105 0,0480928647382303 -1,11947123023468 0,445161926168331 -0,840809773532377 0,560369709411642 0,021548679743187 0,131577102767579 0,144366617550119 -0,76361206656854 -0,828349756156732 -0,643663197643033 -0,436046177328522 -0,695922344620481 0,71838614096071 -0,320797554620452 -0,572214578103902 -0,929678839782207 -0,0528586701725439 0,612347519616873 -0,078040142520021 0,339143165378254 0,435591890495692 -0,647622734893789 -0,37824514291409 -0,104317956979991 0,0521105623826313 0,0660169997536211 -0,697774082743202 -0,165592417593407 -0,113680343203966 0,809175234253262 0,800281384522849 -0,835423693204636 0,213246215184488 0,03886917428569 -0,509711828273372 0,555749770669164 -0,171712865720206 -0,00868758750497302 -1,02180605412922 0,547404894944123 -0,841306821779278 -0,446975118767571 -0,548989628425351 -0,71327020159406 -0,3875188710097 -0,585202779317732 0,286555869665875 -0,875184552058464 -0,695332496435782 -0,234219403894033 -0,62143953657628 0,0926404076923133 -1,0173992576729 -0,121755364003327 0,453716524228602 0,341921557881566 -0,39390718639856 0,109225141351483 -0,703894225261314 0,79996042018185 -0,262761966230888 -0,804355494440527 0,237867429865089 -0,738397536534357 -0,567841489834114 -0,665987478679053 0,0692705184040791 -0,341693521343294 -0,773798006087661 -0,0791716865601948 0,206452034447643 -1,07727574563209 0,641792989717629 0,347615806321083 0,138922191937507 -0,14235169296448 0,81423821357589 -0,75071638489761 -0,856165850258762 -0,483609035780672 0,700750730168321 -0,899106178569552 -0,589061868160226 -1,0200374763689 0,25125302903699 -0,392455796882058 -0,961297010376086 -0,815971224026098 0,457893081732161 0,0039090782365426 -0,184354382118421 0,632045146326507 -0,400588974907715 -0,849749186508717 -0,182143581792268 0,915292507043196 0,305258496232048 -0,798935149287365 0,814124608788715 -0,745258471640327 0,317813379597968 -0,461954007261251 0,817246927206176 0,312845624806475 0,431387938574711 -0,628926828480984 0,326286944026836 -0,521055846892749 0,626016182371456 -0,511081492171529 0,396371569504925 -0,796117856379272 -0,216483273159194 0,682777397099251 -1,02928148573669 -0,484171235093243 0,695426108257451 0,168993018613174 -0,0836157641261177 0,758249807821552 -0,7702982281781 -0,158312358565333 0,183637839972553 0,173248150863981 -0,912236142738301 0,586447456494334 0,287212374157907 0,47719060795848 -0,456587322134773 0,195212449258699 0,482180505142731 0,535489741889069 -0,676441513801072 0,791754480185732 0,0413024409979013 -0,0331410382536124 -0,877991024971893 -0,0637860372772922 -0,618573322650176 -0,286029290420277 0,111681062535368 0,440107056940539 -0,548716908715778 -0,142674007778138 0,509565691744955 -0,472656825062333 -0,220949528637316 -0,146030288688012 -0,908633233182973 -0,732198775960724 -0,771148570704144 -0,864579847301438 0,31148518420161 -0,88574610299862 -0,97256817942586 -0,517735996171097 0,368318774102939 -0,363105765261574 0,239581298672241 0,883091299400789 0,104242662975121 0,880422358765371 0,915734717593317 -0,606534691846914 -0,0349202913089129 0,791295518116191 0,824274714449402 -0,0722428149252943 -0,418934179943698 -0,0139458336754124 -0,649338058832372 -0,316425996849551 -0,267790183138935 -0,850758845904392 -0,378450405451452 -0,221800021135408 -0,611227125558263 -0,640779031853915 0,693475368363597 0,568934125630424 -0,150285263285962 -0,506774095322172 0,390481908553335 -0,744665033008872 -0,070200435079015 0,358703579732818 -0,712933394657472 -0,734850186672165 0,789490176896619 -0,430605315595494 0,539201987573427 0,410868023804677 0,643865008876339 -0,55717027940737 0,583469322720072 0,209455197481115 0,477807756439742 -0,966659506329481 0,880229352839423 0,696422504362432 -0,343746545585337 0,786306406846072 -0,790476219587147 0,0534781144453495 0,893632224654176 0,540135198672499 0,395159040481153 0,121604762929108 0,469313329350129 0,240975186765699 -0,920042533906154 0,0180567504025422 -0,0657099373507262 0,652167283323523 0,0108037079946052 -0,424768003748733 -0,601432207868227 0,569311062806862 0,326904382824945 0,46260211932882 0,433062070235139 0,478183748984366 0,0817193818719314 0,947280721706393 0,359364365155182 -0,132425265084651 0,0324046031184307 -0,727341751184877 -0,44490828439875 0,381942160201249 0,244514379757881 -0,711552328713238 -0,566723215397249 -1,02230285976364 -0,12035586756438 0,0207018975001773 -0,754496405285515 -0,68147355028051 -0,685409381475858 0,344271192313351 -1,07831516772435 0,107115405957118 -0,252953894513739 -0,524211451034807 -0,608478367628133 -0,555547273238368 -0,641337936108624 0,843405651326338 0,35477541709877 -0,0733978093471197 -0,273205474200518 0,825840273915467 -0,391615273707511 -0,678955400745123 -0,751514461906358 0,172735084782958 -0,284151737528553 -0,723517066151802 0,688705829070682 0,00716276531068717 -0,474119226005789 0,14295045689929 -0,42419092468335 -0,899406238814307 -0,966105477129965 0,802469092065284 -0,460994541063878 -0,0768072310365724 -0,242765222576464 -1,0137406239938 -0,69182412606067 -0,950691226407155 0,1914655241344 0,915369445862417 0,448172802216498 -0,805435216744558 -0,325609592772339 -0,438067947579323 0,493743758983992 -0,13340360640297 -0,538934338114983 0,105867297591589 -0,0952936832899449 0,61898407995836 -0,345132827859223 0,426565487611184 0,679687136694408 -0,89477080425712 0,757847223055802 0,739386687298154 -0,678803670676234 0,992194543172724 -0,330048108348271 0,360142636915888 -0,157425519508783 -0,2017577486179 -0,448405114652252 -0,354245218432483 -0,575716084337721 -0,439846386074824 0,833076783083809 0,349521922116043 -0,0030585279048019 0,253207877157386 -0,424150382756266 -0,36536742345184 -0,428319735552732 -0,354934841458647 -0,164080162080791 -1,0171070699911 -0,514102491416108 -0,855855233570244 -0,228146430611268 -0,181966840804682 -0,465635277061485 0,386024575922723 -0,763280436867554 -0,0402952745172798 0,442709198432513 -0,39102425411911 -0,847842553999109 -0,505024044993392 0,200119899454167 0,0312398334248576 0,658641595222453 -0,68919786522642 0,374748200317522 0,817101009747768 0,0194429602069358 -0,410839618193087 0,58148591197766 0,934211186660876 -0,916419444370218 -0,113189887901185 -0,0315169121212229 0,0448309337237874 -0,930653831364809 0,589017215383809 0,033897256452485 -0,988645199998549 
-0,183070054293759 0,0017407446101499 0,234778519759348 0,724635238548642 0,220669475659745 -0,824631461757247 0,386556537823706 1,22771676258208 0,42782351888479 0,969960476135373 -0,0462124956673884 0,713022206719181 0,32230056282458 1,32605569321285 0,0923817841939394 0,688419905779236 -0,81261036997429 0,941417477904778 1,10792809649159 0,0489184426147983 0,648082937350008 -0,023332805194476 0,623190541723844 -0,798925031807138 -0,649909318297822 -0,515510071878024 -0,973361416110389 0,851560594632961 0,812733281257548 0,455878077459931 0,283753549379291 -0,392409945143132 0,883673606995197 0,445556885793894 0,868418184447665 0,293451355024154 0,411851239357763 0,478216936121987 0,849275540568469 0,31981417469588 -0,0792594911753302 0,248418709117787 -0,28877715575818 0,157081782111194 -1,05376786103992 1,06199947533436 -0,0447609885419201 -0,479621174661855 -0,467456495154748 0,791115402336012 -0,0795540402076558 -0,89574887212533 1,01552478092773 -0,182526294657324 -0,214552336615057 -0,890321779201332 0,431144733081427 0,042437278041989 0,353715533092035 -0,315962555491219 -0,954147002851451 0,239024711852541 -1,08848059291763 0,362081444097176 -0,783607556348596 0,9383338889604 0,670580121573409 0,607639355439009 -1,06423544354479 0,0400120800053176 -1,12229882977375 -0,469266422049981 -0,739450633877923 -0,784422140305007 0,41452359898791 0,848265087450965 0,700501611917276 -0,994653153100391 -0,90287826436601 -0,707063104944194 0,765417036096788 0,833022123862342 0,440933946517005 -0,774514822036181 -0,420251882132264 0,176011796596828 -0,399983026875785 0,0257549487439599 -0,55152547887781 0,473659785012147 0,649651233027567 -0,792438300533555 -0,949742735815484 0,226594183105171 0,514718735367567 0,695717991248371 0,343062531015465 0,526866613889948 0,391525658378294 -0,960930109194756 -0,487471453118081 0,249499714122407 -0,477514333765761 0,438243769872071 0,563036569044137 -0,796346839167475 0,815971687667899 0,78357518845223 0,668114708141171 0,149168809217439 -0,555816409760677 0,435678562994477 -0,127386257350027 -0,0265229659444128 -0,0959610747682882 -0,788828079570239 0,690927263002689 0,616253142162481 -0,272530508026121 -0,0327439336347544 0,290413089916315 -0,119263299654976 0,161765314574938 -0,564605398287213 0,619015607483248 0,906294224047889 -0,349513495342017 0,066773454934808 0,0317743209826318 0,483871210733622 -0,627371985248522 -0,60106354557322 -0,31847082040135 -0,970845867626933 -1,02520796661497 -0,286269522413814 0,610958371427183 -0,661861852162935 -0,18703692981414 -0,592334268323687 0,219112472868905 -0,326557271025084 0,279474984955573 0,359960516864562 -0,046327314005422 -0,948715423203942 0,141221583227572 0,0333351870644501 -0,887064684985169 0,401175321769405 0,811444872344746 0,68182010929965 -0,113506250010239 -0,674072277088186 -0,167144847064128 0,623609982899527 0,955938761256521 0,887117923872898 0,591883185055219 0,744475595049529 0,671650417292863 -0,0939652883998724 0,194214867404644 -0,680233595997457 -0,0406994913624787 -0,5844322191009 -0,133671813824743 -0,235957772909451 -0,136419172888787 -0,956766237865278 -0,455529048936654 0,40637207367915 -0,298951110770458 -0,766306059742921 0,58584464418993 -0,5119650759494 0,262729677794716 0,947708842179898 0,254535588942422 0,391687502012316 -0,220869743513026 0,592515447114919 0,299799048186294 0,781754268429209 0,520737201210196 -0,523340306042873 0,220322479112279 -0,514091248537228 0,494610177289166 -0,635742127329252 0,0651947539602485 -1,1157255373766 -0,21078943433666 0,364062276006798 -0,114794941134499 -0,690007349213164 0,379490746524883 -0,188570499981403 -0,658392474387194 -0,38957231082506 0,141436954381907 -0,619831035592877 -0,951284763710066 -0,941926319594534 -0,440969967329313 -0,310591426720354 0,0758488342488464 -0,45931655243654 -0,283326722164796 -0,766532917865717 -0,154637111406671 -0,556321850867901 -0,437356306399216 1,24788434928048 0,105091942046791 -0,699734116951456 -0,895720126651441 0,600959039117114 0,0722987609828066 -0,266093501616834 0,196826772103282 -0,347112882542903 0,450251731746759 -0,569255191787837 -0,101889649292653 -0,465113819336131 -0,394180188265881 0,521056783971665 0,327474736074427 0,294831312778117 0,0265402942084268 -0,661877840349433 0,280469306363942 -0,207828684594673 -0,477350279456325 -0,815848698528323 0,258661850738099 -0,0602041319610049 0,206534722352584 0,359553013847506 0,390523131363382 -0,213121240214165 0,939595668163246 0,396034942355982 -0,962127248231088 -0,101690348953591 0,479021660030993 -0,17432476926913 -0,579801873776205 -0,224688313495281 -0,647908513760923 0,616693466830528 0,670046111634097 0,574215408604125 0,462584078877375 -0,363529573069286 -0,0518391718364804 0,62338095623873 -0,0399846540633537 0,77200723106481 0,421851938021518 0,378305010399954 0,401461563847793 0,0344471067624435 -0,256354579363979 0,950207197919772 -0,212443927274954 1,05989924338258 0,572923447049612 -0,230621503634131 0,222479099210174 0,255181977218229 -0,309579144963949 -1,06623434373487 0,225194122493799 -0,374979980368208 -0,155973263121076 -0,928530782868674 -0,709231433763632 0,749293252657051 -0,090561270482341 0,770204636317488 0,138720729739617 -0,360798420907825 -0,000270680027595746 0,468130833875172 -0,427229484066134 0,55240997941206 -0,278498644629157 0,62402135638608 0,400553760230725 0,402719774098481 0,744160737507308 0,170922182611724 0,280291346179164 -0,380399694845573 0,482729825203049 -0,563192382611476 -0,110187980273526 -0,821997282889885 -0,732330779543351 0,48449018402523 -0,125980940052478 0,715103630835095 0,689226776667759 -0,0895836931608456 -0,30883969754373 0,418167453095496 -0,7781425275505 -0,200859607391892 0,725235170580863 -0,0691616936929378 0,322580369316357 0,32952781037256 -0,104943650015072 0,746727720557361 0,745045678057466 -0,406063400183897 -0,683260907574719 0,258406811264535 0,386081482949587 -0,0655745811559146 -0,177044333789005 -0,107599356242233 0,71447480138417 0,377405260351062 0,857305260559953 0,691360827572154 -0,285898495009958 -0,141303493337273 0,0798889431754197 -0,526440855765013 0,447117083083066 -0,902199752602354 0,178884768860138 0,0969438559555516 -0,188190596102556 0,287778658466573 -0,175776157769548 -0,998703373070428 -0,304948714669899 0,232184684317423 0,39322295842597 -0,848280553005543 0,360622103188112 -0,736854920787041 -0,74138763241763 -0,623753326519709 -0,605775899105521 0,357650734290838 -1,01358760798381 0,50871679841073 -0,447978307173293 0,337308439709577 0,080706874553406 0,330273001651272 -0,325500727862755 -0,682296657767955 -0,629003190476321 -0,442108923546359 0,356552077155045 0,0524886259700288 -0,546555381024425 0,0956821203015564 0,572962502237509 0,12925389517464 0,398642419076517 0,0332248788170236 0,948144433538556 0,817471426543229 -0,0184514971957283 -0,253181264026686 0,380683381794249 -0,811935955562904 -0,369979111248908 -0,714062350836207 0,985563320104805 -0,267555634623257 -0,410474049323035 0,821620763798346 0,228605287071438 0,299396102333067 0,528006584983151 0,275645836193393 -0,271517176543445 -1,05447973692701 -0,581382063642534 -0,580782470351691 0,276086213559148 -1,07168034309217 -0,768571858777776 -0,627515059650904 -0,155803689407347 -0,833119020966891 -0,483671763411044 0,314194495606886 -0,5153462478489 -0,710707499092118 -0,496710389727309 -0,526442046353019 -0,48402355123669 0,119375286710801 -0,699907353505116 -0,466628433167573 -0,185441713770463 0,474506482292349 0,194290441912604 -0,464417488112163 -0,246360716635549 -0,170453345643946 0,430983167434879 0,597564746589802 0,145994129115334 -0,133795376158825 0,642078024478125 -0,849980928089132 0,567036142402215 0,250775612611099 -0,8038469887235 0,475888642018291 -0,345872304515001 -0,121227393239185 0,528402350099483 0,67797084178122 0,256458129220337 -0,475807094432668 0,676106417252259 0,144145294257537 0,356978644630731 0,13465276053998 0,408729331391794 0,633564041098928 -0,272032336583804 -0,726402004991688 -1,14196590029799 1,13617879861495 0,155697097928521 0,370259821091812 -0,457662087498381 -0,154106993651321 -0,828528949150142 -0,788836199252785 -0,992818000158996 -0,466550542633473 -0,604551541290908 -0,39887664176889 -0,0321940850310412 0,865566777811845 -0,488125037217148 -0,72719825932423 0,578096091070547 -0,0814558584534624 0,699109707447641 -0,129744193234403 0,582147285424153 0,528217366538645 0,327332535763399 -0,567404110665 -0,0385621904746142 -0,750983855115243 1,10562661603307 -1,09746621647213 -1,52564066548744 0,225472655603839 0,517096717704758 -0,623048996081164 0,192773094096144 -0,589476049518449 -1,04532674435833 0,589689481701907 0,335317500109465 -0,632610908225482 -0,399337556840269 0,316479084551933 0,130900090718686 -0,679051426672305 -0,232552940247141 -0,141484877605752 0,125639358224261 -0,666714906210346 0,212757563690121 0,648563382502398 -0,568897321276346 -0,0726465650320993 0,398814611544781 -0,666026117027193 0,524783504770755 0,683045188256814 0,235614975890897 -0,759045835556399 -1,98064136655429 -0,808449578999039 -0,479216741121063 -0,0264306425973481 -0,152302728386894 0,444495427433118 0,419890691259186 -0,192772351912024 0,419336456644387 -0,833767873142525 0,265126638892032 -0,518866612106902 0,646718502218445 -0,341390842442811 -0,133327360139718 0,0818715333351803 -0,853193677604356 -0,861180146954616 0,509632820785115 0,0724722573051894 -0,267144708899161 -0,647622758947378 0,134497450696383 -0,631078517062496 -0,415596730681135 -0,640790140187578 -0,885869581098985 -0,514222179113361 -1,13455680920653 -0,642198307886564 -0,177433675616569 1,04120603522022 0,257427045684323 -0,110888884420904 0,351202706662504 0,130054643521732 -0,762272464276719 0,884650282184894 -0,665475005421944 0,580792697703008 -0,370262932464968 0,765585746923546 0,473751108545332 -0,0607704578419106 -0,0101867068932204 -0,440359900584623 1,01710825897439 0,846442079806592 -0,865340064178935 -0,79187458345 -0,950857580702616 0,284276730651135 0,825683369475441 1,11983760988678 -0,48812112862415 -0,0831820414397065 -1,80579159150986 0,274607692479674 -0,746955611966312 -0,0218822890737374 0,60722613694883 -0,805425137430517 0,376677285212171 -0,316964934982255 0,573770648080992 0,439382081288874 0,287247508205824 -0,179472898394416 0,249522646116757 0,689537070539904 -0,0663252599779859 -0,696036598563707 0,663850201328979 0,762166240582085 -0,560816768662855 -0,12539163181251 -0,0673417149423117 -0,885760569882226 0,398202116924087 -1,00680009668446 -0,762913998680524 -0,594608683380223 0,461459005371916 -0,640204412338092 -2,15149796239691 -0,0982774604410891 1,09382517646696 0,531760471344837 -0,419787441284758 0,665428838152986 -0,675989263447085 -0,486918970494174 0,825338907287887 0,648049281981431 -0,764072861607947 -0,367486442131004 -0,541090677172297 -0,374124568719797 0,319978067088809 0,544832084797585 0,173886027652148 -0,0222547854368452 -0,59493527102312 -0,635462730364317 0,347841152707492 0,65934954941748 0,45637943418374 -1,07380793816636 0,444443520626838 0,801986826853702 0,0602209866477175 -1,45395511765952 -2,55885352690558 0,617330253816052 -0,349944933857006 0,549493116895802 -0,176834180053755 -0,561535870645474 -0,432741381842942 -0,562591123576076 0,544226960506946 1,00351495593261 -0,439066176609358 0,92061615473395 0,454924664859957 -0,678912043921429 -0,493796162812398 -0,811635265774151 0,6675900419956 0,906449951270464 -0,416811026430004 -0,620829735019304 -0,0033135655997182 0,626810032077559 -0,329672354319668 0,0737512600880957 0,72654010426183 0,335530442964456 0,827368572555225 -1,5204279875968 -1,24885446539228 0,482812670260529 1,02854405486156 0,0443556168084985 -0,43190572524366 0,916728733383019 -0,458821747015389 0,688027413383372 -0,030108430962884 -0,100413209541727 -0,960732736311826 -0,773883891083108 -0,811186919459796 -0,218566576581012 -0,993064150959738 0,278471904929955 -0,572050547521251 -0,435802843059013 -0,0621338733736829 0,0839015717340932 0,411223950056136 0,239510763240975 -0,532144180230842 0,715452623328568 0,183820926825468 0,0470184586957257 0,703793504319536 -1,61317144993484 -1,34982649329166 0,0523543995550355 0,63865093104229 0,690779042242023 -0,422946297274851 -0,57096249962591 0,177241552200354 0,475741563655947 1,02284855545481 0,749719161731461 0,601708999835695 0,719852067867764 0,817598997693897 -0,327381059328217 0,230707084233588 -0,149835953741346 0,74489837757587 -0,774657505896178 -0,906095798153839 -0,676113212967291 0,883889508311389 0,372260229737585 -0,120845127772071 0,41508333860803 -0,544000457125141 0,135404857423311 0,24216377028846 -1,69533490723386 -0,891610954130303 -0,904680662573157 0,887898929760812 0,730577227106175 -0,51244871021997 -0,230130114318933 -0,185101592293569 0,387643766104962 0,217754881283577 -0,374415253961469 0,882302284316207 0,989599806901045 0,647629710181413 -0,608078625935074 0,257992720681797 -0,268403810321676 -0,0946570506754372 0,14113337975084 0,303605124004753 -0,137864952456407 -0,752965172023313 0,468561858655973 0,987960837192745 -0,0260384811678481 -0,0767313213581221 0,725867240653954 -0,530867632785189 -0,0831091592576279 -1,80472664283047 -0,798193520959069 0,378926399124329 0,600417816067252 0,421888703219523 0,416134546853184 -0,779214703551842 0,617641881524379 0,914068422995037 1,09018579663242 0,66997728267704 0,378020041980909 0,965255288030907 0,671784093871665 0,566291815862108 0,206816234408002 -0,754179776465392 -1,03974557758711 -0,452691366681205 0,567755612691633 -0,707465724991245 -0,821382756836315 -0,548316694006916 0,178567655152562 0,831597657237101 -0,58692807047765 0,923606661110369 0,137843709321808 -2,05355604693095 -0,293236788462387 -0,195922462692182 -0,260300519535753 -0,603830468323092 0,297337732468423 0,181840667127014 -0,164799285979493 0,251564317294519 -0,433404143563089 -0,00847556643978637 -0,492178344758008 -0,7673168291572 0,503981876275606 -0,184672741965579 -0,126603985510486 0,432029110963749 0,719078217866335 -0,344093225859182 -0,53825215046471 0,904979649916645 -0,218525626212182 -0,18875467660557 0,19143294001183 0,385108289920359 0,180932233848675 0,607896316093595 -1,49719318525162 -0,452145545401189 -1,0825398168747 0,837358787862302 0,222412297776351 0,883127803978812 -0,39169042699592 0,705510462935625 0,128393138005657 0,261166411907818 -0,00307981041412333 0,239212273677425 -0,178242034957731 -0,450652848865401 -0,384875384219159 
-0,906486646898424 0,910146756139598 0,1392342173509 -1,00579333760134 0,201548651898272 -0,317428386522366 0,183290988003168 0,362599794394957 0,492300960577022 -1,173256503709 0,400724316598024 -0,131467386317117 0,560335264676888 0,52977173870676 -0,559268101020631 0,813421211680013 0,275331099384621 -0,00760105581232583 0,488001328554683 -0,522294818228255 -0,00781970900349582 0,0380781799339573 -0,176496382724554 -0,774517438252948 0,163007754063092 0,943613252543586 0,963072492259452 0,708819165229739 0,631741058253591 -0,51343278082636 -0,521256853838086 0,851490805670764 0,902640735717868 0,260874534414627 -0,564371894924022 -0,642422142159231 0,184626897759129 -0,419890680821434 0,210367578003919 -0,733137552291579 -0,186637311134194 -0,984084543443423 -1,03544708522156 0,214455331880663 -0,234447315333005 -1,14226524677871 -0,987240317462106 -1,36674940905493 -0,343990651553392 0,194008349495506 0,410822927914864 -0,856465324282073 0,115613305211051 0,9192475388591 0,537696928413829 -0,0157854141788045 0,0923396351960093 -0,0386859181286235 -0,102534452855653 0,302842509074795 -0,248636793157903 0,38920190393105 0,618714202768823 -0,193589858235764 0,0480019181484638 0,31640068940386 -0,00692909913375704 -0,568101277571116 -0,270853091463137 0,0949240796031921 -1,26462650422091 -0,674001487979107 0,46488897731554 -0,1627829309611 0,26669342892689 -0,56364653918071 -0,548503378748135 0,0953251656139687 0,292640817254369 0,451619196729199 0,79477779646371 0,996997251949636 -0,198975218791546 -0,720989127381548 0,08200069526621 -0,53727817588642 -0,185635378978751 1,01471694152923 0,700583365837789 0,35732749786797 0,142289488810613 -0,840356438406873 -1,3870897778096 -1,06904372548216 0,713665353936991 0,390172415610628 -0,729521769546424 -0,201139642742597 -1,43074607858022 -0,0424991299275905 -0,533876734451755 0,537171362111508 -0,0193789132419933 0,317001278225138 -0,118719352228672 -0,311228704399629 -0,310014430630191 -0,686927923846639 -0,370213267936136 -0,0761352454215083 -0,602480614545408 0,844636547586029 0,742621129682416 0,74441807053162 0,715946368932473 -0,189212130717149 -0,334642610132689 0,296221540161678 -1,36947764149962 -0,238130252736852 -0,328585888123549 0,129080885695284 -0,258775065429339 0,169139555663113 0,773498364630778 0,290772188736154 -0,851591654510851 0,0541185266607285 0,074232328703746 0,653163503388297 -0,762856639701448 0,445891708047833 0,070648713880356 -1,17567358187204 -0,475019526087079 1,10179559911895 -0,0364738628166921 0,338052177970715 0,33868782638456 -0,738723530763625 0,958692074845146 -0,205925710816364 0,566787850271339 0,0127804494540468 0,167037004368358 0,409068865991256 -0,386553193670441 -0,806388795676878 -0,617103734412403 -0,121462492580703 -0,263904280412735 -0,276647981233704 -0,013314134747082 -0,250568752016036 -1,03261391733196 0,0764987879036776 -0,371409315844715 0,465588455787832 0,344154521994367 0,285954143709836 -0,738831019483236 0,127410282662924 -0,211514813233137 -0,268667858815374 -0,361556494960168 -0,150307488591984 -0,27958826486606 0,752255093957457 0,176653624362931 0,777783409534229 1,00832299750597 0,530118002412843 -0,818144849073693 0,523517394049637 -0,132255792957117 -0,938220995660582 0,528719237545992 0,640131769127101 -1,16298707406357 -1,02522705099655 -0,458458526511704 -1,18373396313877 -0,672612630181551 -1,06641569403036 -0,262055232125208 0,0594772129187516 -0,61280790625866 -0,745260974378921 0,87377399101517 0,276347867469502 0,0767932926969243 0,187803725836802 0,824283731403522 0,699058937563486 0,917101695755409 -0,287183622639321 0,846395774683322 -0,0764517325225784 -0,438889483103007 -0,454422455849033 -0,0634307600027385 -0,0119369202828537 -0,0197825936687082 -0,309753552152282 -0,179723771978558 0,247927120213612 -0,648714390977686 -0,0344962707388951 0,557159693908467 0,579163064705922 0,151223083124095 -0,28008721470271 0,411680636615922 0,193894543343525 -0,21180554956567 -0,655139212274931 -0,288222758540769 -0,223469930825046 0,634742023854586 0,132190416127845 -0,753224680551385 -0,774991238713014 0,750742994737687 0,926731486453626 -0,35271130898105 -0,130742016462671 0,761222928744466 -0,4039255923242 0,804032157435303 -0,660481120281348 -0,743298596912681 -0,276270969044954 0,124488305865611 0,402260247400074 -0,132125884041472 0,198187292723153 -0,345847354079466 0,541275337174884 -0,392004146179616 0,0987657408146058 -0,436128385552762 0,0583649011026676 -0,482910953997181 -0,921672493083025 0,876920017431545 -1,05737657755245 0,209210323762354 -0,819349758600523 -0,225400893788742 0,45232486918267 0,913165440984925 0,0434862141619681 0,129775307613678 0,401442467034046 -0,692797334952159 -0,223395881099452 0,386008767737315 0,296560028963638 -0,81473523399934 -0,826330251086955 0,429780670061746 -1,12002643693514 0,0285277240717065 0,15983617562776 0,358848381781041 -0,784932978226323 0,228424340961151 -1,19659591248036 -0,927162785884121 0,124088803474881 0,318943477099309 0,124115957032464 -1,05607358885209 -1,01300401851075 -1,01114698484364 -0,262371461188003 0,624220823580504 0,523823277150362 0,984612919056504 -0,385758706437825 0,311917366478924 0,412134693524425 0,749659162007166 -0,654618169734126 -0,440987165791345 0,462768354057984 -1,1252552806051 -1,01840819221897 0,159504497138251 -0,729227346801459 0,81043980598647 0,348771260623561 0,256162252367582 -0,837488987148399 0,201603530660866 -0,798580503261025 -1,20853739971972 0,224826601371998 -0,607047869097029 0,424368651069977 -0,296241219142484 0,262792423762832 0,650062742252935 0,110672423886681 -1,05055513405783 -0,429246830178125 0,0208546089619905 0,025067073982963 -0,00847541783902982 0,332088844000206 -0,0111518646146458 0,735826722818907 0,456173214287254 -1,15187899749071 0,119725366306292 -0,588974996696208 -0,679773183191505 -0,104644434786476 -0,481025688886088 0,663283449889197 -0,978000758599131 -0,107378529043152 -0,769124549002913 -1,54567604818818 0,203065318492106 -1,00194018315156 -1,44047412277346 0,563367851357436 -0,270122423771234 0,599447288531252 -0,475754461582277 -0,857979923508047 -0,117958996168712 -1,05230708237234 0,751299815126683 1,2333274794387 0,425034381141082 -0,579536152139376 -0,565837130444854 0,959338861142281 -0,276197043454211 0,123198099597579 0,246303056397926 -0,656617788110502 0,321781309057848 -0,970785854598832 0,470843616213839 -0,0902393543802853 -0,158422773382402 -0,0177633443290831 -0,962653007883334 -0,165881606022207 -0,470823101599398 -0,440710423693674 -0,0254793813202025 0,242145804194579 -0,476574189048486 0,553970799362604 0,119601896102995 0,319859577552877 -0,447586580122271 -0,143569710751948 1,16819833353162 0,648643425615845 -0,48936235012057 -0,153711405698684 -0,197231661137225 0,464559496958918 -0,492663665692695 0,285475751352298 0,0725024004840114 -0,727792317268522 -0,543000087749433 -0,483526337285069 -0,198949820860666 -0,277636391813633 0,669961283260514 -0,59413840655052 -0,436413648965119 0,181942195254955 -0,650062931274182 -0,590598102520743 -0,66859038821467 0,153913690478428 -0,0445448155365882 0,382113494532716 0,0947750798120028 0,70909948729661 -0,401118248158652 0,970919150135593 0,0992164643294923 0,496375123611258 -0,31318675915529 -0,137397951611256 0,181609201583978 0,725985519308582 0,146174831942426 0,758554008202436 0,586052793248594 -0,170728885553768 0,397132206021453 -0,786500600084235 -0,447099171511118 0,443609194995075 0,889942980649824 -0,885788840744677 -0,654194147613117 -0,971402027023174 -1,12391664453288 -0,885658542186233 0,46192971311124 -0,837479337138073 0,30509335439612 -0,908495529957499 -0,367073245388188 0,692754901588091 -0,732839476042565 -0,528317317771564 -1,07760049802736 -0,289982908648125 0,305029540758395 -0,277311240100968 -0,418427147424831 -0,641037884801315 -1,00174936139017 0,530895292530975 0,498337843839971 1,03609214370746 0,343198881316438 -0,0436060920895037 0,52704012990179 0,871546778825144 -0,38981534630525 0,699711597188988 -1,05054496497701 -0,552691370861717 -0,834565902150269 -0,240738133748497 0,30507331146761 -0,00777109880358997 0,260635881139489 0,134032493309769 0,640224367270403 -1,07073677477304 -0,768142740983914 -0,158830939685929 -0,955701859851501 -0,638895421206024 0,932320807667628 0,169526331939125 0,212759976787534 -0,52519227970102 0,580201644080708 -0,0916841271288135 0,551807933248459 -0,0886291723462314 0,423259376322825 1,04198596004961 0,206958724100583 -1,00662399611498 -0,514002563872351 -0,650789882653411 -0,368170971810784 0,0274649488821526 -0,160555179747563 0,522502654486617 0,307849429747 0,121629885955841 1,06419617650353 -0,91389758322087 0,242531186072502 -0,0194170736439008 -0,107661020447331 0,176284079176655 0,589854219525312 -0,794319163056011 0,127304296474836 -0,484483351414222 -1,1175524363041 0,0612768620938758 0,41033157402498 0,307177334777117 1,25141184649652 -0,580899719189039 0,467909539954923 -0,220309094582477 -0,934567343680577 0,554993603323329 -0,656026814633162 0,293591899893489 0,304470226123528 -0,720468609296826 0,62077369105168 0,0537656361864915 -0,680618638857887 -0,451171442958411 0,919669856729365 -0,861139050564634 -0,30112138311548 -0,787962625708886 0,323375207071163 -0,00787922961194611 -0,632886239316662 0,90659519069154 1,02711084205597 -0,490209452379415 -1,21332920911556 -0,445156893761944 0,0527223387165416 0,188836545516696 0,693782804650526 -0,181827400894387 0,522190090865114 0,722568252280189 -0,478339462663183 0,346152909508072 -0,277893914166486 -0,265167066709893 -1,01794828430821 -0,542026364772192 0,705101430165562 0,896041496178656 -0,05840764729296 -0,461234025065101 -0,518913440909059 -0,198025899758465 0,245846634913293 0,246711577895794 -0,285474373001706 0,591711926763997 -0,720791516575 -0,134577349273181 0,894953149201142 1,08665913790187 -0,864206062766225 -0,302411067940869 -0,385294870981096 1,18384639917325 -0,402364449737534 0,335882136436021 -0,172814563337277 0,330503393266446 -0,493169273921111 0,178961544764262 1,02011616007517 -0,156930370151821 0,0354064447456705 1,03675925758294 0,0365073620710188 0,271600261230317 0,853653419376924 -0,0742746495898206 -0,744749486131509 -0,455675576606366 -0,229732004935885 0,247596876139575 1,1738655362127 -0,717693485638369 0,194530350807939 -0,133402781393997 0,0316594133652897 -0,299017535905722 -0,717572166691183 0,916779091875805 -0,189421517050693 -0,0882409200041761 0,325447343627399 1,00046803955519 0,862024732880378 1,00928601612189 -0,00925317417191489 -0,133349114272984 -0,0260048769180317 0,294090280722804 1,13943761360946 -0,130742549769789 0,751569429899643 0,763332999466451 -0,338549548413211 0,752042394817504 -0,940885762564946 0,55385639340772 -0,257400633064334 0,595359226449597 0,955503983897743 0,78380402555745 -0,280141394029353 0,227039473312638 0,152823806788444 -0,110333592544869 -0,277387778896475 -0,43280535185992 -0,288979665040744 0,584456910138926 -0,490838871224926 -0,517037023065071 0,217940330038903 -0,283016323066391 -0,254513895150225 0,295330519793942 0,757093502511709 0,229306933150857 -0,537223122705096 0,0843869870162455 -0,785353774889072 -0,201076105084119 -0,994398001048665 -0,0596677037258152 -0,590676451336352 -0,948767169383209 0,703792997023193 -0,789330777427112 0,540004904970792 0,626616346555663 -0,294906643345844 0,286580710313854 0,660871633585695 -0,669194647760927 -1,23167652020828 -0,00308512979245641 0,893262694990808 0,768488007976645 -0,158083454459003 0,020913924263258 0,0792799272942164 -0,604097508798033 -0,711418037830015 0,46640322870752 -0,116481793886727 0,760451475108961 0,551937019694903 0,0250202468188824 0,0852729202160664 0,131075652876843 0,890472112180273 -0,202375249655412 0,0845484624842025 0,674879385677859 0,49498013333688 0,0152698853597728 0,578594702579563 0,854604265286763 -0,387874633057864 -0,119670667676528 -0,0226340793075413 -0,61486852366672 0,00567719060642765 0,0915906997186851 -0,552257466325298 -0,273387479828832 -0,520765826614428 -0,39773317913025 -0,573725081451844 0,360484871270489 0,452426901491493 -0,874868374489 -0,518857987818826 0,571218964496975 -0,987391285511213 0,894489698504255 -0,48251617253086 -0,666970704022983 -1,02986286872722 -0,312600648836286 -0,443568387887341 -0,207463087585672 0,186886691499726 -0,753545660174393 0,72147348029466 1,25084009032289 -0,787861976662459 0,934091072448523 -0,0109811710810976 0,143471922403539 0,869286721611641 -0,573499205422449 0,0789509206161622 0,637361239082604 0,768150119574562 -0,356549278669018 0,106692323926923 0,0970034171715131 0,138055945044332 -0,692366984137646 0,335020880629846 -0,0391161515359304 -0,453752696356804 0,597199835736177 0,582918439700548 0,603655556313294 -0,868762174147137 0,426420442001625 0,679108530174692 0,669353106250181 -0,755864922578858 -0,0837294632746456 0,916183593338899 1,15543235510885 -0,662812514331103 -0,785509946449721 0,313918010256627 0,160683519403314 0,795294558035559 -0,276261697358182 -0,347855536718771 -0,560685665798368 0,746908450769875 0,80107681514459 0,792304925759993 0,36229751880893 0,387275953258796 0,0781445059694929 0,949798406284496 0,513934055147033 -0,269655904732508 0,293088693386997 0,157543014960345 0,464971839935176 0,139466156451102 0,395281199524877 -0,821960373290466 0,423384114294354 -0,855450555911666 0,774929648378534 1,00160410827609 -0,13371448717901 -0,681391859462043 0,261945102673326 -0,330278498753892 -0,147720781584171 -0,361883980547763 0,305974954689905 0,4207682618546 0,559617939251446 0,563471152136333 -0,396725400448924 0,818196576303431 -0,0586266279623576 0,984891456704883 0,194620865418496 0,497601532165833 0,0421881258845282 -1,08916833135276 -0,623575103791013 -0,74713736854713 -0,132086513648946 0,372032195320822 -0,838687768236226 -0,0189409569227748 -0,260487804816598 0,2729903879505 -1,04432685839921 -0,274803118086506 -0,161545613483717 0,959325118593286 0,727984477018112 -0,348264345340745 0,787423089919002 -0,382906008854918 0,832060512326261 -0,937391909919257 -0,697554802993597 -0,0743934047841834 0,201606778662547 0,122793662896868 -0,440936849601663 1,08466959120406 -0,302791830836824 -0,780670376812216 -0,583192289472952 -1,06391276032858 -0,439592364779104 0,592503740485449 -1,01798786524903 -0,941786862164468 0,274354478069743 0,556185521521357 0,701678384921399 0,170191592401314 -0,36520130936354 0,0598890063596018 0,950561621445013 -0,711296403685044 0,856933330955122 
0,290263426511304 -0,545191130362421 -0,577629711083455 -0,46119659358875 0,481795875577404 0,626728951320611 0,56506305100897 0,727545019881797 -0,942367850532242 0,991964110556599 0,0352672622463839 0,193110893585666 -0,678211485168403 0,278562045466523 1,04692449638977 -0,519046203914523 0,386762318786454 0,0874256992824104 -0,895683654095521 -0,533620350019928 -0,276220608465645 -0,241744499999037 -0,726256060496645 -0,400997144920447 -0,275808194073791 -0,193312654254338 -0,740604910939007 -0,00212301199256641 -0,452771855734396 0,926497334746278 -0,205530677144141 -0,861400971134673 -0,967793737915997 -0,00737402286783016 0,652044287628249 -0,720082115134356 0,7066301024835 0,276401397863945 0,115243896288132 -0,347595470014165 0,0450871555482791 -0,548315269598265 -0,232145854022832 0,895000038695081 0,110128472498469 -0,0829356457337576 0,0455646385071182 -0,642222485741689 0,759936476078137 -0,125507608773749 0,361893017311674 1,00313327352363 0,836376420030711 0,850816187427209 0,151000750269354 -0,458940746876379 -0,80868393558194 0,837756636197259 0,816044208893964 -0,317951948062061 0,373258918578869 -0,451198291382412 0,185180781219679 -0,834204607273891 0,263546372930159 0,0347439974542455 0,310518033764837 0,399356076319755 0,635450392878837 0,698638109431327 -0,250079640252915 -0,753649878607795 -0,818999921827914 0,754550658251141 0,613008073029498 -0,545198951827501 -0,862922022697126 -0,509128860596003 0,548798745283796 0,860900602943544 0,84339163108205 0,939486968971706 0,243821169429464 0,698555729510274 -0,413275487080118 -0,194693369397395 -0,688065864359996 -0,818185219985958 0,830551847783834 0,0692221134725001 -0,846731867096836 0,972873016417429 0,447201423183911 -0,596865892489143 0,263302339794905 -0,488165941181725 0,308545451502345 -0,321146340030182 -0,267015885142819 -0,774372061011743 0,783105638673398 0,803458460240612 -0,123586267939646 -0,791208681812769 -0,756413984520075 0,179221373430694 0,896306627770113 -0,815734441934164 -0,676106236727872 -0,213781187304033 -0,529748468589317 0,72041977855562 -0,710211503440797 0,952986686101484 -0,164925621454388 0,436766090386516 0,318942653007941 0,494818980605129 0,628696944389545 -0,511018670964213 -0,354495750369017 0,0528729712256251 0,512323647938943 -0,482076749416325 0,634856086674776 -0,0989404377874707 -0,120479052971097 0,816913693755301 -0,452904998308048 0,198155159940025 0,234174782967933 0,561465973366242 0,908116992385536 0,43053699687998 -0,817074031749631 -0,925225743620047 0,071905871734468 0,0868959428826507 0,540366635492251 0,399943195021489 -0,12086812875851 -0,882303380228662 0,852713647479318 0,0731236414188845 -0,37303222789665 -0,57278441102163 0,645497382617299 0,545610766996009 0,593863537767594 0,78482759570585 0,163869948652738 0,785839146295898 0,105425914725993 -0,72881668187324 0,627183152793225 -0,234377457999505 -0,63249216612657 -0,505617637928716 -0,321438922605477 0,409924185186753 -0,50194800314186 -0,761000243867166 0,736628771051528 0,16272989649297 0,526037371085948 -0,0821913596727066 0,876930899065287 -0,125570259362407 0,771765246183664 -0,288222991877751 -0,637779802187498 -0,72644923446757 0,959014542161692 -0,797604918637939 0,611770500484324 -0,456109005596798 0,190137144950191 -0,619537293072155 0,831651021052943 0,189025460507146 0,309454576394256 0,336968300778843 -0,72701630075691 -0,185684497138875 -0,869112715394967 0,545443400869963 -0,449418442529784 0,654107194530875 0,958409015843602 0,476652295310278 0,824131414654357 -0,375870834681917 -0,649443009277032 -0,844385653994793 0,0152249684191646 -0,31391674543807 -0,607961009800232 -0,356922414395727 0,524611393410102 0,742919837933891 -0,418791871737628 -0,210586547898787 0,754666217248108 -0,0791781474323643 0,39206866272115 -0,199810800166118 0,779669554830765 -0,0892965663436119 -0,266612916475964 0,0361301591186501 0,579611800649824 0,966764672124425 -0,299147322347919 0,594183355249384 -0,868386721764153 0,104880064675594 -0,924275913761665 -0,0405254310942031 0,119380557474395 -0,998959673274884 -0,759887213096594 -0,83766279348116 0,00552136208615247 -0,709083424925031 -0,112527379279309 0,737221326757024 0,893175683415503 0,801653391401556 0,24265642302556 -0,0990753576185691 -0,794967438959686 -0,361851674899767 -0,12622414010892 1,01904366177308 -0,369738745267895 -0,410340402877142 0,650871165892504 0,363500947017555 0,398477819772682 0,362120615171451 0,897576155991717 0,832625771742204 -0,0450766304564648 -0,179201489934968 0,980964037242193 0,824560028983056 0,943812647281984 -0,162314907374287 0,888946590513483 0,760382712888151 -0,311740127686696 0,428387751091543 0,499780007382574 0,532224113029409 0,439442777027259 -0,576562953102186 0,835901919526218 0,466353016657443 1,06667315390566 0,767363864375706 -0,0331657863735186 0,883676501349556 0,632857958690889 0,878986512837279 -0,0753763386442891 0,0315403224883823 0,250600988655288 -0,191494819995475 0,0781145817347278 0,823093916432882 0,512011158697432 -0,423740089550591 0,544510543042004 0,809181550466593 -0,803242512635678 -0,498052926425895 0,0431861934300034 -0,969462462527255 -0,610060045577933 0,0545767275057987 0,80788371336907 0,117266053076717 0,883658718176953 0,470339281180649 -0,731968026021393 -0,231433306745025 0,106632948839177 0,431744979552423 -0,34731914411482 -0,855504595779538 -0,254901336781592 -0,700153549945913 0,506685639231705 0,895090464973525 -0,375271529900814 1,07460197614466 -0,736359708069497 0,36217035030978 -0,960497312124695 -0,0285839361969813 -0,272896847185185 0,19481216883441 0,783989988228638 -0,660631128603839 -0,719416024469696 -0,985753031529784 0,904591220104194 0,654690695381416 0,309752164839692 -0,050593522447019 0,319655930548648 0,797692475269195 0,159125863135296 0,0118757912981667 0,944055039491 0,93410949309115 -0,887450292351634 -0,83436513643345 0,710795807885228 -0,668199459621536 1,0747183406868 0,960021727372162 -0,675250208995591 0,0131301045076834 0,113015572583451 0,471420109137121 0,309515402878485 0,843012978054216 0,499346426487551 -0,669880585459924 -0,52660156740649 1,06414291952178 -0,876359692479919 0,480027499452911 -0,539472798256353 -0,399803713790404 0,285043719216815 0,63280236650722 0,199062346561113 -0,763428962603099 -0,0893849362601716 0,445415589725995 -0,932533188837988 0,719526011503169 -0,048719721485815 -0,0148619015855781 0,263902277245069 -0,431006524984241 1,03122840506446 -0,203584406657214 1,02060153162177 1,08058474805037 0,705496156129562 0,9316734583697 0,0515214930944913 -0,0720442543744028 0,301545387964642 0,179748376265201 0,452645441551892 0,0931589212705006 -0,133792218836053 -0,808060875357319 -0,600889452243556 0,0525562338188926 -0,461101812593164 0,379872887776101 0,728868598686666 0,741746134163354 -0,388926130231944 0,232326417059632 -0,389498381700869 -0,475008900258585 0,110692484581976 0,495891146715553 0,474617264802527 -0,33047270416024 0,950721224942661 -0,312074532078282 1,18764488002959 -0,77988028175805 -0,612000268326876 -0,0935082421537535 0,887910037061339 -0,188885004207414 -0,443103930504026 -0,466310582418739 -0,555104101810953 -0,573303982056305 -0,491901125304485 0,576970871650849 0,638647195098294 -0,657872257203918 -0,672748763389469 -0,700830459456799 0,443898035654905 -0,187567684293206 0,205295738285448 -0,0142599251015277 0,193063492083496 0,608123624490916 0,364975218176207 0,552502797533527 1,04872592214136 -0,231039833314636 -0,780414122560714 0,605280317984272 0,224136377225714 -0,64634916610229 -0,38358667004215 -0,445795931091695 0,0337793537956012 -0,379961952024233 0,0647512255661046 0,323424638984571 -0,210464478946937 -0,767540343579958 -0,634442303737177 0,544578209161824 -0,2654240379917 -0,852561784963785 0,0141511869099784 0,473926048973137 0,323186277605339 0,125248730639599 0,850167802513119 -0,760597929988123 -0,833580100419753 -0,16214593398533 -0,81979443528046 -0,279189001274033 0,574270365551875 0,0203580426159652 0,576312809302431 -0,318590985770559 -0,0207949812873626 -0,0364895282999792 -0,103974552910945 0,259595038353932 -0,200030580713119 0,0724483047030964 0,557738924615604 -0,65298265034585 0,903657814537004 -0,838291919478526 -0,332330989753803 0,0273442843011995 0,416350343486033 0,152577177312716 0,63993567841968 0,346106768446557 -0,486223193045713 0,808739605012459 -0,586730243720101 -0,0204138209156656 -0,529894782535765 0,844386787171289 -0,741953250502077 0,0473957467558819 0,123034412074387 1,06398936069991 0,417619986395498 -0,603992569812378 -0,726162259768596 0,969698832457858 0,0686161706600157 -0,813762776946107 0,217665460042396 -0,440840001739217 -0,470386970448334 0,978094758390921 0,358371994607371 0,194743483028153 -0,165664089742311 0,727014541613268 -0,196287978953343 -0,104039606148047 0,641853378060383 0,290859270241475 -0,466623294651917 -0,126901663790837 -0,0134573454480378 0,0684143991987075 0,154059850232027 -0,205898933574905 -0,718072453482804 0,917489960395547 -0,32996721781027 -0,331721290711071 1,19746996442517 0,168760088170962 -0,215117472117189 1,07222263162254 -0,576761371996858 -0,00107211529471809 0,735458248062279 0,230740433796427 -0,770701575965202 -0,826404640466142 0,230362601660192 -0,360958869697862 0,996285824890425 -0,109593032195653 -0,214379358269516 0,76610266738848 0,998026097480296 0,392332617316357 -0,0268809054468931 -0,24613271199341 -0,653002792735164 0,662405518444578 -0,814718519855423 0,00396945884849849 -0,357198440668325 -0,635034938714978 0,126096209126867 -0,504546991294049 0,343039898838379 0,590577551942867 0,798816310593096 0,368691696423696 0,670457801783019 -0,21447592116928 -0,405239598816933 0,455898254271128 0,345864214168751 0,609927113265046 0,00294010787228107 1,07529378755163 -0,802757491398323 0,543968532588859 -0,249103881668163 0,611166176416883 -0,969482313767644 0,908617422336172 -0,126410905551757 -0,890377306158082 -0,60663511131606 0,329783855521351 -0,248902762848246 -0,211836938355167 -0,156125401254138 0,904727042211312 -0,803201377829872 -0,597518605177369 -0,0642267222767204 0,727069366305552 0,40825448579853 1,08001572260203 0,873423201692945 0,384465924552432 -0,876155197464332 -0,11024889740627 -0,397909427008848 1,10469425140673 0,0550949948778286 0,326806655835561 -0,543908601387477 0,259805883351522 -0,461987553559219 -0,449566804978204 -0,608428609059545 -0,164327998852729 -0,560665852542263 -0,230501828346374 0,0406304310345154 -0,425514232873053 -0,0880176484233767 -0,334224614880427 0,44781736476852 -0,012869387094833 1,0123282531405 0,823697201463713 -0,300716415705446 -0,080385045379667 -0,557960066032675 0,840183745307189 -0,306580794962786 -0,612187258484435 -0,274114019456861 0,807979738037133 -0,623134327850358 0,106665326804122 -0,695276842797311 -0,0404742013762832 0,575280172681894 0,87953662135997 0,133190516009546 -0,886319982717505 -0,0402451105098893 0,566928925791264 0,662965561628648 0,0823004427143724 -0,0336777610438735 -0,764447498412959 -0,683911139475552 0,942966892661751 0,421839161561609 0,374161517780489 0,32120790877091 -0,70303819877066 -0,178032823928521 -0,183512530498378 -0,31773512118388 -0,0184963174578764 0,40659061764154 -0,619166659004907 -0,801298191758692 0,741787664795201 0,83918673789129 0,382389911325258 -0,228628579635974 -0,730893714774974 -0,248128863802093 -0,223590957240334 -0,653269498215505 0,497451690411322 -0,27935688855812 0,588903508360042 0,229769863603371 0,131799582407473 0,580722401997605 -0,139482629306319 0,667818147243287 0,860155443293014 0,324109166324905 -0,0785456028167247 -0,154740785125928 -0,575368109036194 -0,487915133876849 -0,589389277357387 -0,618860482937275 0,325840795468845 0,00463359307757147 -0,503368205363837 0,0223651946187987 0,594810749242952 -0,421813621663342 0,40639272246526 0,693671181696069 0,331775722471747 0,847345385773634 0,421551666695755 -0,561002038684416 0,695521135250403 -0,0830126716392649 0,483427254830604 -0,587981382511273 -0,746187198208392 1,02236166303515 -0,0163287573676613 0,271255959396023 0,83408120276735 -0,797915531027124 -0,75993737663497 -0,247737639485736 0,933826597015133 0,105035157255997 -0,126823754326599 0,73882745526059 -0,456171276106706 0,608702440137398 0,922470438644754 0,313333264802632 0,406631151082484 0,107884926475663 0,551098690908838 0,360705581619968 -0,631760648572727 0,861814053590086 -0,276493751121615 0,0263254156644524 0,423132133743241 -0,982563351503112 0,962783713856141 0,312724230446495 -0,88843443781205 -0,557573026759219 1,01975024894734 -0,071693293371952 0,798962904993039 -0,437172860873631 -0,358652916335872 -0,543588052978551 0,575210549404767 0,18352823036351 -0,425932999673999 0,174327614050349 -0,163866539763795 0,800370653077847 0,192612971437707 -0,384232006880237 0,77051437455146 0,782791910751665 0,197215466894786 0,77429170806346 -0,955852469403577 -0,782847804583392 0,046963474840282 -0,308225960755464 0,453354585811792 -0,791814738206826 -0,915508368345727 -0,591091940704257 0,281147851030792 0,942053511875618 0,846125390546072 0,802789613381442 -0,790615799678316 -0,0275355067113613 -0,345920046155838 0,512873245962779 0,118599262613445 0,901052268754366 0,938974436081436 1,0844047328535 0,110961062477128 0,51332938123628 0,866030533340256 -0,635011283569583 -0,432243055659321 -0,496106726835514 -0,427367189757961 -0,374708626816554 -0,188440411455382 -0,73362595351649 0,306740257771314 0,736606138278118 -0,151385646968718 -0,778223599319147 0,295854705868779 0,894945898178846 0,379102468218033 0,296397673866575 0,486432398106501 0,579521853361968 -0,607669693810547 -0,810827502759152 0,209139264862328 0,661930990128591 0,376377653574767 -0,224642101148929 -0,0284373773853611 0,96155751955528 0,246654499512245 0,662513293086921 0,562925395935158 0,959043180387538 0,911942377314626 0,285318613029592 -0,22090407862112 -0,381697625883246 -0,502973638368342 -0,179627748403036 -0,799249782738164 0,0386814407725396 0,66039868361777 0,485642526352954 0,62778938251501 0,023828360281293 -0,404250187949405 -0,904387054419291 -0,0279143380321077 1,00595392661969 0,576087515061436 -0,356719907369293 -0,902057244477019 0,804943452197394 -0,557159642336477 -0,653272336018491 0,597701661132741 -0,103945629951662 -0,608041778796444 -0,787437529474172 0,0269304767583396 0,823777880263261 0,558838807220317 -0,294666132051447 0,478736195918313 0,220636396877063 -0,2061548343604 0,480720769057481 0,91764102742851 0,629898117801259 0,462245328513146 
