wih 100 784
-0,581732703409958 -1,00989822820824 -0,973341131043458 0,513969779048254 -0,0592709081751948 0,281542828988221 -1,06844348798806 -0,152270365132129 0,785718990177265 0,71067826201439 0,433426724997664 -0,239384729023161 4,35792153613062 5,82094058993613 6,52578258483662 5,67063650415614 3,18767763796753 0,413274967582161 -0,824254837807008 0,1240957327542 -1,25791438549697 -1,13890937155355 -1,74861201675334 -1,46633310786315 -0,0180049596091222 -0,400311939024129 0,377257811127683 -1,3349057737892 -1,13939277980089 -0,891031052116572 0,44698722241462 0,243645165485025 -0,782230048281351 -1,17898679569835 -0,643342994897802 0,274429135129186 0,657545881585098 0,690001146546568 2,53547101419443 5,17987150948794 10,4435176896976 7,92124219907062 8,32939218570777 6,7394245509859 6,78643038019462 1,04192711138658 -0,0961359465496474 1,27366509190388 0,329476772107846 -0,738860352612404 -0,620951093372442 -1,25406392876078 -0,537076623419468 0,581512143683139 -0,129822974163335 -1,18709334553871 -1,18827072627177 -1,26280184532878 -1,22714897549281 -1,13918823806605 0,602702681755139 -1,14485967727636 -0,0718414691439198 2,05865941766377 3,14511820193758 4,89972774206934 7,84634318793351 7,95696274681399 7,04107173757127 5,28158241326199 4,69317631303269 5,7637119936483 6,13862911541696 2,27219121404734 3,10007059426944 0,82300362498602 0,333647169668733 -1,29380422306082 -1,73457173334889 -0,962263108764922 -1,46189274722794 0,895226528327945 0,0905849388182015 0,306202500813895 -0,233088840810727 0,259995796199993 -0,434993017708289 -0,331770882952091 0,305905734985222 -0,374382927289469 1,54889582859305 4,44684215517404 7,69613764126084 8,53057163684321 9,81159426467372 8,62506974432493 5,29469191824453 5,71645721685715 3,52700535335375 5,63749780041553 3,8948467557824 4,95591839559973 2,50201880603277 2,61968296098911 1,96780497494145 0,845043334883442 -4,14240480177013 -2,5774698204132 -0,849865837901391 -1,61091298873772 -2,1556056880164 -1,42367298338669 -0,655686518202937 0,107256705718203 0,368102232909984 0,441949406846023 0,450132896158064 2,10828190926243 5,13446300946272 6,31821014248365 6,59230643845466 8,99508006911092 9,72006873798722 7,96699418711802 8,36248133047137 6,98391473832392 3,11996879607136 3,42280913913153 6,3935268297711 -10,3944004625123 -4,19983847388397 -1,82267995371093 5,96629528395451 5,82053173613489 5,99968906689046 0,350641435871768 1,87558443092562 -2,6787126793914 -1,2090538324362 -1,88251114649433 0,081280340828737 -0,362003301769756 0,564639602912676 -0,957156496794062 0,0471482745545102 5,23037713523223 8,5724453979285 7,73884726468243 10,0586171650515 10,7250271847293 8,58106275925942 9,32609042087501 9,35534679000627 6,68816790667483 5,78067579694478 5,54791740522793 -1,21895297079513 -14,6313626562744 -13,7474447156049 -17,2232782307633 -2,27782885691543 7,50291941666648 6,1453394258598 4,80790909257127 2,76866266347857 0,0192207720213313 -0,707346823031217 -0,0529783727509596 0,395643483544983 -0,433003735172211 -0,959504902700457 -0,0874076602611451 1,44175458137185 6,91745737311938 7,79619925038885 9,33786222268113 11,5143709129746 8,93348021174283 9,19122278790621 11,1069457809425 8,63950376732972 7,29864819642117 6,36060987447387 -2,90804748724379 -15,5859920666059 -13,2742187517406 -12,2775788390977 -18,0786265653263 -10,893468014988 5,11131519766222 6,59426000608669 3,78338456881919 0,834312717610611 -0,671711012824948 -1,78530631329015 0,807385095254142 -1,76703896792267 -2,56423703488327 -1,84834104619432 -1,90139899010007 1,70020022515802 4,87752986872787 6,11956433163962 7,17258397294714 6,71720489713403 8,06836991999178 8,68139258082384 10,6728524221553 6,64418023813046 7,76511234082828 8,28295067235442 -10,5469614308506 -20,3236616022171 -16,3721864042199 -6,98925011153028 -19,5658332164877 -21,17021071275 -9,73946397107578 -1,08384039660535 5,51362680936672 -1,42962176354803 -2,18313454858167 -4,52359228096197 -0,960803194900345 -0,522366309571476 -4,3733843000136 -2,24276494636581 -0,548013640045912 1,05545443302627 5,52682187781058 7,19861385962298 8,07001179931032 7,95165001580564 6,6468020274875 9,15408968287997 8,7917998833962 6,9282419857521 5,44406599581154 4,37971842998741 -15,0324834713011 -22,6587464146872 -18,6885523389113 -20,2880846505867 -23,2198386139843 -22,0887265903684 -22,8594600905992 -22,3679653187244 -25,1375072905649 -10,3403324579468 -5,71178632440465 -4,04377468606784 -0,998647146605592 0,0260581513729081 -4,1592616488676 -1,70894561611359 -1,59719913699842 3,87517634294431 5,72451954475238 7,20546945073952 10,4647700331029 6,51237205316899 6,64155496348816 8,87327220131543 7,43071265538631 6,66320269737712 4,17348419982801 0,901215767706849 -4,71809199813565 -22,2528796879712 -24,6446091865405 -25,5258055582485 -21,8424480351819 -22,1049945600038 -19,5810496444574 -23,1352434469965 -29,548798891368 -33,0454313331023 -19,1360746339301 -2,92626158587475 -0,775893833062321 -0,812243526659403 -3,74803709265232 -2,03514852018532 -0,346082486899869 4,28272586433916 5,72221867518903 7,72970585100793 10,8110936159295 7,52269930871821 7,18990269761799 8,15990905002757 7,48680116033126 6,0809155463348 3,31675631312769 0,430450764134104 -10,5999673405592 -26,178933604398 -29,7018604283181 -29,7109711838325 -19,7770697539201 -21,8705385581855 -22,6356113024237 -27,1472833032812 -28,5712709378555 -31,5248538977646 -27,7915339292474 -4,34241989473881 -0,840001563219084 0,43179505627275 -4,70992640113844 -2,34787138701444 -0,476312399152688 3,17488807229994 7,23268137162368 8,46051677916118 8,67872772671275 6,0599565383513 5,13671668311265 5,29272676752563 2,9700212924345 2,24631881257326 3,11441496461166 -15,2718835629909 -29,8862275794333 -28,3253109658486 -31,593138298205 -29,7092737858273 -27,618422745983 -22,4995573427518 -20,6367736289118 -25,841620108871 -29,4851819454297 -35,072864738944 -31,7788939037112 -5,38663517003149 -1,20168552993941 -0,570784749764599 -4,50594678614143 -1,41361023840648 -0,536942685454649 2,76329433072236 6,1631272287512 7,00718241633113 3,7274255523874 2,85299918677143 5,92515879782327 2,05581862277656 -2,63989135804575 -5,51808637003801 -22,0295981280732 -23,8658437601213 -29,0359106294126 -26,6887832825164 -25,2534037498819 -26,0254528053752 -28,1762447203344 -32,8122754771998 -28,9254305605448 -32,8255140693124 -37,170164348323 -36,6002211453413 -36,3632781411226 -9,99150113345478 -0,186237713961981 -0,817780540566821 -3,10215272844752 -0,752731572382602 1,17592619240709 4,35165262928682 3,66732252392581 3,05653903316726 5,29822240177941 3,01466384558032 5,87945398792391 3,67320652380258 -12,0326435887974 -30,5381482802954 -28,1726343379701 -21,5064241163309 -25,6389537607485 -31,7889037220679 -29,2671373746028 -31,1823536077605 -30,5488652029138 -29,6703119510163 -31,857402448021 -31,8270359769251 -31,4398106667333 -29,8943047493934 -31,6946893093185 -11,081685508633 0,982120350967436 -1,43400428946445 -4,79826194416473 -2,18426570624486 1,60801822780543 0,608589598166181 -4,08170929329146 1,40483951867933 -2,35280609897903 -2,72536849391791 4,70738152587109 -15,454837059681 -25,8936792698062 -16,2997911912749 -19,121798737382 -23,1665715351567 -17,3409256093404 -23,751369610395 -21,622370652267 -21,3087541458876 -26,3080859755171 -33,9374877072411 -28,8877695328056 -28,32918695425 -29,6063114528103 -27,5841112495213 -33,2604319449109 -21,7488303536477 -0,581296283629274 -3,25474323150553 -5,15522820758545 -3,38476761183074 -2,53717465623142 -1,61965287243033 -3,47211442191634 0,45603657364358 -2,52625927440328 -5,57202443407972 -11,7791182711099 -13,2233835727394 -14,4653873986044 -20,8769728788251 -26,4549429859032 -25,9409362514077 -26,8363485262309 -22,0887678053454 -26,6472848014498 -25,4455475748061 -25,677401890342 -31,2745653935279 -26,2521839137512 -31,0743280332641 -31,3333771547869 -30,2284680768513 -34,3010107182484 -24,7232186021205 -3,54165921385796 -2,79980408766309 -4,29824513829248 -7,24350050630947 -3,80477564449238 4,49926010167031 -0,405598131740997 3,43855593251613 -11,5066850321119 -18,4254739132228 -10,8494013168606 -11,2716581620501 -17,7902571314664 -20,2653307762494 -21,7535469800659 -27,6543930665984 -27,354299490905 -29,0933852883416 -26,5831992974022 -25,5851460425431 -29,3606842104494 -37,1437669193601 -29,8091545258917 -30,552611239339 -31,9634108747884 -27,2944665366314 -33,7229912092245 -25,9947644242935 -5,11424134072506 -2,59290572589506 -4,37402025197364 -11,8395813887829 -11,0979977664639 -6,68093863788763 -10,2521154444251 -14,8311732780118 -26,1973668722295 -15,92132235567 -9,58290478884489 -7,82672728442363 -19,0809858139484 -20,7747931897355 -27,8761147056479 -27,1806586330812 -23,7909708544902 -20,8605208257311 -23,0874255309074 -23,496095292995 -27,5167905245038 -30,36980977608 -25,0321746162727 -22,8626001031535 -25,1062151711097 -25,1327642789442 -30,2889004612055 -26,4148208712553 -6,33657050949243 -1,85708193328358 -19,1020615051858 -22,4204470566 -16,3996947127377 -11,5372251434678 -8,42994758279843 -11,0921406272498 -15,5212494135357 -7,80511898529361 -17,4106275868861 -18,6531951191193 -19,6409016339162 -23,4963059789951 -28,7476772237681 -28,4595078783885 -24,7036456602897 -21,8516561564023 -21,3503317164544 -23,9950484714791 -23,3973720190735 -28,450840557059 -29,0334869355321 -22,4820958853347 -22,901405189576 -25,195626897032 -31,2730563933003 -29,5188594944204 -4,3001056603592 -10,7637456764585 -27,5744576103573 -29,010359302657 -23,5738093829847 -19,635147939236 -14,0927963256937 -11,7546573830939 -21,2359139983966 -19,1289611088814 -19,5442396561995 -20,4695298745591 -20,4754666214935 -22,0327259328212 -20,6052076499886 -19,6420961492596 -20,6261549864698 -20,6125395266871 -23,0945768258129 -22,2251408112879 -19,1863734769994 -23,4343904983132 -26,2622886314113 -21,6054442332322 -24,2009445884336 -23,9826603769698 -28,8881736775117 -26,5226365488678 -5,57905662812255 -14,1745349950762 -27,9011553850277 -29,440022907792 -23,3156030149887 -21,7689765217205 -19,3201374123281 -20,944587087171 -25,5536907712597 -21,4730373179391 -18,3973299651424 -18,6905503178299 -16,7458489155568 -20,1701875905347 -19,000435208593 -18,0662344207054 -18,430071513631 -20,9846220703114 -17,9248580916669 -15,5082010902696 -15,7954522652933 -20,7471553542859 -26,2717630911221 -20,6337535084944 -23,4984552864902 -24,7897701668451 -28,4973198506108 -33,0977591595247 -10,8965052719783 -7,87812639472745 -26,8441948035313 -27,4606331679989 -22,6141190611898 -19,8331921036446 -15,7661696706298 -13,5911431613867 -17,9546814769825 -12,4139888392605 -13,8817930237336 -13,8661125075483 -13,7581860815132 -14,3293890055866 -13,7436343788847 -15,4829267015629 -15,1785458799645 -13,8352462640757 -14,360245855908 -15,9051330313065 -16,3366747038441 -17,7984264073579 -24,3561780798418 -16,9040940604512 -21,820479914807 -23,8448440860833 -27,0087371183437 -31,1066425391398 -12,1909188696856 -2,91018466129627 -6,31296912365212 -15,3786623355827 -15,2535960407421 -17,6055292765965 -14,1426363537188 -16,1235318379532 -21,0746694545599 -14,2785364303548 -13,7464300310364 -13,1911104301985 -13,731324648654 -11,0543909531492 -15,2244018288123 -15,9775992187171 -17,1255132133495 -17,5404308900433 -18,1214191383844 -17,8553095366349 -19,7485733675677 -19,6566361688978 -23,7757756271442 -19,4943384469592 -22,691176707334 -20,9958124352898 -22,716242622179 -29,3538639322386 -14,4555655397052 -0,323627323684757 -1,6508260258736 -2,52262688744139 1,31548881208844 5,70778028536695 4,93076774152249 1,710345347657 -5,1975154514232 -2,21610531071907 -2,78605087078089 -1,98980807199481 -1,56887569696789 -3,66544755642681 -3,7904355699177 -3,35794146497212 -2,3417007962773 0,817281065769768 1,04735797233327 0,686770796291032 -0,212456229749096 0,176854938190514 -4,95774793558485 -1,2795913337518 -2,63624548699554 -1,80244947082758 -5,2960089150572 -8,02039195510297 -2,20700367257921 0,142140218749155 0,451440221659444 0,0366054817961586 0,481186193700316 3,83184654865212 4,35124105865425 4,91048832379946 1,35662090624022 8,80476960415195 8,70717780362959 8,78341444044705 6,97369712106941 7,65790340725258 7,81240551129051 7,44528200154755 8,8623276261054 9,81238755997584 10,9819825848121 10,9537110322618 6,63936438270044 6,46373655103544 2,89526860739911 2,04106553567278 3,77773266649033 2,66787775555377 -1,35722376037371 -3,37930384293968 -2,52130886328263 0,41260670759384 -0,477895792564985 0,241064728570255 2,08946018686353 6,50676404333177 7,73793286358593 5,77031756016995 3,7066402695862 9,0450773170166 9,47768639872675 9,06880258299736 9,58269521550791 9,75374747500647 8,63500079814992 9,77512364041535 10,9838829328501 10,6776589099808 10,7506368070827 12,5654914125786 9,66627547122283 9,04182871673011 5,11259910352423 4,08393326175953 6,64079560266891 4,43861221781817 1,16956330312841 -0,24201162855648 0,531502206243991 -0,928855584034685 -1,15908196381036 -1,5290175584507 0,00670143372650862 4,92102664821958 7,03714937664071 4,87281433425066 4,98181551299578 4,45536145994238 7,1393685764918 9,88870535412586 11,5037271057157 10,677650006576 9,28697782373975 10,5279427117567 10,4974794244755 12,5759974071877 11,7044549906959 11,0114262448745 7,98086954459101 6,28746114587288 6,09583072785418 4,03757237850046 7,46024504180164 6,03168151937316 1,62755685028241 0,462267888211811 -0,625685953294616 0,283296743420881 -1,397284585433 -0,122910035907574 -1,08329565410835 -0,259419281317466 0,61701460530142 -0,291602190186632 1,58451970566988 2,38496967430919 0,66803901421465 2,84382319153012 3,81085561612329 3,12920568200967 5,95681231362374 7,26156665384179 7,68480255746007 5,42413823024294 4,36237000083746 3,41788531867511 3,59790333236183 2,25614926069418 -0,612794926827049 0,212792330609913 0,041961546238874 0,0373837172826851 -1,51771030556368 -0,632110821386812 -0,213669419301481 
0,74264195110578 0,78282698371818 0,87421860964372 0,374275073876183 0,442584965652628 0,783116200225381 0,40599255795733 -0,564400585616285 -0,00709552302763396 -0,151834393404683 -0,309922999615151 0,681568543805504 0,929067106302096 -0,772222779421027 -0,0596939377955279 0,319147550297882 0,319540424738719 0,41482318692164 -0,896853455655485 0,131522878706411 0,945862620561593 -0,321592529711763 0,658597977899326 -0,644776202608721 -0,421684530032496 -0,481303585934581 -0,505411907659811 -0,0159999671184838 -0,950335149498547 -0,67853152250295 -0,374367700748752 -0,690156860613685 -0,724739048681982 0,110013044549957 0,364374087312442 0,469585177553329 -0,678758733096041 -0,338986996227993 -0,3228837526107 -0,360049169562262 -0,281433636746981 0,186617743700296 0,181727089349018 -0,470712020842399 0,928101768958842 0,640671661432572 -0,133875015615225 0,968546746832221 0,937598812532771 -0,256680288992091 0,736189167113057 -0,604560279743294 -0,638261359876095 0,61646823916382 0,328100114275986 0,0764255161939455 -0,863952331649744 0,530512321652425 -0,189762541465567 -0,0629788414080495 0,304015049678815 -0,553878025900046 -0,582493974867365 -0,291614119903429 -0,51111684484389 -0,129559666588865 0,657936095600111 0,138292579403945 0,0208421877680416 0,792028610418999 0,369026893282967 0,345290413030748 0,183554063755823 1,00986425430118 -0,263589877825431 0,183702187819577 0,916359167889566 0,438306192179003 -0,197766340048133 0,245383355445983 0,439854900427501 -0,472138018211184 0,0766638942431848 0,317453464283771 -0,405515314361233 -0,758718889805109 0,939663329564973 -0,359443216454845 0,798437739282081 -0,680606791063459 0,391070769077018 -0,214026118378082 0,85684500720311 1,12126749822481 0,125242656094304 1,2146605255793 -0,156049316046484 -0,65702859104279 -0,60084654561688 0,205044876854363 0,991057283440475 -0,698568564003532 0,245619292022408 -0,375990740234826 0,855428311421871 -0,244491080944261 0,46796576827502 -0,478805993353581 -0,288239194183376 -0,981999686116907 0,368153150838064 -0,249237215099873 -0,224320321685199 0,531655713054468 0,497965785893769 -0,289271174835484 0,385072137289785 0,138320020698727 -0,820605736360512 1,03564149185502 -0,269471307087861 0,263563508065191 0,183664780889766 -0,122433461907405 -0,493242431031643 -0,582467680104237 0,538725745218313 0,326640176218202 -0,161600919750579 -0,128916618843772 -0,301037788219003 0,188629649485352 0,462291459993987 0,344034271265993 0,332272729526185 0,247688119937995 0,55840459643243 -0,441212409793063 0,670901957552302 0,850905368792591 -0,281925769583168 0,355696991090576 0,738092637339913 0,531577058758912 -0,0362954459516779 -0,32320035114045 1,02516197363221 -0,725259599125057 -0,274553845101985 -0,278239975860749 -0,309845910653465 0,737602512943984 -0,441647496354629 -0,565630525055917 -0,160840712861055 0,262730521971933 0,130842352200559 -0,354823540798382 -0,683344716658419 0,373451090360057 0,621437668092228 -0,60071200451917 1,10118752097166 -0,831320094838763 0,669087229188131 0,888862117828457 0,520213158748802 0,251334968310458 -0,855364219767766 -0,65123667118455 0,197218186639119 -0,19963646490648 0,505573815916554 -0,600842917850658 0,323885293187897 0,62847668429941 0,524842489656439 0,761094144269728 0,706738502824232 0,775989262875007 -0,415258692367711 0,443872853828566 -0,0377140176143802 -0,431765850466579 -0,814835365268163 -0,0784937044457476 0,11261541793783 0,325529489288969 0,393252798220773 -0,165366821778468 1,09943915117471 -0,0474165501954794 -0,946605497173009 -0,742449140461081 -0,422495264376712 -0,564597839456062 0,531663564023593 0,608758120667423 0,818856684407394 0,0349374831628739 0,264830145092616 -0,111242219221635 1,17019342388146 1,35539996212749 0,803611333502443 1,29537058144124 -0,89143172775366 1,32735927986306 0,233292203344268 0,92180973442689 -0,687664074122757 0,621562217800615 -0,201110486199838 0,00172961646530546 0,101015114822158 1,13630083979498 0,949746970185154 1,04054434555095 -0,739162641010842 -0,217984285617626 -0,388890386716586 -0,672141049706398 -0,5262733267825 0,856822285074864 -0,490345260994608 -0,731862219369097 -0,374268104849622 0,17738605637206 0,860627882532008 -0,0588573747325996 0,956093297273612 0,926247393220999 1,08381241595453 -0,0503510285522675 -0,423954385004382 1,08329211019824 0,910176003609747 0,332574504848526 0,642761723052383 -0,564648459835453 0,620106441261335 0,808453695415573 1,33516011684116 0,274110241900042 -0,0222726477818594 -0,208811586070728 1,32244016524606 0,401259711021608 0,547430398205876 -0,309149094923421 0,206039011759976 -0,942483883545818 0,587950590400465 0,181694888125201 -0,682898558405513 -0,308838288863169 -0,663357067754735 -0,779183581322061 0,74607474436036 0,333960575032339 0,654812745761541 0,312913866663194 -0,537181503914798 -0,317589687701741 -0,541265683303986 -0,0949681787390849 -0,272742690879619 -0,353820429182525 -0,116423173120417 1,05642850384729 -0,0384747113420511 1,32304351015268 0,184788731802551 1,76509023581241 1,10736728734741 0,787336764484825 -0,219571406600109 0,520455954470699 0,547669487173417 -0,572869999407162 -0,715894042837952 0,298868175363007 0,634503937154511 0,115142040111102 0,717987682966694 0,780955356580407 1,45284557907841 -0,0754351665202554 -0,182392469025531 1,37103303267669 0,793766089987696 0,799289793354915 1,30664000274159 -0,305431000290941 0,518594081113548 -0,713933347502827 -0,00896679922395043 0,701236974548405 0,161884817255508 1,49735295874503 2,01314817662523 1,41450221042472 0,228193427810418 -0,206119338809342 -0,323094857633543 0,124651377567088 0,57404034865292 0,836079139480289 0,635493604824247 -0,216850454530308 1,03694111327032 -0,154360363646302 -0,325934946351036 0,14485572038819 0,205221373939641 -0,567466165068328 1,09187879165543 0,781001055534573 0,00691143370860194 -0,0457931679940426 -0,147709283143552 0,513719634497303 1,41144513797294 0,00177190051388905 0,632359736849691 -0,0142628783193689 1,30795010457785 1,77005624015013 0,546831708503704 1,26198933748808 0,0784402582471242 0,404672466509804 -0,463247710880376 0,659988359192968 -0,707517911466965 -0,256364194178688 -0,608754905906433 0,101251162634226 -0,406472666523248 -0,647979111415151 0,982236389319267 -0,547622754196474 0,463668983887458 1,05189332360583 1,72990477087947 0,560295273339565 0,415250892282988 0,380330826075763 0,925439452110142 0,146965966971423 0,353532891602715 0,879605128159881 -0,135392249663131 -0,43161244127909 0,444486561046162 -0,116418648914982 1,05565821928712 -0,0470202905880965 0,296820531584075 0,889886405610477 0,272542809463675 0,756413307532315 -0,0846731549517059 -0,7540377400756 -0,746388723598351 -0,0600863668632102 -0,767058787083193 -0,231395317259245 -0,321615299012632 -0,52508565585766 1,24054098001881 0,0135987523556163 0,508778005262444 0,098388637293797 0,164047017919171 -0,160912346836766 -0,138102711624969 -0,588805968133495 0,11579120296841 -0,200916680553176 0,990558519271467 0,0579579053606591 -0,196497681241831 1,22434307579302 0,166859251366226 -0,00654017862400467 -0,489258840373729 -0,518706030122936 -0,162852663416551 -0,874751712803814 -0,25248219727657 -1,0155185546635 -0,761373855756769 -0,191665765505618 -0,0265548191860344 0,946474008187944 0,142940165396535 0,15185381107171 0,931863166593311 0,452822817530748 -0,146607572220587 -0,101783294531709 0,123780250261392 0,746793090897938 0,331245125006627 -0,507790002662584 0,377783077572452 -0,559813905283853 0,730744495307919 0,160159982721994 1,53147144459586 0,943500555428492 1,11779852709693 -0,778489244388466 1,00069877374237 -0,687583354426126 0,319568985941535 0,490605956969123 0,353879430415013 0,282041660807913 -0,212402707219581 0,863779626587369 0,749158911200948 -0,854369659994047 0,220580451900753 1,0506825351417 -0,464773566277534 1,36059214700872 0,981449327989441 0,395678286976998 0,854891286271934 0,811916003534191 -0,244519209118732 0,772245736234971 -0,666313997154953 0,640921064433798 -0,820099685921479 0,140895520561295 0,0802876857603372 -0,100762504660602 1,13887147618788 0,796107217692848 -0,523997515756121 -0,675116388623817 -0,722117218043996 0,749362763180384 -0,555622217368483 -1,03345402569881 -0,0484835442893119 -0,333944511186118 -0,285193153577842 0,704468131412228 0,651168184706051 -0,483699743869366 -0,0729189743942777 0,370140015892562 0,0792015242636946 0,019779960953738 -0,296506520363087 0,807410048672913 -0,84503511092541 0,246328747890032 0,228015741384883 0,183136582477504 0,233002203322572 1,48675522286684 0,108822802952561 1,4060523183301 -0,780295565241164 -0,135303166951874 -0,574577524060706 -0,130795087320322 0,275250128517233 0,468727009521764 0,904225362916311 -0,049952938214925 0,497738971608627 0,854605892262055 1,19038621657999 0,594163726422179 0,61690695909581 -0,369656818216711 0,736289422593661 0,772734264393761 -0,26799405021835 -0,238145084686417 0,0945654516057293 0,235418054372218 0,776805983410894 1,01997253186129 0,709152602687371 1,69465122980842 0,105435216274318 0,143062482503749 -0,218092412291818 -0,144865127162946 0,570634791259714 1,21886321762733 0,955479801357449 0,0541408667262872 0,767495216487574 0,0434773596871906 -0,33227263223211 -0,378469809257366 -0,420567700074543 -0,797132351914429 -0,5679071399978 -0,792920402684246 -0,186171705573078 1,05979010224065 0,871639106921142 0,79587663628605 0,0460787629306908 0,924847325621762 0,0240801812060191 -0,596459666039107 1,25233987013402 1,27425840304353 0,511391348285491 0,758091624819714 0,674157115699076 0,593909368357792 -0,373302688483325 -0,0423902458617324 1,16506830493098 -0,474630402192111 -0,21407013013841 0,129756109805511 0,289063675099769 0,161102581083114 1,24783006145544 0,841523483336811 -0,612737969577551 0,722584012927392 -0,756939554603181 0,0406975107948382 -0,642551544696433 0,407192999791021 0,183167036645175 -0,113583976215072 1,20250484433528 0,348153622142794 -0,144058061531219 -0,675807688067713 -0,403123696774081 1,60549327439416 1,26722734144206 0,838686498460151 0,899446311540694 -1,12000561696166 0,100122733625962 0,196694696068166 0,0315783961912475 -0,686694335323805 0,317220500915755 0,937003656694918 0,788293321435462 0,686941404452692 -0,125250182559964 -0,584108543149554 1,05164463211724 1,12344376348082 0,639124623822604 1,22697020909721 0,986737289234943 1,12484460963551 0,515701814102592 0,616052460530573 0,748356322534764 1,92471929039689 -0,176337223090171 0,883163599128727 0,861383202591174 0,276052309426909 1,04860307405826 0,532288856091336 -0,0125842147631612 -0,261241083642793 -0,26197979922324 1,38973676062025 -0,238773342135907 0,203874453145617 0,109522833131907 0,283016889195556 1,21137766887072 0,159468875144206 0,325002047648315 -0,914823572962528 -0,469700865142606 -0,393737897204782 0,319450469943093 -0,0463241016357648 1,48927856902355 1,51396379699812 -0,104952743129941 1,46154612543759 0,980708577967185 0,771983690057943 0,245696071575548 0,324843045487046 0,375109357118276 0,598157470617839 0,123921946980391 -0,482718000287218 1,19191670279559 0,711217040443199 1,00066940091061 -0,197914210222349 0,415436695289599 -0,237792248484547 0,255212860468428 0,645368811378458 0,303354258765586 0,0038592845561183 -0,72682296009143 0,13975745905883 0,268604532187819 -0,462264542170852 1,08721830752865 -0,0779246776010487 -0,214558953122693 0,179348718584047 0,0329615280713189 -0,00975508626802871 0,285615909885375 1,24363190450598 0,927244294466845 0,857638678351528 -0,208599276095181 1,12799992466667 1,02890826889479 -0,515145232759469 1,1662516132932 0,597543249127316 -0,0713765048539468 1,14693658894941 -0,204430979075176 -0,264155424609769 0,155291002856841 -0,4455226748533 0,206896309436051 -0,389176190914458 0,170734328344699 -0,807640012079484 0,584012484251309 0,69136967469282 0,576807292894297 0,38839992373592 1,13295964268636 0,576140434203422 0,188915225701982 0,20920508692035 0,268671579818265 1,38991891009059 -0,101038267084128 -0,161206467763815 -0,299369091196206 0,970655718862743 0,559558487031291 -0,0724879003028266 -0,566063479553877 -0,822970138826133 -0,749412509250316 0,948429013940563 -0,0107868760871958 -0,199864494934239 0,698966868030528 0,737708911014524 -0,876711438738512 -0,611038152449213 -0,272324780229914 -0,252353319683509 0,439403884569793 0,293443351676413 0,356475258833764 0,815492096882245 0,565998430905452 -0,62255995913933 0,284780922798607 0,429785672787172 -0,599882663787415 -0,291992160865163 0,984987061644524 0,324609625498533 -0,0700042022823498 0,181870778225698 0,789737508680073 1,5608495142891 0,215110699390081 -0,509765361260173 0,799248854437204 0,307182248124346 0,531948905683611 -0,304752225657535 -0,486191296613146 0,140165358441452 -0,367333846624808 0,719255118243669 0,572987268855096 0,0829893963413102 -0,759022151248049 0,870099786991849 0,102487203454975 0,628188007443378 -0,40532096849814 1,14708510972809 0,748404638536147 0,72359041587713 -0,0406809104257381 0,160668340158312 0,117496131743542 -0,899945167524203 -0,357191204614196 1,60921306576886 -0,164048112679193 1,66742820394613 -0,180235906074926 -0,0304211174342665 0,033841325415044 1,5389070871657 0,590765585209466 0,740678466256365 -0,234819235215571 0,833440040221739 -0,0752674607716447 0,668028014447957 0,618994099209716 0,131739835879655 0,228947289507989 -0,494017799407456 0,360748496975123 1,00752185490165 -0,258413789027255 -0,809348332564551 0,430767950163554 -0,632463264785205 0,490066430301211 -0,16453205568985 0,204140295668823 0,206698660964699 0,499417943178683 1,37862476988454 1,07334563560915 0,131636881178058 0,834769873451143 0,610809202700606 -0,3937276788031 0,538734949289626 -0,693922736533416 -0,38656831036505 -0,27061038450307 0,789081935444465 0,105428299020975 0,454708683711927 0,718565087713767 -0,272665561868452 0,442275825091044 0,391047351830382 -0,291267823435242 -0,314754343112079 -0,623786773182482 -0,608453163260865 -0,390428984830406 -0,861194014716589 0,168270253898906 -0,0339817914940414 0,539535931913877 -0,590542091254837 0,0553639875178653 -0,55796553566374 0,327850904407714 -0,37001223144424 -0,729004058858771 0,522984092165891 -0,175297942921862 0,631882106891371 1,15393841371032 1,25430783224631 -0,667772667151497 0,43016475718821 0,632998340536928 -0,639169180233599 0,055040354582974 0,00741895784698898 
0,968407923105963 0,591341433861354 -0,103748218719832 0,114213295392762 -0,743870222003074 -0,703787944943164 -0,237876068142263 0,701494477050478 0,363186412493401 -0,845419552884329 -0,323212155902376 0,00564740781825409 0,346015590125724 0,434837698620785 0,382344424032173 -0,342679721864025 -1,0008007092228 0,663834446206771 -0,739054195334432 0,838104932199991 0,309311618026983 -0,83686723177818 0,734925497424347 0,521870266715294 0,0331152696993553 -0,724377529130024 -0,2062565104681 0,537858030308573 0,176467646226178 0,253504591413814 0,0203264222101103 0,947574971738499 0,196992744101394 0,360852824952315 -0,988940464001207 0,573951742149366 1,37664371311304 -0,29686374922081 -0,166813312990563 0,0588511958634603 0,621786529593898 0,353065472655164 0,237024471114858 1,38138901693938 0,362111858380162 1,0413847043874 -0,388236892884133 -0,126965052575782 -0,549148317516164 0,490607150133557 0,357470520394021 -0,956952935959885 -0,829170408526437 0,242780431942343 0,712833787374189 0,820874511225166 0,872022410561528 0,389984494492476 -0,906763086641187 0,995629101532225 0,451686036243804 0,0471413940799402 -0,625051265197321 -0,533677605629322 0,484358714900619 0,126429550900841 1,28059709000484 -0,52982064073186 0,842133681863863 1,11494680891751 0,361591743389708 1,48210969981654 0,753046151787718 1,02303567196903 -0,436198168112889 -0,536614307334986 0,455948520136175 0,57081447298196 -0,577139981958905 0,478266121321373 -0,891308408152165 -0,756198457000471 0,0358017328769063 0,664302209291953 0,920211523607528 -0,00712828687527612 0,792082757557702 0,969291712657985 0,570428123584618 -0,851792537544757 0,839287842965644 -0,0207844600075275 -0,498479640439194 -0,110538360777127 0,684681961202333 -0,374998423799754 0,192823993117397 0,367267868448256 0,48761246689741 -0,28880418196224 0,983021381346912 -0,37600041520373 0,713342588973199 0,219280329309494 0,291905760491689 0,365929591205531 -0,396393784563761 -0,485717216851475 -0,153028885035021 0,669539036612014 -0,333021140733181 -0,858528121138202 -0,164904457361741 -0,396910828903544 0,902292012826151 0,240643065942058 -0,973910312600675 -0,224594198299211 -0,571337506531448 -0,542596388082856 0,295286757094388 1,18581220726419 -0,301236010005644 0,424823137696227 -0,596274660363152 -0,330251129140461 0,879882914450386 0,3492323514296 -0,145810416978775 -0,524210257917372 0,538483185341941 -0,354540383832529 0,257711337544948 -0,726415814746607 0,789211851039122 0,831135229091259 0,0921901382120554 -0,658813270877296 -0,0872642331427694 -0,496170315926492 -0,724571065003437 0,223493544530542 0,145520866926404 -1,00441488610769 0,49258257359814 0,510815625614902 0,621999229030888 0,940338734925386 -0,106803494339996 1,37942231886382 -0,686352366220502 1,24060202911252 -0,160576481633164 0,272306835168998 0,680111031316702 1,13682028260644 1,16834476629629 1,30360707454247 -0,189661360252915 -0,171246801745205 1,09774533709702 0,813204205740146 -1,01265965170288 -0,478527218948067 -0,669807176461872 -0,648387696475469 0,340600122476527 -0,473364000612796 -0,259208699534201 0,952072778099503 -0,784137778374761 0,811857632976214 0,849824676967172 0,699518030251971 1,09003494703737 1,10901151077179 0,288119663992407 -0,0477564603227231 0,989159012557064 -0,183746966128435 -0,283294504948169 -0,173713366950365 0,134148894114487 -0,0835249746057916 -0,404628495899629 0,942823266978464 1,1885498612828 1,46760430382984 0,488080574970187 -0,636657786205816 -0,849180130563576 -0,019588730523015 0,689585432981334 -0,640887284996481 -0,117847696842685 -0,46934569004432 0,0896234610406733 -0,495374175923573 0,706753485379597 0,164782651703604 -0,856120511318117 0,086226776195429 0,187454093376499 0,00519180278906464 1,29666841819676 -0,538852271452844 1,23070316444944 0,332445876527451 0,582179902546757 1,03738015544706 -0,0552402801996676 1,03499518099862 0,0234787659558081 -0,312125960080514 -0,267693985829985 0,777651618808137 0,590561032994582 0,841845062561909 -0,653618225372743 -0,360069065917247 -0,429094050599215 0,394968589121957 0,53811545039995 -0,42972396288226 0,772033272191747 0,136246719959486 -0,806852757115346 0,56296277204903 -0,201391453095476 0,200998756551563 0,182721203234785 -0,10936913978689 0,225471871308395 -0,395851476895914 -0,547359599969645 0,746358373741055 0,782914558827233 -0,800341145965425 0,0313308249214393 -0,561217172664985 1,0303140890938 0,306154752137456 0,683389632561049 0,893777157675506 0,78203696761346 0,191326907884802 -0,459397375654566 0,553833378353679 -0,812783199470075 0,525459485553362 0,310396469764564 0,514299248452722 -0,970673003134722 -0,114990001071928 -0,332146203113475 -0,222024038100178 0,596279697182806 -0,873981194132515 0,20590199046372 -0,0553681048225704 1,48180846253963 -0,329976084940774 1,41776611863887 1,29991556498125 0,56480145697072 -0,00546022651634951 0,242634065974955 -0,457270369623675 1,9176001610328 0,858724776629198 1,85519899890679 0,710366966604231 0,176942602303269 -0,124891705828883 0,15138319629014 1,05528622905988 -0,336919187237757 -0,853171575566227 0,285384574441469 -0,004360859986768 -0,513838645671289 -0,338927113169434 0,426341677672462 0,285601602669452 -1,09509934490136 0,0440879165855004 -0,0599878787936208 1,22356289591754 1,1711465929303 0,807881250570323 1,06232104217574 0,770957365505495 0,851920768154958 -0,179859332101888 -0,231569455414426 1,3465066307678 0,934143596606146 1,08340025807901 0,347223853839503 0,249597349566844 -0,367056851930354 -0,100241873376358 0,784594945605478 0,609279349736946 0,920665049819113 -0,787393705964617 -0,177503300677335 0,582591416333106 0,691231481025571 -0,0295514928129093 -0,51952068866182 0,470545116547502 -0,109887833582172 0,631857893552266 -0,241790973043028 0,882553473128303 0,372549757521108 0,0348061558246735 1,12582186997719 1,21113706531543 -0,0957708032157116 0,925122520141181 0,353217616762119 0,659578404854668 1,23150891811811 0,298946977738225 2,03805929686573 0,206901360367893 0,0742189310404952 1,58317580102695 0,141745665389097 0,571339522883551 1,0489357302481 -0,0736979341799393 -0,0642112435807218 0,95716862429195 0,129598715499576 -0,894417570981032 0,780125395912549 0,764457088767587 -0,793498709637048 -0,345690495309337 -0,175342852272137 0,369287264872876 0,238954165847306 1,45313505083215 0,0426668348067772 1,57663868663159 0,432455030376776 0,876602936468184 0,564560601735417 0,403116372370279 1,29212376041266 0,491086384686485 0,118058359721806 1,06433408200553 0,221583869716182 0,865236252511217 1,40527212743041 0,178313018271577 -0,709654177676507 -0,143799861219347 0,355258787518485 0,901413851365383 -0,746889897277915 0,252967948961551 0,877219101579418 -0,660651447137048 -0,255272594186991 -0,371817364561453 -0,0240652384912787 0,258654520457661 0,111797124120075 1,69786883465009 1,54866477653122 1,53454010735996 0,862013645711836 1,95536686097349 2,20039099095503 1,45567929686619 0,347435123060378 0,514796288939332 -0,22077537110333 1,07972541622363 1,19106490047275 0,238940634528316 1,28818366310791 0,341652798296535 -0,727452506334269 1,16940222608726 1,23543674734158 -0,665107558243298 -0,817046653069503 -0,054394192297395 0,78358833048649 0,852526256207167 0,573296742254247 -0,315009046192902 7,84726835065116E-05 1,400781760919 -0,398914131311517 1,84265812543031 0,533765458570181 0,105541273595934 0,778129163437476 1,72136528964755 1,74608764747959 2,11892857055795 1,25846395636322 1,00494707863321 0,453412536563164 -0,221642646020772 0,646838572603823 -0,0132785733988387 -0,33512618627891 0,918977152988782 -0,378450017443897 0,888725982591024 0,083664209618707 0,974780284539776 0,710098000553652 0,39846200152597 -0,265677504151913 0,410161243206365 -0,420165678584821 1,20870206081637 0,0427849132223693 1,36164939573309 1,52057694780845 1,57055230885708 2,03135547075361 0,425453784613005 1,40545576976159 0,312741330009134 1,27704010473081 0,942155124618407 1,9307716853915 0,116246602234201 1,04951307494626 0,742727616176702 0,0810765375455097 1,45736901672373 1,16207012083055 0,375722977822211 0,74787049659709 0,968788002692871 0,969738819907946 0,774380864674778 -0,283787895823619 -0,25084089777417 1,22667973318491 -0,363457319385871 1,12723882140801 0,0924449454501039 -0,337911776824999 0,773057205947254 1,25330255504479 1,58522631727535 1,88759198467841 0,722705657351125 1,33580545643289 2,14115631772426 1,98995439819118 1,66440537296388 1,15697406951296 1,94532937402832 1,23119324374673 0,255450878667943 0,762016952445277 1,44533834020571 1,40667426352063 -0,0907948136054422 0,0138480693352702 0,919681336707006 1,04635147413205 0,620472070638004 -0,0203146680529535 0,265926746091424 0,822320445846115 0,0375811482414638 -0,162682869071032 0,356635350433012 0,816597923564349 1,27800223319011 1,89581858009009 1,99960041151308 1,17485527580131 0,846716066492546 0,602010356648306 0,146973385129226 1,13166433097569 0,372756197955026 0,00125877100568586 0,22597764325289 -0,222821844768534 0,0683420787767596 -0,593173139578593 -0,57429435978121 -0,74193900479346 0,757327701228488 -0,310559989597382 0,150874618951323 -0,134148943759621 -0,0646672483841006 -0,541211428799222 0,344255147855853 0,574500071616189 -0,756307483889977 0,136646002992481 -0,408215313426977 -0,669643496731299 -0,77699995237209 1,41123978204147 0,751544152880568 -0,357710400920183 -0,30106226788044 0,194232663210645 -0,780744640178695 0,842374363694592 0,591078739661117 0,176044966833572 -0,546200873524933 -0,493636819691468 -0,0577409064595579 -0,62643958813734 0,606294756196901 -0,765860512760877 -0,805640331311116 0,480639259363193 -0,116711999781884 0,507780012357926 -0,185742668311831 0,143500518903291 -0,979757338679071 -0,857568254711958 0,371206200826263 -0,915830448541931 -0,539798471102743 0,405784523236149 -0,372874467452813 -0,175537994733969 0,266589219352968 1,20403882051244 1,40594753664927 -0,210669760848638 0,806575368629949 0,0756211955235238 0,752461093769332 -0,135579996127346 1,54472171802972 -0,277106688297341 -0,404616099450454 -0,230297881003386 0,316949736836067 0,0316467600826148 -0,395196945324076 0,278700985005532 -0,630607171132604 -0,203810281419413 0,0538347840399023 0,264663777263124 0,546458790980158 -0,066286138397656 -0,552068107505453 0,249288829721653 0,506231453941192 0,0299870286400149 0,835732229937754 0,485425316635079 0,425897599390078 0,065592596039789 -0,0992061447906768 0,29624918102144 0,696514001898778 0,41709429349169 -0,160844994811034 0,0358762624346223 -0,197940371062769 0,0912780024361915 0,340982176367196 -0,00544417396154769 0,0804779654529369 0,910831591140231 0,739980460133681 -0,404306858803873 0,13565407262501 -0,852447959494595 -0,925407322453037 0,22814543502196 0,78914447426154 -0,69725287223654 0,907790080724319 0,781896239901261 -0,684249468042876 0,355875921475051 -0,311075663142529 1,20421468375801 0,716787534245214 -0,111799441341387 -0,345780007058414 -0,209051928738402 -0,0861683025324787 -0,557261227904702 0,789291673867252 0,519664201712014 0,980976211666181 0,94093256960275 0,637104398696231 -0,722882462549788 -0,246275635312693 0,832421215814354 -0,146674693014616 0,6568751704958 0,56147200843531 0,993164417629482 -0,746358050662965 0,681940021955921 0,232614798752422 0,867308109381497 -0,8663499414401 0,373731789487394 -0,0313961235396256 -0,324392772933331 0,164331735891317 0,0837557238396319 0,094644152188981 -0,251061345692087 -0,248788955155168 1,20948711685125 1,32235939983311 -0,311084282062767 0,907225864509243 1,02093746903997 1,19796301056395 0,408080213600028 -0,30367865832255 -0,137277599563212 -0,351658369861765 -0,473001591101623 -0,302434466991217 0,676025918285272 -0,366962918138319 0,675476511108106 -0,497607568017413 0,974728593633549 0,465671038191801 -0,729867579948869 -0,754700139303192 -0,660401735463755 0,152520053429328 0,0701610290348526 -0,509622691971582 0,720446256103567 0,0377944235930281 0,633520308494234 0,713555241919744 1,2290175208617 0,337449200999293 0,00615555707993852 0,214662296397805 0,900349183830992 0,388944126558702 1,35766875713622 -0,342524309499037 -0,633077717568677 -0,528462984361528 0,274599332777496 0,75649861823109 -0,323701843624952 0,450604761551289 0,301647466370332 0,0344896261375877 -0,274671947195658 0,188586363762347 -0,519192059287526 -0,229104605251197 0,315161408220619 -0,761378612631222 0,191260296930318 0,109634597687143 -0,34849562300013 -0,187253740279749 -0,395264404118391 0,0521211795391472 0,205300584279932 1,07803265544364 1,04318525803772 0,667859443034275 0,163472572286489 1,10134341518257 0,345090815049825 -0,748944613872375 -1,01346986350922 0,797786659101952 0,244592062587043 -0,364508003958758 -0,219232804065285 0,0963718669748074 0,996045188741795 0,451584609520867 -0,792443482014936 -0,474663881989452 0,584971640960821 -0,0897755964514452 0,86680023242416 -0,813355423444227 0,823320838948918 -0,877337539281516 -0,620936784135148 -0,0112051434065883 1,4456435588824 0,956825529109981 0,953773340112798 0,893927940075534 -0,403135690455839 0,804574037766591 0,399424964285073 0,739035521377194 1,40149072573605 -0,0215663596973093 -0,488490636880557 -0,897766242545515 0,126520143421982 0,0413895542312573 -0,330165476334401 0,185854754957646 -0,0537394441448601 -0,111045874110769 0,954852014864291 0,853839331777987 1,00026633551793 -0,770193200438658 -0,746676806030484 0,853012283463626 -0,152402030773368 0,618270245159434 -0,0516545566793844 0,615590228863504 0,0419098816138374 -0,0281521912963005 1,11990142273632 1,15235266068314 0,593574010081553 -0,356782034152887 1,10388421610651 0,567468278075743 -0,0539918142473379 -0,244260121265803 0,278193095849043 0,861130986824405 0,698709086057514 0,479068085139944 0,132759120676123 0,0848403655551196 -0,16263555353164 -0,95740425922559 0,415879412929587 -0,440521987341478 -0,744507039949389 -0,296619212888712 0,254208871120101 0,0670297527577999 -0,737123523698674 -0,804759422371054 -0,294077264169056 1,18112308807479 0,901310819582404 1,06326752144153 -0,376237213177208 0,0422621653667159 -0,0200292193973334 1,04814809559483 0,0910561882316959 0,974712166905595 0,628978298469088 -0,0723274480901305 0,100147872574285 -0,0140344946868329 0,364032679097053 0,461242797752535 -0,400572096308982 -0,794294269875954 0,47427899293838 0,966874978886534 
-0,833446396839641 -0,46774429007066 0,107613448148351 0,183211569601143 0,029005894550276 0,00219640137115781 -0,639761239497965 -0,888977139835614 -0,0263942233861116 -0,983656383799789 0,230976538977492 -0,375613033000077 0,41125863029301 -0,128664366700053 0,598673932865924 0,953833540188487 0,896437124185124 -0,122405948345765 -0,577645860171482 -0,242439332510888 0,40255800288044 0,957876000036255 -0,13221344896105 0,633001141645614 0,823106300532285 0,902261564060152 -0,0706693175876835 -0,580370334184064 0,208897318851527 -0,194528703605145 -0,88552604278069 0,0584259984283279 0,602663610295828 -0,657933288925216 -0,949731313529535 -0,981054879796583 -0,349854955649761 -0,837573525619584 -0,298689049070397 0,347993258518099 -0,671194651080909 -0,493609708728319 -0,216975046372029 -0,388836852746125 -0,712113252684689 -0,351174523926611 0,54060748207808 -0,741542476322476 0,414041341918707 0,413205970464887 0,570042362162699 0,728593519485848 0,789230710326706 -0,277393410986626 -0,429836476358602 -0,780716158749963 0,675075397273001 0,485218544788371 0,370711505674282 0,137350568403943 -0,916528043131791 0,951215472355731 -0,0872600400317854 -0,821244591227388 0,912490612713901 -0,816866341134554 0,032307117639979 0,0799755914974955 -0,168191561188908 0,590447970285802 0,314451189482665 0,744741179047695 -0,812883136744588 0,0853510139011115 -0,560446430010139 -0,0930502582408014 0,18563545716736 -0,732571095800431 0,355877463817654 0,185085989791186 -0,62757522566941 -0,318520241501114 0,0162037835232937 0,806297811177566 0,246035196996236 -0,603513323905453 0,279801526111097 -0,109336740658529 0,782509500327228 0,841591328302351 -0,645518172356397 0,175521023708664 -0,197679453630322 0,574414105735211 0,274926851046776 -0,61191111677842 0,608354504735379 -0,385118487697552 -0,29074635771196 -0,831123041300354 0,92765937421925 -0,528684707810014 0,437395450008246 0,838420608121871 -0,874021489360761 0,83603924143813 0,552222406331235 -0,285329559646024 -0,706301764094416 0,677937203915544 0,0483892621099016 0,418265848678576 -0,860049160534633 -0,803768122854798 -0,224467959637325 0,41259843669723 -0,0543820183083105 0,117040552788292 -0,0566832102525386 0,526598853421668 -0,086059696301755 -0,847792264507614 0,307891906398001 0,000686181795869045 0,258820678641768 -0,850575881126599 0,101178311458752 0,183118649073029 1,34368423003199 -0,682678799013225 0,535775536161378 -0,418506031189423 0,568916345892667 0,251273578433951 0,572842664106089 0,924123417384892 0,271159017422691 0,192506503798732 0,707393073874183 0,432955968859061 -0,145117397424447 -0,424262592769774 -0,392428667806408 -0,880704700674646 -0,192074866539577 -0,0531865251087926 0,0461810554029829 -0,383299665604151 -0,190508501750593 0,872935290652313 0,453036399607106 -0,502339053067522 0,70672739819363 0,19312041860444 0,631791939456896 1,32520035646464 0,898536703320985 -0,00102764042210648 0,191265144855798 1,47710054564082 -0,0115681155715168 -0,0603637812565359 -0,0955704053778981 -0,757773356751384 -0,629039581602426 -0,47721323516704 0,901125613756187 -0,100716262108124 -0,361885218986351 -0,125634642456509 -0,831486992186894 0,763717619488996 0,420253563035399 0,533312980659354 -0,317676800529457 -0,65118694584768 0,555247055213869 0,199200884556548 -0,796628307254244 -0,689734931266227 0,113819754392507 -0,65318310457028 1,46241269398118 1,93009681146379 0,471836856671063 0,559214277455873 0,350578697209836 0,0286295072880442 -0,287183730270824 -0,457303166548478 0,0118830146541209 -0,0873316273316111 -0,0783339065671299 1,28245461472529 -0,166121006900699 0,987606494373358 0,68191497531613 -0,624048974783985 0,758941180897845 -0,654853743665644 0,0974620030852125 -0,84250096533504 0,989194273565832 0,945737156166101 0,71503418860137 0,699921871927987 0,0880137756857811 -0,836559958912754 -0,478593721896477 0,157737507729805 1,79291764787917 1,90343448580014 0,152023946602023 0,188020928827983 0,756755971618994 0,2285810914807 0,648776306720934 0,454653522912114 1,1354347940245 1,15620434252152 1,15438678992204 0,846440811104958 0,567977958515383 -0,173530932355146 -0,863431245427407 0,361137665369093 0,169652453529974 0,683591068597155 0,0064504901008514 -0,23292879321944 -0,322497272067214 0,189920231227268 0,450871228329099 0,872945126707334 0,227527863783479 -0,0289554005054851 -0,631768276743219 1,71254269317424 0,209205086822166 0,885442583542113 1,70823582371287 0,704117308403838 1,79365464908932 1,10498459417347 0,048954811106737 0,6505116812704 0,249191618525055 -0,160673086751344 0,396723255161585 1,79743111845716 0,75327049538803 -0,263992237322438 -0,246622916362629 -0,785601969650564 -0,218163527796084 0,623907094527564 0,308218941055344 0,445033095867684 0,819774999608626 -0,635459694403009 -0,459104632554747 0,415029490127913 0,163485718818966 0,764947577584497 -0,793211242295043 0,514821552590672 0,471412418522457 0,285575512659482 1,00404221124894 1,84983831612659 0,167369010843143 1,1818882474881 0,635198587278209 0,627400367146204 1,73890964776281 0,732975010564012 1,53721361817038 1,69217681099063 0,113738610628712 0,37354950248231 -0,202286982600281 -0,136232782128721 -0,196157923938041 0,026521068509693 0,967157159723152 0,952096255494929 -0,55284203050824 0,247098111698053 0,0976070068942045 0,610118295147786 0,669327067517449 -0,0661842540298331 -0,919972829922128 1,69476407986507 0,338709618446426 0,24207078757472 1,48538541523119 -0,0635923051673218 0,731792825236678 1,28576892729188 0,103644869220574 0,0569681246136559 1,1179991588851 0,907809268839842 1,70692626836963 1,57414338288142 -0,134807395698227 -0,949464444991965 -0,591736165339677 0,969283672379285 -0,984650778110564 0,635267766098894 0,0541093447980506 -0,543176777624535 0,577396383626067 0,687714850373281 -0,37819951782641 -0,848302146467862 0,820760335440659 -0,734688200560168 -0,625666243576307 1,21024825784128 1,21505362483735 1,35925820590225 0,149966512033457 1,06715218154382 0,873704350566447 0,757934053943606 0,180281404315794 1,38021438692038 1,14743702019996 1,38126601054289 0,633806520223575 0,810147588751755 1,00546401588318 -0,165906053412047 0,633262205521995 0,82468865903488 0,235900199352609 -0,595994014907557 0,929106831641696 -0,592801463405037 -0,15057868545334 0,138928404721078 0,605374884879443 -0,955330563887358 0,915021796349243 0,633823161698071 -0,258985024051154 0,727484032099239 1,64736083753489 1,37724725622631 0,220956832078187 0,571789370759615 0,9138206374498 0,850874096636948 0,774674542979868 1,6421116240186 0,661803032911794 0,440815908724025 0,415025888355469 0,710692524098568 1,42466663197365 0,166662859508035 -0,245380401443542 -0,482545882629057 -0,0575323524794534 -0,93441945758371 0,322379926138404 -0,0320204961937691 -0,934930401478186 -0,192293157140188 -0,0777295609483313 0,431473539089413 -0,653192180373666 0,928341630896087 -0,303710220028732 0,152620323383982 1,83038260227924 0,165332299469803 1,3356628126438 1,54280447364639 0,455690136383039 1,48851211249208 1,65740603730893 1,68238481835364 1,15895692039221 1,87129217318066 1,80440373001205 0,0750178297825154 1,11981491800905 0,878638552397128 0,0874256070939106 -0,288609528214302 1,01232293206356 -0,264611842021493 -0,2946534418506 0,952731304461886 -0,596860998222783 0,098515013030971 0,112795055220249 0,835341642006253 -0,677960363548453 0,376074727736586 0,644207820332018 0,866729314412813 0,453246701577159 0,837168358394839 0,313826656356663 1,08255232957552 0,395746157893881 0,628951544518226 1,77333872656548 0,458075966657324 1,09145241724904 0,747365842592995 0,62827925175841 0,185928232571045 0,503784555541059 0,000892065563641887 0,332439290955893 -0,0125171973854862 -0,834865734612161 0,118383377361563 0,237514278527598 -0,802968902941464 0,730887637431008 -0,778516262680638 0,417396759413544 0,893739017813332 0,855242215065717 0,396399506388132 1,73538317423229 0,656013406697283 0,993157847323901 1,48213021752153 1,14082218645745 0,991435860328335 0,822371218626752 0,731700375305793 1,13722724743472 0,205177850447328 1,49025177286077 0,625815303897043 1,66557041453823 1,03705062493427 1,65971460421347 -0,441993000387952 0,573295128741021 0,156562383484162 0,998714574798112 -0,444888097821935 -0,178179798440179 0,585760471765744 1,11426233693168 -0,41123469038089 1,45888715756821 1,15290051181793 0,0548681877600846 0,396038330010854 1,10939509585805 0,279414231597897 1,33568750750814 0,615961755981291 1,80193240593496 1,88273215323845 0,855167519381261 1,05422866944867 1,15892402103573 1,36096832879958 1,65871998818918 1,62726285324815 1,15224635864173 0,342970113048645 1,6815543820049 0,0559176775405857 0,397068435045155 0,669697444798756 1,15542980828938 0,0718697140301396 0,124657995564134 1,09330314624506 0,580959714162291 0,127732095424469 1,49021175367706 0,59479872955161 1,67575606706622 0,263148315905644 0,861119235609609 0,633190287402239 1,91073184035119 -0,165753781675402 0,844645935948834 0,400284898828859 1,67858943362161 0,926451743029848 0,695232934645914 0,790600983966834 0,727844244558707 1,68680125671207 0,0158558127987126 0,879959182408664 1,14698600977583 0,996895446338988 0,550003379189089 0,234625014959193 1,31132347107635 0,317322425441334 1,52860389207013 0,600019290362666 0,630450597425562 0,137366876125486 1,68323055504148 1,78814965801521 0,134166797854583 -0,0511360583885608 1,68886326025237 0,580843407156607 0,749774357039428 1,2798908388437 0,0697710565466504 0,450699534718247 -0,162286971321831 0,100353822554785 1,48181978483045 1,46495770739793 0,460152806316371 0,581817947696877 0,658908746316676 0,869019525808815 0,207390681509505 -0,419591649754051 0,0310647309030302 1,53725604432956 -0,0688488764356567 1,15277053482472 -0,0262235062847606 0,615254596387671 0,687138330035175 1,22128381964823 1,37680059640873 1,34060724113331 0,593214977508207 0,202106153350834 0,120771240633251 1,64850560580578 -0,521371570638818 0,363524664353243 -0,360985236185167 1,07792058860717 0,878075399717977 1,4461212692433 1,61544886566325 1,48365327424501 1,5950937271744 1,49793403563117 0,789767138031873 0,600663285580328 0,254746328197545 1,06722017724423 1,10207392217846 0,501722379061163 1,53355087505407 0,5388383745985 0,25541536725739 0,0359476071499414 1,50800559787097 0,198125586649004 1,72801985694289 0,77419724549176 1,8049402795717 0,88699530363804 0,332847403519593 1,76179074336397 1,87704354392842 0,505508386925061 1,6914644001509 1,76599588630336 0,233475629075509 -0,0321777172994506 1,29747484481187 1,44070341342378 0,389796950032808 1,07326673932253 1,66024570546974 0,656996355973729 0,832252218022784 0,315511630089608 1,08450661180132 0,382456942345595 0,180505198677282 1,19061501299498 0,247995902345066 0,618173947025728 1,23685319332346 0,482617365970152 1,58339555951783 -0,103419021979429 1,69832337630903 -0,0729720391627805 -0,0708135021849907 1,8596208067684 1,14053090093906 1,17223511361267 1,53922805696538 0,0473673028405391 0,856683359611633 1,67940444766664 1,48587715716035 0,754774427159721 1,56222448794507 0,833044536306794 0,184694553073319 0,116781110250812 0,406498098684455 -0,290584394934684 -0,856884254478374 0,0143098338175781 0,856650219068601 1,51884116717252 1,05413169373635 0,314254181891721 0,148924434539162 1,10954020977536 0,435897788905727 0,477116991099593 0,555307656122217 1,57334585842189 0,288924874698854 1,0637332081589 0,751988738822216 1,46831562045893 1,69993325437344 0,000459906529572957 -0,164433835081514 1,24713395581591 0,158855867110768 1,12976293813625 1,28156307446363 1,24924550435899 1,40786238027464 0,793331448685654 1,19467751234977 0,266624879148154 -0,276198464511141 0,312781946788279 0,267652356373105 -0,113035615889035 0,132097993211651 1,03617831077122 0,288350063753905 0,991365845233402 0,882134932755975 -0,101813656919794 0,501026785585756 1,20189413487751 1,34294404683142 1,71676416931743 0,409768901824252 0,826111796860286 1,33016442980579 1,18731137366449 1,28621751380113 0,396100675534718 -0,0397241333541981 -0,0432901835042647 1,00826004525479 0,0346799666259716 0,041087098790658 0,997455801224276 1,60272491102209 -0,185609345347485 -0,0261054001668756 0,358651666969342 -0,985452143102703 -0,736827143768661 0,562448379646742 1,34163848968768 0,503375719671899 1,26957341882364 1,64409946973764 0,576416956782119 1,48517423104461 1,18140238776156 0,646403652452081 1,56578311938568 0,416048766868571 1,55339504869621 1,27166513854917 0,352388680393716 1,65583928026952 0,160806083729724 0,479877273081554 0,281200522496692 -0,189303317306938 0,0956989104108126 1,06114776739816 0,0479657725790394 -0,19313733796035 -0,448338482674348 -0,910910794871637 -0,262403677275772 0,868833964228089 0,161715687186037 0,357606531576788 0,764123114323294 -0,671788827155608 0,978319229424189 -0,599775582731308 -0,332008526302451 -0,555789574441014 -0,774013696925738 0,508055038111298 0,331952279333763 0,361421590387234 -0,0791914226510561 0,865078739464159 -0,7487092019918 0,900287930350346 -0,553719049386583 0,683022150906917 0,486069919454526 -0,238718172202129 0,645796892326166 0,212260094718543 0,501934493253959 -0,909730508732777 -0,580371260850013 0,241952570331305 0,621079958396878 -0,379804071150899 -0,507845666676055 -0,277980768036478 -0,951612377647104 0,215398376995578 -0,0668064431809956 -0,278083994518995 -0,678671210764749 0,834013990389038 -0,111618094766666 0,338360913229909 -0,292679649375131 0,620369037073538 0,00912281474316222 -0,521702629535599 0,860001557626203 0,0582001364456803 0,413401777607962 0,205844283369406 0,217119799887829 -0,450387591349619 0,412907837878215 -0,0804841894923977 -0,628805187997783 -0,120748659587728 -0,386371750501115 0,986920889058485 -0,766356690149049 0,960061834704264 0,866278277198629 0,68445985388065 0,919187764889707 -0,417712355040388 -0,46137381366786 0,877256778153785 0,666251061559015 0,345780456379153 0,326181944482439 -0,872839507982677 -0,56115308211875 -0,790491081678174 0,554369629843012 -0,572105199895911 0,0225253957474248 0,118537644884185 -0,0136808892290796 0,876321301846046 0,762780553182636 0,178116111796942 0,362873376897068 -0,545650741980274 -0,312519577439695 0,224398771470085 -0,96455601175717 
0,0631702502767584 0,198993454223282 0,564343416950671 -0,657545569861818 0,161321946042339 -0,406689475216774 -0,0622350537633382 -0,521345422708881 -0,649988657795114 0,972897829151134 0,205536956717861 0,465659381968805 -0,856222314202505 0,121711999476716 0,180671331581378 -0,095692106756357 -0,411326808898818 0,775950375389668 0,207717519906506 -0,265558448008429 -0,0041936315433898 -0,0177129736782144 -0,0246475002157102 0,888104597524008 0,244183372236098 0,884638646489031 -0,270984824914158 -0,784151931479139 0,047229897976279 -0,411108853220097 0,403628076513178 -0,0109590192552806 -0,313655967225012 -0,461812006026059 0,472424225518302 -0,21547517629044 -0,73552397995852 0,0576472604900337 -0,796289845781575 0,612342653367331 0,574826064114878 0,834953116996822 0,252363148165423 -0,449426431250803 0,882112691178793 0,779632000472757 -0,0418091100506279 -0,0704962360337813 -0,269893188340397 -0,667106635519644 -0,178051256127076 -0,300421138701842 0,380355202493463 -0,561660605670972 0,00890012281498494 -0,932083436457324 -0,786032068388244 0,667340775228859 0,0898536961576343 0,268309174812981 0,855756268966116 -0,269425310923479 0,604667025787033 0,932078975728608 -0,280893147897302 -0,667104904201661 -0,320051160144211 0,626757566302911 0,651899401632746 -0,523313713537431 -0,252316990453755 0,51153880452813 0,57290913004137 0,820616748612234 0,300883875481723 0,413839844925852 0,952965557417402 -0,331938712647722 -0,895117001372279 0,527951874448061 0,00706996411335129 0,944373296493401 0,595480353978854 -0,308231476259188 0,750846553822675 -0,308093528509602 0,598085611179607 -0,760006220807502 0,517754963228757 0,504728412887338 -0,407273026514885 -0,450480911027314 1,03792799340499 0,0145389970261105 0,631200136753931 -0,285701233979067 -0,693866809315587 0,425617688808794 0,901491085120826 0,576453683684128 -0,00238135115718277 0,247732534704275 0,114409416307141 -0,773556077904916 0,721493868515094 0,434541399367112 0,220531352208776 0,569163920535328 0,0838848048346736 0,709742199152479 -0,745757560380208 0,678478299750271 0,578342406209377 0,525957717235123 -0,774296882308099 0,907235270183341 0,111817686128727 -0,150179809542879 -0,837808148986174 1,00263399326217 -0,259529468277847 -0,400672916949 -0,967729795934687 -0,794754802584459 -0,982360929570583 -0,691798535559544 0,641551710891822 -0,297100883132194 -0,914712635303084 -0,538960200964074 0,00313638556248948 -0,498906218905683 -0,247634635272249 -0,393819496512278 -0,342283686094869 0,737169156894087 -0,346487601962109 0,377058009233535 -0,464798547911847 -0,586410281804459 0,565776081338737 1,00038737913964 0,106018931952108 0,82906367794093 0,138822270302397 -0,103792522641676 -0,0068781410234257 -0,448807261447142 -0,166266024087037 0,899763561043164 0,639110357186534 0,492262268191769 0,408637467507418 -0,98055414598077 -0,0559660771398452 -0,526124796997194 0,168251085579068 -0,463957539909024 -1,2232500083384 0,223418715721515 0,592681838632167 -0,759941652495933 0,399344800332676 -0,38459535610453 -0,409807606285487 0,70928126727837 -0,482243285259477 0,0666933990679133 -0,0735507824506791 -0,531773815745518 0,118484438241138 0,655282215823218 0,689135628802028 0,675935121929596 -0,587950932391362 -0,179518416809776 0,585918054143374 -0,644167302467565 0,0456860151052046 0,195829270608494 0,387247136455971 0,131932020924874 -1,09305371320727 -0,857606114928038 -0,882393224480575 -0,344798618797867 -0,70563572261032 -0,892419672933205 -0,108922204016652 -1,52127238953282 -1,06985066944606 0,150958744981393 -0,29352787715492 -0,0288509571779149 -0,53631274004608 0,152894376305637 -0,519022066661796 -0,557370433212033 0,10088145617525 0,231735303862553 0,677716710914609 0,719005809470392 0,47340195192132 -0,711622398708779 -0,352251687079441 0,936989719872338 0,700429803710563 0,690997723949625 0,574365197861198 -0,835659398500344 -0,107335266248053 -0,317271876288717 0,00112469989864136 -1,02201706889268 -0,105610927579039 -1,41233471015906 -1,2331361934597 -0,392991300921444 0,256408930780587 -0,328452610775653 -0,825537540414485 -1,3318816426526 0,469503439578608 -0,186495071987364 0,910845496721464 0,232587374971659 -0,686321433878155 0,866688127833468 -0,164342854112106 0,19201066007702 -0,844562861803512 -0,0476613285380644 0,162343254381203 0,983424552635091 0,527341520433989 0,698577830520097 0,79176343303896 0,809995704392873 0,676366194798007 -0,233287000927489 0,0254940075483601 -0,502731188833583 -0,856258971006086 -0,505770903392985 -0,75668774682961 -0,174665307900266 -1,61297576302067 -1,23714880292208 0,278796137837259 -1,17442804938296 -0,251748721341475 0,354903285152088 -0,310822382159935 0,875979663715286 -0,646327442913606 0,238094028435476 -0,869743013538173 -0,344104932475691 -0,651439035213346 0,48378636705003 0,742833528019212 1,03988687070652 -0,00334371468285687 -0,479840862490879 -0,833412689789007 -0,944991743609517 0,774721271708033 0,858607278035025 -0,217515157664588 -1,58814929640852 -1,33007961889863 -1,2549248906828 -0,514271929535357 -0,796840503184072 0,072590303377413 0,400031701780168 -0,0382077657470275 -1,24428990938565 0,632072901299445 -0,677283415134936 0,132964581604838 0,796623419385951 0,919104580007472 -0,651716412377817 -0,591516273037994 -0,140941647980447 -0,650271845627123 0,320339006083951 0,656379861884766 -0,508609922792377 0,676536500168617 0,269438858355488 0,64090005862317 -0,576532174987786 0,551207487447203 0,771875078501018 -1,17322336338436 -1,23305368977852 -0,908399971187224 -0,830760336897924 -0,169648064645792 -1,53380999047184 -0,287159545972945 0,418404326779023 0,204521191815828 -1,16956735038903 -0,936760215435084 0,779911294951692 -0,767111038748914 -0,413275099474231 0,662899359141984 0,594062472075104 -0,141972224901854 1,02027377335093 -0,593889711442119 0,908789373041445 -0,853854705413734 -0,197303650832127 -0,743636982449253 0,501403898977574 0,966667615425981 -0,326583010615841 -0,508632407860031 0,0239601956252023 -1,12756495716947 -0,176799799980412 -0,894802972267566 -0,697840691622246 -0,105104895244696 -1,51672334983678 0,255462809872384 -0,0417419093578522 0,288497213532706 -0,0562381824397604 -0,239313638669574 -0,123054424200103 -0,476188007722426 0,977612110175797 -0,565852293516773 0,873476237271695 -0,159359785601459 -0,481281818155176 0,123153121551907 -0,149195918634376 -0,392888259937612 -0,929945492559161 -0,490331519725528 0,853493935211619 -0,762842698661616 0,538758316048358 0,690700725813694 -0,0482096550930272 0,449985496620233 0,138214995199565 -0,523495155346849 -0,437814148318345 0,245444384617378 -1,02271512364378 0,248582844108813 -0,607906031386893 0,160473481282755 0,0880308846864189 -0,599497940957928 -0,845125735259264 0,0446113679322611 -0,449711851831133 1,16096611550316 1,06215956811747 0,60114220660474 0,5415207515396 0,426859027351626 -0,660406475908125 -0,316084880475266 -0,223122089266139 0,0621072107332665 0,62432561592228 0,615897750520064 0,693916826155027 -0,401342663765592 -1,05778513964374 -0,560609526333736 -0,465065097422753 -0,576229228822891 -1,05160973697561 -0,691353765730855 -0,685988144987584 0,391408780890319 -0,890737215361119 -1,61629586943614 0,465562433530962 0,556045065710595 -0,764862017967635 -0,42128338958812 1,03333293109723 -0,415821459565556 1,09670839055968 -0,285967397160711 0,0638670837725047 -0,53700190435812 -0,270948916388027 -0,439134941230844 0,0740148155671437 -0,16033205775648 0,255033967610177 -0,606287285044694 0,57007799919498 -0,136055678874 0,182636589812036 -0,793368328583887 0,0163802099579519 -0,0475797808278272 -0,845922216296286 -1,16831496955318 0,130246060591776 0,911721952567444 -0,714260199296138 -1,41696281060535 -1,19599234914806 1,12197098324421 -0,358056621527595 -0,325049539030524 0,645265562616987 0,783463433543177 0,651450365349083 -0,771721680590064 0,166625561924552 0,872576772019975 -0,392004901710953 -0,526470912827736 0,331565726012559 0,561709065448534 -0,0676750296656933 0,475016444337672 0,531062383473394 -1,14506309181965 -1,30722670856704 -0,93454890565978 -1,39385800191389 -1,18555500192094 -0,384344734634618 -0,364866740738316 -1,3703807598689 0,297977154917429 -1,23027896508071 -1,88630798011265 -0,859857637435998 -0,859359456843412 -0,0438053906224348 0,720397333957196 0,61826828074097 0,571368849141858 -0,826915607040026 0,2949440857495 0,804437927517328 0,727863630457137 -0,458990282768228 0,0320268085839307 -0,00525823924024125 -0,152572364513317 -0,0967989194156669 0,338268370443854 -0,767998938530527 0,00883657708286578 0,0929297397486595 -1,32227270696768 -0,656723886958183 -0,488280980480309 -1,51949350339095 -0,428267976312012 0,588044568288408 -1,20664590425091 -1,55614781782278 -0,0260720870030397 -1,39826354637006 -0,100878905590759 -0,532062610948681 0,808057240919421 0,230894633109586 0,646883678668208 0,338006901115298 0,0985189752800492 -0,363333655513089 -0,159091141087531 -0,47393340818762 0,679300898337895 0,357549332307387 0,536248632612265 0,162614017175977 -0,858510411927095 0,490932654918257 -0,183067766703038 0,190456199114325 -0,21680725472912 -0,380671614862054 -0,415638618767643 -0,573278837738548 -0,517011534218012 -1,06855805372441 -0,866866490200259 -0,450997165170823 -0,137458920433374 -2,03076845742649 0,725691417497002 0,802815892219782 0,536533175624083 0,499612196865604 -0,629904284215906 -0,332771530646775 -0,173000364708653 0,119235297709842 -0,127905690199251 0,517251045862334 0,278083002275136 0,382947526817001 0,582066083093301 0,0642058995544165 0,677926683709945 -0,741528139171243 0,559738502329714 -0,694582106672862 -0,520495643540415 -0,493399806573574 0,261917087278277 0,172350308038537 -0,770667349113819 -1,04200582537687 -0,601130063424937 -1,11331427661959 -0,730127806556303 -0,0626836100450386 0,257720841903249 0,403493696757974 -0,300991760687972 -0,704012316718645 0,117167816993776 -0,371070340057846 -0,677983949480854 -0,380019072198432 -0,303766023802567 -1,3599129975272 -0,347898486298289 -0,118255516965039 -0,095235962735406 0,157783436851476 -0,592391132732649 0,208602615526026 -0,789075972360225 -1,52998676366462 -0,418250401691573 -1,42931620162649 0,0762426104442397 -0,903917645330933 -1,02376860556385 0,289476039337681 -1,18628039080054 -1,21313501387394 -1,71436217000259 -1,56859869330706 -0,282746874549831 0,0484678909113117 -0,424357277802192 0,240084772213101 -0,193121081737393 -0,685726378998926 0,0831659097923021 0,0288313070037522 -0,36853287756416 -0,469195444507588 0,7852038459 0,0232738927625613 -0,651708947574588 -0,883863772412778 -0,0546105647717725 0,227945976777999 0,307342602510065 -1,61613801446887 -1,45973529015586 -0,965785058691039 -0,593500610688021 -0,218375641782377 0,435670010008884 -0,68213938521242 -0,167129275004554 -0,85959358323472 -1,44355709016644 -0,854757953405511 -0,456288020632857 -0,0643567667047799 -1,31352749072734 -0,691554043376645 -0,716794747600054 -1,30356685195806 0,371409299177718 -1,53271095292638 0,0303705332494822 -0,366295225137149 0,281042198230252 -1,24893496922203 0,406868848181451 -0,00825800891279479 -0,812172883964245 0,173047451682813 -1,3241507237292 -1,38350581618896 0,0895685772425701 -0,781069565834928 -0,506316654846157 -0,792667421935367 0,281858618970863 -1,43546956856909 -1,22000750362752 -0,23039440874546 -0,381313216675351 -1,9787122349894 -0,575664917035666 0,584307138185446 -0,862143646289102 -1,19311212866542 -1,36748818336488 -1,47439947208467 -1,27558035314553 0,273550730519434 -0,924644591972102 -0,773994259699424 -1,48035207414852 -1,26290860716533 -0,70179607398326 -0,169590594949856 -1,46289874075464 -1,09120121776819 -1,33409309206922 -1,67632020879539 -1,03557397124277 -0,288213029374653 -1,12124820970345 -1,30974594263472 -0,914551008938235 -0,602893571392246 -0,0925324865451352 -0,0372444540553212 -1,71847447888792 -1,49933725502386 -0,423384440418777 0,788329427114923 -0,433159681143638 0,0661293887096909 -0,504197507661484 0,567758976427541 -0,51367279484851 0,243758978604578 -0,646251492675409 -0,352071155728473 0,269049204187 0,200346326330751 -0,420519943708768 -0,778785368121133 -0,531047882078371 -0,444993234427612 -1,28793313136553 0,14842794343844 0,830471005397838 0,579799506713511 -0,49163620983758 0,243901268080603 0,316618215833614 -1,33558350070701 -0,429603244327446 -1,51491406995812 -0,352427590892027 -0,916029073713887 -0,515233943868839 0,0391391320890894 -0,132986430562407 -0,6385344309579 0,856518038792308 0,662079282029844 -0,378513525367445 -0,366893294377957 -0,7619935456176 -0,120401962432964 0,619609721015902 -0,00066127073103388 -0,490777320510695 -0,68180838001681 0,500332237518338 -0,088852164579867 -0,860504070728838 -0,0516134630602468 -0,823355903539822 0,721935379600013 0,178954842750449 0,477768145085339 -0,437135191242853 -1,35348924088996 0,775934813718068 -0,717768704379271 0,621593245045119 0,482782329893795 -1,19015835174447 -0,755927539248726 -0,958581259037767 -0,765586639962149 -0,845027205467435 0,742640310209197 -0,259585923730287 0,766083761274316 -0,443650731279499 0,44316234314354 0,777831563588347 0,471725719041083 -0,817745713580266 -0,646899105067229 0,00939252972381379 0,137976110539683 0,72961487014266 -0,0857400485914881 0,00355137963562412 -0,820720731824419 0,800115863192234 -0,028816735462012 -0,795576164075409 -0,801895669850453 -0,617391605510995 -0,86974295315464 1,0233808700516 0,75831174795221 -0,511318930680392 -0,136405387972751 -0,41106790477497 0,338460747761921 0,805430812933262 -0,256640757266434 -0,395497181768839 0,988197336125673 -0,0155599379544505 0,369666287011106 -0,218594256668496 -0,183414281252924 0,681030653848761 0,80029662778211 -0,594038261990128 -0,335935654255988 0,152390565534776 -0,310682868245727 0,442975915529884 -0,274066063179575 -0,708457322495735 0,615053418794325 -0,562433751357351 0,0391677630636304 0,850929411656268 1,03976785911491 -0,728212030635212 0,250310076440389 -0,815545673063085 0,911542756004344 -0,931709894745575 -0,814351641872485 0,795052977957626 -0,208315848339535 0,187976650405592 0,677599599106473 -0,133968178178254 -0,633553823497804 0,528197794969948 0,339779477407552 0,824847375477656 0,0421331064736213 -0,770277588221396 -0,778320372941688 -1,02063107566544 -0,984349896681286 -0,730776670776457 0,740642919763311 -0,715850305297933 0,367473508193509 0,00748804876447214 0,479728086397026 -0,386111309137481 0,367230972146194 0,611056818889785 -0,0293257611967468 -0,5169666441175 0,559684495260742 
0,654393721740907 0,931127529273004 -0,415265357058555 1,28140963273619 1,96274845431306 1,03945732876928 1,61812850079357 0,152188641877366 -1,88659335018402 -2,50873448197236 -5,52090122758308 -13,6256588255736 -10,4612604868715 -9,14214983594273 -12,327914522992 -1,56771278559614 0,814746701716358 -1,065615041666 -14,436856453895 -6,18912087928816 -0,303884618058416 2,67425018728444 1,95306396477054 0,89736431110312 1,45723795508056 0,736569023218806 -0,0791224113870681 -0,406542701771702 0,672587006752496 -0,449166725588915 0,241060511853083 0,745364761513779 4,02285571556917 4,78231001641494 6,02668247554613 6,72006679592101 1,88004836778239 -9,25886466696977 -4,79828002847163 3,68309119030447 1,99704016229626 7,64238116091033 2,6486570196854 6,59080254282041 12,214950530237 7,78604858943218 -19,6960711598777 -17,1705922699985 8,69803897440972 8,43028992170425 4,55241297294293 3,97082427247204 1,90056864919693 0,920911124204405 -0,395680417488497 -0,95601850455328 -0,646754875318327 -0,832067005692083 -0,759072514969695 1,35909558400262 5,44378045900109 7,50298169771205 14,7285721044602 22,3231801726293 12,6058793630662 12,6764944191428 6,19660761404893 3,90936756223538 10,8169901407124 -0,551562006633755 -5,80538604156012 11,0247230979641 8,5350501556168 11,1886994466993 8,66986582569852 -0,670453420220502 14,4213412937262 19,618955117159 8,08322710950142 6,10970398507474 2,01777643374863 1,19895352696347 -0,661507772816265 0,275321908783801 -0,861202984592893 -0,153423089095305 -0,479798533301428 3,8606609042076 6,50870251183912 13,3266345354302 30,115546571287 36,83354309167 22,6341399621515 12,3554661922447 -4,51506486546991 -7,4835081395447 -2,06591038306207 -8,63302309283586 -12,7541617832294 0,011433412713675 -4,7528038537762 4,91259254529476 12,9725841102361 12,9030809340907 35,4536791587627 28,9855081634679 17,3887687270967 5,45163392709114 4,35957136891849 1,72350417273142 0,56364520177215 -0,792439777209076 -0,245217356403648 -0,277047853402154 0,593522003517333 6,27534559150419 8,00101084075522 21,7915877069381 46,9374906304037 31,9414219815931 12,7107558633618 -0,154618182666322 -2,57206673006285 -0,983609839744879 0,17603391958858 -0,368034296585815 -5,07073579234303 -0,975168544755132 5,02203979423462 1,94055572724036 8,48613202173573 11,0742276463125 35,6600263396463 46,7412852782529 26,6352474964899 6,34774741615302 4,64422404222453 2,16763784720775 -0,785059925777925 0,954689532642552 -0,967801844794015 -0,350249040153355 0,673663473381563 5,58876868735757 13,6135417738154 33,5001655853295 51,1428184545189 28,2705700163684 22,3866705674447 7,73691037171054 -2,65500191868359 -2,07189379659176 -1,69333090101072 0,648941491348456 -0,449809160194189 6,43834309038201 0,073646252853603 6,41332854108274 2,66664483328249 11,2311281970978 33,1996067793591 48,8328908706078 41,1292800422168 12,1149983783582 3,78935592529807 1,59520195359524 0,807276839807648 0,664346906784125 -0,417685184755669 0,0160534997939687 0,111576003005046 3,48950121687975 33,6414684134839 34,4807414197948 48,3018651607422 31,2718370403057 26,9594977976319 6,72794017896471 -4,9166387756568 2,99732232095128 -0,414362785674516 1,95995470552597 3,23982629378358 4,71453967225729 4,52322267747553 4,44896811471232 7,02926133861276 14,4038012530304 40,386002693445 52,1716714356254 41,8518482354538 33,951914433 3,69326683809631 1,81763057175409 0,672947203721571 -0,680793946987238 0,500136091553297 -0,00933817735578715 1,12383836051392 20,5388319190428 33,5741653583346 35,2607847099638 48,1308046015489 37,0940203358672 26,7913808027681 7,72986285969605 -2,14296964424004 2,31306890438239 8,44874649550339 8,02636340325464 9,42766939184056 2,97373333756996 6,99934191223923 5,23138818610523 3,31636166233084 7,00959460400006 44,3363786684791 56,1084125846686 38,5596419554139 33,7965743254379 22,0883475471571 -1,38599753638129 -0,26942591985815 0,0223306827516034 0,341111918472989 0,368314252086915 8,3456288146698 26,4820774494675 30,1441736111351 41,6424119322279 51,3804758452179 37,7955911526413 25,0660258391155 8,34451912044525 3,46123876041931 4,98630916447059 8,02563188763189 4,33156778236011 11,3453950615819 -1,46321950458801 7,16216894021144 4,61469063016878 6,86492358863234 8,5609502223216 45,7344105342966 57,7875630201976 41,7747693842111 31,1858266643243 22,8912234158722 12,5862362087462 -1,28826990610535 0,198201725345988 0,480823465237985 6,16507245316553 21,1081529191744 22,4916263461529 33,3857970364741 45,5410230064782 50,8821920959403 45,2887146266497 24,2679284430308 13,0064645203412 1,62627099220725 -0,90213771011285 0,645952579592475 5,46700134181971 3,91951421964667 -5,16904606650381 6,64307351605774 3,62174589513776 1,65684684754722 8,90306203405083 45,2430741687171 53,8769976931852 45,7467746142539 38,3519827356973 23,0921688880589 24,0982428420862 5,86875701586981 -0,734717646023938 -0,51105944845207 11,1494967890223 22,575286794065 19,967097017637 30,7334171335532 48,2388661095936 49,5604538344463 42,6187566512109 31,7720392135257 24,1371069967913 3,81963625660227 5,63332370657836 5,93242481028264 7,53929196564713 14,6629408017502 1,21946803314956 6,22527967684425 14,6871148412844 5,82761096049288 14,0405007743942 46,2762365058328 52,4173494749451 51,2484459503122 40,3891517411729 22,1138321174421 24,0526412453031 12,0275907467693 -1,72691679074849 -0,938462152041544 0,4346106045749 7,21873757077434 24,0804656483322 32,5507115768925 45,5398944856001 44,44583233093 41,3029991936317 29,5417585476382 29,6292428399443 2,4167704608023 4,90331335576928 11,9418393503926 14,3260177848985 26,0073022485225 6,41433445110906 12,1562845349052 21,6743259379772 8,26289610781884 19,0664955732043 39,1683738756207 48,81625678648 49,478757527659 42,0378175605967 24,1277592869403 15,9513659794758 0,866878761814855 0,163085122276221 -0,479385407583662 1,69468036799709 2,60900725220117 8,19240710250019 35,0567106910565 55,3149510451794 47,8159864268443 43,3170907789078 28,4793168608631 31,5744612921371 6,26189928091608 10,7701021889385 12,4010319265967 14,0368479629599 26,7325155362532 11,2931506859476 12,1111656407985 22,1141047195212 8,65722521842367 19,0333711363248 39,6690423490617 50,3122984615353 57,8681489953112 41,4434270406111 10,0775014368199 7,32999847196885 1,12565888050211 0,94888388540961 1,38416211721191 2,06190576928435 2,57737005157654 12,8840264775088 22,8062774460775 46,8781627835574 40,7235883075908 43,4788812676943 25,059754086369 34,5523587536829 3,82350738091934 2,93691751333704 5,58542344895247 8,77017399376369 25,5709580552649 6,24925507566676 6,90843511766338 15,14333933451 6,88559016925035 18,1589393648173 37,614107302119 39,7107131071349 47,9797830232206 31,182883347275 9,88526847062122 8,27868115479846 5,44089885865803 1,62964973565211 0,248486043846198 4,7292712193253 3,96741993673413 14,5442909436728 23,6657265111886 38,8100849804661 38,1873020760734 47,265925518667 20,3872038233373 26,5640373464337 5,89723512696811 2,56412402916476 5,42694211680107 5,28238514550022 27,7513530993802 9,69061301978794 6,11784694350749 14,952670142595 11,7669117089846 18,2203973147013 31,4267810349888 40,0868095910295 38,1234970380805 30,8972005963059 13,8505984980628 10,3576665196704 3,77942774692201 0,124853421535567 -0,512817867415678 1,89343438734867 3,34160451388105 15,1178540893146 24,3869579987912 33,3902841039447 38,9668636796121 40,485445162261 17,6451681108319 22,4244240811679 9,45305368121159 4,76870293867407 0,607144485626947 2,179637905205 21,5578578271648 8,44598074610266 7,41824169233753 11,8595684530365 14,1764234988264 17,3329742947057 27,2583349613428 42,6278845661775 40,6562331896699 35,9935412753196 17,1859794793049 10,2458638278314 2,71286656039929 -0,330108838180407 -0,285187330857433 2,48701588027503 4,53457911319541 12,8906886365806 23,0453687079914 32,771438008933 36,3070014250488 37,6441417845421 18,1731820625096 13,8353324653676 7,26774816446726 2,01390348488093 -2,25992389244622 2,04711918667226 17,5287949158197 0,983923092251235 0,136599151532288 3,18286492638137 11,997382701561 12,2527143676757 23,0994097672915 46,0846177620836 42,5155716006218 29,1753641012402 12,5898529494054 4,09130435740428 -1,64626621429674 -1,32102096503696 -0,830843280831819 -0,00387929965023417 1,66461423836888 13,5556357709334 23,1524409095114 41,8507947474441 42,6781435882174 31,8211874397332 21,9968909169725 17,1353608603402 6,1372020117414 3,20840251826603 3,28159388693686 8,69227290977425 21,3199151266473 5,52224266050532 -6,01829501634134 7,26431595185059 15,6765159348463 12,0647370447428 20,4566639986744 41,1788760882622 42,7106668922704 28,076475552136 8,92623711230875 2,38169684152008 -3,1007909997583 -1,71465517923787 -1,90515717946407 -2,5942959576476 -0,0024434218968333 10,825235262526 21,0613051814784 35,6448246610928 41,6459746904835 29,3226361576312 22,5473597153516 16,4929737096046 2,59361814812911 0,333475379698623 3,50205555913402 10,0233064009756 17,7835272528773 3,26777323851895 -7,53222084312027 2,53046182704154 10,9099403770121 11,7589584345152 18,4702025170312 34,6870275968448 39,1700017157278 25,0568371388422 9,60404691409319 0,851476328847248 -1,94108221080446 -1,82528620102655 -0,129217833065767 -4,13158892523357 -1,24557468570823 10,6387184599025 19,7855883320769 30,2889614775277 30,3112375697933 23,0098764916684 22,3358771941602 13,2711206810686 1,82724140000269 -0,432482009562932 4,14255281546467 11,5892574102007 19,2820582983911 8,0060586205192 -3,52431993762424 -0,492642939515727 10,3983903842387 17,6919342342176 20,7139568470961 28,3463477800125 35,2610481320681 22,9132838787262 11,9505957874752 4,06742956104447 0,927853076932058 0,511352381238361 -1,56104682405092 -2,7879260677833 2,34416229161039 10,4764091613552 21,077388033433 31,7195545487818 29,0030016886803 21,7160187505624 24,2159628114105 12,770346167937 -0,363172491486173 -0,633441543326954 3,24907414560172 13,4725181268022 22,3305295454738 4,24354004618638 -1,01692389152982 -2,03940155627377 13,024590944033 18,187697862316 21,75205600124 32,380216847044 36,7471560310312 24,2669330981384 11,9811583291749 4,38081415855008 2,20416951669926 1,12357288473832 -1,08156789103554 -0,149198928472413 1,56135290472719 12,9087047137401 20,3757848369481 33,0347387329586 32,961390342521 27,4962417601569 29,4611211462724 16,3539212798805 2,79271596033186 -1,97866756260696 5,97777870302882 15,2929339024061 21,3816903401862 12,2726152705209 0,989425507517806 -2,88382156392018 15,8988611866619 20,3445334894194 22,6530500181193 32,3777532893749 37,6800635738674 22,9254833648059 13,5801164186991 5,57745869343127 2,48067231448739 0,398145743837601 -0,55824061348187 1,02178132573353 4,35620697535646 14,2513586293469 21,1620361063885 36,4989371639403 39,5768985036412 38,7374736036865 30,6224873383629 13,6073386408236 5,59910892942692 -3,06535603700792 1,24031192176552 14,2057994727165 21,1250356646989 14,2401639333692 8,0963685675081 -3,84808059966725 10,2407620441659 25,6607887830818 31,1877624581461 32,7548967517124 37,4330161222061 26,2361414537931 13,0314132151663 6,31652957393289 2,92458087843722 -0,350329912883027 -0,689004433843605 0,642904473710922 3,79694594024103 12,491712473819 20,2735118224673 36,2749620718536 41,6487268020206 42,9065854101374 33,7156172857656 21,1948529168163 12,7616187932135 0,424166480491069 9,9437805835122 19,1309011352044 22,0154924018258 17,8648534690516 10,4790542097526 0,840209516139733 16,1791326619598 29,7055316048945 41,7372996114626 37,3890252052308 39,2004206493637 28,7486085813496 14,8858097906145 6,41033540350419 3,06285656387031 -0,206771969317528 -0,20107835871689 -0,447022276630669 4,4004502826815 15,9736236891619 26,1988208231027 42,3595833823095 44,3789170914422 36,7985426182783 26,6850714982291 9,59267189209258 -2,08488397771449 -6,22293635831616 -3,84042093101586 6,96792987782092 13,4274192484243 7,38590112829204 1,50504441613394 -4,95863329190337 6,15060859391492 16,1195373445417 30,2962409445304 36,9832597452834 43,1934292419097 32,5515689258165 15,4888591053646 6,52477024787434 3,04550447355862 0,628432330496341 -0,418839957522195 -0,0813926960545344 4,72318212906107 11,6452706355657 20,9593740146961 37,4640580792039 37,9982437011244 34,2972191595097 20,2612433724262 6,68427427761715 -4,11142643917246 -9,4450787904074 -1,91622614775601 7,5894227916504 10,2828339113025 9,08664787812538 -1,15493322157405 -4,49744542953625 7,76547426524837 10,5756000629028 28,5424288006203 26,0909230639375 33,5836074795494 28,1171861710072 12,090334395207 7,67186865767331 4,22910462238769 -0,3680767448087 -0,139185957219039 -0,147235952642273 2,5841485507166 9,54174432240415 19,2082735315727 33,1886597176348 37,5476493248082 43,1145339580045 22,8009191273042 0,911137136564179 -7,61894678833444 -23,6011361724237 -17,5209828795285 -5,62356516945986 -4,37981394905294 -3,18005486362428 -13,9137152012799 -16,9511022291428 -0,720884859871404 10,729518467359 39,9773018033226 28,4348800407918 30,8541722074118 25,996742377613 12,2483195123628 8,04833129007591 4,17097865573851 -0,479529894519173 -0,854867437853213 0,68916146873217 0,730270433242022 3,40937400937941 9,65253274710018 15,7549311146454 22,2217848545553 19,5132246412948 8,95842569591003 6,1488525839062 -9,20974578400808 -16,1439235399257 -8,09607144356993 2,08814579389265 1,14514584829776 -2,19963213736434 -10,1444399523047 -6,40268521126091 5,48842022340071 8,08070266418213 9,56321930850851 19,5089259622514 22,4793720822762 13,2763597254935 6,58449767090369 3,55902099672731 0,272746080306317 0,604346867094315 
-0,81471392649462 0,487447311730542 0,832612663098371 0,034348689679429 0,545717127126811 -0,234341911395496 -0,800030359700726 -0,995164801774801 0,565512265569142 -0,319761056790334 -1,24486932091759 -0,746626614182817 -2,17599570967445 -2,29940395981829 -1,73746318860375 -1,40155396715054 -0,786192877076672 0,227410782264995 -1,15282528361119 -0,804428197728788 -0,355862684758836 0,549701275481984 0,257013331142664 -0,644606887168882 0,251477344743302 -0,13711176151224 0,563010494801922 0,114199980153195 -0,860135510636389 0,527518708351463 0,531667159902704 -0,474469469624582 -0,522107774864333 0,334536288947228 -0,128425509235495 0,100659315065676 -1,28059484318668 -1,74098973205573 -1,4344648116317 -2,13468922244327 -2,58077728378925 -3,451588261153 -2,79387954590376 -1,67717397839503 -3,68883792132201 -0,66968304302215 -1,40434941805599 -1,16241220957012 -1,88207049111534 -0,589669430922439 0,436166987128982 -0,0120530260677112 1,13497624850326 -0,504858239526777 0,195329501095331 -0,370961400968132 -0,719631224495154 0,63034256577901 0,883971679266479 -0,292872729392133 0,158642326408234 0,100919511920276 0,921580062557994 -2,38659997781126 -1,6910168888955 -0,856683186917227 -3,63335140587087 -2,95530506410313 -2,27548740347116 -2,5618823708918 -3,21981471136922 -2,45139592280874 -2,8663681440271 -1,72012315111024 -2,06963107567952 -2,37924036456219 -1,9806323445265 -0,609629264729117 1,86802340475029 1,1038457971304 1,72759493963074 0,234517024503028 0,0494261666968857 0,880200324629191 -0,440024946284897 0,106228845505617 -0,0880557723297896 -0,622769485777831 -0,554167650623287 -0,68343671777022 -0,942037091479527 -1,69397907536205 -2,45845856367063 -3,18402670193223 -2,70858496762617 -3,03476540513991 -2,17258031116975 -2,22830552855712 -2,93417116844988 -2,88280825981607 -1,05209639276966 -2,73355922382 -1,56345954012967 -1,87722086493329 -2,20686046380159 -1,86090980698668 -1,02986319443514 0,244068085196143 1,03367702223263 0,493785474859479 -0,551777463646135 -0,0776173958357318 0,651788615738666 -0,513328348663538 -0,273038526354277 -0,493411263186756 -0,736148286362046 0,965626332863997 -2,00696024236145 -1,35165295792433 -2,24496898392991 -1,96188865291566 -3,85902663883049 -2,52920552708693 -2,79602692502111 -2,82125418372479 -1,42399532569745 -1,20497685503028 -0,257249584093733 -1,74503247599625 -1,55483081066004 -2,15690791013324 -2,15003058339479 -0,759846814795218 -2,12172357671385 1,76585099665749 0,914994070740556 2,07591140866558 0,808925329354286 -0,822557948316838 -0,174236696315029 -0,222066337860751 0,372354772782116 0,796621885818289 1,01616838854705 -1,33858066256822 -1,54513393669344 -3,15633797230402 -1,4937163288321 -2,60134751555917 -3,77324024818819 -2,79452997793915 -1,03454446796745 -1,7378238732656 -1,72217397047806 -0,984691618702881 -2,26393982476512 -1,07508279379415 -2,01547087125569 -0,855226209268463 -2,21882579044917 -1,9173136771208 -1,60870410326373 0,361829383709245 1,73104587728011 1,72101621746181 -0,138248642771135 1,055233242388 -0,558498102499469 0,0181462377665215 0,641274899611167 -0,619829862491836 -0,561610462358043 -0,882951617274336 -2,53169524025092 -3,10999448563359 -2,75628363758453 -3,27929812449623 -3,29970631941255 -3,76670573800748 -2,45147798642324 -0,829020218958005 -0,098564075131252 -1,193050818856 -1,72863795203741 -1,29353009421326 -1,32750156421035 -0,914870760071433 -1,99038773510528 -1,71304093803287 -0,422388198457047 -1,00650622967527 1,68749930830707 1,71301201591169 0,748766402067122 -0,878836925000407 -0,930458808808939 -0,432691665487998 -0,731120596032305 -0,603052135787426 0,909842565705134 -0,838893336402401 -1,88492206983016 -2,88606634372527 -2,21091709157206 -1,75617178806843 -3,72226432285415 -3,01783804796218 -1,29659855383195 -1,90175354740865 -1,37669409404409 -0,630525766136112 -0,241740734522668 -2,32280145637579 -1,20774866992009 -1,39648286531286 -1,69322934119997 -2,32202564093545 -1,92255498637081 -1,17469963574627 0,502676866096796 0,136348023413397 0,695186479056828 0,73074115373744 0,186119927066078 0,585415595345227 -0,0533614052063793 -0,434748327898654 0,705023192528021 -2,36359123567524 -3,28624562744825 -3,65827731523243 -3,73562737791769 -2,60774042074276 -3,58495405422254 -2,38113356494969 -0,524838623214685 -1,27473097749571 -0,96634395778002 -1,64650086199512 -2,00164572697152 -2,18107190783057 -2,00919060024327 -0,577092339122753 -2,6916602895133 -2,56616788298183 -2,63942220315393 -0,808144645053224 0,87614961247587 0,556047923958804 1,17725284630222 1,22963191603466 -0,706403431168086 0,657149972573303 -0,906039535218055 0,293826527755158 -0,54988089988271 -3,38983454734341 -1,74369232730841 -1,85184266642128 -3,63839195618291 -3,32619689820045 -3,21265613127238 -2,35616397488191 -1,9057738717767 -1,91885136101117 -0,385154724960874 -0,915821939568076 -0,185296100466459 -1,53518309336966 -1,10993434781907 -0,474370704291524 -2,2563230335386 -1,28279399686233 -2,31147329175914 0,0356475215418224 0,569512436734384 1,93438173301539 1,40139314600766 0,286902914045912 0,451026259344086 0,721677601847017 0,281582658407991 -0,406271647085905 -0,43685855987979 -3,57553524054391 -1,77588691661567 -3,37142982130604 -4,1092109953937 -2,36414337254029 -4,14480483225895 -1,32305988980126 -1,22080936205251 -1,44297028126823 0,61069512745788 -1,05722494673393 -0,478930623180762 -0,671555952343132 -1,06715061214994 -0,262200522277463 -2,33093018602786 -2,21057778996925 -0,835390260443679 -1,87857885139666 1,342738030069 2,56076006209668 0,65505419499682 -0,155797352891971 0,383536875681541 -1,11597889704787 -0,427471459712513 -0,532360999770516 -1,95567633171075 -3,54194908041346 -3,49447607875562 -2,78309523262059 -4,18213901082458 -3,46145630061661 -2,6570088232132 -2,52024761575255 -1,43413212998651 -1,13528869117078 -0,582217878615638 -1,61163377229813 -1,72110411722145 -0,927127340095342 -2,29001851850543 -1,39841284037348 -0,880804672332819 -1,04598267046553 -2,19251650398839 -1,41604620810499 0,359258836002091 2,30598672851267 1,33662041493307 -0,180505238802885 -0,9825384706045 -0,076481305595054 -0,0898433647685976 0,378835613249774 -1,23929620084154 -2,8855192366439 -2,43626893730591 -3,16382225017399 -3,4109158719792 -1,00422958559207 -0,967916428268919 -0,829794441149627 -1,25815797714161 -1,4078003462731 0,1946246003917 -0,741026258262842 -1,68295000018488 -0,431093622926855 0,0391283908925416 -0,776546697554963 -0,93750181997807 -0,866481603636324 -2,02812972963213 -1,67716412709405 0,811520490039872 1,19159583905233 1,21489040612758 0,68298497198537 0,501043984974016 0,791027681888491 0,555253976463902 -0,640193291477898 -2,2215270655718 -2,08153879158434 -2,15160668388728 -1,71855767189158 -2,22388450408702 -0,492275333093256 -0,777755115983599 -0,4795356973412 -1,17956379952035 -1,90136628083192 0,243204500802618 -1,5541970315423 0,390133713350868 0,108156116473888 0,425117364072432 -0,167150217642551 -3,02785727522338 -0,12495687215832 -0,987340984191231 -1,55016675903778 -0,494226516289016 1,8571754195223 1,3126302649998 -0,131265490047074 -0,128059955484026 -0,609592807922107 0,809659367177601 0,168069218227516 -2,23781963959585 -1,36054177797126 -1,84635289471078 -1,97341138543531 -2,6170618346154 -0,663176838465418 -0,678189254830279 -0,996743098608056 -0,101610561364025 -1,48308147500699 0,7719774004545 -0,964309451406517 0,475282624843953 0,577988319679212 -0,658158254082971 -0,039071895011453 -0,755894680292515 -0,00449398581897651 -1,06126489556097 -1,16414225681152 -0,423701800159585 1,76825476034002 2,08214916255399 -0,478101934891646 -0,154563237208435 0,8562955291272 1,17990813537939 1,44784540766615 -1,13016931695998 -2,68742872632532 -2,2033465372198 -1,96680265053376 -2,22701061239117 -1,61457881022646 -1,57416284685885 -0,206979368740046 0,677450814881182 -0,290300533454282 -0,242334070148812 -0,35756119102049 -0,565304180409505 -0,330282130813528 0,207620149490174 0,411383056060762 -0,688016047398175 -0,581761885690445 -1,05876091722833 -0,96899160898844 -1,3098602948144 1,33495608545126 1,55791991863151 0,748046258694984 0,451384413446313 0,252444204467917 -0,755626327198827 0,308582143723057 -2,41550808572213 -3,08413601726753 -0,835880323081655 -2,50199418677912 -1,27747763199807 -2,16579258110764 -0,55488163400314 -0,386599046756843 -1,43641691267036 -0,267752888386521 1,01178604357151 0,67455137883767 -0,473685825010511 0,0176543301443911 -0,134478739657802 -0,850480568553015 -1,27580896570719 -1,15422034595302 -0,330503610091885 -0,794119139104589 -0,0510381800219244 1,7480756595542 1,28805471169918 -0,73728438768886 -0,197530429154391 0,0990833121197076 0,823252220418188 0,827162419448365 -1,59163876713683 -2,3548382317262 -0,645757615391366 -1,54420566567257 -0,197947134190255 -0,594485384511876 -0,758918430882622 -0,21825178472256 0,259125447816917 -0,887850214872905 0,440034627869489 -0,0918728318633002 0,698254399170906 -0,964428546158377 0,16985880587791 -0,863934116854181 -0,580957860568055 -1,38725612569933 -0,0864941134846319 -2,21178836119132 -0,421999806132391 -0,139386030363015 0,94241661886504 -0,294647338458318 0,379988975080056 -0,247197110606402 0,764162862712262 -0,403789630455765 -1,56925418023083 -1,2178279754158 -0,491499287582373 -2,84843820959213 -1,50483185124238 -0,890691900630495 -1,87473027442969 -0,479161989649044 -0,0566285379709512 -1,07511331330551 1,14754018215777 0,563819479806459 -0,946556343418724 0,434935233909088 -0,25897715855362 -1,00930546091419 -0,534545476827349 -2,22290035981951 0,683200756473839 -1,18650093047135 -1,41854511608463 0,687090581256551 1,30270974812786 -0,695963239627683 0,422729324117309 0,260186137282006 -0,355118452047999 0,0668690631932781 -0,120425808392965 -0,554579655368478 -1,74342685068714 -2,15731971739619 -0,257271074293054 -2,21698701017726 -1,85694035138282 -2,05689387171043 -1,40194883208687 -1,23785295946385 -0,513769284272526 -1,01399036027773 -1,65911709608895 -0,115279066960522 -0,599863197191283 -1,35204114102843 -1,36633599082023 -1,54555071030405 -1,10304974811022 0,44458662391048 0,219636095474641 0,388664101804241 0,624520600854357 -0,502246299819863 0,00607529590548302 -0,679492811261211 -0,384976332462428 -0,232160535090448 -1,88546213587076 -0,401320845994675 -1,2517082110171 -2,35747256290575 -1,20012893965143 -1,3537245415461 -0,356169170068444 -2,15530804826729 -0,65049218736115 -1,1798478477141 0,669946465928453 -0,471532278411873 -0,622058377279228 -0,701459462543299 -1,88006234867802 -1,54141336319878 -2,3754102659542 -2,58174526718322 -0,6255881567935 -1,14120725089323 -0,302021296540032 0,236408921440307 0,713905357687241 0,117451853255026 0,00148897885557576 -0,19941775456039 0,761996023740055 0,518285065539409 0,248968616910857 0,029978723632728 -2,18225535071642 -1,82325839071504 -2,03349013492455 -0,74154296313598 -0,389903635576905 -1,28999307657749 -1,23866472679174 -0,307365601411531 0,360239067968691 -0,952861877072889 -1,60356575375757 -0,944151899028638 -0,95714740796188 -2,51420609769602 -2,59964689533077 -3,22269170411737 -1,6124003860965 0,701268179240089 0,21505721872649 1,67309045475956 -0,316403327322531 0,352895383708987 0,279440439187578 -0,665195137151064 0,830312299118038 0,850235460433322 0,340385934404367 -1,92723832678507 -2,20454850613256 -2,60182481536607 -0,270071119172074 -2,04235448396928 -1,64007797733801 -0,151610599058303 0,170531113038052 -1,35111045805452 0,278270038931201 0,132416208149917 -0,441915954294095 -0,787930052066094 -2,28403925036911 -1,45987937422017 -0,342184633568362 -1,33916273856071 -1,75809787459287 -1,1926745209125 -0,198740711232973 0,937957632360542 0,36884507653792 -0,614911561561446 -0,473245889736042 1,03401307153742 1,24602113621672 1,52101485724548 0,383270180019185 -0,559945693750574 -1,85411924373301 -0,548448660632796 -1,28906276817555 -1,32873059704009 -0,390258000886531 -0,715162189427921 -0,902485222162836 -0,571912961712703 0,240366693968799 0,739001995867657 -0,970624540955792 -0,87948528072425 -2,03086636636316 -0,42739644647675 -1,39876690683574 -2,75905357980905 -1,28204822641217 -0,657718314255138 0,871355096595716 0,973684826120996 0,780500453550953 0,0969959002315379 1,15613011704445 1,08245952082756 0,104218281295858 0,0901575128565179 -0,359950127947248 0,455414309220393 -2,82391360020979 -1,09923260417215 -1,36395127827073 -1,40199284555074 -1,0275112517606 -0,656872548539615 -0,0086837525877156 0,451246690850575 0,846479232194336 -0,430062476118135 -1,53639000695077 -0,418182444411167 -1,72032228269738 -1,16212918274017 -1,29490227754314 -3,11538412146898 -1,16884287595264 0,486064699333065 -0,174389519341859 0,74627036953525 -0,954147034091322 -0,98173722233117 0,298026344457422 0,947997609943033 -0,104046023152474 1,21697069201849 0,324008172542071 -0,148043174990153 -1,9911267076153 -1,21118818184764 -1,03262419535228 -0,839565525996879 -0,145542983030731 -0,91269710415364 -0,00858953187995056 1,48014177674054 1,4138563534731 -0,489482334620324 -0,993526831722928 -0,153154351651681 -2,01410856315438 -1,19515618763949 -0,85332730475773 -0,695669148049 -2,23238648642684 -1,5310550332461 -0,743533637598913 -0,302541892988574 -0,269772801912126 0,592707701019767 -0,686153601297009 -0,415928979977012 0,675999015449294 0,0563184067543431 0,62300200975734 0,141812398850488 -1,6708686269434 -0,0532657300071212 0,226955027391925 0,231815373594754 -0,0222780363882133 0,238729648560882 1,55942064540431 1,14870995246161 0,69524754486741 0,525669173503228 0,616661447584424 -1,06378540270121 -0,467569451702571 -0,0641277340813715 0,134028359759732 -0,108520072528237 -1,15492935816775 0,49465548007643 0,0114387117759825 0,459520263938722 0,584561181326403 0,516680260481793 0,495765052776546 -0,765589095499427 0,267598330095568 -0,418074081489201 -0,959240280962196 -1,47203573601952 -1,85969112145742 0,44998519699406 0,726181358106322 0,603933216337231 0,601286637762247 0,479310989799148 1,38885811655926 1,15658222016372 2,14883418605821 0,0708081338695517 0,907941956162779 1,47621649240884 0,850705183125209 0,760063570676919 0,670670109235666 -0,442338335195873 -0,986048619295785 -0,791049396805738 0,93467835057437 -0,906931175770695 0,423210371028886 0,123993857687779 
