wih 100 784
0,861545138513338 -0,884193501842516 0,158725291986019 0,0180183582673693 -0,349997062035221 -0,280411220173556 -0,239563550060376 -0,567027149295261 -0,876154062427694 0,79375312203871 -0,698345991422987 -0,259910474906905 0,525515882084246 0,330675740621767 0,264063896347028 -0,667833351990213 0,978390323811296 -0,45726415787832 1,05707011229355 0,93400917976818 -0,152072906217684 -0,887960985059729 -0,819799984757231 -0,874591150167751 0,196395057730686 0,810089675249594 -0,105337739909326 -0,714304278440387 -0,156189604852392 0,723310933384409 0,587542931251343 0,154172214011991 -0,0258004204985739 -0,596897726038006 -0,596791880818394 -0,405518669446492 -0,850901789265133 0,41096086117936 -0,936705791495122 0,357519189405653 0,455491035656784 -0,391296269004866 0,63220162569935 0,932202522449671 0,794603840377073 0,112050109487363 0,0587220298044814 1,08501562180188 0,0551030578781418 1,3041133343238 1,16369334749072 0,577021687266468 1,16755140264729 -0,336384416246575 -0,296485214608811 0,862224455649275 -0,965623804142267 0,151798231616375 0,91184583613176 -0,0986844014356574 0,865273501964839 -0,249307505034672 0,802561257115606 -0,480524137256338 -0,812914273185856 0,0106184403450017 0,690091829477127 0,24620291522878 0,35986476924441 -0,220971609587903 -0,401060441419344 -0,128323734016729 -0,294674032994822 -0,165064546124399 -0,236911051396292 1,27521448162137 -0,149152845390562 -0,274782683721352 -0,209274335363139 -0,0702174522929551 0,472593291017464 0,225143693026599 0,695356103234835 -0,0817537064616334 0,863949533544141 -0,627784472630902 0,235534634462141 -0,532458491624913 0,891922645761722 -0,646093299732443 -0,390563333581278 0,289127202463695 0,804594769094006 0,392511512396282 0,815183534776104 0,200094069949203 0,161258244081482 0,221856478747364 0,884736346868567 -0,0391225740949816 0,322300204534481 0,737570640866655 -0,0129663910356841 1,09346209718248 1,11197297335363 0,86072942516675 0,490767986837967 1,11254881620008 -0,0156147929129773 0,0165944689625831 0,52391715693617 0,812405781785901 -0,235203773489519 0,436430336855038 0,774793092560388 -0,0572973387797435 -0,0103125358581793 -0,34817783221103 -0,462416465413182 1,13040671005709 0,898038876037146 0,416284564402507 0,843718439558756 -0,000539422634221171 -0,741173430588442 0,357181830078331 0,344357950831858 0,743669217747093 0,212642878513763 0,509030791322293 0,288871875741496 0,862279198060654 0,464825052544292 1,92175319161598 1,27273089236002 1,49583022061376 0,2692864352017 1,2263385714341 0,323767134467833 -0,572030130673864 0,331476684194575 0,588001913452326 0,995151972791898 -0,0584673404370869 -0,0542461694961648 -0,441853612988172 -0,812868700716317 -0,943195099418319 0,206906673025258 -0,100537136389727 -0,792805225815776 -0,792174540373573 -0,657332964500852 0,839447011165751 0,153868509823909 1,03820106007326 1,07609193889662 0,885897052705572 0,767462799374115 0,0729498550958188 0,442751483534315 0,0270918751573291 0,638555719989397 1,18941603926147 -0,161465254504935 -0,452628701671413 0,0700440228629874 -0,145015249740053 0,773595185467516 0,954135935353364 -0,887504962709813 -0,157334614133465 0,343423841069924 -1,0463112033473 -0,665859578836391 -1,08289482379676 0,0942635927606302 -0,526398905223847 -1,10091349436624 0,255278124871763 -0,379906220306646 -0,0601556303198537 1,03641334518908 1,14604231366894 0,229158922843081 -0,255212645386484 0,224604448714687 1,06595256697532 1,1741602104205 -0,0189218245675853 -0,164095250694226 0,9413486451656 0,365750393104967 0,230780038405843 0,70764509461777 0,284086734922276 -0,34011651094178 -0,559919591538143 -0,415334878086753 -0,416934493269167 0,489881821170464 0,291261245585281 -0,985481502340694 -0,0375697419904362 -0,55350439269718 -0,135958557005308 -0,180033407627816 -1,12384007342998 -0,509377068919697 -0,449821371682636 -0,396819269955667 0,262051054178228 0,679321589615662 1,09343167782753 1,27909024948423 -0,0397967008066844 0,394133074288299 1,06317789428286 0,276830182462651 -0,14284774925845 1,54025886570999 1,56708488455695 0,61943968450135 0,662189116143238 0,94425582598637 -0,274960823185668 -1,17222467448978 -0,570756965118783 -0,745523387854976 0,130993894728931 0,248293420982243 -0,596597943363194 -1,35204240444416 0,203607014340556 -1,15148393148708 0,0029759762789086 -0,906509702147273 1,42219331114044 0,0642493549444862 0,7094844557465 0,613088360604915 -0,271436084692146 -0,305223697620122 0,683878076404343 1,40185850218982 0,927935309973588 -0,315636951361849 1,08188254443492 0,841087880121723 1,10694733662411 -0,0259565913880305 0,383363061946954 0,75822827488059 -0,831960510002456 -0,571339662764949 0,3248722843075 0,516098466217507 -1,00935053070594 0,137728917692453 -1,53268679318163 -0,3100238832846 -0,83885132520514 0,728060184205677 0,24118257647038 -0,131670252439267 0,44183654271628 -0,0242426124939867 1,02256500649617 0,983070588851066 -0,0330833107079558 1,60014684690865 0,312305460867877 0,278327115843607 1,00104161714409 0,935747286748047 1,25805431484806 1,28692612439488 0,101824309102485 1,0230166727867 -0,208647348293591 -0,278838447188708 -0,50307571754597 -0,0846091510489415 -0,553337026370371 -0,838020065533866 -1,52966089260694 -0,271242573069036 0,207711934705803 -0,55943382628196 -0,982650489986943 0,37138941479248 0,253328028617804 -0,525655763149568 0,11181161636837 -0,265356993643199 0,214929742495514 -0,434973352417367 0,343994381572404 0,0503368778343534 0,701726837397719 0,067538039860534 -0,369891595192963 -0,629242984377814 0,595119929106206 1,27208305880897 -0,0535841476690423 0,349863428827111 -0,395134895865365 -0,0700163330694858 -0,439595419722358 0,685357863373945 -0,0963340964279988 -0,760724621845749 -1,07534260829918 -0,233524739604574 -0,842371450429077 -0,11152305218152 0,208000154579536 0,25687768352649 -0,266525439959212 1,0478599889565 0,318008126372059 0,635367066782381 0,709418606523844 0,299607844427925 0,0983562810144327 -0,333873127927103 1,62387004796859 0,605421525456711 0,328083726198001 1,39495363159208 0,939123029585068 0,152426773921436 0,538231971251629 0,0331709898788687 -0,279550080416382 -0,454275965155925 -1,19763127613041 0,0250883762113707 -1,13494712105065 -0,745482618392981 -1,0167829574308 -0,44096079084943 -0,940985405583283 -0,672128497985296 -0,823429166828946 -0,0233790208611651 0,733121458113705 0,580100521169644 1,08283073085019 0,838937842862253 0,24900762111649 1,1764330483497 1,16131228398127 0,604704577937837 1,18348597438472 1,03491838403506 0,328718974927343 -0,0915134229673368 0,708099397172384 1,54315857825095 0,661861425975653 1,17043450511846 -0,529893284431564 -0,197218896108139 -0,427434187598989 -0,189485729113025 -1,66497746442868 -1,55774752625415 -0,535121655897858 0,663869406982791 0,166490044402766 0,615181882422822 -0,240256736579102 0,807110045856311 0,248211998987344 1,01194622215475 0,171923629565739 0,111793384100826 0,437225001122929 1,32435101554091 -0,122106589104463 -0,0542431721129828 0,813349237934899 1,03013296128805 0,573866163980486 1,19758729649705 0,323838078910028 0,977365921716664 0,353685603139349 0,510873224276241 0,869122078963367 0,479873071502038 0,870779006751964 -0,658548619461827 0,270894371182012 -0,400725742761598 -0,381758491150371 -0,189610905357669 0,233781268407342 -0,33179234002888 -0,216543555274366 0,196438662055061 -0,361864036086131 0,96869820566997 -0,401961231411662 0,607462019137806 0,585482631507481 -0,681628047058441 -0,338201195822969 1,23010421164283 0,0212186657521296 0,16779024944724 1,42152010047676 0,816514407840792 0,940148028453748 0,320358712873722 0,139212796139833 0,471453296056931 -0,740325691091933 0,5748365086012 -0,0761427253220305 -0,214502526503869 0,034622135677852 0,520871602597764 -0,754960618561403 0,495181100663286 0,932549553885034 1,02840208189146 1,28777657245204 -0,916000766166093 0,430037903454594 0,938771695508782 0,757633174159285 1,80782951342887 0,957296437465911 0,749390742798376 1,60360277142681 1,47968048239945 1,01066406997445 1,96092848064744 0,316133693579205 0,518129260724696 1,29637317035993 1,27314504269306 0,709722335455118 0,922163710151022 1,11071624044749 -0,0925222655129455 0,713434548396304 0,421271904418212 -0,0570219125693716 0,780404338404429 0,339459522860737 -0,105449580835201 0,0295834048462371 -0,288707711321406 0,339449231896296 0,633493202705256 0,911411217455088 0,226577202983483 0,439362847736358 0,350497097154874 -0,362866361683661 -0,146274724796069 0,317471471792468 0,612982935287805 1,20628106828184 1,91460305266354 0,391663374064842 0,20344896133711 0,880564289757525 0,867536275530839 -0,122378519156457 -0,334648996880482 0,192742637213637 1,05608307150265 0,249283367432736 0,69493527279448 -0,316489297861701 -0,0284724877807888 1,08194713687719 0,729839478535297 0,0606393893815114 0,595932468947876 1,17486728462382 1,15630948077384 0,277940739765673 0,0503145869243565 0,605038174799752 0,0219035143534349 -0,115298438188539 0,388622578196788 1,46821084508931 -0,136012035586417 0,672305756636507 1,35834012481505 0,064515891229129 0,863151174016548 0,989512580424617 -0,337403668509746 -0,361438580480793 1,37128071146666 -0,433715258077175 -0,317342030013171 1,14933064004819 0,275408021471379 0,12166902211057 -0,186775947673514 0,409689664748504 -0,310880610506115 0,573430523103033 0,587979348997705 0,127879032906086 -0,271586862735202 0,469834688837131 0,611741465521184 -0,876279744992463 0,561449772263195 -0,0206841107329456 -0,3931739581568 1,19174844554037 0,229725554912498 0,261738135438216 0,966277299748292 -0,453822301631882 -0,254587529062468 0,558642959356608 -0,737852196465356 0,775837209605588 1,00782970789163 0,489289280165786 0,388320127960798 1,54655587439533 -0,627438130672139 -0,198743018740561 0,908040505903633 0,280388250659343 -0,218033730753269 0,596399231342924 -0,37075942489467 0,402771370527696 1,1322069071098 0,395844795006178 -0,29024690756675 0,000954311062565341 0,568276493105807 -0,711467827450499 0,0990846638604263 0,369396342617865 0,754905317150592 0,485028077756998 0,67018730174635 0,539541914420701 0,444638265749725 0,0302393947639369 0,909855282764231 0,911704338684323 0,294422189754426 -0,649587121522817 -0,0471248271384635 1,02274103197076 0,21240305786596 0,742960498966721 0,751946644864404 0,349749121649971 -0,3185839974314 0,0753014812821178 -0,538790828456008 1,54538113402206 0,699291786190348 -0,307472783262308 0,872790331557598 0,831644834836791 -0,921109117665015 0,776523222789765 0,821720617834907 0,557252978947691 1,03584341800566 -0,859033540197828 0,212831297869222 -0,340863022821258 -0,375975415695691 0,288764727486296 1,06561161223273 -0,0250273501841003 -0,508755957938551 -0,886351332529764 -0,24218553108465 0,700136194690677 0,516227650403529 -0,0755234971361656 -0,646860593674639 -0,646386697741761 -0,202072515909902 -0,194951616119574 0,597221074909575 -0,161460235417861 0,998298149291932 0,804607219304988 -0,0328433088041852 -0,649370095016098 0,873561552538171 0,0717199184503516 0,76573038091463 -0,228638223708175 0,175699396452071 0,254231320272167 0,357680604139587 0,376839951536672 0,0581990836165572 -0,606003496038195 0,542005452198599 0,0312541360829911 0,570339359393717 -0,549174095437687 0,0690043518626328 -0,759241913692238 0,850759061744338 0,634096333524692 0,329234217194879 -0,518514270191822 -0,519800328036154 -0,158160269706199 -0,192783099569064 0,197813957832761 0,0967346815053845 1,09187987184908 0,394821356367474 0,471089018863911 -0,279421801485239 0,613385682233283 -0,847368476585811 -0,437000182611328 0,313813027765868 -0,36225150258586 -0,292101509829198 0,39173638078214 0,489130944066298 0,290726499444151 0,297869229301913 0,156321443179007 -0,00213930840579629 0,303302089002646 -0,339251362782212 0,457910571463738 0,475533074376408 0,832596707259173 -0,0270706588390986 -0,412237283295993 1,00674981118824 0,327999317084028 -0,316776810713294 1,2217290706421 -0,242547737340027 0,0157621360267765 1,26571763240752 0,233490958582348 -0,531046044899226 0,216156322555102 -0,698617840088879 0,523546366696401 -0,977337716409619 0,631015739193678 -0,249318325550518 0,469772626302789 -0,709906451871351 0,0458448388494623 0,353777057293011 0,261316426232047 0,839598244638221 0,613093702595911 -0,31737586888444 -0,164440865903092 -0,267078678168492 0,00223096187261411 1,21298467295039 0,410005830088599 -0,53713838745971 0,656094811392755 0,783445711636251 0,233902286882635 0,255528229880556 0,443855102449023 1,17611033238105 0,390192305212564 0,18582377013218 -0,702356905903709 -0,723019572129372 0,119333278886169 -0,254890549807839 0,650931445161309 0,0448047035941677 -0,387651116778203 0,436144522385978 1,02618599790161 0,0197729257449532 0,695352012718126 0,00984782943373599 0,288219433214802 0,177744715608862 -0,16988513100625 -0,014640328796655 -0,49009482658073 0,166938787785935 1,25712977970523 0,000453021202114881 1,4617414806309 1,37458716410616 -0,370578677459392 0,375506655038332 0,404489154149579 0,558156223455202 0,671979335986984 1,16357709965838 0,690040559977066 -0,0614768819790422 0,382971456268766 -0,751827495773472 0,717008829446237 -0,480637310273722 1,12419374073349 -0,340280108373135 1,04855472359255 1,24275722418037 -0,456759016308698 0,153115319736031 -0,820398593632474 0,44384178672844 -0,236498913991376 1,01008222552819 -0,292570333969436 -0,280550045215424 0,268211348754225 -0,639734828382602 -0,0314922925025565 -0,586732926435743 -0,166204576079312 -0,524039618711439 0,861592591957978 -0,163778896601714 0,207641838588937 -0,371279951465786 -0,848630769842727 -0,689984517568882 0,934918413283425 -0,329549561302671 0,727765010028594 -0,36082629751799 0,587515942462059 -0,292698291927789 0,37775456191233 0,122893444815335 0,262132819192586 0,0304023285673422 0,154894650421073 -0,874619879486546 -0,090305197353288 -0,595519378379213 -0,220416641845492 0,276432529306972 -0,398273473237168 -0,31899917844103 0,290967019309907 -0,405257229712823 -0,0782632941832148 0,0542492681154746 -0,525085108269183 0,345954250780824 0,39733021393294 0,485949485154263 -0,661180649962609 0,0192103736655022 -0,510087746266972 -0,21897400269978 0,312806394669592 0,43436307650521 -0,745826270608868 0,489711946770632 -0,873473646520923 0,573778051319912 0,39091334360863 0,86739741795705 0,875291716493795 
0,974673488818181 -0,618328933073755 0,445637213789975 0,322952942550478 -1,05676726767902 -0,130761938134609 -0,670877217608117 -0,0136669868581425 -0,46068534416243 -0,448180941640637 -2,31333642341368 -2,20883070326723 0,549826583614472 1,88986166413737 1,95942174971531 1,58813667605055 -1,66605603245106 -2,37086455180459 -1,75322140589935 0,285008887831629 -1,00398516520392 -1,03664540475858 -1,15952881808049 -0,769995071432881 -0,839788640330364 0,613236962865707 0,71211390998645 0,884701790442561 0,441497922003006 -0,682452828976338 0,296849139901188 0,859976831573243 -0,355570270948378 -0,574462552038908 -0,167656845343377 -0,890888459879457 -1,38019893763226 -1,90817729522528 -0,613063257245022 -1,69264229938403 -0,540429287462494 -0,0804825628007446 -0,0356551473780554 0,563611259423305 -2,06340609867224 -2,70768770869593 -2,6819986607385 -4,01878166022198 -1,66111849216272 0,877754730545407 -0,717490485418714 -0,728994327841721 -0,839849503965211 -0,833504437819501 0,734858637459304 0,790669404655443 -0,732737661259824 0,129946686596114 0,107397002919637 -0,604093279326699 -0,141423823386031 0,0358161374273883 1,45359989969061 0,158436371132464 -2,42386000972907 -1,15471667331519 0,858400259789084 0,471011645609437 -0,311872059677876 1,39329103033246 1,22833283486364 1,13169315312138 -0,588601333384138 -0,879447529415015 -1,42001341818335 -1,71264778636461 -0,387928152114147 -0,253816728366298 -0,634508685989143 -0,336570891960626 -1,04068627236729 0,21833365747339 0,465884536572007 0,772578191498108 0,448524891122066 -0,630382384476914 0,202651983050366 -0,811039232656059 -0,265980055217479 1,45407150011721 1,90438567555575 -1,33139440318005 -1,23959649929573 1,38187205457995 -0,29008315619254 0,571083898209455 -0,472910271023674 -1,01290813433268 1,29318799713889 1,03074564044163 -0,697781879653686 -0,632571981972148 0,0698485865866871 -0,707296910109129 -0,497584800163295 0,588038208961707 0,19946403941012 -1,14327824032711 -0,104354177439673 0,26122679996143 0,704547879283703 0,786189814265496 -0,0278434433969712 0,65639488310947 0,550057092488425 0,142579745623428 -0,0918921543904151 1,96866148710824 0,816819964209515 1,57468217540709 0,749876725711014 0,53197585291275 -0,581208944876153 -0,0685531753974843 -1,05666824185587 -0,957069803051315 -0,191534438158776 -0,210777076021383 -1,67345990000173 -0,682551592279052 0,493825684877435 0,833912118000163 -0,0792596690530418 -0,188056193088825 -0,269990475611802 0,669800801155727 -0,146825518815925 -0,813137354259605 -0,766061063504959 -0,69722119245717 0,855953472076628 0,0907981800273434 -0,694197841958713 -0,764865065234346 0,374532971968064 2,28085980418932 2,24081367845591 0,0891828177943296 1,05564544823222 0,307528268023795 -0,580141280907183 0,050585818598079 1,60048323243018 1,02200141791236 -1,03807621746562 -0,965921900780884 -1,09207344665012 -0,402885372334212 -1,13122222283851 -0,703815310053874 0,372340794715904 0,997976157479013 1,8784266457634 -0,0844071653380064 -1,30404591262432 -1,89021325410959 -1,24723251497627 -0,623205617598971 0,407612652199221 -1,10972932180737 -1,77557270765605 -1,62546606019852 0,287979472060513 0,347162679779217 2,91016494269643 1,99520871782031 1,85078257435575 1,25514718028174 -0,216194155739967 -1,28520800189436 1,00078366432743 -0,194510988170459 0,719119094396615 0,409560632681482 0,608947156374262 -0,732113610396307 0,0935283192916825 0,454637064169884 -0,430786478196296 1,85717158857961 1,41968257931605 -0,247185186524259 -1,4936100963578 -2,34052035398619 -1,54385210973093 -0,637085850987732 0,254434966065848 -1,39256014270805 -1,63810962859215 -0,724689360052357 0,351110441847507 0,854771533034949 1,88130864093483 2,0100693085996 0,481462581904658 0,197814637741216 -1,20658495460672 -0,650023264397522 0,544190522669933 -1,52794760784483 -0,351585018376182 -0,0556908720145375 -0,209670785630702 -2,16823060957145 -0,942078058582588 -0,632159563394662 -0,919580244568048 0,705980622050847 1,31664590587747 1,33671517506209 -1,1895590230095 -1,6775889118896 -2,38227284087673 0,447286448218025 -0,227736146948297 -0,473487621002949 -0,657600100868742 -0,672150414790574 0,566129066655325 1,93958506087118 1,60812467533834 2,53922248947889 1,40760637104194 -0,159539695195869 -0,365725500759649 -1,56649250510212 0,13048836717477 -0,373219630550391 -1,36047778385401 -0,281187143656214 -1,0658388227638 -0,612416399919021 1,26884672191054 0,312709462460344 0,285406724878978 -0,323113970356624 1,21508451764195 0,141183939825057 -0,517759998703601 -2,89209128412947 -2,71695104821629 -0,797007417943504 -0,0236773207906323 -1,49041096025331 -1,91796375431697 0,182410634229113 0,0847193345970537 1,82640193396658 1,8958811590107 1,99908381308044 1,83043559000636 1,04296684305575 -0,768037207092147 -2,37050269844888 0,225710509835737 -0,932401438041888 -1,48367174322761 -0,545113991749079 -2,34200281453255 -0,933699255806608 0,562253089006003 0,909798032404831 1,54887820000733 1,3111112084458 0,504176208902771 0,517172476574038 -0,913822595366743 -2,85137422641721 -1,76296060169244 -1,19294541746757 -0,998892372415215 -1,31192312574961 -1,49300167957247 -1,12141988153618 0,624373671440451 2,48516930257873 1,45934655567869 1,53459692321979 2,85771960854758 1,68766969645407 -1,00702124340468 -2,03536811407362 -0,73053849491982 -0,753903577117738 -2,22449118460605 -0,866534100068692 -2,3974900999416 -1,67030184488693 1,28545447699459 3,50775321712891 1,13920005176747 2,04357507184612 0,835550710817647 -0,597308708306912 -0,917475328981343 -4,19812911319017 -1,91336088508643 0,157133361892214 0,441384305324689 -1,19603049200746 -2,32531368517889 -0,362614877586114 -0,50806135299908 -0,225305556066598 1,51698395179637 0,349948262932392 3,0064788681134 2,58426940731793 -0,788260910844411 -2,36513011384514 -2,29440618533316 -1,93193210485069 -1,30117498368504 -1,16729650731628 -2,58965572056657 -3,44402302722086 -0,131876061813746 1,49197776536293 1,56739530801352 2,23969782235017 -0,573475015892561 0,578176472036462 -0,885006020776571 -2,43050853478817 -1,23675895624745 -0,659658186183568 0,126039220315209 -1,63209026060336 -0,936390429382407 -0,496821782196547 0,196025171401141 1,07213381304522 1,43453982504286 0,456213435406228 2,3125980051232 1,64524589567889 -1,99905620076739 -1,39083942381944 -1,87985058876483 -0,619779251264308 -2,44598200845334 -1,67604756064078 -2,63731200550535 -1,50364774589488 -0,768230065739128 1,54208421425736 1,92835687554729 1,87169632521122 0,906705524902246 1,13093857964294 -0,567352748701753 -2,49300286103677 -2,42313616132042 0,290215430780646 -0,585412475440243 -2,04260583414548 -0,275024044718294 -0,665286194601042 0,264473416876985 0,722556621738993 1,44925251710764 0,814437173441519 1,12298845961185 -1,31426224342838 -1,30804771283769 -2,13695286262539 -1,55120345165601 -1,70302557693832 -3,26210796509568 -2,04944871400414 -1,27205174621388 -2,56442405373881 -2,53506441381122 1,97725610036616 0,739112300736993 0,859600174389542 0,0532095235955703 1,19486653445085 -0,441221800847895 -2,71318494285927 -2,20607581309942 -1,65814079194651 -0,300860003017457 -0,492198840607325 -0,245143441769985 0,479749181589888 0,301378830331519 1,66000631573075 1,60805371779193 0,711115615589881 2,49616494825377 -0,30495566904887 -2,72425523714381 -1,66166716220212 -2,13483272087274 -1,74761656888401 -4,55094254845497 -2,70290325430303 -2,76160079757559 -1,55513796921126 -1,74198638441459 -0,0237808476772486 0,468051549037409 -0,143776439726631 1,23922560794431 -0,0302921862601922 -1,2868221727005 -2,58867669868529 -2,0734343160988 -0,316056505443102 -0,0226493377401174 -1,7982931230404 -0,64408937255073 0,439847360126911 1,19366197995359 1,84437424235429 2,72971879599947 2,57594881657892 0,677348823888715 -0,412312936647253 -2,78880029941051 -4,05587605118644 -2,15057318575137 -2,62641127071152 -3,80112493599209 -3,14969785758463 -2,78004683015127 -1,9961817981949 -1,73038663608687 0,430361515890698 0,58623838563207 1,0291993911816 1,86624234678861 0,33487003373738 -1,76066790261297 -3,05525247251323 -1,78952426250558 -1,26838439193086 0,0630429284772603 -1,15532581953393 -0,934448137800744 0,54832467408218 2,70439977845035 3,78737377725449 2,69979028122766 3,06666667449172 1,96591337063085 -1,63356710610739 -3,10606435201934 -3,24839053868446 -3,5999421697002 -2,89148211389493 -3,74587589187649 -1,70694481748744 -2,06506545773404 -1,32379990041609 -0,506176436478361 0,36796000727605 0,763823411562162 2,67262892810895 1,92581871907939 0,660294374551965 -0,398215879335454 -2,47784010406396 -1,83300422643985 -1,02936471219659 -0,646404028232714 -1,39870167726278 -0,672752837866937 -0,0385941686160263 1,76804059441191 2,0748179092026 1,127639086642 2,66779615509869 0,491999210372383 -1,53106023418663 -3,82414769577306 -2,31481081703872 -1,70480945612727 -2,0000784736253 -3,41240039102239 -1,27318203849431 -0,13216244464559 -0,665559358821527 -0,429853970089827 -0,726204544050634 -0,600759695159562 0,93488394731341 1,39300469755154 1,52741363042451 -0,172386467818706 -0,423714200707125 -1,34381287299734 -1,56307510980603 -0,991097980121669 -1,31354799221839 -1,73577715779252 0,400944364594826 1,39364760530008 1,91146741859975 0,443483381113816 1,5672967790596 -0,77857668442812 -1,63325161076512 -2,01528119321607 -3,14090654110599 -1,45920582337835 -1,82160839066858 -2,71843173932938 -1,87641018631989 -1,93464760020536 -0,527931206716393 -0,665871946654776 0,420714793493247 0,185511607715098 1,49448978817502 1,60197195656784 1,8391555379827 0,975795961181424 -1,35047032498858 -1,99408792606645 -1,06749054785333 -0,590507794000668 -1,45505652575906 -1,58287356586953 0,234798311689073 1,45105439506059 1,78038092946887 1,0775715155924 1,09647775408228 -0,270175811373356 -3,17751473102793 -3,07101510916942 -3,38073289638316 -3,05017847810464 -2,67536373578584 -3,65145655919456 -3,53845395424741 -1,5881522928125 -1,95572546365168 -3,2649679460197 -2,02314714729436 -0,0928731183734837 0,486272249893118 1,79631002350268 0,841149207352274 -0,422175619457695 -0,914249205751434 -2,59952706868546 -0,865552115865503 -0,529669351541042 -0,364674282383954 -1,3852969092601 -0,126137216708012 -0,142631324348797 2,32172690374304 -0,0642909562580101 -0,0161397224102841 -1,53827437990548 -1,76242599857227 -2,87558139126303 -3,25558932654191 -1,40926333016833 -2,27838532522838 -2,98016653306809 -2,96986328323082 -2,57855053735404 -2,63729306898491 -2,61433690013589 -2,87709084611137 -2,13062518740512 0,309439752690985 1,99009503265136 0,938779680776522 0,659582011537903 -0,79632432596213 -2,76487757586218 -0,270925667856749 -0,51014420750549 -0,818595038848667 -0,993011766611163 -0,493967923953143 0,420857759517362 1,37833087766323 1,16887792928582 0,164020168187556 -1,12209149276269 -1,49301930213947 -3,10701534228987 -1,87095505461124 -1,99411141172501 -2,43159810932109 -3,4904287711818 -3,36198708628002 -1,4874526204124 -1,54479151914287 -1,50352031752039 -2,1378229594496 -0,574578074086834 0,269505194875549 3,06744589316512 -0,457392968739727 -1,14898164295829 -2,07171701944175 -2,84346169255786 -0,764453112674592 0,271228086681973 -1,16515309340493 -1,19029733497102 -0,097165958760674 1,11583258473553 1,99784475702574 1,93513058432858 1,16356649139612 -1,21018813131311 -2,97476337820286 -1,73612776345759 -1,78974600227653 -2,34678972473316 -1,94311580082444 -2,28348386174691 -1,32801379119938 -2,05039254635937 0,0375438213592339 -1,31806903728364 -0,953690464995941 -0,601301783177391 0,742269127322726 2,66565126924746 1,67716986290743 0,613750126486555 -0,328096548043353 -1,11893580588147 -0,437089395420515 -0,0418561416403218 -0,360777367922986 -0,911887205198478 -0,720621781685553 1,50402743443837 2,42644560574266 1,01719949742866 1,18418378586604 -1,6547027524476 -2,37235243724418 -1,79242952878676 -1,59349790250059 -1,5778206139907 -1,96201542282653 -1,8758728435546 -2,53287853877453 -2,31344506483317 -1,99811301193129 -2,07472622853203 -2,84058437153403 -1,60085928478634 -1,50683074666314 2,60223563268871 0,274049503835205 -0,713166692564569 -1,32224259561111 -0,755077937894328 0,568631495407115 0,486076880399681 0,137667967544392 0,261416747574263 0,736546325958258 1,43259029266307 1,0792014006144 0,229683807864914 0,309051103465958 -0,373692561385936 -1,41645574435852 -1,73033249972223 -1,99179002926873 -0,157637173372306 -2,20429831040116 -2,01098894615019 -0,926112359891602 -1,85956789838048 -1,57871784185073 -1,16940039662981 -2,53674646661097 -1,67354477185911 -1,01573688680493 1,79343519780934 1,99230343834311 0,615016544145603 -0,425299323977893 -1,40129096138203 -0,274144062731928 0,180185906442074 -0,775628630245945 -1,33637671117891 0,334457079912077 2,21800950855896 1,94435611223951 -0,290201361770184 -1,23159856648956 -1,89608741881907 -0,636317002955632 -2,8953299655867 -2,50096206268618 -2,63537738724408 -2,11679331388527 -2,79312476807029 -0,828046734337896 -1,76940626629596 0,0320099021553954 -1,11771186567187 -1,91247584195196 -1,66895903240473 -1,68778733010634 2,48335523342045 1,15957369311706 1,22370633093255 -0,297519864662075 -0,218976145892996 -0,457626946424449 -0,687417490969968 -0,867699823411394 -1,09603645474535 1,23417813611528 1,79361941388912 2,20496781848245 -0,441813997990272 -2,20012169638073 -2,99652268534099 -3,60042969234431 -3,51647131221763 -2,98074785660859 -2,41535968298456 -3,34400810175085 -2,95463799965326 -2,36486982754784 -0,7333997256772 -2,05347226338588 -1,90296246705942 -2,11581169028283 -1,84132349395779 -0,343235350301538 1,54741296340951 2,55646602235015 0,645478326809874 0,243805026446969 -1,11632933364079 0,103702699588901 -0,298363153113753 -0,951822084369163 0,392526120268327 -0,195233093012968 1,11666432431544 1,36026118957687 -0,218125136826014 -2,50708830100682 -2,6105723867221 -4,34863365464808 -3,50399425010076 -2,8998495915458 -2,62235401698376 -3,13997428918535 -2,3965597442706 -2,66757290695393 -1,32616592720668 -2,35204883686358 -2,53686875822047 -3,29517835071046 -2,0126513018618 0,364569505285435 0,407131578930131 1,82208018723435 0,711281113262941 -0,682550538533562 0,220667969961814 -0,182760521413566 
0,50182454964453 -0,2250496739189 0,384504688089221 -0,552224135631443 0,191266337441478 0,535751062153969 -0,746043197505627 -0,364146271892308 -0,0431207779041787 0,709620635047991 -0,413443504092366 -0,17408801637262 0,588877843630616 -0,238816346054285 -0,0428021220290127 0,0142774424489799 -0,19656946595058 0,460951467661037 -0,329658945893998 0,398313526985101 -0,208314492080364 -0,107149994890046 -0,822559040862459 -0,957122836116012 -0,485651557879081 -0,699246828720941 -0,79744807867395 0,396951510000832 0,804680702309342 0,89810026392905 0,733570700469608 0,589985749993453 -0,515443497077943 0,85068141054745 -0,295600624000193 -0,198657902392263 0,14194846291983 -0,591771660449821 0,165882790092008 -0,708054476513985 -0,142180793145178 -1,73712425991016 -0,587746070357112 -0,585934789457643 -0,317461854143855 0,197721150767337 -1,02662496648816 -0,885800139244616 -0,587322886797837 0,265865399557769 -0,527040085660019 0,077065730165668 0,229774811798267 0,825856966924059 -0,999498282944388 -0,384149673059035 -0,39023658750365 0,343311597544231 0,930089854613628 -0,118036210349124 0,326771908437001 -0,142213617369066 -0,215701031214759 -0,0792412314272491 -0,919797590502468 0,099886730341806 -0,480030485316175 -1,31730908257253 -1,40262693296791 -1,71477655310016 -0,0254658009823334 -1,22931345046921 -0,808172623976882 -1,11324165854083 0,744442141956389 -0,520814716525746 0,637829972075577 -0,203633613635194 -0,476823329347991 -0,265318509218945 -0,896228424095294 -0,974237726099909 -0,0305423462938979 -0,399897243067468 0,422283133140379 -0,348785506843212 -0,641011416585143 -0,347957462793244 0,851908072302004 -0,955725455293478 -0,785640885018294 0,855007682652746 -0,448112214099588 -0,753487544645528 0,601018455688773 -0,0369098709309111 0,181170566619066 -0,980827977214432 0,0353051103074715 -0,82420882166055 0,194113118319752 -0,883729314519947 -0,860898692467504 -0,650016760759486 0,287011316442065 1,05326465341376 -0,312042003914401 0,209807329981624 -0,786722562493477 0,369729303066568 -0,10927807295083 0,903227878463314 -0,141129852316506 0,18021571903449 -0,220331967181897 0,297732398478317 0,889121994542316 -0,83498316751208 0,540120328334087 0,391361736508368 -0,233650015298092 0,762416466975571 -0,836882064791749 -0,887710680997258 0,781235777266026 0,96891852970005 0,740384222464092 -1,17274216121894 -0,505154913513698 -0,264112625818862 0,404656601916796 0,686989700994914 0,407606861071632 -0,826486612969085 0,466500561208964 0,961851696055371 0,969206299719102 -0,424776064160471 0,284480565268139 0,430804369000325 -0,949720721949052 0,154506176872069 -0,570434756039909 -0,524548011502396 0,162606362248523 -0,742147345092752 -0,0669017593944819 0,389670209934863 0,536072002452765 -0,830168600161668 0,0530632057109207 0,179696029570536 -0,429236331620726 0,836950000411025 0,549909348550541 0,455400053310187 -0,797447259135786 1,04202056867705 -0,376588372109467 0,446593969191959 -0,807955473768816 -0,347824651115133 -0,255774313540882 0,611936995824873 -0,911294401298759 0,295465351419423 -0,476050196164853 -0,28591491419702 0,753318606174947 -0,138883226646574 0,315585671007725 0,337442160657245 -0,136424052455365 -0,904834976552298 0,342220862267069 0,573376511155672 0,189834616406802 0,647288992561628 -0,0977242599815507 0,4982519863184 0,0101425952447237 -0,604198432165951 -0,47994346592665 -0,696605738020742 0,567059327827677 -0,722927220882353 0,0872636330379196 0,657474528487579 -0,286663312681401 0,942803289693699 0,95468427775279 -0,969441412213043 1,05186504533285 0,996281056802455 0,271487188907874 0,46243067315561 -0,579554458787613 -0,171846820074074 -0,613217301567207 0,839931454390049 0,733564716388434 -0,782224587067896 0,572538206990843 -0,406879567900873 -0,27674169844478 0,75709922691659 -0,78385908777776 -0,664758907275752 -0,631493144685566 0,848406807392517 -0,664733123764617 -0,655621091277678 0,0959011592744548 0,23177409702805 -0,46365254215594 0,995217618992312 -0,710811939572949 -0,374068404332511 -0,862811824953906 1,00127016363415 -0,729684000491099 0,0345549717199024 -0,87122157566332 0,887317735317636 -0,0385887820675189 0,29976714578674 0,297481843145168 -0,0724169301643341 -0,147769255994893 0,909789364233907 0,151940229577125 -0,69928944354068 0,123730454523272 0,00786734631917824 0,727442347438985 -0,386720991187512 -0,362238705012849 0,596863450441056 0,356732645497706 0,781578618761597 0,987266373830697 -0,0677203908445288 0,264287504801445 0,118613269565442 0,813239824394231 0,673924939167719 -0,017990625399379 -0,0787613023541573 0,603615983798056 0,487438195360786 0,297764362071762 0,927817518614132 -0,233087419072318 -0,569009496361508 0,638430564758 -0,169393739507034 -0,757933446050986 0,824086789092835 0,801856648321807 0,453031042034326 -0,732930543158135 0,172009076096957 0,512551197913604 -0,611212435520284 -0,480181700422462 0,732316444813088 0,12261765292474 -0,790862440027258 0,608259500914978 0,975272631832115 0,334765914933427 -0,0352402903059075 0,343478582819201 -0,547304552597253 -0,847712245081205 0,592478637849987 0,922419501029093 0,297307089043273 -0,749752438359766 0,414983698275155 -0,650583841769492 -0,611739447196808 0,382095157369455 0,533475743686258 -0,245827473479832 0,313912248925637 0,717976627042241 -0,255800110384111 0,166662458153795 -0,313085058952499 -0,629525448428043 -0,363633022790912 0,698225724290773 0,801124272775492 0,363481048737571 -0,222733507487216 0,453213720832252 -0,115692432366627 -0,542095322603907 -0,736844696330872 -0,340383601582199 0,109913078009838 0,66508313068108 0,932174247398284 -0,761117918947177 -0,428935681945537 -0,121672122526616 -0,504916396814976 -0,634577731991191 -0,881022205723161 0,0328176298669052 0,0808339854041912 0,669548045602979 -0,604892283362804 0,19165080619208 -0,999560055934398 0,741104226539638 0,767380853782718 0,642429428579733 0,225407280338859 1,10724048010441 -0,532657349932908 -0,197690817188065 -0,234713208181481 0,688980022138916 -0,18062956997423 0,321902580596408 0,744989031392264 0,253911324808828 0,687704601841501 -0,544083799617607 0,248489322733739 0,000413976193385414 -0,738485221312395 -0,00497166130720145 0,489415205552191 -0,112708809964658 0,586418378079602 0,452402965420831 -0,630415723644179 -0,388216211724812 0,286269689232754 -0,474439476719981 0,276875233028346 0,693358129915638 0,155346183933384 0,0267620227225157 0,368553730948916 -0,354233036347456 0,301863604464204 -0,239039982895104 0,659653295687038 0,367062876365449 0,330284921489659 -0,562219253877837 -0,404489859943829 -0,495146715881242 0,277043922770556 -0,329094556182025 0,733589257474097 0,442429067196961 0,39260180251457 0,511442287182764 -0,0503663211748691 0,888859370107472 0,971013337328845 -0,729587613691517 0,593688049157653 0,584681938025877 0,839718006843624 0,282360855952825 -0,587483427212867 -0,607145586710563 0,200011633721952 -0,350625553646497 -0,200142402277057 0,889809730857812 0,603531731642478 -0,125652766946644 -0,502524386000417 0,993591897265233 1,30508366570318 0,312677715179717 0,979447642762335 -0,0866666478890334 0,112507974127904 1,17717836196494 0,760672938456387 1,14113716605845 -0,255377506804835 0,262239291670697 0,957350337517446 0,210765668070809 0,970995154320968 0,159914271891937 0,413665515752636 0,928723355350424 0,66447323123712 0,47579901852643 0,938401235180797 -0,0394584735686768 0,277768787695663 0,526916194336024 -0,333268853111719 1,1835518250983 -0,458234279211879 -0,0470445090774499 1,09795543659186 0,0996049387373467 0,812148270635439 -0,10616827447542 0,0515846267599424 -0,575145212987932 -0,515325105168491 1,09651098807372 0,419202771054678 -0,705933563956064 0,682911874849864 -0,739222156530415 0,079731398016871 -0,965402631158438 -0,245282089775846 0,712038525359015 0,0890965596528966 -0,198649646302786 0,4572461765917 0,286589757039853 -0,335084750868778 -0,815262076339513 0,109297438889423 -0,206732569709825 -0,671675995353876 -0,707450849108075 0,129165048843111 0,254201370843741 -0,535685636148673 -0,188039541755141 -0,155862433912056 1,19387617860634 -0,394918072869419 1,16393217159473 -0,570518137063096 0,140135672720475 -0,378660638207037 1,12804250174999 -0,527563736515554 0,910915831260917 0,0491034181850512 -0,944055755875022 0,909734654531288 0,330004782912252 -0,563837611650244 0,543303249217447 -0,494831557065907 1,02281465138261 -0,497481341076127 0,818977150072943 -0,439686583517038 0,93149081778414 -0,0702878352316875 0,539944519653371 -0,374173749264392 0,759065317870481 0,74443434479793 0,101662307120734 -0,182442827256579 0,183655497299095 0,443289166726821 0,186611862164371 0,962380214957371 0,0958669050665277 0,793255681503439 0,750996898192362 0,982496625167516 0,361038091119485 0,957840884140848 0,817876839521241 0,325410517610934 0,248322458424011 -0,488254762355225 0,666366152237131 -0,644434081073411 -0,31122642398925 -0,534850986968427 0,920059323427865 -0,659431005228433 -0,28258297507946 0,957499906170313 0,397747099209973 0,000830252360226148 -0,433288910236666 1,06371935673714 -0,08664375175759 0,580750844357144 0,374584887509906 0,541817447562384 -0,416688697466152 0,631462719669144 0,811375282792038 0,581759787454036 0,617314862724061 -0,273974133795388 -0,809208357426586 -0,571889392792172 0,0512176131210087 0,860230251412752 0,0394777835775263 0,80030857148192 0,326204321410052 1,07490829353725 -0,323596331755816 -0,285062806542764 0,531311052253472 0,516676944250298 0,251353021140497 0,423671319016478 -0,586310557283262 0,630727872308388 0,827599445253154 -0,149548820260946 1,28926243282522 0,577168909524001 -0,657155898842806 -0,815993651491877 0,390465829863936 0,216469517359686 0,203407053661389 -0,490541101694626 -0,0549426847775533 1,05424313951871 0,773303746902784 -0,503893124335899 0,732488892037019 0,881544577469672 0,128505950868916 0,132526672117893 -0,706567817259373 -0,732512110857008 0,415196614762478 -0,656131650537634 0,460434261301108 -0,030005144563334 -0,379807884226572 0,534031753975134 -0,197353323853386 -0,806646119180001 -0,532178031025627 0,341907932520819 -0,5837476594361 1,21810914908977 0,454968815883867 -0,145462447257492 0,787192567210319 0,167893280207994 0,729650811009875 -0,569806067208929 -0,315539736382607 1,17624356382787 0,357197916051137 -0,94677094126478 -0,20962497070258 -0,256581125117051 0,09125557148301 0,424494156457252 -0,53830158134292 -0,7712779004685 -0,0217149086189351 0,860384231560171 -0,432266738321389 -0,789104267170208 0,181838130151853 -0,624517000057222 -0,321765476280645 0,756265542773085 0,228801916472786 0,0134022978084961 -0,11153866016771 0,123959488522824 0,746315016076946 0,210221956502066 -0,287034923105618 1,07828786067298 -0,576780196227013 0,0456784191605345 -0,165639020893317 -0,00497969874456077 0,0320914391241284 -0,275785862212126 -0,738768318318017 -0,110694992892232 -0,341922515635516 -0,760801711173942 0,0153522804994123 0,328855077527008 0,531573189963776 -0,0808155083471785 -0,988524924774838 0,248866679813886 0,00907606636316038 -0,38752775525032 0,42989763953491 -0,241029075891903 -0,430191192028502 1,02000589886041 -0,0124146013598698 0,411805944945309 -0,459630429787199 0,831526008278936 0,861183399909351 -0,184562387485066 0,737541332382802 0,82819646478103 -0,430626429059926 -0,854728826617884 0,522257589752944 -0,150560534902517 -0,617651445155681 -0,813056549436829 -0,230883901188859 0,544401143326435 0,238349780170601 -0,812505360967127 0,549921136036362 0,794772342712209 0,624603420226762 -0,084501043353079 0,269366575734173 0,412505575353873 -0,442277971625644 -0,51915937491854 -0,177397694568303 0,52916407391245 0,979477766893568 0,318267674956077 0,992710726281889 0,831915242872082 0,37680772938068 -0,596674337714463 -0,874361406686938 0,574895440389952 -0,476284491194341 0,123586447078997 -0,0171331895893974 0,545957548582867 0,168733073402359 -0,124283469124495 0,75080206705849 -0,080695830393033 0,852556610434646 -0,366465945124999 -0,485317890250224 0,919861694460776 -0,442408475691395 0,4642310609251 0,292199370630433 0,39295482625446 0,510606126147034 -0,19709721751712 -0,752382474729884 0,962387339757047 1,04539097843512 0,356905083173124 0,667272021780661 0,352322104819891 0,942331900028574 -0,690840126034053 1,04407054079043 0,438408137169364 -0,764778422364317 0,724516897532316 0,520151638757427 -0,96777821677898 -0,906927278308069 0,20919184190896 0,0704371198874386 -0,851927117095435 0,248786713120854 1,00182931713033 -0,301571045872288 -0,200569725882085 0,254111428975312 -0,704976401412155 0,419396307672444 1,01736210832617 -0,858699913927979 -0,0966418853883726 -0,144854822423094 -0,660464868998128 0,838183565945433 -0,0512833795468641 -0,43687319928769 -0,518826721308807 -0,940626858720877 -0,751645539214289 0,669454068132532 0,340533305192841 0,600995742769125 0,580523802743611 0,602098797322088 -0,107168403556423 -0,10537361402239 -0,6322493266335 -0,272712268169777 -0,872561080380121 0,123132666317434 -0,552605493092569 0,904766239853639 0,318963638602394 -0,559019735665998 0,0426906982345708 -1,06098886669251 0,562001270510157 -0,768611155000868 0,369122424674701 -0,590312865526663 0,446190845918572 0,535067035874118 0,757498084934217 0,257687376450388 -0,0442096652707541 0,438523416983233 0,789587152361157 0,6055370269023 0,486389779752748 0,256356862870558 -0,0528911167273353 0,935110178391768 0,865947542610728 0,608912311907004 0,796161078227297 -0,387669824802433 0,659925062279366 -0,647890669980136 0,766790211215061 0,954691526258004 -0,126685789390689 0,639169249698293 0,227868627329954 -0,37438214595433 0,832558829671479 -0,016173521334529 0,266797552158072 0,505854185841279 -0,457571037885688 -0,361636266624427 0,0373263941571123 -0,760099753153542 -0,421787080560518 0,643208354722478 -0,929786624976954 0,58828830553307 0,910079571311692 -0,762471004542148 -0,491225125922476 0,379478404510277 0,0817650916946621 -0,225608022139127 0,26847306919413 -0,114837046560201 -0,865093699148441 -0,539165335595513 1,04549703547137 0,864374093216126 -0,238406927129636 -0,368334419099754 -0,594420220631491 0,151974530303839 -0,19254490226834 0,675751324804329 0,565186439900559 0,74842863882479 -0,6747672015654 -0,158006777699804 0,843741887348724 -0,74792776725725 -0,707311991019782 -0,817928426398146 0,0631968525683705 -0,17020412351043 -0,647503837007895 -0,31854486341753 0,283277026836062 -0,786101239179942 0,538890612597572 
-0,676119979048519 -0,178141333554249 0,519824925809564 0,912093542348265 -0,60135421878839 -0,152877931584536 -0,775388141902659 -0,329238744308357 -0,16476063980464 0,0747392321480885 0,467570353764132 0,468271626721397 1,43008790422239 -0,228360189044647 0,145295860367685 -0,776904651576429 0,830517707212709 1,0078655921087 0,576496912345185 -0,572064088276489 -0,355343071344924 0,218135554810546 -0,0433307645650096 -0,302643068700045 -0,517295791356664 0,294965829024383 0,00301228101926543 0,836351684093184 -0,417182468031482 -0,339036854939258 0,49339424926795 0,25169070863156 0,872830319516524 -0,732145108643392 0,0547788397855924 2,1425240040338 0,792282417697744 0,225513623783319 -0,225403422949167 1,03674621868414 1,57587357297225 0,999978631037378 1,52641498553209 -0,684880971356887 -0,123200078786467 0,320860087261651 -0,7291952091877 0,683040169296422 1,62668526591291 0,87923069528637 -0,327808661217232 -0,457984049759544 -1,61975954950624 -1,26531370830438 0,210511412557704 0,135647980575373 0,898666968311496 -0,074148942060869 0,379717244751028 0,15530846693782 1,07951835246864 0,0121587111149446 2,18657705880269 2,4120385492191 0,485951399944137 -0,366418703959928 1,45402785252645 1,74205927264047 -0,129106622297578 0,451690968858183 2,4639939834695 0,300830579841748 1,16379078427786 -0,642517129162462 -1,08637541640491 -0,481050440491658 1,5862919422623 1,8139371962088 0,49454963617719 0,335287575122195 -1,63902033430884 -0,283878088062704 -0,564047374788994 -0,920494867142431 -0,901652246085092 -0,490456635724697 -0,0676266401027279 0,559995525976515 0,0624079919932877 1,53632599711603 1,03501940944353 1,3804678023741 2,18026888622448 1,39356598763336 0,697620192070815 0,739402214239557 1,24966809738423 -0,280954280336524 1,23237826273851 -0,101000672065692 0,485219274269424 -0,270240395448645 -0,570349912809416 0,512061507908805 2,23896467342809 1,72564737767562 2,26708214251907 1,77759290390023 -0,153276254753716 -1,71536058890009 0,470878968074094 0,19026497831789 -0,221760939379115 -1,12786852830049 -0,590935160001738 -0,757747257439619 0,914922594542597 2,35568339539057 3,76117731772358 1,4979493909963 1,11089979745111 1,6623603800787 -0,145629434960599 -0,00154943410868428 -0,652869083281963 1,04227645743415 -0,250228124221944 -1,05817041278362 -0,565194810023982 0,0312191427311718 -0,0375745817701333 -0,0269195406280293 1,03905791038181 2,79156313905635 2,3478186971541 1,50752612410046 -0,706881511511539 -0,658703343988774 -0,828231481579 0,756578212680704 -0,212585728319445 -0,412391290291006 0,254598498149445 -0,977021330829354 1,33304182129454 1,84456526669129 2,95937905609874 1,8465959417795 -0,0687490464303611 -0,250202387250478 0,24286060465821 -0,0762942283962845 -1,28636615939103 -1,00172303673547 -0,336342433020366 -2,28131503696487 -1,90039601555725 -0,361061689518624 -1,58585665488832 -0,789793308179989 0,0724842834812706 1,70981163429535 1,5176927209029 -0,157724193748965 0,0192251449875488 -1,87941508894922 -0,230871149338287 -0,181611367609866 -0,573965363935551 -0,195826745139883 -0,190541646117464 0,526357695809993 0,673480862395562 3,19426112544506 3,34258270236871 1,98712317835199 1,21733503808049 -1,33400961991798 -0,0619170232940445 -0,243845272649682 -1,30227925939654 -1,72380778735014 -1,40647488545021 -2,40786495500606 -1,97304532659189 -1,68530133558091 -2,22587823651135 -2,16041779134174 -1,85326618815808 1,16707061394516 1,36799550656143 1,1493809714969 0,164835428207262 -1,30287006124462 -2,27595088944105 0,220267355417271 -0,457649065747142 -0,0417375278663773 -0,366465105599271 -0,00258484672922272 0,90838118515597 1,25000976915959 3,00896077331123 2,29558491582736 1,01054334331224 0,10671475059864 -0,896025440630312 -2,04156218423316 -1,07925177090046 -0,215598691709965 -2,01649272871514 -1,43431869975365 -3,02075628920145 -2,00856852147832 -1,464945778007 -1,58228017005323 -0,340051646638841 1,29305429007054 1,39790934691162 2,09992997685524 0,687044609101987 -1,24136976370791 -2,18827583340684 -0,49296217928671 -0,616762927068137 -1,17786406859608 -0,499897186885363 0,427257541327411 1,30158213427378 2,5992528903969 2,56725522767101 0,965525427427588 0,698187596491898 -0,48422394066597 -1,22387373268291 -1,71003150168301 0,339295475658673 -1,13637618304421 -0,621613255892624 -2,03855829394854 -1,6821914867854 -2,54230143278349 -0,374926216697454 -1,65489031416036 -1,94834986447131 0,885450217809703 1,1912689658363 1,12836921765776 -0,179160756680565 -1,93079568660626 -2,55600855657364 -0,179739225067331 -0,450577026839651 -0,353777215411837 0,252012374286959 0,493465121020918 0,905497750092688 2,40854093387265 1,64900178273354 1,15065475128794 0,372705981803439 1,15440435516403 -0,830272283654049 -1,36201220667348 -0,466543291824238 -1,10025053429154 -0,461665875767807 -1,27382108934968 -0,751303559327069 -1,29254651989188 0,282395634600141 -0,634253789339519 -0,409481026920336 0,188303948261536 1,62491530740695 -0,406924417414995 -0,841069431717102 -1,67899707933112 -2,00240517970834 -0,275157418462694 0,423838266762064 -0,693478169976532 0,270234748756898 -1,6618218007043 1,09049422121675 2,08186242181285 1,88064873726756 1,9798249876814 0,535949195380824 0,644167849750525 -0,780923952233827 -0,362806524091062 0,484020025379409 -0,486052266624655 -0,387906330252605 -1,15870643325246 -2,62667133136388 -1,63771894013937 -0,863899669253727 -1,18272701612661 0,225341300632141 -0,125560081949108 -0,12472652857248 -0,54540899510887 0,355488804534195 -2,28662873336656 -0,773378343665155 -0,38721826011952 0,663912502428931 -1,74008507229221 -1,24778506152612 -2,19347383242273 0,0952589995038066 0,631639526134217 0,654277972625019 0,588974497165679 0,974988937605424 0,711210388938956 -0,233350343705644 -1,09764187019188 -0,416891993470554 -2,31327955969357 -1,31700912207325 -1,53660907968232 -1,83512188941884 -2,62521346814099 -1,38555842437338 -0,777413700854364 -0,0924737607159865 0,501405941849304 -0,307166032332317 -0,726329060687405 -1,35891925816444 -0,98158899823425 -0,65741552056619 0,613863224021756 -0,615271550438291 -1,02661727368128 -1,46690043201026 -1,2316060148959 -1,781811173449 -0,600960346063689 0,389932014315727 -1,74613052727327 1,49872289988556 2,03216656108527 1,25172633161475 0,583909786610261 0,316701288050562 -0,997062403404063 0,0542587116132593 -1,18396275425975 -0,0550687194427766 -2,70260385011004 -1,36064162915778 1,05262169945986 0,0119152351904698 0,395346349186123 -0,184455560981246 -0,276264117135902 -1,74621804391463 -1,4273258846863 -0,538962272608226 0,959307242127823 -1,31720710841985 -1,52543773143398 -1,07141243753181 -2,27653018120595 -1,44058611815559 1,26783959758271 -0,151662278375656 0,403671539587047 2,00392812207643 3,47647272810597 1,56821606887307 -0,170986825146667 -1,70088174341278 -1,156831152465 -0,900080525356571 -1,49880889746353 -0,929994790545607 -2,1171841646854 -1,06581645534459 0,935969522827224 -2,00760920230579 -0,643218639519944 -0,750563447712823 0,583200727957485 -0,907580641554949 -0,276110429455232 0,170237859702746 -0,665087107263146 -1,1060714608492 -0,152021614218067 -0,989969972313617 -0,62926409673922 0,281707158177701 1,63459546294115 1,54083455260358 0,262148157747966 2,50816184898572 3,41990321290524 0,290274517536791 -0,452697378287455 -1,43267937970986 -2,06137046023191 -1,17719986988588 -1,29780315115488 -0,858257286958095 -1,55685280509837 -1,64502213122086 -0,784878777374578 -1,82623606786508 -0,391979433199931 0,155356387834819 1,32163351536689 0,544025147557113 -0,194701684708267 0,340346896052142 -0,00958301622485367 -0,555255300825657 -1,15324282207932 0,393439969550292 -1,40531733852797 -0,0399433110031969 2,93463369424951 1,82335190214361 1,31411819658039 2,67444483864817 1,04124579110338 -0,137260561348939 -1,9436172170355 -0,688970686726625 -1,51033322511707 0,140260051408582 -0,627030317093803 -1,96596262467402 -1,0907326215085 -1,53208033643318 1,40563887404482 0,926091458287477 0,754001230170013 0,30627620348388 -0,472689419904847 -1,34470240397634 -0,621946310355257 -2,21176444390217 0,0882620313031161 0,431242741783414 0,527068165908124 -1,14380255762598 -1,3610843990998 0,256165318381876 1,93819885497805 0,95085021606497 0,927127025321901 2,62845968194334 0,0143097153031939 -0,523005723916617 -1,83054805115812 -2,01914442853807 -1,0090690786574 -1,55845955050267 -1,24717283410445 -1,36920237489724 -1,09758715165182 -0,744057757233645 -0,178238760002316 0,41364067187505 -0,7434120523171 -0,670528598524066 -0,368159972265374 -0,829309829946948 0,229728550040275 -0,56735492560829 0,0369979154332406 0,943600580765522 0,28096112256272 -1,53834589670778 -0,588892048769753 2,10204651629189 1,50536424102959 0,0147573309703129 -0,427896491433886 0,679827767758611 0,865869175979473 -2,27137654110637 -1,90537712389921 -0,864086237825683 -2,84196329306321 -0,818391742055974 -1,95719253021612 -0,384604336041227 -2,069896153851 -0,215414363344896 0,8825970925489 -0,961095952396498 -2,2592929000568 -0,17228002027608 0,484893219740171 -1,374032507051 -0,648215723960933 -1,19419117989498 1,08883210929383 -0,346351856259736 -0,120346405063242 -0,814451388722717 -2,14449287190739 -0,124817098565915 1,91592495734921 1,64695073815948 -0,742812128932657 0,898407846420358 -0,863067309034862 -1,59974325556941 -1,59786082011531 -1,42588708601315 -1,56997623890211 -2,22040422713716 -2,23068838743936 -2,77840579536839 -2,03978984297794 -2,19920339323172 -1,0038718899175 -0,916173918573772 -1,4094069684383 -1,40791830662311 -1,26081662801395 -0,736552849386081 -0,493767557741242 -1,17449132784897 1,2696328607177 0,554211706296451 -1,56917414553423 -1,93189698394894 -2,52546659643704 -0,576011529249023 0,641800374115912 0,0482181657340436 -0,422934176068073 0,919615522009029 -2,15176872879399 -3,54348537705778 -2,38553220157817 -2,38109870126045 -2,22807037815072 -1,45730400825517 -1,82950178517578 -2,18163293112552 -3,06015049009031 -2,8868580182949 -0,681837626369421 -0,408971486542993 -1,63266242917536 -2,04700261021545 -0,600093704066797 -1,20425438281425 -1,09006289577313 -1,20005947616023 1,08005740952235 0,463975592110575 -1,59947354534332 -1,86213267593151 -3,3635322479874 -1,84710061970047 -1,41057476665182 -0,93091798213896 -0,227604338744143 -0,102291291487515 -1,63912280996699 -2,43597628285219 -3,34539603124078 -3,07400872580253 -4,15379155386257 -2,82043319800456 -3,25626110062146 -3,93336314334012 -1,90856834046614 -2,03403817498212 -1,84646613919579 -1,37135662171269 -1,04152903187664 -1,09600973704673 -0,613812555968632 -1,2370726203919 -1,40631335472621 -2,02670980344971 0,489657983794599 -0,1081174456733 -1,42187756507117 -2,12602897812754 -2,61782252824434 -2,61478682745827 -0,899457820567075 -1,31993066799382 -1,49457323642348 -1,74979007941461 -1,69166978061534 -3,99463717199171 -4,76096880853516 -3,95043081834009 -3,88704121937656 -4,71858575523684 -4,21650484244346 -2,30382624193082 -3,33172813376094 -1,42157220139501 -0,968887157415067 -2,05884769716285 -1,38365982731885 -1,77180489906181 -2,16690218161866 -1,98442979050558 -1,85947937210498 -2,83204425253921 -0,462404295445832 -1,42418933378053 -0,717876435554047 -1,75095273286016 -1,51039558242344 -2,30357316221256 -1,33183009226038 -0,474772377441908 -0,212372962874319 -0,764914870585789 -2,14419286846387 -2,78033593535432 -3,00902367605821 -2,56967168388566 -2,75670061505401 -3,09844905028525 -1,92258221980258 -2,16914057650151 -3,22890805588634 -2,00404044987762 -0,722505038043535 -2,16407721505834 -1,29636065452854 -2,13691490622964 -1,76121251332374 -2,65994184773706 -3,2701693271738 -3,21271419450239 -1,19209489379706 -1,1352959332856 -1,63752264268337 -0,845015222152912 -1,74741425396713 -2,46968923401543 -1,99230006750733 -1,08281960940175 -1,12188535773407 -1,96524243748685 -1,27948698272284 -1,972142934689 -3,58793630837101 -4,35680508547566 -3,70328750903411 -3,25154000109825 -2,97933553961373 -2,59391468039898 -2,15763130430793 -0,900062617415602 -2,33710129332022 -1,82723281209326 -1,61295577704686 -2,16709052490077 -1,53892979382153 -1,59040173430454 -1,1197218032205 -0,731353929737268 -0,482864820581807 0,173228883131544 -0,989011713652013 -0,367865101205059 -1,47821735029177 -1,94642962808372 -0,285357168504753 1,14007605414387 -0,0466821329071687 -0,241729753378875 -1,40218456436961 -1,22977091154237 -1,1628840299885 -2,20480500060093 -0,593149582187517 -1,54975297067018 -0,96711121289235 -2,04774800661011 -2,6099720292945 -0,899646997602953 -1,84287878308897 -1,17799153133157 -1,08693027402865 -0,996475739992944 -1,12138880216096 -2,161824679059 -1,64583803195944 -0,692699634928136 0,339830738495323 -0,564749361611161 0,240389844296655 -0,725450847814453 -0,446666133282831 -1,51301693036038 0,646497888864494 0,873005003277124 0,572826078503397 0,180370530804328 -1,11134180693351 -2,48948326051595 -1,62244944235138 -2,12540782980132 -1,24431335762827 -0,662119576304257 -2,35175828975059 -2,30878474497812 -1,77266963659405 -0,498475893420732 -0,843820718352684 -1,71038192242257 -0,625916825820988 -0,728205952452422 -0,254708281325613 0,432512960482865 0,214876406094225 0,230369906802962 -0,529563280723183 0,798654907917871 -0,269177202138907 -0,00721331506658536 1,08160242107576 0,45604694549334 -0,0169796071910362 0,755156089985714 -0,909713515863409 -0,992200448775154 -1,14699287661392 -0,815491713038563 -0,884064520282613 -1,57941631384182 -1,00589954617055 0,27204167765709 0,459905928744785 -1,5256784407155 -1,19166489124452 0,303077446621353 0,604477295163453 0,382542242210548 0,119652659255686 0,279506185866692 1,2132203583018 0,170923435618635 -0,0699150473738127 0,573778556924075 0,918696625569566 -0,164842613412998 0,501702709464726 0,270001899129465 -0,468231794662748 -0,97284125805053 0,370317272698024 -0,452097422696071 0,3345848138412 -0,357115698795798 -0,591995833512902 -0,211723729907507 -0,895637724333165 -1,07934536706175 0,137624711032925 1,33990621756679 0,744377957959093 0,119946336959754 -0,359958191204225 -0,742320054978907 0,973809645809801 0,241759003715227 -0,351216455870788 0,190008815905466 0,510323808799259 1,08667127056377 0,967360980959596 0,143805333494798 0,589607036816214 
0,820990798847641 -0,239656504729949 0,0375998812871976 -0,0795532617601344 -0,135563697583584 0,355310265035245 0,516821387770432 0,0867988848139543 0,601752544106409 -0,0581143131205609 -0,277066346179786 0,502450475718678 -0,316528353854092 -0,711148286474399 0,257296217736168 0,605947410948251 0,161475566964512 0,297755971256572 1,06512052139757 -0,306460094865436 -0,508695080769674 0,125785769615812 -0,174944123371788 -0,75563002207465 -0,673695045810904 0,841185717567519 -0,010988899860791 -0,371242035224326 -0,214791265437629 0,807629878011166 -0,368137566880889 -0,567005033660317 -0,904192466066599 -0,159755910504948 0,680202968226854 0,479624672493718 0,309364350765015 -0,639994044831745 0,00324040003213652 -0,687073709525839 0,312124094446442 -0,204318681445743 -1,12945440881087 0,816833603301472 0,159712484044418 -1,31991137258567 0,117000984502646 -0,525796858720499 -0,627480188652791 -0,0111955003121722 -1,00451817975601 -0,629422983985213 0,554061264437176 -0,631638408695608 0,0439123943670591 -0,382205287848278 0,844094295708722 -0,291718462811265 -0,475330120159866 -0,0134803041418928 -0,525647003253872 -0,0399176012938228 -0,777620840596983 0,664437382415188 -0,260511219269517 -0,747555266600105 0,519546364667197 1,09060262609078 -0,00370808043390348 -0,703920794954296 -0,0355841197320003 -0,343808449967715 0,744958319650564 0,296354947174278 -0,276265650239856 0,302716223546844 -0,162085818296393 -0,265179818078066 -0,43583247106432 0,318113941685323 -0,487992644519664 -0,351837861939007 -0,713516197206397 0,986718025127705 0,675051831729385 -0,869254215091857 -0,281807225868433 0,700417674053083 0,670197770329166 0,016298365586661 0,508609761320941 -0,349305815116703 1,24969638249089 -0,363102856588447 -0,445864847405353 0,0688604707338173 0,141827766157859 -0,789451639381845 0,412200154176897 0,0169247388454287 0,356318289586355 0,276418267371567 -0,0333300639002806 0,870511948307596 -1,21270387163054 -0,0905371704432082 -0,738165568097565 -0,796353524761786 -0,0217340881495239 0,451867308395021 0,4801000788257 -0,0790774943703208 -0,844182878343567 -0,0100214947656404 -0,75017279119826 0,547497313829853 -0,348971987622111 -0,764136841272619 1,10415909129135 -0,653236755528755 0,720158309599187 0,971678547597455 -0,538093931261874 -0,306177567543631 0,0509618241013812 -1,03531769544258 -0,656902848741829 0,164546415743393 -0,302385928723966 -0,759116899794919 -0,658836943252379 -0,517790189942026 -0,281745338310239 -0,513674784664933 -1,41883004580218 0,0986174868040248 0,365119302442126 -0,883292525576118 0,730103016526378 -0,777995598933978 0,495566050686493 -0,74308580230813 -0,723571662363366 -0,999133963875407 0,64074198036382 -0,116455026725399 -0,583480612864213 -0,440897795448537 -1,10137155785118 0,348523342010948 -0,567944008935671 0,0293452983209394 -0,641697937505762 0,229937022570462 0,564357098621176 0,648741696855222 -0,309408700299338 -0,625443110285941 -0,116996649803362 -1,30276590655622 -1,20772160252453 -0,489800148528799 0,201739624874643 -0,447685415385664 -0,19069964696437 -0,460905525741658 0,556895256875002 -0,0343644661678102 -0,0566569138771555 -0,0902386406383346 0,850829457346227 -0,625700830852699 -0,246013800027208 0,914116468788948 -0,406565834830257 -0,179802411656407 0,283325146195903 -0,353397073441695 0,320693355402214 -0,373726054634914 0,586867013876918 0,562922031620401 -0,309198037334013 -1,38743919486361 -1,18121223406236 0,373513651592087 -0,738286758792152 0,379026572856184 -0,744598388113411 -1,89184619319131 -1,58253803661543 -0,527522466335184 -0,0312307413775155 0,307698413081743 0,39711017134674 -0,861220304163593 -0,298615578320514 0,40110075370785 0,0218344176466068 -0,216643747391157 0,539271177100893 0,705863000091606 0,803400606009791 -0,168003418053599 -0,133833219588141 -0,385916246526927 -0,222063286467043 0,295160837595263 -0,27853214302922 -1,00189271012149 -1,15424548757015 -0,323431576437458 0,377738369633792 -0,327894175269634 -0,84304218904848 -0,512360740527236 -1,52637670395489 -0,832228727005207 -1,32020803735619 -0,133204203822387 -0,817602923390279 0,321795547882915 -0,00765620104049669 -0,368168154222308 -0,180450307693309 0,0756997654717088 0,166633724251074 0,0496327814573385 -0,313085824741877 -0,134616510182647 -0,541032104056249 -1,57817143722497 0,0135378616744088 0,159271491470562 0,103058666419812 -0,418781868691181 0,515700070654832 0,269067472727101 -0,200948735691264 -1,38714341532914 -0,0666132633406277 0,127063714369532 -0,469179119612996 -0,600613860308276 -2,03418099220481 -2,02426563760704 -1,10681655550583 -1,65685900241623 -0,602104706657558 -0,81377977213496 0,438724957341276 0,211305516658931 -0,290493921873169 0,693671738811537 0,975777989627714 0,483175161268539 1,3344108480416 0,564205153872268 -0,547569335780676 0,424882263262103 -0,0901522364723226 1,23935108934175 -0,0861526045151751 -0,150771283283164 0,474432941252408 -0,79491436212172 -1,11244987907301 -0,139070922444238 0,914119397469182 1,00211805037722 -0,428512313222101 -1,27354608266219 -2,02973316437641 -2,51274712619558 -2,32657945842853 -0,257303321123051 -0,383233737172003 -0,733131433484841 -0,712696717363292 1,03704808380444 0,95949064836225 -0,112943782837492 0,6815550332726 0,760547653850266 0,0317049634981759 0,610045035186627 -0,0424786692315251 0,0999023079953055 -0,0781154245076827 -0,825698053677238 -0,0126492607808298 0,0199841807010302 -0,01118839528332 0,0801878539849866 -0,230615113770208 0,354638298600485 -0,253285502256259 -0,469444959029936 0,260655848094117 -0,202549524761672 -1,4979146705089 -2,6487041149122 -1,8408777150007 -0,142653591640167 0,763107379232825 0,303862983744721 0,00903686567883505 -0,737072289014524 0,588433114364367 -0,599473655098973 1,34739741043888 0,817210092906433 0,138970715404152 -0,42297091334434 0,281618982639524 -1,33006419490861 -0,248592154473203 0,0307354667876823 1,03847875362647 -0,356063159937714 -0,132096300103951 -0,406609118992903 -1,07284194716321 0,351133245646224 0,745052476744629 -0,838749799617394 0,191261171809688 -0,641361726420764 -0,641837451175681 -2,07094048596459 -1,88450335610553 -1,14305900460293 -0,32379118512945 -0,017802496205802 0,72135962531269 0,877110926752332 -0,772218346745653 1,07342686756676 0,698057099523502 0,837299599816771 -0,150677159398364 -0,155483504195358 -0,330012472817228 -0,789087042521727 -0,577000721991162 -0,314783711316359 1,23081250505747 -0,16941630126944 0,0992829118158182 -0,293853249509349 -0,556059389090348 -0,525551257808441 -0,391400593283977 0,0971390832005476 -0,763118589010286 -1,49748884821849 -1,26415347487789 -1,33220385540056 -2,2437241339108 -0,0500690137181324 0,220760837297051 0,762511447279946 0,724702529231774 -0,020413560584395 0,323094661852476 0,456022706122078 -0,248582815609721 1,12853726491591 0,475375435705707 -1,66306262127271 -2,25727266181181 -0,438120769107971 -0,313256822470335 -0,401158180447396 1,59396705147738 1,29356864920514 -0,37916246460074 0,357462064084233 0,396230815506928 -1,43792383307354 -0,726801562792547 0,283218580542489 0,459190108317065 -0,94296126819241 0,845677059138862 -0,250953726623585 -0,580187537763951 -0,194107662585145 0,977633594338256 0,219560835421562 1,571734407376 0,328513845173548 0,626891841473639 1,13853761499026 -0,179637066460475 0,426293202491128 -0,541860546907922 -0,912163288184006 -0,517839373727995 0,36353207548623 0,588751860805834 1,39293481090693 0,406032705725536 0,382872086938905 -0,408165872440035 0,596988353454409 -0,669371588508372 -0,539257605674535 -1,21256939636436 -0,21007227233862 -0,235161747477543 -0,53904208689308 0,308810531164152 -2,11735683159934 -1,70942524848215 0,13485083021266 1,02071660485872 -0,448846231424435 0,411083781121346 0,521818251263465 0,339230642035562 0,378100187762566 -0,379300389707053 -0,108259281917932 -0,543024085110901 -1,04613672993239 -0,752967159526422 -0,666997575526424 -0,533771957976074 -0,384629229396429 0,276540656654649 0,241879329887941 0,565311031808335 -1,0378694766458 -0,284111845037191 -0,499226636996653 -0,76509880276423 -1,11569632118531 0,147849531252756 -1,38615606711045 -0,318084136311157 -0,409951043319148 -1,02134668721755 -1,13576755400422 0,331903089016955 -0,273259002080146 0,447397204651812 0,534628044075855 0,441543634520206 -0,229739006145505 0,1830404490214 0,908005158185474 -1,21027469781661 -2,34833936380344 -0,822410716514566 0,140008800158393 1,01321749352571 -0,560662380017262 -0,202864200101986 0,44890370430329 -0,450447654132011 -0,52782688319098 -1,18956850991774 0,821517390842092 0,558578007915907 -0,0472974297902897 -0,488168370465429 0,142894759943963 -1,01012274918731 -0,736998896361598 -1,60094026937074 -0,9350148311996 -1,18612236634113 -1,04905907299809 -0,867997153042572 -0,988298085358514 0,972911002643022 0,710590755201807 -0,0818373326050473 0,374158430254133 0,214154801253703 -0,638904522158523 -1,18917085248646 0,618893798333294 0,80949452220783 0,509393023625341 0,282510919159361 0,0756557866433152 -1,03895101079103 0,612194153784084 -0,583026048873943 -1,03751598570076 0,0906373983493382 -1,53975247433646 -0,317034719885344 -1,29856595646527 -0,90728797400231 -1,09164496042861 -2,57622965109006 -0,934195992810028 -0,696452861192216 -0,62423718991999 -0,846961978070498 0,523764821643682 0,182274428304822 0,129865250128318 -0,27306383948297 -0,067109375837804 0,111099121315296 -0,61896080942736 -0,511708960285089 -0,815653504018835 0,636282809203151 0,411314792746591 -1,28614530830451 -0,348462200414404 -0,158366479515412 -1,03152221129438 -1,51486747832183 -1,21305308068121 -1,39671381462581 -1,50957501376341 -0,30390240659154 -0,763513513715583 -0,984440091308323 -1,69623654878706 -1,27914981240715 -2,21911344698377 -1,07892101909887 -0,0554485391976984 -0,554841256979596 -0,337463221525911 -0,0889774805996625 -0,493428967608705 0,410518492484015 -1,36461031993252 -1,01937206349483 -0,979693668994377 -2,0389686126246 0,427681580087831 -1,33371794130975 -1,40200083570935 -0,303058647978874 -0,729368171056886 -1,75025551949897 -1,1001941023384 -1,17329831045226 -1,4347998808563 0,632228306532234 -0,62669775680614 -0,845761029919516 -0,924173536167956 -0,29180041233998 -2,17412636001978 -1,02472888004778 -1,26150854333381 0,0439581558986931 -0,261138213333721 -0,554042639817835 -0,398754246600169 0,744272981478193 -0,631410445715401 -1,12938585053492 0,244795691709125 -1,01308668163266 -1,04456301819995 -1,25759336035769 -0,948643054811766 -0,272771948631305 0,0439689299351403 0,24186114706332 0,269062477023476 -1,75539584660255 -1,65314494949575 -1,39002187613864 0,390108824539907 -0,596459946556616 -0,30638108591096 -0,285724455289455 0,441830373713496 -1,43773467525889 -0,569468239357282 -2,05609154628463 -2,59847841414434 -0,833455359799076 -1,64080047762082 -0,692194186386448 -0,057875825672967 0,0608772141609999 -0,597477756606834 -1,20202196114477 -0,423837377739506 -0,971227950283193 -2,31379711293595 -2,25307188752485 -0,362437580341113 -0,0990871553929938 -0,259173357715954 -1,49742350082747 -0,456254401010308 -0,212982248445702 0,175459413759077 -1,24995056700276 0,454294399367282 -0,0992983783138511 -0,239716013685146 -0,607642006120508 -0,155127070126671 0,12324480037452 -0,350855807273391 -2,00886900395914 -1,54658235478179 -1,08080349225511 -0,937617426520052 -1,29084825066464 1,00548640738203 -0,835517920951915 -0,926377599219937 -0,86894298926059 -1,36580271876159 -1,89762379784054 -2,23646008925041 -0,693566978745367 -0,855282692049666 0,228354461433072 -1,15900439448969 -0,537583264089664 0,552054253852761 0,172180430393244 -0,939904601012748 -1,47042461806374 -0,745451575545166 -0,606470354233447 0,60100465101611 -1,06904103101407 -0,667702091802832 0,0701199009937664 -1,24152840419212 -1,67377212233756 -2,33583092047216 0,00364287272934029 -0,0364735973855 -0,265831459763458 0,212278980179099 0,902133964743505 -0,447163938556556 -1,34704720709397 0,0955403839312666 -2,12799694707233 -2,52472739728157 -1,33257775482147 -0,366880434440276 -0,486307442652033 0,390634246605081 -0,849879571339925 -0,022204203089588 0,452089737589127 -0,157676556814904 -1,38696732996484 -1,26268530510698 0,536560490857042 -0,369124881651958 0,350766179451919 0,0489143851705534 0,804254261566943 -0,0894094017377717 -2,30051677062679 -1,57985039681425 -1,11434299705671 -0,166664421225301 -0,638065698982793 0,606985896199061 0,3113535481812 -0,978957416686978 -1,07681573463814 -1,42958422926722 -0,849420260037035 -2,1221531511316 -1,69548366483891 -0,751114419500741 -1,18512618290725 -0,343467961806051 0,565162347659787 0,237210333153443 0,124828388461747 -0,684349072246535 0,493306165123556 -0,478383763512623 -0,173803492548808 -0,0895617232232437 -0,454537727147028 0,763698192421927 -0,425622553619405 -1,21625157424226 -2,06801946682084 -1,27926248398446 -1,61504405838407 0,156068397743146 0,0423627808351136 -0,832186961217096 -0,520363644655339 0,00826052967805104 -0,237533139966241 -1,17813307518722 -0,305296978672908 -0,61270955727388 -0,179909838597854 -0,734358922893196 -0,452402438472316 -1,33949913020982 0,707198442130423 -0,0681463913692129 -1,22584057176804 -0,134547005211694 0,499281007839334 -0,887284592745398 -0,424710672841842 0,75758940091848 0,628250884848054 -0,0112713747278623 1,08399961624516 -0,111532646059597 -0,510764816390151 -0,341169052894731 -0,923783786431505 -0,911043600498627 -0,0125735778990236 -0,138810298102516 0,982727830611244 0,425917281303662 -0,870842938897578 0,238927993242178 -0,604897592577981 -1,47088362674241 -1,46203456812378 0,163935628622202 -0,864980434632628 0,500325565423849 1,12149483330181 0,939614326851844 -0,190527481870851 0,428934225494372 -0,625055989680046 0,383177256737262 0,344790289135596 0,847842826239155 1,16251183173552 0,442786910902559 0,0128112818196661 0,776454384533693 -1,64096887199075 -1,33890448147879 -1,35043022035934 -0,920853211922482 -0,561991536733595 0,264493019741097 0,537161872344785 0,34535233598906 0,714998196538034 -0,0381394798060318 -0,937232204256616 -0,565449998200978 -1,09113573478321 0,661489524510102 0,976923166635014 -0,478561828271946 -0,700191844083418 0,486828719317371 0,101568006475997 -0,103821396246572 -0,288178211524537 0,639752299417245 1,22299523501393 1,11513432740171 -0,51740978081436 -0,398252155265196 0,470316781535129 -0,637106374825353 -0,736381726873064 0,163237972928296 -0,169690603248913 -0,946842994401569 -0,736604902736805 -0,858283578150413 
0,0254915007607517 0,73787488354001 0,283313417464332 -0,20439474377311 -0,791464874881152 -0,109681102216388 0,545257624774905 -0,314747394660851 0,658285748643276 0,0939082689505715 0,819964313314774 0,864901307720883 -0,553496090520851 -1,01725614206836 -0,175854673355061 -0,689868824291002 0,157058957074487 1,37134784913575 -0,782978874300578 0,867139208096349 0,340179637952538 -0,18453683663612 -0,314536702457904 -0,709782474477571 0,859429311554775 -0,990926175209095 -0,981678263413368 -0,151338475704994 -0,576679531944884 -0,972725953188553 0,898898720867884 -0,847560516912721 -0,297425397517148 -0,630601115198178 -0,36290060201615 -0,696535956378098 0,685449616322785 1,10508516129166 0,790596306355349 -0,715816472054744 -0,0947811076507892 0,886233937973986 0,545700783120493 -0,169084701579491 -0,431775743154093 0,157581819320638 1,18904487284906 0,301282851009033 0,496523738997276 -0,930969117097027 -0,285992058514224 0,319010832599082 -0,730800700049349 -0,521676086112989 -0,175332541413772 -0,904038797719213 0,109307319838583 -0,0232522259514077 -0,0971247483288004 -0,849702261567521 -0,137068305341884 -0,24161086150389 -0,511999645981203 1,02390094073558 0,337519335813101 0,500277277391301 -0,249695160406363 -0,886576629291983 0,54150154547728 -0,0725236867727328 0,242124380326041 0,402706572050231 -0,535716129765409 0,764117759231676 -0,443378003553595 0,769261318159671 0,559942544573821 0,783134021623967 0,866252564607025 -0,00296570152688912 -0,536137948637534 0,316382926342169 0,306118112844713 -0,901087822405839 0,302283615088582 -0,214799583644789 -1,01533751631166 -0,908442784508479 0,512546010297752 -0,40812523700815 0,172731532153445 -0,784216391752865 -0,423133390126915 0,202743481847392 0,0326031489478915 -0,870933640972051 0,2605771227357 -0,860664476436566 1,06822000471723 0,10448416850848 0,748082315207178 0,522206583257896 0,114243384051292 -0,647141792709529 -0,0350772598301321 0,307636691000073 -0,186610957645262 -0,783080752244017 0,972245380915358 0,513459342471797 -0,196383231558602 0,362793162901548 0,0361247494048221 0,762944684450518 0,736938995106377 0,412299278528958 0,105796318934559 -0,917065016870468 -0,755751047429002 -0,918471500403282 0,247596519153172 -0,427628171039038 -0,543026871327924 -0,0388877297547889 -1,23703845232674 -0,0335381841084418 -0,114376164096603 0,484641406933521 -0,328289568160332 -0,739708993560718 1,00803510418677 0,234433713654207 0,862392042972178 -0,28458302649006 -0,0305947060243351 -0,241235123281732 -0,979588742003856 0,228284996495021 0,128323813145294 -0,942808561886332 -0,762329995993984 0,752062694774328 -0,995773506353849 -1,07390522438616 0,317991193047315 0,310457485764391 -0,0519288071456028 -0,416144002698517 0,109200045939743 0,0653080752453515 -0,322007354656181 -0,234429969926564 0,282684376389577 0,197032331205411 0,645082835586482 0,0105392736179309 -0,387851461531608 1,2195319512447 -0,477696655303679 0,718745231026083 -0,419947210069252 0,0787659475882204 -0,182874817883252 0,364591266949839 0,262278386681878 -0,71146250569679 0,903054984326528 -0,665518870360874 -0,520411153897545 -0,241275818619316 0,118973462733345 -1,01173876367878 -0,349086543924394 -1,09115180396072 0,708144292142947 0,137355516419426 -0,846849142939074 -0,795384142345277 0,384688787869383 -1,25279048184324 -1,53826555331695 -1,30647414992972 -1,18000066131046 -0,0854810753318183 -0,0146468476605987 -0,196359964907406 0,263579566556811 1,03420388474321 0,0919753008733733 -0,995209235158851 -0,863274195271441 -0,680938788156709 -0,063295944215334 1,34341505993535 1,12658772395941 0,268557451293063 -0,704707505780419 -0,76257621408719 -0,70100562296585 0,319290369985643 0,481642243623853 -0,482590660146382 -0,983837153042874 -0,812286512724086 0,854190264694822 -0,218631517538044 -0,759058432692703 0,146384855755524 0,397211815147786 -1,13451545602006 -0,89359545966439 -1,03843324218492 0,970859796182416 0,501891716415498 -0,0854145752083339 -1,42852657025396 -0,166997499322559 -1,13611365721873 -0,150378779813772 0,350643245103392 0,446301280148403 1,39850949190404 0,397973501674102 -0,56914758875237 -0,514293461437606 -0,269043011456781 -0,105000141470221 -0,0246004349061038 -0,903892012419969 -0,601721023195835 -0,326266178259763 0,613417170274927 0,603484315094385 -1,05788406950787 -0,751528286768756 -0,387077491553567 -1,96790187681926 -0,61172178147716 -0,401063913850403 0,583657317512636 0,954697594785749 0,29570151597472 0,613270347195179 -0,885608702132656 -0,0439488759480981 -0,881478724636526 -0,267981174563486 0,275601070488658 -0,109130612158487 1,12855330306387 -1,05736831763643 -1,22855674316664 0,396053433942046 0,0393661444258797 -0,896811616496153 0,668386127701749 0,0378672693399963 0,458133907676508 0,421415371094494 -0,311880268408174 0,44032283321969 -0,0440857943419949 -0,469791693147878 -0,565785910059308 -0,810913130478969 -1,4533222587264 -1,35400455303492 0,0725557314042922 -0,631399082577057 0,460874772947829 0,479749560275183 -0,209808269790397 -0,705141637201533 -0,500966116807598 0,627738507439798 0,70017914052382 1,10123844495988 -0,123055901173036 -0,817554998811329 -1,15052422915985 -0,860202092855789 0,370925156938266 -0,66413072188507 -0,651524076060246 -0,976783876458335 -0,42077085231705 -1,01209623570726 -0,860285812335908 -1,49018312081301 -0,813345328848173 -1,91146038020395 -1,63371229792925 -0,373702574602405 -1,82177461265598 0,392293627778458 -0,973668948910484 1,10448591890366 -0,93200534107373 -0,777057229269055 -1,14823754250872 -1,65565153929126 0,0944051716426344 0,0183955325896447 -0,174892333439868 0,778964815825635 -0,527363722078782 -0,964618186903472 -1,04491480422848 0,581551773120078 -0,778176085420027 -1,36916916834684 -0,854835313127707 -0,936138309308155 0,134355335708312 -0,666911497068834 -1,31980045035667 -0,729011853891362 -1,15857196903646 -1,21804947352637 -1,42890759626026 -1,934223172293 -0,841405353914393 -0,565705887858787 0,259190431420418 0,192497693960833 -0,337713929863744 -0,186116748241834 -0,80021439788967 -0,0308397465189746 0,885837452251395 -0,328812407434235 0,359661499397962 0,956261621765409 -0,619804163915277 -2,00301359259525 -0,757631727373298 -0,560876774403454 0,428392831062245 -0,439197313480616 0,106564231144102 0,157040028505761 -1,38118319167792 -0,611957825950962 -0,166172026786783 -0,801307982822689 -0,538622627337776 -0,320813294869525 -1,58092697783268 -0,914187363225351 -0,626550341207983 -0,0702170839991274 -0,0850659845247904 0,415023878201895 -1,30879402591805 -1,24766018571296 -1,11247474659864 -0,77289607635886 0,887808981059647 0,512793767981292 -0,697675533645551 0,657788853415519 -0,721438070827652 -1,32109106228604 -1,45191841926465 -0,752690402648273 -0,793497054268323 -0,61143219836833 -1,30672684237996 -0,097135135236135 -1,35701410102248 0,246487144236142 -0,839619800062864 -0,639462817516021 -0,99316633045662 -1,27553784514788 -1,90935307997288 -1,71896287567891 -0,00678679606612084 -0,43985368037607 -0,938642944717156 0,617057005249738 -0,542219420195272 -0,353409408699567 -0,265808391477898 -0,738851747880139 -0,220577958346536 0,766902294688193 0,537989353500382 -1,18517951615075 0,000759937561310854 -1,93085320121914 -0,370258763497358 -0,514949383192599 -0,909005033178949 -1,34385605925715 -0,103328832033856 -0,487330474709531 -0,792486958445198 -0,675980309765717 -2,05192648781 -2,12459572555203 -0,880662919989716 -1,60926940048082 -0,764015800272326 -1,39921766367615 -1,28739874998075 0,191091077326537 -0,593108995477435 0,110614908070029 0,342705796373798 0,0216026486912528 -1,35497480847264 -0,321414966036014 -0,245768936204289 -0,278818727871757 -0,90401467590026 -0,749254333766414 0,19494572682348 -0,53727939014748 0,227008998696742 -0,132076858920704 -0,423597318829009 0,377211910675508 0,274532597672843 -0,0122365854443842 -1,89111074118901 -2,09904899635601 -2,11072558170665 -2,04521771649027 -0,92982110847407 -0,645331324884276 0,144202073913656 -0,520738934839947 -1,09423661678236 0,389846152910192 0,397015041946559 0,136045823272853 0,110714043793913 -0,639581674201954 -1,82308504712559 -0,551331710566097 -0,522087833219028 -0,828204758017901 -1,27876204088695 -0,0911740821376183 -1,44276303704494 -1,81336761371224 0,466423285306192 0,582736512938378 -0,287479390390481 -1,36592214333029 -0,370107270078338 -0,607125901481903 -1,09709559034647 -1,05893648615729 -1,75418174459402 -0,972227395810796 -1,02883075727861 -0,284571447385302 0,150675354561006 0,274419612398406 -0,484298751999727 0,44609879668913 -0,0777040368456485 -0,790096010968168 -1,70348096947804 -0,100519913623793 -1,04000192640408 -0,648906580785128 -0,715426677510681 -0,0351796519347919 -0,124422137152989 -1,10093774448779 -0,324693893455297 -1,42071261133709 -1,33818431120115 -0,545143165689306 0,0140637882859178 0,794488562195528 0,151321468210415 -1,54582148066581 -1,8452430939585 -1,03744877479488 -1,21251090556426 -0,610381781186451 -1,93595303430519 -1,42830258186131 -0,58413876621821 -0,773332792796997 -0,829565291741993 0,596047361466388 -1,18606464919744 0,332313692805734 -0,925355556508904 -1,45614549498665 -1,14062811043417 0,00788196087080205 -0,164217419882674 1,06761407214048 0,268447647188649 -1,49658702805336 -0,175849621235311 -0,669191722012177 -0,431802068115225 -0,888784878670267 -0,335114419639052 -0,545226596939197 0,512806475671991 -0,236128506230854 -0,642679736335199 -1,1339049168359 -2,59155060423839 -1,03417377358701 -1,78771462508823 0,113961457907149 -0,231816905669207 -0,0749749565565946 0,332672417731567 0,62499477880332 -1,21852944229576 -0,511683553959141 -1,61427808070953 0,164043296208363 -0,261848100784706 0,324427638942571 0,156657121044073 0,933916484925331 0,569547155869549 -0,411828396879585 0,650460709304903 -0,34153469655224 -1,23980088540979 0,647970706702986 -0,401698887947989 0,656918468807133 0,0478934972369608 0,82508708220799 -1,50890073106995 -0,496076890280774 -1,78869178336741 -1,82900060671185 -0,492597235974784 -0,86241901745498 -1,18788298694982 0,504796666434123 0,152301576558811 -0,379863692622925 0,418842848246408 -0,228704155640013 -0,64367674253323 0,0861803346917616 1,03768195416322 0,393026863377335 0,923467207960084 -0,0714793520867369 1,12149041175418 0,305485131176347 0,656829623597431 0,939090673145615 0,336864308422071 0,342849862221714 -0,0224385148411147 -0,082636178501742 -0,0720261460010692 -1,08648160207837 -1,06389185864739 -0,73098013328031 -1,07120202486796 -0,630677146338851 -0,856481223565946 0,391067751299969 0,01303271400982 -1,05060138645433 -0,523661890980492 0,707744424719906 -1,00748457710786 0,141358211779949 0,137585392865347 -0,134912265299554 1,00933966943873 -0,406419582374864 0,999481497454148 -0,184820666860308 -0,732938053264145 -0,452043120848626 -0,0925387475068174 0,206790861365777 0,73777681994175 -1,19208805131178 -0,0986932146933781 0,0593336697061286 0,622697884637033 -0,95117634029001 0,561415974152556 0,496872460925156 -0,840899140493795 -1,55193833102314 -0,188104361258024 -1,45910367172306 -0,0959443802630474 -0,568928115954459 0,0591736796029054 -0,924209670313436 -0,875270280987705 -0,0851837316279816 0,182953779133631 0,0585138033425083 -0,220237726922254 1,26631700592005 -0,418638082407539 0,260821259005718 -0,362644411593602 -0,288025518128017 -0,655784646665491 0,513861198645947 0,4706874579071 -0,505491578785229 -1,09147320211433 -1,22083098835017 -0,230922131373913 0,540998356431939 -0,101351051324101 0,0191067268120425 0,13426403391195 -1,54694269082299 -1,12795042100151 0,162864241705972 -0,867525461733817 -0,417669684022495 -0,929715957733229 0,75418423163224 0,914626881665442 0,432372592054373 0,620931916674588 0,196702249687475 0,571235937234058 1,2555765963063 -0,384904198898056 1,42942160467472 1,074166007456 0,586010709886569 -0,231753600043239 -0,595575881359013 -0,883011302110494 -0,150881077429816 -0,39822906091339 -0,175593130325715 0,474280770418111 -0,278075539394956 -1,01395701835538 -0,924811684568015 -0,310560352524006 -0,14253598342043 -0,563731623778002 0,31167064807717 0,112359279918208 -1,15242900948348 -0,997323135616683 0,871415528994606 -0,607974690818282 -1,3413246779565 -0,179408233212232 0,176756990125093 0,491259838840189 -0,550967870172668 -0,202972596089951 0,415497140333242 0,409181268129487 0,312387410424196 -0,767950414861142 0,994294481727785 -0,258016526092306 0,0930554532391196 -0,37135056022451 0,554432157018852 0,0150977091488635 0,152648493689526 0,180753288501396 -0,0335359162094545 -0,608471098659795 -0,247947044686023 -0,0551325112065433 0,160352571191313 -0,843808299022667 -1,44240987746212 -1,33530909494936 -1,21559020055622 -1,36652366444239 -1,65351582501076 -0,20931881379558 -0,791056874705257 -0,237360883031095 -1,02282479063797 -0,0610072312481562 0,729844934560651 -0,0693052707608527 0,264943133948848 -0,145111149664439 1,16563741771141 -0,458820069209181 -0,98771892118739 0,872360460317883 -0,727157234346808 -0,824755465126292 -0,768326730863839 0,899960233984238 -0,482303251900731 -0,897364665221363 -0,319852607591232 -0,937572145925352 -1,27211884007857 -0,752068914682815 -0,482970452533573 -1,10236458847351 -0,594633149308195 -1,52935433390223 -0,435185396427412 -0,838264470274043 -0,256336835753548 0,634106405889191 -1,01732782869834 -0,32755574774477 0,549572515344433 1,59806949160421 0,707185475330408 0,0603233148170827 -0,171976639666997 -0,602386254535249 0,40919491360406 -0,037007620434599 0,586113507661587 -1,08259889954476 0,314407657104022 -0,385107536092841 0,274591018812401 -0,0545697760148413 -0,433324276417537 -0,22455940532589 -1,52780758459863 -1,94356651879575 -0,403957578649936 -0,389662521666699 -0,670855674320199 -0,27371842169284 -0,853499518682565 -0,0158644635353498 0,168748489189474 -0,144543897426785 0,368173907836886 0,250818576012343 0,796713931662646 0,106754752267839 0,728373919699335 1,04562100226728 -0,44937356222432 0,739238741509237 -0,0117341256112147 -0,486788505696175 -0,2778082613641 0,314975452424832 0,33516135738661 -0,798277792985412 0,329631693725531 -0,955643408445918 -0,397884693309827 -0,893536978483376 0,316404220170027 -0,826352776519313 -0,15867552654654 0,31594722482339 -0,469886991892522 0,0796071706388669 -1,40796762868172 -0,521663429411794 -1,14734465073831 -0,955122483484901 0,10756736367137 0,641669468350059 0,0607735882218613 1,09461235943837 0,234054371965226 0,401365999484136 -0,153240594067863 -0,560391640640677 
