wih 100 784
-0,916841456532003 0,379840145625965 -0,419945926970843 -0,862894579608474 -0,971388900543342 0,742051186015789 -0,0407792464061264 -0,736023222808801 0,0622459767703463 0,439902440479845 0,0629915647529308 -0,671731212858981 0,659404385772193 -0,317844294529402 -0,800349248384352 -0,872859462940598 -0,165216826349198 0,568458673439138 0,0389385657593604 -0,644657684228753 0,806312575010665 -0,214579703756012 -0,343341812089776 -0,767837567982252 0,253521712245131 -0,404350561647905 0,0941764234099706 0,801188159737294 -0,820889634832287 -0,790075441628793 0,000162462334159147 0,34591312592466 0,556249290593952 -0,465548661192735 0,896132708574643 0,206069543683869 -0,307422034024058 -0,931893325283206 0,600404036069717 0,846057574777475 -0,898417963503189 0,838629784087087 0,840693966932313 0,641291169675927 -0,357687564613478 -0,172468007063788 0,00137361288407499 0,961973572228026 -0,33811112825398 0,633928477689527 -0,366243570652039 0,804934288380108 -0,79202726370942 0,907370407187023 0,51307000672395 0,269617251807579 -0,304939037700687 -0,680229354405015 -0,144537287270034 0,404840665688132 -0,380246232810611 0,12991159843932 -0,943254583396803 -0,175799577018877 -0,588381017270741 0,688957443411807 -0,256101495803099 0,0968321373759249 -0,242102938040516 -0,0345989585686018 0,406335924920569 -0,261540716982842 0,935940197504096 0,139958012482173 -0,801030865797267 0,937500291799346 -0,0834591272520722 -0,0127489179405116 0,561734780560987 -0,602131276110312 0,566154830051594 0,104081855765517 0,111178292574845 -0,482939107938242 0,548047133606817 0,167107178537626 0,109819394217655 0,620757887990503 -0,00673966333311037 -0,401605538662571 -0,51711241404968 -0,655313681398553 0,184522966342921 -0,837760659916084 0,182838006496733 -0,0703141344882338 0,74161049061784 -0,100349490610411 0,0855439046233629 -0,107267293882414 -1,18991258643346 0,393349059560848 0,00647796208786764 0,64277088085832 -0,800634900023222 0,867081649024051 0,836880172497368 0,0150917457521113 0,653610127912593 0,54538722697238 -0,675109049989491 0,679688884823374 -0,270085130382434 -0,570527006576147 0,810564840220114 0,487550916007448 -1,00938768963943 0,511566640616921 0,248033018729217 0,216494388269387 -0,45550017917214 0,0833803258435162 -0,937308689007882 -0,900923076749276 -1,03765815036343 -0,765354375878924 -0,624149403823912 -0,207731668704286 0,238943796211728 -0,431116544969734 -1,47179813613444 0,468720004112834 0,616564250241274 -0,438375696719923 -0,756255068515813 0,577928146591635 0,878149299560708 0,414749634380938 -0,710426009821626 0,652846207776437 0,302106532039104 -0,933393346950193 0,939026764661485 0,417119241352288 -0,776338685624362 -0,244883555960976 0,555645207445465 -0,306813014632516 -0,742928466921348 0,624997145146562 -0,126542834629505 -1,26696521249237 -0,269058768986276 -0,102604460065964 -2,34802189072803 -2,34595875525637 -1,66195774609695 -1,51528326954027 -0,797162600048151 -0,893822707182574 -0,924775118536603 -0,740291055821293 0,139885025878704 -0,42118186887888 0,470634073501482 -0,615078528136203 0,893986293830821 -0,90659169373136 -0,912883234073883 -0,879169423912329 0,559419635600261 -0,482536351798109 0,140299605102303 0,375068371771611 0,462603199864917 -0,854284093268955 0,0285331768415896 -0,596677097647797 0,263944955110636 -0,0630262090985459 -0,813041554154654 -2,33076227152736 -2,31994086014968 -3,27531130276813 -2,66495987998564 -0,2549546330296 -1,25864779372708 0,242557053235512 -0,396970753159861 0,715157498207557 1,15463337386629 0,0553528953803481 -0,692262424153805 0,115934701859403 0,311677819539586 0,209597152922037 -0,0100289056097013 0,539385482550249 -0,967957705017617 0,763841574699096 -0,375173887921642 0,0911057018115168 -1,11348396389615 -1,61478447946361 -1,76006885986923 -1,74158930358354 -1,66108125339573 -1,95379610788062 -2,66485813725303 -1,19117694446232 -0,562688340560495 -0,672111949255978 -0,381777256045558 0,0924104300155105 0,308861947860523 -0,554896533774261 -0,543717435385686 0,838699753357885 -0,412886318081806 0,60059555229779 -0,596992086372295 -0,791587882189326 0,831028729625863 -0,294746582490629 -0,767933841590803 -0,324162717134725 -0,681305913511555 -0,967450242038355 -0,853396915077821 -0,589753624774267 -0,0285478313636282 -0,0120677658471582 -1,26962857254132 -2,30833460283957 -1,78953456680332 -0,353362646351776 -2,27930577437833 -1,67649826071129 -2,77548232311419 -0,881382879262498 -2,30954910929861 -2,36131976153061 -0,553232405832028 -2,52674726783304 -0,282243478592534 0,243892895950834 1,47917563885895 -0,104976984988546 0,685459573751288 0,83592353036263 -0,46734644204423 -0,830719171297691 0,468896909465436 -0,412216295051998 0,581116742223549 -0,273267061989579 0,608861948059924 0,781413808338274 0,548925966133833 -0,0849417231650758 -1,67998848961106 -0,68876142323128 0,403562438033748 -0,406381861321481 -1,34900336553576 -2,5334853479164 -3,34726837798817 -3,86100864083322 -4,12828118508555 -1,66112897133789 -1,64202254533777 -1,39060788099367 -1,38525538529759 -0,615462128207847 0,355759053823692 -0,408019634749387 -0,423028406020289 0,527104767480784 0,127890120058135 0,488572982141371 -0,0491548622228646 0,623946613554137 -0,395310817360369 -0,58001758791175 -0,824927593669159 0,286737243516042 -0,926174663688562 1,03102168091203 -0,858271381350837 -1,14612040579848 -0,623709426175275 -0,519275052576334 -0,262227858560304 -2,52159898425081 -2,32931461001757 -2,36453266303452 -3,25682099217637 -2,1781474404772 -0,53277958453532 -0,332328549578488 -1,64543343875248 -0,321908967769282 1,75341983942872 1,1881213667209 -0,380957560521273 0,184289821416523 0,481444618847939 0,350486590320405 -0,932792023628451 0,389462754633852 -0,661107274647318 -0,653616630900633 -0,048356241910268 -0,55078561990295 -0,72088031023108 -0,646734502727556 -0,911655915248278 0,109049082472531 -0,0799389139398862 -0,471669453305912 -1,97601113508504 -2,5120673911699 -3,62525906265868 -2,52986879786068 -1,49183137962433 -1,17601385392493 -2,10825959495098 0,150394119248548 -1,62237171352779 -0,723624148075994 -0,538775182694009 -0,868329853414447 0,635670200023053 0,777907610473977 0,294815769694594 -0,652881840917761 0,665864060573153 -0,0595195325538016 -0,984944260296328 0,240085100931133 0,932329896462948 -0,596409699235954 0,566288940086254 -0,0499042259557085 1,04192475233665 -0,93297734945528 -0,693619460303288 -1,889748183668 -1,78237059774454 -1,69166781429413 -2,68365042888427 -2,87646216215865 -0,880384830704757 -0,460130453686529 -0,159584777924657 -0,53530801497826 0,0922249214775027 -0,0500913883936586 -0,6665313830062 0,167978029434777 -0,178225050461438 0,533075000271822 0,153928155162636 0,519689055963192 0,348390833267127 -0,716962316779428 -0,418579087232029 -0,019577834878165 0,21584981215674 -0,987667207302813 -0,557872033166563 0,495250589767257 0,745392692064982 -1,179713848801 -2,26787335307869 -1,28079823890436 -0,813248225464722 -1,12843698689894 -2,30513958571097 -0,528365229997692 0,743630737126562 0,772788881179948 0,426358244580859 -1,74150580972882 -1,68126828611408 0,113672387962435 -0,00620411474816982 -0,477925677652555 -0,543118844314864 0,921264166322314 -0,497057143814539 -0,59500621137635 -0,282455971965844 -0,269258824672008 -0,886347689516734 -0,799286170483054 0,447737973801189 -0,70540830209987 0,508268388125394 0,547592303528226 0,860392020807209 -1,5222357152229 -1,9650438212978 -2,27507456332805 0,0741334288744531 -1,58062336451406 -0,679356674530972 -0,149611512488542 1,10776755923484 0,800518576895135 -2,59223936082246 -3,59561541762174 -2,90336394027166 -0,302980905984079 0,589019757559239 0,304980241445657 0,744368722369738 -0,211555014296929 -0,292032898548001 -0,971807666013923 0,283346992679502 0,838140061145663 -0,630212626151506 0,368602101931955 0,33762178524024 -0,967741136592945 -0,446544258926941 -0,114504303242654 -0,580008782965256 -1,15150930150592 -1,03121327326006 -0,84263330075168 1,34174099784729 1,38982923222492 1,19775591457133 1,0510927932593 0,106382339629356 -1,61970505303355 -2,5986107257211 -3,8084144750567 -0,98714883193604 -0,918778611101927 0,157426823494522 -0,397792010289959 -0,277719521602899 -0,454170384409483 -0,753529931659916 0,767416010598316 0,0744036572427788 -0,38834859858383 -0,639185229983869 -0,0898189029675473 0,532710328663124 0,43168802355329 -0,648406354968694 1,22859339679845 -0,647678242859747 -2,01477114090608 -0,390927265977512 1,35284617735572 2,82893169589473 0,412140359156426 0,58656920159558 0,373434886849222 -0,246249679664314 -3,7836230426748 -4,60821810552406 -3,85146357143456 -0,87830320129003 -0,436273773449921 0,616148356952854 -0,768699762650737 -0,23975937294863 -0,806925431621675 -0,916959175808552 0,0860363930891722 -0,505909591587285 0,637050646284089 -0,381470740389066 0,17614384214146 -1,10213722111213 0,0877322326006757 0,821538472703195 1,00423866302528 0,296613416172464 -0,360017108910812 -0,166602537301168 1,68098604134979 2,25555287719018 -1,19237529285178 0,36284236826256 1,56495793507766 -1,29867666997746 -3,60897839973069 -3,68345154929177 -2,35169539609308 -0,184533288822117 0,0975114279748379 -0,549939732295613 -0,943075889455876 -0,924923058623942 0,602470115055661 -0,472825789630848 -0,500497201951056 -0,23079073569967 -0,982291001722416 -0,763570898937948 0,156072802882858 0,266889278033329 0,270249990177314 0,791645667202802 0,295069342417311 1,12696604188045 0,0367584163510187 -0,789238140977535 0,598658756296557 0,122742346059628 -0,95514779188478 0,742183587387736 0,9645310901454 -1,9689602017838 -3,52068020641196 -3,72705053854703 -1,2110079352258 0,368396789425489 -0,782892648053712 0,173618293091453 0,552080956277427 0,251373391791866 -0,245672528025341 0,578446965036519 0,377942460621675 -0,15143844249918 -0,555844168807371 0,237309461465745 -0,608001840997134 -1,05184364954771 0,112782803135068 0,745018588500146 0,822113614867804 0,679276515835225 -0,452281785776926 -1,35535769165563 -0,806778928552169 -1,51036296507994 -1,98480013748022 0,170161519639733 -0,116012026109448 -3,90057036768806 -3,30386976127815 -3,56900888444799 -1,19417135616688 0,0778459709472533 0,248419422461326 -0,797331048891604 -0,58369487551066 -0,339455409141597 0,30015338257542 -0,142593973643469 -0,725794110230467 -0,444662262331137 -0,317003196622778 -0,670206155149106 -0,056067379962952 0,040689446246042 0,718789591039521 1,3257477333164 1,3891243253208 0,717210424690059 -2,68960247396455 -2,94221523950925 -2,43936759024106 -2,83076899081727 -2,75839730035405 -2,83636013573174 -3,02690324477351 -4,45159527102732 -4,26938346847247 -1,69974451808035 -0,0481459970524133 -0,647641818105335 0,622802303544233 -0,0897857412580466 0,268315110647185 -0,356719810259173 0,287691737932693 0,707302276004939 0,124827482425928 -0,816096870978472 -0,166231201477522 0,712902399679079 0,194421578121299 -1,02424403626331 -0,731600951852061 -0,165200779681271 1,70170630551015 -0,611413139736859 -3,11484340760562 -3,39188825043731 -2,22194891299522 -2,39333342457289 -2,673528463277 -1,91888226831776 -3,89841826801675 -3,41097969778849 -0,713847904680683 0,169440480474986 -0,564529339782853 -0,00342582938829187 0,389642231138017 0,679884714622123 -0,608484081067999 -0,088086774843252 0,664653199080402 0,461171523512846 -0,287392297331957 0,75594372579912 0,0432741927211802 -0,975326210153807 -0,994050676394775 -0,907745314687947 -0,738135381360872 0,219621260819564 0,568200886060117 -0,64690858385157 -1,25746462285334 -3,24914553901806 -2,30022124033895 -1,82726690166892 -2,90947340720867 -4,13663002502884 -3,74189624568575 -2,0206436899681 -0,460199239066083 -1,02364704161273 -1,28042830617018 -0,968240996913166 -0,643868852150071 -1,07521107244166 -0,292445989804202 0,538215404780107 -0,254393763608953 0,850905892465622 -0,247030544579574 0,136008063956103 0,298648863800106 0,951842489725773 -0,606616826131774 -0,142569212231517 0,245822562655268 -1,39982603814572 0,732289819946998 -0,496807130573863 -0,654351910017425 -0,982992181239567 -2,00755093271468 -1,21855563487782 -3,46188731648886 -3,8797332329447 -1,34832623465738 -0,0631099088673188 0,0606932805885434 -0,480477759532094 -0,412975575241369 0,28903451132524 0,215266819806926 0,476103030874648 0,594225318289579 0,314466270729895 0,136913238223418 -0,506143935630232 0,319843736256334 0,0369428970119002 0,28934110491313 -0,582542190037984 0,231115138048309 -0,449574806992221 -1,17001101965281 0,800698209654047 0,332799192816273 1,16760380484811 0,809102105593356 -0,248907839894979 -1,23824198934979 -2,52175334684051 -2,88548586633151 -1,90600820660535 0,403338385258936 -0,5197486063964 1,24715106344903 -0,0696698387557954 0,712307206646839 -0,721998781110663 -0,557874902347366 -0,168163787592965 0,956787269519398 -0,660250796678348 0,122972057819754 0,424467952749844 0,89296148256344 0,794728691689946 -0,670336364519071 0,0507959971468229 0,690651595675488 -0,138356847639452 -0,256752069020028 -0,437723194462804 -0,147499240434264 -0,478114670966011 0,648611088291356 0,681188439546213 0,172386531794631 -1,00560917515982 -0,698188931293006 0,376489007623842 -0,79336820671879 -0,482550831200958 0,252010556550177 -0,693663888988081 -0,140582207543048 -0,0753667709981268 0,909520056066907 0,313627153151947 0,353015511245712 -0,679737770684936 -0,2346902121924 -0,0197059022327168 -0,433309440141288 -0,57061602611316 -0,567450468131149 -0,136755056181408 0,395588571020144 -0,280631591135065 -0,97955949780255 0,216656389083916 0,378096469145186 -0,443179978346797 0,6673597917097 -0,656058218745534 0,697607983415016 0,719203395771652 0,274377412632727 -0,651012177414152 -0,76790438316635 -0,985129905873099 0,485121641031084 0,16226955551029 0,281617336579991 -0,329805019151463 -0,404349080622124 0,659471066416843 0,0773548569624859 -0,178734030096267 -0,45709304849209 -0,0936419353297828 0,857075022562844 -0,0120843652664799 0,669659502746315 0,342398461675391 -0,931152481457819 0,735259188311697 0,967495226381977 -0,60481707537498 -0,590303463009947 -0,141298597131252 -0,63789686052905 -0,468081474934139 -0,556121106927403 0,755981560767603 -0,66261410521249 0,63348989171128 -0,436583960837953 -0,0436476547678812 -0,380881966263055 -0,00308790690144599 0,582843733718626 0,241754226208977 -0,188615519588249 0,20549850783392 -0,188859854351282 0,557324897387618 0,669661932566913 0,868371268768904 0,805610272107401 
-0,971237393438661 0,0415743721076946 -1,16999312068076 -1,56785426444015 -0,630233284269769 -0,384728549117764 -1,35399107035176 -0,881821087862482 -1,54962599245555 -1,58822086330161 0,146736564292714 0,116580780759523 -0,791985367683888 -1,51435480233225 -0,12889558351288 0,0129771392087194 -0,795233158655309 -1,00833071990533 -0,217817839226801 -1,41156819517538 -0,796450317167156 -0,788830415603361 -1,64817085741675 -1,54220237457503 -0,198336051759667 -0,42080580544902 -1,12899492536365 -1,56778456612128 -1,28015472602313 -1,21305740577052 -1,23279310064261 -1,67871846605239 -1,6451917641841 -1,15474306927956 -0,0795765220392535 -0,64338342771298 0,0715858080915829 -1,36073765864008 -0,386398270797018 -1,31976861184658 0,230931391225429 -0,930902058582376 -1,20689855840967 -0,724149338178823 2,24428248405309 3,27440753638481 -0,326903017744724 -0,701580033350185 -0,516976078774674 -0,267794931968632 0,145862914538003 -0,894854830884973 -1,57303067638421 -0,180570984233638 -0,858449858903363 0,0732773003675251 -0,0545704922727325 -1,37210646790291 -1,11383393447765 0,0462567993820757 -1,00004934555128 -1,53052222602766 -1,34598208363653 -0,0804125898337021 -0,0991055921993866 0,0812989988574099 0,017468137149086 -1,26535415113654 0,213932880461036 14,4093036638603 26,6622609548592 18,2934560543588 13,2487714407666 11,8496084938197 7,50013060592136 3,76771854067122 -0,607431587362149 -0,45508264144504 -0,298421353785067 -1,3624878260898 -1,07944459507422 -0,168909227444483 -0,791869902311033 -0,756481367405929 -1,10323598369382 -0,0822539915548107 0,149996488534642 -1,20893650174764 -0,0406089321733647 0,102832328312008 -0,333122259139739 -0,300146970170789 0,00978552170002761 -0,0938848010145322 0,406309964807361 0,820430649219754 7,07075146382906 20,9585194618781 22,8223771700568 14,6348761904 3,83352097602657 3,79033506092134 -2,12523392813783 8,30582001371167 2,0780841806907 0,0800231749727436 -0,261837318492533 -0,675636641749054 -0,538071397832828 -0,992901600318651 -0,344790842434962 -1,297479234199 -0,817998483116938 -1,49566183018503 -0,618614327340874 -0,575478598039359 -0,574738606284015 -1,74088336960869 -9,443538352262 -9,7753686580132 -11,902146047724 -5,36804593333896 5,2844237348858 7,38534400334475 27,8960909917917 13,9893116150722 14,7724941338995 5,31463272705618 -11,9536056474932 -16,8345532204996 -25,1999604140892 6,10530722289425 1,63534519961984 -2,44431743670533 -5,75145499755943 -2,34212890641069 -0,642382076077022 -1,50059137537319 -0,291416733779912 -0,427910061642688 -1,5536473315759 -0,91933778425854 -0,41518082571198 -0,792080176767234 -2,83564174271735 -5,35050319552935 -11,4766372411993 -12,6652517192232 -12,4291105920317 -9,01251247251602 0,216325229312013 -3,92669773687569 -20,8805540080652 -16,1652117520291 -8,6443693485486 -6,49955194441851 -4,21652201739621 -11,4629741559489 -36,7179520271174 -11,8071192863456 -15,0708483109594 -12,3848284173156 -10,9909314558595 -7,24816421314383 -1,15971340726954 -0,125728193664636 -1,33175134253128 -1,33312419666795 -0,475110496505882 -0,987604366034287 -1,67616975188284 -0,725865324017453 -2,77620145574919 -4,5797167262659 2,75914922921201 -5,1129386642312 -21,0335689962889 -16,576096870813 -40,4280883616488 -46,731416787432 -32,2558970396846 -14,347007759076 -11,1849041914282 -4,69946331703072 2,6805748943251 -20,5547067682758 -27,4071027409429 -33,4146529946877 -27,2516911643593 -14,9415452173613 -7,3814259979451 -5,81783350261553 -2,69020411187975 -2,04349980247248 -0,940611580089665 -1,21431805052736 -0,567002016041788 -1,25307072110632 0,175934546089062 -1,14348744716016 -3,12307390186842 -4,61573494144076 10,0888106363198 4,3876354986054 -38,0625544256202 -56,2472068003455 -70,1237644579217 -38,7594095191526 -7,212715601892 1,63921061405112 -6,47124697476228 -5,42225181823635 -3,03464674783269 -13,2216455367045 -24,7550516729791 -21,4788597246909 -11,389762337284 -11,1301337690081 -9,41969894389028 -6,58927002223703 -4,74889914009895 -1,50135810256823 -0,851515150105917 -1,27857325833431 -1,7197642201569 -1,02026258857821 -1,36236702619129 0,381329816680564 -1,22725625592206 0,282546807073588 8,87414963287148 -12,1618943982415 -43,9697071034823 -70,70112535203 -61,7037759046299 -11,5428502761999 1,24699627493407 0,816210646914152 -11,4894030650604 -12,0620187888345 -8,55059945084129 -20,4953787162416 -12,9949162372955 -2,80071588668961 -8,27570788155301 -9,60925371896084 -7,95758279758834 -4,37619083795448 -3,09494566346735 -1,67158167271358 -1,63103419169023 -1,30441706491115 -1,53963502419035 -0,141253517425262 -1,31506058838171 0,349278321645576 -0,534795058342787 0,929240264675168 -18,2333821573287 -28,0261224519455 -38,4583916786939 -54,9401386833926 -46,5126872833333 0,538626190187648 9,20191187599698 -1,92562898040301 -6,12038692072574 -12,9652785577873 -14,5704699973924 -35,8157180386265 -20,6788059858368 11,2380417099643 -6,77477821509166 -7,89210830870351 -5,84086087841658 -0,931922175860124 -2,85150598387541 -1,12744030880794 0,0525144829032697 -0,521852159074639 -0,878200698943171 -0,531547217940567 -1,56101206999616 0,232764878365847 -0,815378599550787 -1,17886231002917 -26,9237745603265 -39,3982545324399 -28,2304711753093 -54,0701275422645 -27,9678418308705 3,95114828523742 -5,29757060433966 -22,6232543336761 -9,28935191930116 -14,7052095934447 -24,9727774667599 -41,7400532308269 -32,7787960748325 -7,97034923398552 -4,04898816718808 -6,11882512624717 2,00309009894241 4,13638071353571 0,640149371098987 -0,215267047690833 -1,57794645648986 -1,43955743462033 -0,790757845414425 0,0686350103022133 -1,02774863753424 0,319195597095323 -1,22936143616703 -14,2098768193234 -30,0846660609854 -26,6906923965791 -23,8539653956563 -47,5815234658187 -17,1833382273294 -13,1930819622936 -25,0808170939747 -41,1211482050329 -31,857936755122 -26,6251679730213 -28,4844104653892 -29,8766285981261 -37,1137256782307 -16,6327786327275 12,2641149821883 4,47738029599609 7,0474306873302 6,45686457908972 4,16601867912865 -1,03900558071973 -1,18102354066908 -0,928247410195263 0,179377054057524 -1,73710764269416 0,089429311202785 -1,26461889290569 -2,70644626652337 -22,586199047526 -31,1080358477443 -18,7258065328803 -20,5389659572527 -39,9880064886808 -21,9113028061788 -21,62567773064 -39,1265438736341 -46,3850053307403 -52,5806959917918 -59,0216034470684 -62,9376839532605 -32,4723863492529 -26,0248336359476 -23,0913637611302 13,830737724034 18,3632501696091 5,93459675402353 5,30066120565686 4,60865822905884 -1,35162182101291 0,175195629533417 -1,2774300542277 -0,244720493447573 -0,0571833941254842 -1,42354890506212 -1,92570589940549 -2,52194887287996 -18,3444242896552 -28,7473446744719 -18,9458884497525 -11,9101886042865 -19,600446674044 -17,6114696944113 -31,3781101066813 -63,1340696202593 -75,9155994051107 -73,3441018152396 -91,3202120439268 -88,9584011216773 -67,254011419441 -37,210413334727 -33,5113650829103 -8,47185011214885 7,33752358578581 7,80870675631786 5,04167656246334 5,46224506017945 -0,283182536844746 -0,419492908171135 0,130555545280128 -1,39396101755947 -0,550549426157915 -1,39909927492219 -2,54615441109398 -2,56406210889704 -4,00634130309919 -24,0371771673696 -8,36651727071128 -14,3687811559861 -20,3257168650994 -28,6477147002079 -44,4703645688218 -54,4786408865222 -43,6622208919891 -45,5820400158097 -68,3925300146993 -59,9415905437132 -60,1664297102366 -66,3647808437845 -44,0101327596626 -6,47565481576717 1,85145892587951 13,6676085853853 4,9448750932666 4,48085574083022 -0,504981545212499 -0,923197698337348 -0,19711240802039 -1,03430493213178 0,141894000188396 -1,65162271293744 -3,23031430054893 -2,11485942493944 -2,73135866331572 -11,4393278503966 -4,66269756840116 -21,2187194784167 -20,9247097251738 -31,5526054957079 -27,3556518625187 -30,9804461782775 -23,0563948356036 -7,81469482767374 -16,4979210785967 -38,7195461421323 -44,748760748817 -65,0713090643556 -58,5921288453915 -8,62696702672179 -2,84341967270126 11,7212750028482 6,89823967233288 2,95872138965296 -0,407534642360906 -0,601457597100759 -1,25848667557487 0,163110891542713 -1,44857541393642 -0,0902971684132696 -1,22513886796934 -1,47436063117953 0,408136528398327 4,2515956277355 -2,46189308769247 -6,31414228151543 -20,1409677575482 -19,4127217810331 -16,8912873297475 -18,3005862905252 -7,53600372477274 17,0039333996725 9,5398676995703 -18,4294810849893 -38,0779745940104 -57,6923522480874 -52,8478035685899 -28,2769162229901 -9,04170115779082 2,12790381467232 1,39079935727315 2,69326226656779 5,94338574185544 0,103239938113323 -1,7156927871891 -0,266911857776039 -1,03105884404922 -1,63291467060662 -0,755303149924634 -1,38200937572831 6,73668719051792 12,693967459648 17,5522295388593 21,5637610268252 -1,46226427108948 -12,8540921648183 -2,79757859753525 -7,0528107787122 -1,91953163697989 3,03149032252614 -19,2822825223136 -24,1937196125474 -23,1383334089939 -29,0316961053645 -27,1523401498264 -26,4667999552861 -27,193799959111 -8,6870847361879 4,47956660299058 12,9223906383384 11,9571182869299 -1,71572328985485 0,0674403678650508 -0,212070356112207 -1,33855013414425 -0,226028765092826 -0,420981580208548 0,93661100994798 9,97476018538929 11,9217333371064 22,7251227572705 42,0370564721452 28,6641419679322 1,83557977711465 -0,925695528127765 -5,73425297098654 -2,82486822207615 -0,622132077108134 -15,9314771884589 -14,1091015658012 10,1165887845908 -18,3661411429277 -23,5848788801177 -29,1821353495254 -25,213598766536 -6,10505130158141 1,67540074514202 12,8883596856883 6,95443500283646 -1,50820853445944 -1,13352275650399 -1,27932961519983 -1,52868908052012 0,232966432149045 -0,312872587243747 2,51553839558737 10,3847978833272 9,41168458284547 15,74757078065 45,5956880187157 37,8884699025505 23,0286858738287 24,8858380773749 39,4145132508917 40,9435919986669 42,8485586011831 26,3889459191876 20,5804721970712 20,1520243433047 -23,9806560976274 -29,484859707898 -20,53028062591 -6,87727116756578 -0,870487077796572 -3,56107107086407 7,97872411787285 -1,33260456460889 -0,907003789314781 -1,39297246055557 0,0382858888590025 -0,777719394666363 -1,64077217206738 -0,815571706986264 2,24189075168995 1,83250359382818 0,478541156727004 8,59165347104997 5,12660790898316 3,55200648953332 5,18284153868197 22,7738340647851 45,6099789121489 21,182530943939 7,51612047563899 -4,42400573804069 -9,22810094017201 -21,8236721619476 -44,5390382175884 -37,2181846215795 -4,66630444096235 8,8660439421209 -4,93353674087129 -12,3855131372282 -6,60513977915293 -1,54027609768816 -1,28737076911793 -1,51760076511746 -1,44822751787149 -1,14130081621407 -1,67318827823922 -1,64097127571945 -1,16052911846617 1,73818349222223 -4,12153951694654 -4,75281711671302 -37,9360406601835 -22,5557742390612 -11,5722014612959 -5,92407338732917 -4,31872878937483 -10,5046768872984 -14,4106628619929 -28,0968115078984 -21,0519711976964 -32,9776923889667 -46,820819201873 -23,4654264445293 -3,51364235274248 14,0770553190666 -11,3396442916943 -23,4784780134677 -21,7060236746349 -0,121862448260789 -0,583243184424708 -1,34916129573881 -0,44454809567378 -1,31815770505117 -0,144899666966161 -0,882482193009589 -1,54411347190768 -0,486220218712741 -5,7522156716958 -8,97392645308534 -24,9401774101677 -45,8190839595147 -41,7367859911455 -46,4379124589449 -53,0055357431289 -58,4050373244352 -51,7753790117775 -50,6183453587538 -36,6828336702673 -46,1667982315068 -53,2625276881413 -35,1182506232914 -6,96455991291588 -2,10005370993228 -14,0968873324596 -14,4997956786906 -13,7528065936 -1,15208457639273 -1,34876192785483 -0,17629858196747 -0,407389834603213 -1,0384917542352 -0,275577088349463 -1,12768939858791 -1,73467227965631 0,319653957661213 -0,762112573406043 -3,91707571226393 -2,99423387947311 -1,70413471682503 -6,50418153548042 -15,5470593088012 -31,2860682353947 -52,2190605446535 -65,584188458879 -53,1852119153218 -41,2899059266678 -36,7317880349412 -43,0830216035649 -27,3454859908104 -9,36286045607627 -6,41904827856252 -3,84950697542555 -2,48538281469957 -0,728224292029291 -1,15921796528791 -0,908005912170017 -0,401309271420232 -1,12671769172472 -0,706882529180177 -1,04216127973357 -0,361786156203787 -1,38343966414547 0,36323955315874 -0,505001761265648 -0,438100079388852 1,5048180824177 5,04166683705526 4,54527759719236 2,5986348072135 -6,88851737494886 -16,2239310967171 -29,9003789184289 -23,789557701398 -17,7442678693027 -13,7933296318646 -18,7324991651317 -23,0467637723561 -5,47440475105114 -1,6328601348247 -2,77501448522258 -1,06140038217666 -1,36868370682501 -1,40972415505607 -0,401444125066317 -0,733361595542074 -1,14264587168911 -0,485884070512985 -0,2942868881201 -0,258458519365122 -0,334666918560961 0,250775285591246 0,0134257809885693 -0,28524529422478 2,3095558781476 3,18621986837829 4,71812701565049 0,16067106308641 0,150571173488478 -2,05346654105211 -17,0370939797584 -19,6670202624142 -11,7239235594471 -6,91734505142866 -9,0776329567547 -18,275310895997 -9,87281353429293 -1,53533686085967 -0,543864481481517 -0,594426303337727 -0,201144073039029 -1,45113533978132 0,234470140407956 -0,61062684113861 -1,15198197817263 -0,51316300606243 -0,73733308655292 0,190824302111935 -1,57495723278102 -1,27917864628955 0,0841443366128447 -0,499206748872471 1,31560825396489 4,54764368908156 2,55012969672994 -0,335622300117653 0,403918466312192 0,491200988466787 -1,70232901943345 -2,11394574741818 -1,1998660607816 -0,970632279068402 -0,649316384988067 -0,400087151263207 -1,58801790430758 -1,91267625001836 -0,279673573912108 -0,183160147827786 -1,03763087224311 -0,386047982680836 -1,72794341644849 -1,72507077804278 -1,7167975499673 -1,44417630657955 0,198369753749081 -0,62791383284719 -1,72896459384051 -1,23321846276991 0,227279763337584 0,104937648091526 -0,686418655972575 -1,74304941632128 0,125838265414834 -0,369473514240034 -1,04069217037932 -0,0838640351843057 0,438849427858079 0,280141482572673 -0,122728667353524 -0,540878649216228 -0,35580845809663 -1,51878646677963 -2,46651023138894 -2,00029817712859 -0,792311617432502 -1,22125135314916 -0,454511070725948 -0,948295290913771 0,162030112183465 -1,52310964338833 
0,722345639859437 0,400930527355906 0,1835586406586 -0,233805796668824 -0,596261473147371 0,745274103165216 -0,262761622286806 -0,752108369801294 0,408968138270482 -0,168691461481525 -0,621329111764877 -0,960237578433168 -0,246184978245893 -0,343744462013174 0,872462674021886 -0,848277524937124 0,12275062929962 0,883732866478909 -0,23417067860918 0,735533493485034 -0,154813073144722 -0,191527028154411 -0,305577167880574 0,472800133541548 0,924523227850169 0,74577782667506 0,887787787228674 0,696611123055454 0,303238777156516 0,374724573201788 0,781700704182308 0,174434148359265 -0,440145442895708 0,70406970837338 -1,01742649541122 0,536820161909196 -0,272085402716041 -0,00352707548236108 -0,418785673744502 -0,463030137986178 -0,380471654742881 0,141170667704646 0,110856600398875 0,900722979275665 -0,279508726757357 0,259189627059442 0,382033785450368 0,340512017449554 -0,676245226336808 -0,289511438091108 0,310520671955503 0,316278717199421 0,940398042099685 -0,918980726897292 0,286226084160675 -0,131023865682599 -0,338388838459968 0,665861973420602 -0,203225558215441 -0,386935833518878 0,812589782240093 -0,00426927903870778 -0,100243680654256 -1,01065296893322 0,00471129457403787 0,159340194681405 0,419691765143887 -0,0598173019005117 -0,423542128769942 -0,737230352015731 0,35928789089796 -0,928761554237888 0,227533168183117 -0,855104782313463 -0,0616914700560022 0,472336558730615 0,648483836308888 -0,254510746287172 -0,293705710161813 -0,379665794456294 -0,681208562851565 -0,497620763917326 0,327959815695814 -0,452146318448824 -0,980692632450164 -0,57947454671356 0,189139572563131 -0,566061249694866 -0,627052909483743 0,0686957647280534 -0,169718073417945 0,0167644639164493 -0,845255216105249 0,923206824713238 -0,340425549258349 0,504443154584301 -0,901729318251333 -0,0456068118976936 -0,24376711836895 0,350204144356052 0,503339755525714 -0,960492933916524 -0,635039123855497 -1,29944778271385 0,233144504213739 0,148613692472554 -0,987939790942637 0,711585830014941 -0,0346326459919744 0,584398664377765 0,172282993445255 0,86792293188526 -0,0864139334329027 -0,868456297455618 -0,750623804363763 0,265314012460974 0,622180765683645 -0,694278217935744 0,92470512448688 -0,461925574910835 0,921378100081075 -0,192997914174592 -0,805618193645456 -0,281031990495634 -1,10057946650172 -2,43932047475513 -1,38381660953578 -2,50852273723027 -2,3395795899759 -1,60007260479699 -0,58266668989277 -1,10345772541965 0,607756232640858 0,036511510774934 -0,239410691976752 0,935601221045883 0,786146853334503 0,294951020448841 0,216276463724753 -0,209832133320132 -0,638131667654142 0,432701912481616 0,423674862600663 -0,256354190907324 0,848078578515918 -0,0862495024617285 -0,939793840471461 -1,0162735496015 0,393644647819914 -0,469746028366221 -0,437547510139001 -2,27186619893998 -4,04835381467322 -4,28367242397018 -3,44898178348946 -4,94026441189681 -5,02909671820347 -5,93488837353088 -5,46453684541005 -1,52736185806497 -0,866265204255725 -1,59127171126134 -2,12348274610841 -0,420602807605877 -1,09078522414975 -0,404507581215136 -1,02974200703088 0,722494180222222 0,290594121148106 -0,737070699062747 0,429764760335104 -0,718526776599108 0,0420107286023562 0,0735924451630972 0,0663235207630761 1,09476862756178 1,17876565470236 -0,344672459944801 -0,665396880009315 -2,76944716274284 -4,6296813506954 -3,91124430633047 -3,43040750415989 -4,3437647122577 -1,75103580762993 -5,72460223098091 -5,99159804787011 -3,17175409319235 -2,50363548600422 -5,26402961772391 -3,92063671160377 -1,66421854081225 -1,33065823565488 -1,75604637286737 0,44319131006375 0,637578802149974 0,180889471875745 0,905498639737646 -0,407742686294741 0,241364179556174 0,993847685213288 0,262458060034907 2,07391922494238 2,28351223158607 1,86154992081186 2,41691007308249 2,52479709977242 -2,22674861877915 -5,11940291377584 -4,79685823883746 -2,51816290171214 -1,5994572911417 -1,9974773120967 -0,064464961177313 1,18602301258957 2,96231869073145 0,430794665271849 -4,09198281959677 -3,03796774505438 -2,55191983224112 -1,19974858797483 -1,69096115790984 -0,931419421823187 0,272853126872128 -0,977564864344431 -0,253333410306045 0,531685518378163 -0,151816350318947 1,80414393357047 0,686943039593665 1,47322036138076 4,66767876003687 6,30850310359703 3,68562838608038 0,329379936507087 -4,28467714975636 -4,93592553754219 -2,25418128455951 -0,138812502202773 1,56952373741675 0,0329957591818011 0,127404150804076 3,36343055877531 4,25024018918292 4,53725788538498 -1,43034018130173 -2,78452298578046 -1,86829459539303 -0,839833832565859 -1,19702616888342 -0,426694678085493 0,0190773918754291 0,921369883750775 -1,03064501993111 -1,01140877831393 -0,171934702181068 0,0520860237116614 1,71424264398716 1,82257407520574 5,12387922059557 4,44086613565291 1,05048988392814 -4,95694107166796 -4,6228826909263 -1,9958292493282 -0,249535812857884 3,2584865672166 1,4366548010751 0,331807175984684 0,173138793644996 0,752141696806074 3,32862304718345 3,61116950932753 -1,8944119106542 -0,969884975074808 -0,441205060945002 -0,592057416672344 0,587659124088642 -0,45217372012213 0,682700409443393 0,549925000234422 -0,176753972917958 0,174893270272346 1,15237652432998 2,0151871323834 0,519103904723553 2,37906957082662 3,41150164083454 0,958557315510632 -1,79036202145775 -7,98106462166933 -3,98726124896608 0,208574080778528 3,17875675754041 2,11875108448389 -1,23636970283665 2,26591488562495 4,52363859529617 0,624758476001855 0,857386554797583 0,992773534917568 -0,659712278079605 -2,82154009529322 -0,748688857085086 0,738754428574009 0,795570090000435 0,00820766984654604 0,844293151946825 -0,870960868797763 -0,829040105711273 0,49516279909267 0,124925317761791 0,867045064772257 1,82399773385223 1,47666101679891 1,14082362819032 -0,250096992480262 -6,7696718437052 -9,87047354021471 -5,63895663487154 -4,06339583558845 -0,255706454904727 -4,44959065614491 -1,01963642397071 2,19726827934192 -1,1598549735286 -0,860932017913243 -2,11551149223896 -0,556512572601118 1,03664541626129 -1,70587796742145 0,17168855946707 -0,11330194498695 0,526785787638784 -0,980310653290008 0,431799509335167 -0,346005054780333 -0,615315713703364 0,482803865552954 -0,671783426601348 1,03173448799319 1,71807122542066 1,63169632799362 -0,949391236533994 -2,59071941419676 -8,86259974083401 -11,7503939655357 -7,89712431343574 -6,26532419091093 -6,48989814478405 -7,492850680873 -6,88440999365102 -2,49728767008039 -5,98397742461692 -6,31092748659291 -7,21903274263832 -0,288502405698368 -0,128614720966727 0,426842605142064 0,5773000982909 -0,999286366786885 -1,00062750628936 0,606174971762118 0,0540050897439476 0,343847451463222 -0,670880526113784 0,485097293196468 0,263162551435622 1,00761082397712 0,436211728069142 2,16986517276308 -1,29769028279969 -2,64321833155102 -5,82878726208243 -10,4358108658912 -11,0723892885856 -9,9590608406792 -11,6033705675573 -11,6502414108496 -4,42674516077624 -4,02770089002861 -6,70566635982437 -7,56351380428149 -5,31879292688993 -2,8376317628979 -0,116395171355568 0,117572257970754 0,572001443281025 -0,61348121402635 0,819852381200258 -0,986240595535541 -1,02420241289973 -0,368877213117193 0,863302468295765 0,91086863996303 0,0608210452191204 -0,921622590237912 1,21542555033891 0,409586718731949 -1,05992557155813 -2,60694742953303 -4,27551599738484 -5,14238015449517 -9,58103422438052 -15,4009605315095 -14,7177101630094 -13,2105300500701 -6,84738561368843 -4,11982439852678 -4,91912633156726 -4,84317585049999 -5,45605934412279 -4,10368466427087 0,861500074478379 -0,627966319363476 0,270743539041969 -0,713349885845202 -0,992898658537915 -1,03899656285088 -0,439490397162547 0,211883232599021 0,509854540037804 -0,481459273678048 0,597512745645477 -1,06533929907185 -0,595446357858497 0,407817201516168 -0,737072589838326 -1,86522694167426 -3,62351440478705 -5,69887855694603 -8,84353532135573 -11,6786041108608 -13,6518982229739 -6,95822077261739 -1,39051633389347 -1,24675723335082 -2,40946575585637 -3,52297594460093 -3,98474455399659 -3,77211151304357 -0,134933670952022 0,170414758405238 -1,28142912078546 -1,00052858076168 0,133914623137551 0,295510899740865 -0,335683369662514 0,523790979573355 -0,817159337800586 -0,422809629022272 -1,03013180779263 0,769856887628769 -1,32221543129675 0,647109807870473 -1,53608570039601 -0,995482713035934 -3,39351398488478 -3,91452434701409 -8,79483448541861 -10,335538985544 -9,83430229245301 -0,917915205823129 0,905827229085607 -1,46326288015919 -4,22625465390673 -4,48842285975265 -4,05292432301806 -2,80702738651225 -0,898830582563059 0,060996461493683 -0,969511852541342 -0,496710698302732 -0,50238171499383 -0,605179760066724 -0,592857094254794 -0,880134487431609 -0,562249906120058 0,508466933499602 -0,361466521567159 -0,209449447387834 -0,787800405737604 -0,286914348877632 -0,0620081882337124 -1,40475871693914 -4,70211818339821 -9,31677438982602 -9,10810182301716 -9,97573417793862 -1,96679746068433 2,61938295614539 0,942300299206627 -4,18720107472009 -4,07781957650599 -4,43827723779496 -4,70914740797978 -3,43818152883121 -1,28617332902686 0,506142741195206 -0,373916942330202 -1,02254531650088 0,494142676686852 -0,257400371792257 -0,402432439679379 -0,106649426290185 -0,716466577554389 0,388729123260887 -0,147229616245373 0,00354476149879213 -0,546958018426814 -2,40440902797547 -2,56266315348363 -3,36282224452002 -6,43524546747264 -9,949982726314 -8,35182702513938 -1,94217633512394 4,0936958520272 3,82357388639506 -0,212385982113478 -8,48739956541854 -4,42413430308217 -5,43480572846513 -5,35161994776807 -0,319659164936504 -0,326313205144905 -0,201014921093259 -0,426486206701899 -0,062676757376506 0,328862570597015 -0,86944357720602 0,920324877314797 -0,367552182305445 -0,28893570099447 -0,269201468138113 0,459479536065522 -1,19593782442227 -0,753890621406906 -1,9560635270908 -2,41847880802217 -2,68434101281809 -5,59588567927299 -7,58185114590508 -3,70424854315384 3,27575600460287 3,73795347308823 4,29576386354109 -2,94676416322353 -6,28667570827512 -5,11820035988626 -3,82866184433029 -3,79967359722313 -0,200818333648046 -1,36224624674804 -1,99589545361415 -1,15331064816977 -0,422738455673017 -0,320958411129302 0,789440647637952 0,764729740956755 -0,172523937696884 -0,398447971473705 -0,68589521167119 -0,768126055094572 -0,100203092731443 -2,02847520466099 -2,46732007877317 -1,00546154919709 -2,10999312935336 -4,92896813300412 -3,4440850385141 -0,227296820912806 -1,06731583021532 1,00726733110039 1,96292375768669 -3,5833937728844 -4,29836885351421 -5,17401393472306 -4,57338720775147 -2,10980843730276 -1,46412200893752 -2,14092214534908 -0,356969871909979 -0,889087376590652 0,426073693984994 -0,174637209120786 -0,839592427834751 -0,160906921644235 -0,344531206071673 -0,815858427312209 -0,198432419482868 0,403412451274359 0,237695641380109 -0,970679143692994 -1,17658560709174 -3,07404248453112 -2,45361611713303 -2,69503007598157 -2,66096203539 -0,779464251831693 0,410231463066231 1,30137634000962 -3,99743857177843 -6,0779281886526 -5,18108616912915 -7,32127977190119 -3,76117528577949 -1,18546125040041 -1,84955932795997 -1,67325204393245 -0,496800526227132 0,512436014972662 -0,535845678098667 -0,713162731033337 -0,92346346750796 0,696501385316436 0,100171072958067 0,805194112418725 -0,147376082720297 -0,677700706630154 0,78522296276186 -0,130212526264861 -1,21197796085537 -1,95735986842614 -3,11770482547293 0,725143151993607 -1,80926403825146 -2,94668845253966 -2,33083698590827 -3,12806247791759 -2,56321645500764 -6,4421341077611 -5,60151881219569 -4,08594408641043 -2,23291482884783 -1,79659520017021 -1,30833979229635 -0,794532048576482 -0,769729203844979 0,253852191525741 0,874103971518155 -0,582296086859606 -0,772229358410641 -0,81653319845751 0,285559418315745 0,223827652308961 -0,0851608345928292 0,0987883687872375 -0,574521397473109 0,225258001459464 -1,14646889559593 -2,04060378390805 -0,999987066414699 -0,0295984657919081 -0,0650820209967226 -2,80435004672545 -4,82470827572235 -5,36707498698204 -3,21898389329147 -4,65785028232287 -1,653202732867 0,140855366485561 -0,758305694624213 0,46415686928287 0,604206219555567 -0,950738047807725 -0,617314598933124 -1,00900607077679 0,954636539038129 0,864290149856444 0,15378604886759 -1,03240435754532 0,0133770560348742 0,46440849897652 -0,59926016233832 0,189999086732127 -0,826827401949503 -0,97644664022017 -1,6295564638142 -0,291304999492336 1,17988426610929 3,23318263645484 1,371280613094 -2,08529907748654 -4,3338647022679 -1,03111907677578 1,34327478367379 0,601802978214391 1,46063214181704 0,286969057913343 -1,10279350412202 0,667263716200502 -0,155251842332069 -0,908951220483873 0,333200087012638 -0,6007588402132 0,142230834143347 -0,384986164656044 -0,504155761294188 -0,480040994193473 -0,548106142072106 -0,133661635710749 0,0962295919545566 -0,266784795181308 -0,434954510154728 0,0719721093700902 1,17104461033792 0,183336435170233 2,8960183150805 3,18702274343576 1,76122960791473 0,818977788671197 -4,77824712361125 0,802533609457496 3,83208332762307 3,16195820989569 2,22803609717376 0,626169419351353 0,746064323214709 1,08072547248724 0,0712463931895191 0,735038873026261 0,372374735465715 0,527666587688923 0,863868354942496 0,691544816722831 0,132811866334037 -0,412307180153398 0,778164272130493 0,889557223752816 -0,843015578465128 -0,726263075641358 -0,549885193509968 0,582938610066099 -0,45122844819583 0,60356691100035 -0,00822104311578289 -1,50396699664998 -0,941356723578597 1,45647955387906 1,52716863926917 -0,827102967056501 2,19107423196233 2,90720861863566 1,42485089744455 -0,00359028131441911 -0,156740324037612 0,774591829373041 -0,586671277707575 0,224283610392814 0,932816654004786 -0,474667310195395 -0,0375764057774478 -0,356522331608751 0,268175043793428 -0,52272625427825 0,33931004322097 0,509776912438529 -0,175556450661115 -0,171395862983308 0,803301955518869 0,213364364498231 0,24191329447166 0,583043640953577 -0,708291600415241 -0,411344120797876 -0,329913268516283 0,545057211699233 0,608425737879161 -0,117364888311672 -0,561234303300661 -0,559167881825715 -0,453376639201767 -0,317845623005678 0,822980656495445 -0,216852338025134 -0,302858465260074 0,539781535133417 -0,905369001081639 0,0395393140590727 0,132448404660607 0,793530059919423 -0,863583780724412 -0,438360766208948 
1,00732730149715 0,665482634588726 0,345144233427432 0,840468063942266 -0,666766930150334 0,817159916255123 -0,869885387703832 -0,431310849864758 0,243540385451773 0,208969287271951 0,119892089283864 -0,280023445905309 0,150987641556537 0,640861066888379 0,679783783769957 -0,115643186948208 -0,822901143543951 0,302256239319228 -0,816889967618102 0,991190154167338 -0,129831553896923 0,523612571724403 -0,964203168555361 -0,67717953470322 -0,185755320379509 -0,500925290099885 0,816326114329552 0,873530425138444 0,474540194317838 0,818735139426077 0,729986634977047 -0,956397201779586 0,110778643401591 -0,28590541199974 0,688249383973896 -0,261252443827452 0,344480186461583 -0,0917384032801433 0,0250996234616597 0,440503404363182 -0,568535462169906 0,87916011976239 0,295295108559094 0,426951605902636 0,666099926503086 0,255645654959852 0,7645019330393 0,166475805860596 0,932385075871272 0,297269146628066 -0,0250012043635806 0,942750505146454 0,722978366475899 -0,742215595953376 0,804029126626344 -0,482454367606294 0,663516705765055 0,0561546707516142 0,0600542869427312 0,867989262570513 -0,965335295453462 -0,709584910221347 0,127979858421096 0,458636148410849 0,512813549793587 0,110088828077342 0,6429780222091 -0,529317037719696 0,986407857885936 -0,026015393096238 0,56378289179352 0,242977463675799 -0,775937918988839 -0,278559129196188 0,534814139196638 -0,214279095889467 -1,01201946004514 -0,484196905117615 -0,309448913164143 0,592429906656481 -0,231596321377646 -0,316318789112642 0,974976251887503 -0,788898049689425 -0,122432752969057 0,821067033318259 -0,645544665634529 -0,113174858024071 -0,0561036360051799 0,204534654211258 0,109061756172592 -0,67792259363037 0,882018428299616 0,190783469223793 0,431756762798659 -0,836266135811162 -0,138971718569864 0,919992272438565 0,968992131451847 -0,455579148108692 0,448590627301405 0,0498943440237899 -0,290018192774436 -0,628986586457364 0,327320295210985 0,498670278794501 0,613275032164326 -0,0296507957041004 -0,301941207519141 -0,186979169512736 -0,710769830070903 0,0546756867302752 -0,600565513343923 0,501455283557635 0,133416486566503 0,384814406476283 -0,650730219088105 -0,0492915370440908 -0,633907572640833 0,378216643816761 -0,562409375791069 -0,604726839675234 0,126687629914506 -0,468716401009936 0,870077556968576 0,207799330005363 0,320709558578349 -0,198980043632066 -0,278328284940327 -0,267840780060749 -1,24455929499647 -0,891140729666182 0,120000312830296 -0,607361951013553 0,963094917768084 0,463045789274778 0,503646778900165 0,0174583372852534 -0,512459667106396 0,205236614377702 -0,810696139777512 0,407913337251951 -0,777402747252796 -0,83529356178273 -0,0508645994682638 -1,1605222360523 0,627695955472438 -0,467010656497749 0,0486224436989422 0,73919292019665 2,46758195806748 2,94635580845168 1,52239093610566 -0,806584606625104 0,677238928354157 -0,454125762693379 0,534465120828369 -0,840519789498395 -0,468997986544264 -0,964432116137436 -0,735746737138703 -0,178341199888325 0,723775069257607 0,243851666199974 -0,426775560263684 0,897592424618677 -0,640023073533082 -0,701305609920972 0,555473143093865 0,692621688281367 0,914996219323879 0,365641004956023 -0,561985643457236 0,302275584439289 0,65468101876197 2,80277761905367 2,08956508474346 2,48109237657531 3,33411730459748 3,29126127972993 2,7883819075969 1,75562649942122 -0,0349232843318282 0,0284743183073034 0,606877833338091 -1,19670712367237 -0,611667825253348 -0,876152696413512 -0,821457080904542 0,329035829774419 0,893997990255049 0,0588815535722403 0,925004961951419 1,01480908729663 -0,0466096424948966 0,677586561042069 0,798136955094543 -0,0229543225963267 0,625348419440494 0,0854960369375009 0,691123899800652 0,629426259760818 0,568615101108203 2,08932132586264 1,59292324490268 1,50830741143207 2,51841963816952 4,52497576682773 3,38435768645321 2,12040028006202 -0,154894660118965 -1,46331635986406 -1,16098986147653 -0,0399512456183687 0,0182996834336196 0,0883009850596538 0,247576932779794 -0,438733963819647 0,756344266424122 -0,857976789453061 -0,229523843732611 0,898312697375521 1,00096186389264 -0,534054422603363 1,01877731336145 -0,156694020093702 0,473755471193039 -0,483967688171498 -0,60744129095466 0,88610294870457 1,85478933428497 2,89788851413544 1,94367830121649 0,393255179479025 0,531566697266025 2,77536856852107 2,5909886845046 2,55357511320725 2,47038269681573 0,757241489655751 0,505989914012225 0,430652905583421 1,14210035089456 1,15997465612877 0,372680804617125 1,30189025005054 0,366794328038923 0,127881161976798 0,00783249196621911 0,810341706836196 -0,771002857454394 0,470330424536739 0,324559346144695 0,491508815503327 -0,642162348797432 0,909685714472805 0,602362417311899 -0,437545468060891 0,294965104959707 1,31798180335677 1,14927349134419 1,00751667146114 1,93735275604602 0,50571194913141 0,719455006438797 1,92486639805822 1,58972331753946 1,94394364195786 0,759647775843334 1,62324222336917 1,06007435730676 0,91411376818305 1,53424645200183 1,03108484663095 1,36626488662092 1,56308236064686 -0,528964648498487 -0,569507445320403 0,665315729174259 -0,284068873572345 -0,69686444641794 -0,137891448244798 0,676857358197975 -0,230799627025337 0,778931783977724 -0,139362943001061 0,187215603771835 0,287649120356014 1,08990609430762 0,811204996082359 2,42310309579947 1,4621399457347 -0,375684045510924 3,58050840713308 2,27875634758601 1,51737885058533 1,85047248750945 1,85676438653387 1,45728798555387 0,197587082365215 0,69490866058079 0,802943027161101 1,25862235221286 0,905177477638602 -0,329641129170227 0,439648510914799 -0,749377797524844 -0,22866047570528 -0,607936375525859 -0,0798306233965017 0,840591960338692 0,536489646602961 0,108635234037707 1,38599959597751 0,921303174446467 0,200221807793901 1,98975151934367 2,37340538509538 2,06759552232171 0,506046423388985 -0,291659053987917 1,55158690143328 3,45912187567606 2,76069114749467 1,59541361269986 2,31176255212822 1,15159752657789 1,0927693827139 0,183380902550606 0,694777896886335 1,03141025357545 0,0901968797153304 -0,00818715220853987 0,529190879986921 0,979645984372674 0,47944371105291 0,447598337004594 -0,689514001976492 -0,861737989018087 -0,804233540304455 1,53147720716027 1,29298479159343 1,80778436909892 1,35226790877964 0,996566163816323 1,53612600800735 1,17751241065937 -0,304062424883429 -0,473566506914889 2,22082773848892 1,96572039171363 2,47132348978865 2,22860323292068 1,45490181212366 2,00647775628687 -0,305860259962525 0,660141977067787 0,0910451730319475 0,994234611291433 0,395165552829408 -0,126439086563213 -0,225814739007638 -0,736515449326862 0,437346402361876 0,416773666422131 -0,234518313599113 -0,357969579137208 0,234527139753039 1,04552924917772 1,37654810379146 0,296986272041739 0,322745133770566 0,0728566212752572 1,07960652237989 0,62897980772162 0,445658057370364 -0,997477116592865 0,76540170690018 0,612191405972854 1,5291072490274 0,493331687896733 0,346321155822432 0,403434778832104 -0,304760374924895 -0,738412695393154 -0,452611532899144 0,150927810402803 -0,4870940348601 0,712976735260483 0,462273817112016 0,881064238837297 0,0214225198902112 -0,561171465282983 -0,262961988861657 0,448904011549133 0,108880494844367 0,197328976411916 -0,413328186901233 -0,744581947619723 0,697137268514744 0,84610867230488 0,945570617059252 0,28719578141897 0,745104171612086 -0,158325339414388 1,26483503130054 1,07285946779072 1,91850093390172 3,4476499828419 0,875981625064955 -0,588637932070609 0,872378698299858 1,49823814041914 -0,186781003897011 0,146662498443945 0,0302325128678583 0,913884992338547 0,574429110857305 0,380644150822627 0,273486733164287 0,587325600781055 -0,900900936573451 0,642518478575922 -0,762488004378644 0,592610727950541 0,628012309656878 -0,627365304023816 0,588035393435766 0,297439696985871 0,5417054612324 1,36415449710602 1,86637508444167 1,28932157780395 1,62676332908547 2,71420959844156 2,24301757212353 3,60488435997848 3,05492372905628 2,34615498488077 1,236883799189 2,18618699663652 0,696937758107128 1,61762609969587 0,493907058695458 0,128805805275342 0,902616306745725 0,181531156146798 0,69496325675175 0,653299005606708 -0,407738726244298 0,342134049857448 0,85863115994054 0,153918663417658 -0,221857664971647 -1,05629364043876 0,525848595527341 -0,276678314743673 1,6078712383352 2,82687951453661 2,68797864255589 2,20184680253962 1,88804401482386 2,77917152270505 2,20717765774983 3,93631305321275 1,58511294524915 1,60704204195021 2,47472158978054 2,38181118468742 0,754549786382544 0,680992936362753 -1,30342649648053 0,713826277888003 0,247152260938886 1,02063716798215 0,499265176075621 0,359249125002422 0,0207669125695377 0,246268270470278 1,06188570208665 -0,155061866404958 -0,152915717353772 -0,803569473245846 -0,324087965247827 -0,14414528656728 3,01504646222901 1,66699502920006 0,861561100865002 0,77053451950603 1,75652867978978 1,05718232811033 3,22110672972654 3,07595574721488 1,70909193615765 1,40444351535612 0,275902460726295 -0,49829413552665 -0,95800901097205 -0,46919047169411 -0,863564350519699 0,101248311793346 -0,814329530376238 -0,679839398827554 0,227911690742302 0,0202829452054779 0,254293082000711 0,997342388528024 -0,730517397170687 0,239056892083279 -0,25205394939565 -0,586843444946231 0,232282752412602 0,126277456582003 0,0533372791172513 -1,59357182599461 -0,985286856694493 -0,631054159697101 -0,49316585624551 0,842741349572755 3,30823997607638 2,88047238144808 0,397253952699436 -1,02946248944121 0,237249603307023 0,714686191889388 -0,430570972896346 0,303158630065675 0,293379588213935 -0,620104057289047 0,822943012563953 0,10953107700313 -0,0112308174927171 -0,900617122537853 -0,258881442769023 -0,323430157193625 -0,3125397416905 -0,173576594283475 0,02392088715716 0,705027472923683 -0,0422757105620335 0,608466011609447 -1,03736160370713 -1,31779827404095 -2,30272272712976 -0,617538705260544 0,0963062957200807 1,91517881971223 4,55474922381282 4,63423776210412 0,299905764132841 -0,574510963884596 -0,0312938750905838 -0,747338874732193 -0,0214593233919103 -0,54720286741387 0,217436620196165 -0,88715393271463 -0,379017516837114 0,410458998636387 -0,642926163525691 0,795477399573309 -0,367310848657738 0,601790586584764 0,364975738120116 0,779831427711914 0,504825483038802 -0,274650650169666 -0,832278640584138 -0,665943053625599 -1,68849507414494 -0,526706251042924 -2,10793689617352 -1,07097953438333 -0,232912676622609 0,669417336374703 5,08596308039355 2,7776091754951 1,5296815704676 -1,34988402783329 -1,09281149583751 0,113607693420746 -0,620756623635265 0,568316720254803 -0,800648212539075 -0,26006780280011 0,584790543627684 -0,137707009502247 0,334226444132314 -0,533129138588609 0,549555973006145 -0,611969891486481 -0,897943992267243 0,765543531681155 0,727295402183767 0,474668958619406 0,167248404774889 -0,470471002141542 -1,52809152863717 -1,57304870340649 -0,26555063430323 -1,56462625059134 -0,255171498699153 1,31473800428243 5,03085714008482 2,08545206857412 0,728708190136986 -0,902479961970726 -0,122812773672149 -0,515409352504219 -0,286646199304761 -0,473923024012912 -0,835862694499495 -0,770600803264193 0,137459407135937 0,439183032693839 0,700695134625985 0,257632969598934 0,456545718758509 -0,534751638373783 -0,941361064973742 -0,349531108852641 0,83421218861661 -0,515196255268925 0,476460490593232 0,496465882684995 0,00875963992718869 -1,33629412236378 -0,199785900258013 -0,909219051460924 1,163153559323 2,78110744332509 3,64569881869061 3,48618162675738 0,404058928204701 0,614261834843123 0,757972081377072 0,638265243592615 0,599931815288605 0,725446166797523 0,612295867153958 0,0781560270688682 -0,925090913775401 0,144668889831011 -0,964391404680262 0,164621696484453 -0,73313608839706 0,868712688802268 -0,493515423628187 -0,86276922791273 0,479345513105759 0,963062347427067 0,647719702483934 0,736781183686804 -1,25303289079167 -0,709756469207505 -0,424129381670845 0,619279300810007 2,31767840495018 2,39959264384843 3,70890212338269 2,64872410179335 0,434247247761772 -0,592996301711246 -0,35361090439861 0,574209496522857 1,00343126245679 -0,250501612502849 0,732563924868453 0,410983681472488 0,81044154717424 -0,652307161833411 0,818007111530646 0,776900994553541 -0,113050388624561 0,0143137663398285 -0,422619993446829 -0,416362781417332 -1,01344245773839 0,964515600252184 0,601598773473864 1,07821760239162 0,64854595147164 0,23526727773501 0,0261593122604499 1,66182756029927 2,13315696023367 1,43465102648339 2,43778903634745 2,77148664862054 0,268438286192561 -0,783380083225579 0,705746159322638 0,309692978223171 0,101037843695926 -0,0678275071690507 -0,934012210840495 0,483357462561088 -0,451060259989547 -0,372625213689574 0,238349878871864 0,551458624980051 -0,829767412360758 0,129326589997433 -0,624491492495197 0,196366004893358 1,0076231195807 0,688016024147432 0,0294533050057341 0,590023525861963 -0,0273987933220877 -0,0150277870311727 1,00099611874278 1,77081007613254 0,847538773300424 0,512165806765736 0,276142153525938 0,971535922978959 0,917880595381983 -0,202367201613624 0,859480305346381 0,416062514340342 0,904547286654563 -0,454900580817667 -0,466501850117787 0,447724171722993 -0,370057868411903 -0,386155671088209 -0,248031669811471 0,988610059083615 -0,0178431425597903 0,127853442574672 -0,894582151322739 0,461635490682602 -0,194950480550913 0,983137551303543 0,873435664777815 -0,0864968813618686 0,103229225629731 0,687893953019386 1,01480815144343 1,19074475697089 1,04061362192184 1,00043449140608 -0,0594633045422103 -0,233207921649278 0,148630399734373 -0,907875522000994 -0,53041209711827 -0,61975607521504 -0,77247595830589 -0,569970210830065 0,611241224287781 0,789070589435676 -0,155072722124547 0,918741419008238 0,694875557830856 0,658965172153307 -0,37034058255543 -0,0383847630101363 -0,39974523114878 0,427609674432022 -0,0301344574527772 0,0779321446183928 -0,348039214678355 0,706133339330327 -0,775457634829952 0,850762052727659 -0,0774164873317831 -0,12701013568046 -0,116299804674573 0,860123100813068 -0,36401635723189 -0,650248512048275 -0,0683366844376316 0,84466612597379 0,745710666795253 -0,401776902016126 -0,87567070120986 0,918354763907789 -0,670317567665387 -0,428294569853011 -0,82178961750121 -0,594258502802109 0,79506246835777 
-0,4621378405926 0,502315697804938 -0,697949413224334 -0,397588459649165 -0,127988580363095 -0,726034810793836 -0,79982639855348 -0,730453638389221 -0,907580277994314 -0,0238203990069752 -0,546007644328527 0,0212829265225625 -0,450614942903441 -0,340060145647712 -0,265711371914988 -0,589812734956163 0,286874018122615 0,155644632327907 0,602114954623213 0,492828872595135 -0,645869494405748 0,78038139336178 0,247897242622173 -0,156858336873981 -0,0140335696500392 -0,841211650601455 0,0825313100358637 0,520457903476411 -0,302944024855013 -0,382363867813193 -0,985747333764215 0,235102619464793 -0,450172630037495 0,268572997737709 -0,948325634132062 -0,858606618908675 0,86006343629583 0,185866163526175 -1,01230936796266 -0,483336215231358 -0,389665658930352 0,526980704511869 -0,519524021671995 0,310443312970731 -0,584784286186357 -0,239042967237789 0,133847092681206 0,875683475977933 0,327497723041589 0,445695257332873 -0,0196158333456991 0,353636550261303 -0,486328819682277 -0,149511622955093 0,378507715205665 -0,256815906422826 -0,759878217285677 0,444612251181207 0,602148437532431 -0,301073602234363 0,177137206704959 -0,334580975444854 0,558198118569637 0,46048906478488 -0,0523682596267394 0,204589256832006 -0,542865242305331 0,266502360335632 -0,406031553353927 -0,421401269764351 -0,46417232937266 -0,913288036720173 0,153672681049344 0,0711794613185818 -0,131792239303356 -0,187146743667557 0,285608725044141 0,923157262667093 -0,586370661001012 -0,789287243235272 0,0106445842784908 0,19255116156303 -0,821336492036394 0,237064045343815 0,622955293064216 -0,353680556493896 -0,292865233321379 0,685042320415956 0,875768581283183 0,294193567274684 0,886975031033552 -0,598747660286816 0,56942568672398 0,274428004861292 0,325129819475762 0,930500265104434 0,954435532159619 0,00569921039051371 -0,651470615062876 0,196346785413525 -0,710480239062146 0,853053178905258 0,267441973154715 -0,265394496141403 -0,104428934368832 -0,120625550129624 -0,814318276546598 0,428220009635882 0,967993846090988 -0,448642084244594 0,443278690385994 -0,697332151248043 0,0166862386670857 0,377139008159115 0,673985141022821 0,970289372666234 -0,527541186906575 -0,693194607073539 0,82334641143714 -0,712645687203084 -0,516885913236757 -0,242582534406279 0,375953964095702 0,285149095467413 -1,0678468878374 -2,19003552954517 -1,58128251997225 0,706456384570427 0,734449844521526 -0,0722901077066782 -0,1531514462635 -0,733497619695489 0,560341004123346 0,202991419318865 0,906857759835666 0,143260741720418 0,910819582864575 0,42976013855588 -0,672804075510632 -0,270717710594987 -0,553659778966644 0,264618083337376 0,702751801987089 0,310114021212123 0,836618296365463 0,56999177717949 0,370574105508047 -0,821802855516931 0,585980419030468 0,340199134456617 0,443440454564714 0,468768603455647 -1,04956080677186 -2,25284074376301 -1,5951888322557 0,157287294834535 -0,532942763419438 0,975464078090712 -0,951570900080088 -0,240748332269439 -0,667234736452724 -0,773746342326707 0,667475068592136 0,0217124823052595 0,685620209831197 0,163354980949663 -0,271973832519934 0,799382769537979 0,455927695670829 -0,483624409798592 -0,954843804824519 0,0283977950756031 0,944739585967601 0,0526818868529676 0,826874515620617 0,204334243582747 0,0403013772782565 -0,948544740274892 0,433772582737549 0,0355691111793571 -1,16443820481936 -1,98875727089251 -2,02210319921192 -0,976907643301394 0,477916307379671 0,207144462065532 0,0905141331351247 0,50227057745387 -0,556618651135007 -0,687716504439503 -0,355763492336236 0,917150292727551 0,367041107113235 0,551966132431312 -0,647117594652678 -0,874459676667087 0,568025990964623 -0,341959503184205 0,602822244802583 -0,341040760045427 -0,214171176754465 0,502424996038757 -0,291808939664739 0,0550424344017387 0,279262374674969 -0,600580320683581 0,652157145766912 -0,92552153893456 -1,52641735300546 -0,803756269230423 -1,8141390292574 -0,949423307874944 -0,463893020800772 -0,0538482036310505 -0,981652895121105 -0,952225265598484 -1,02208379937216 0,214728035507972 0,525871017465905 -0,524341324091834 -0,934512202055837 0,214280851738175 0,295230953614732 0,0663950189493736 0,835350968646829 -0,898037526782483 0,641702588018944 -0,60089321882776 -0,36059493705735 0,632590711684851 0,621975623351523 -0,632060152598674 -0,566847601339059 -0,239775707150583 -0,744400620793329 0,0961668096032429 -0,373733612260319 -1,08585989723738 -1,19391437668644 -0,29894375212061 0,534768140124891 -0,00103184560822671 0,290502299901714 0,000264392668741486 0,815826504426297 -0,805438230747193 0,387467354398484 -0,580500720723469 0,52343439774408 -0,702056410679772 -0,91665164217603 -0,737582911667894 0,0927486006388651 0,106236469450431 -0,42115614925935 0,598594538865742 -0,826694184575495 0,573062895746131 0,2057774224463 0,164741116879388 -0,255402413899067 0,243395149508374 0,359373981320295 -0,609208688384258 -0,273651578959931 -2,20426449268377 -0,336841657076842 0,105856233161418 -0,492754430834959 -0,16873697193067 -0,557945953002798 -0,235926808879988 -0,892562805836895 -0,561075028095842 -0,064938872591545 0,0538562301515265 0,919811588651859 -0,71618554624046 0,15263219000538 0,564576712800317 -0,308152125247533 0,204787355984085 -0,142243018496762 -0,618562525647323 0,507416394289769 0,291021053565626 0,261072325352053 0,314171956115329 -0,832090663268526 -0,35206702847524 -0,0765644702009914 0,962918208399177 0,339517155469519 -0,39774674574006 -2,01063683199405 -2,03060135523497 0,066907088840595 -0,249646994973958 0,129463851092386 0,730952013319173 -0,799180595128136 0,612747485653286 0,731532485770975 -0,324512250189181 0,84829976842417 0,246289684971202 -0,950308964986046 -0,408589169256653 -0,847665140202288 0,507517047385793 0,661631729354863 0,907079376904559 -0,625364059791357 0,572476960448593 -0,542076599433989 0,525165220310074 -0,630100904233712 -0,0555416163048755 -0,085424385296246 -0,517719666542156 -0,210546726447741 -1,69998625551511 -0,748203250475175 -2,29694392329988 0,337796476003721 -0,551162907225337 -0,189295320480314 -0,805484199422183 -0,912072676271049 -0,3699385158972 0,397837999497407 0,138465129469356 0,125712062967036 0,326415944977447 0,246655769318837 0,0391923789793417 0,452584923766593 -0,837990359023059 -0,470754694143866 -0,728644090022637 0,193496527558014 -0,384862221522033 0,146468513229383 -0,352610539086323 -0,029600962155241 -0,0515099914393281 0,464998633154233 -0,684451627615654 0,412812709213546 -1,57010032399751 -0,419549932650892 -1,63250159283444 0,276607447998945 -0,359550022402713 -0,051606706199357 0,590889785088965 -1,00117326364298 0,703269877498026 -0,246276824143341 0,361684114871397 -0,597487456280724 0,755719081157364 -0,606003971480894 0,486420453774295 -0,916527304914328 -0,502938469295119 -0,201972855803579 0,0577266119575017 -0,727217922618801 0,381737549984687 -0,941085701717512 -0,803285826142043 -0,597739872312231 -0,429799353604571 0,181080154905767 -0,879399203645241 0,451696601162986 -1,39995625871403 -1,25172977001863 -1,34358487994483 -0,59721076150888 -0,564016930007462 -0,235504346384638 0,342364663420788 -0,279309281151453 -0,28247668808066 0,297556449160452 -0,518426434784979 -0,668176966233149 0,577177009725941 -0,0387532193960556 0,732470464398308 0,393684381181923 0,148681549690402 0,904053942367224 0,453034680436577 -0,83793473537276 0,617853013754391 -0,451919571565065 -0,540203718408724 -0,863867501035432 -0,678117785078748 0,928318528987527 -1,03297848256782 -0,364815107093796 -0,655179097906244 -2,09772457051358 -1,1024791516024 -0,185892468049435 -0,209369770827813 -0,878180326741223 0,0671248932369444 -0,358456334954088 0,78768595792437 -0,629786955396348 0,907949605220759 -0,0930703809222319 -0,0385817130747996 -0,274103906568951 0,355825085605043 0,187862929355059 -0,698652192964774 -0,237364209158507 -0,283687886579431 -0,654775880481611 -0,766600023330798 -0,284789167412793 0,170228035024194 -0,424408110704323 0,584200236127202 0,797451140904676 0,721628407990623 -0,736140357267134 -1,78948655665619 -1,5293861661889 -1,69248993995851 -1,04188871002416 -0,180244811125913 -0,340631554012775 -0,0310608557519033 -0,571064045995993 -0,977889994879655 0,037435463446942 0,479980121482038 0,370281098183775 0,797964520386027 0,0678472817494132 0,595829876958959 -0,23304396195595 0,980930030182203 -0,416252111957964 0,271162695932894 -0,132714509141402 0,119592838815835 0,190795441212792 0,759526570674212 0,514950329008482 0,130213112135152 0,537133534778533 -0,681278568363552 -0,130078535909517 -1,29544878934422 -1,69891524389798 -0,539989147976633 -0,908422338820176 -0,641413340107134 -0,277593833955287 -1,00154773854492 -0,0344200128689255 0,734429869948664 0,385737491686699 -0,919484382734462 -0,781227890704777 0,664386472512532 -0,0826984792689937 0,155572750632504 0,250903786587716 0,26734612087479 0,381507474491065 -0,382772288567741 0,230374503800581 0,173800365447736 -0,549655502744468 -0,340106213344103 0,0835861411104776 -0,414339875218788 -0,137723338033615 0,125770712845567 0,298304395171941 -1,32380618143531 -1,24918018503426 -0,965770096724585 -1,04907750288355 -0,903733742371894 -0,930462188637707 0,346801665249064 0,413929932338417 0,282773184412837 -0,482435050086027 -0,0257894789846656 -0,0123482126664636 -0,0065549003781135 -0,376174373909565 0,0209025795644869 -0,420468785671506 -0,511296504104468 0,0380963071793722 0,228149488509632 -0,75304061768038 -0,920984074922126 -0,443668369508366 -0,698595522956604 0,795387206728665 -0,0775402976710411 0,0671104459423096 0,672249330544872 -0,438201341570472 0,176868533749128 -1,62073300918654 -1,93092309524773 -0,79597716875321 -0,155047525641503 -0,347682326382185 0,945829220998537 -0,312673496163589 -0,930762690836785 -0,156227389740944 0,849838483232442 0,512566717092856 0,523591972520758 0,74008130332808 0,960847945912856 -0,262333623876318 -0,604993960790428 0,617273279138323 -0,777359711943702 -0,464182585948525 0,417785043775552 -0,931649087454087 -0,424734995970551 0,52406512406935 0,614923311544563 -0,131667788100799 0,208101762950438 -0,590703215444793 -0,8250034715084 -0,770724459935081 -2,00167642042817 -1,04547698657933 -1,35906429016533 -0,286337203413845 0,427934932059257 -0,397641201713672 -0,845416819261108 0,469239608483678 0,339028214733034 -0,752319492875129 -0,35130026939138 -0,675708756492889 -0,494991563181649 0,640897782197406 0,184203700561443 0,710345437464908 -0,290923571095366 -0,67545013427873 -0,416659064644496 0,546612805649067 0,382921146164589 0,29839823687292 -0,149185879072841 0,133090080780956 0,125793818807177 0,854282202618141 -0,927222378491279 -1,31091234670556 -0,440073400260939 -1,55479034540785 -0,866765879023097 0,262734173237869 0,905738069511198 -0,468166640635478 -0,465662377719061 -0,420770043293779 0,0550515585847414 -0,288345886673289 -0,723494226145373 0,343378490369071 -0,427952172128658 -0,0812248286855037 -0,7287408942642 0,962167520443413 0,872822353481301 0,0749581878272554 0,536541266274462 -0,0867456966695373 -0,667613421283293 0,904751137709054 -0,8433502871293 -0,12211561413006 0,825032116873285 0,175080001529201 -0,872224444367311 -0,922395713904316 -1,92203778498993 -1,02142294132329 -0,713265758976789 0,303905306697418 -0,516833943671137 0,335978424181931 0,596847778516737 -0,425145120321259 -0,267192769544497 0,106672681218732 -0,627465113746413 0,958316786973217 0,092038723062511 -0,409348395532859 -0,359005329986807 0,983125336874456 -0,966253330482882 0,216654188949426 -0,0548566019037981 -0,563027711392456 0,0154476619786972 -0,109257042946987 0,255247044366979 -0,953227856234581 -0,68894883465748 0,145147714538403 -0,547289085853344 0,563215212400604 -1,71961182115812 -1,69052907747058 -0,673267734923803 -0,519141038911551 -0,656662644426593 0,552057576622183 -0,79940529901571 0,768870365689493 0,0536182086075557 -0,306214165694478 -0,186306199905277 0,221334726963585 0,307405071787025 0,682071879203231 0,215052881689072 -0,248148886292353 -0,311871397141231 0,564485544888854 0,80787105376772 0,725282251253219 0,247200506065386 -0,839513407570273 -0,170540723713371 -0,403915818336548 -0,79057658757184 0,668437319945575 0,937412357547554 0,305289453524029 -2,0809854069901 -0,714624403535994 -1,11713136958512 0,0927223081015724 -0,178552614742568 0,652656332958549 -1,00824712516702 -0,885484423097021 0,409106856638784 0,613008361750536 0,549714086603993 0,525404246148142 -0,624456349740252 -0,142206272797053 -0,0848260956897036 0,325657817998973 -0,611334227902042 0,715485025271163 0,119062757236742 0,318881466857163 0,660162498240223 -0,507193017661224 0,342535209063633 -0,271164463922097 0,315252703492177 -0,295843788609764 -0,335573262998094 -0,604883678006587 0,763724540197923 0,0747557888977632 -0,511466297772903 -0,371328631056222 0,550585955146138 -0,272165226529276 0,757994498453255 0,460327019062655 0,440190185912744 0,442186684358412 -0,665128291304687 0,640128051539711 0,675971410862854 0,0862324399658185 0,328427076803486 0,0608224853539497 -0,999171221668695 -0,730718700427678 0,341575024187972 -0,620920574332929 0,232538952659184 0,492744595635893 -0,803757522858586 -0,519008212278708 -0,46798944185814 -0,398203441332647 0,782618444954634 0,488002688495355 -0,778396722290394 -0,504055743184259 -0,973217565371975 -0,84602915887626 -0,0255480566004007 0,585072479781314 -0,656730281733757 -0,674893472785145 0,0794353257461871 -0,177470113030694 0,90982805731582 0,633447664464335 0,0855582033996762 0,440546723598635 0,871170902409902 -0,0678176066839663 0,367183145617459 0,466247215899231 0,630225268111203 -0,438755017215025 0,152006675908947 -0,727171361425303 -0,2794532313397 0,0370279224926768 0,34832619558723 -0,72909052795766 0,145626019619776 -0,750086814208291 -0,140470563731068 -0,972152362822382 -0,826920736998549 -0,0138297515817436 -0,0690439785213283 -0,743942930702744 0,229303032066375 -0,0634322637139351 0,40558564442668 -0,833048360499371 -0,348532236032668 -0,923360476389464 -0,271314362810839 -0,0109729689282681 0,967090505005134 0,164002116225432 -0,654850548127365 0,693825767079133 0,279234398620201 0,777707532060611 0,607301823617548 0,249785028853475 0,0995266363051365 0,051609412798336 -0,0425657745398952 0,207079213501376 -0,678680120349965 0,929646949617458 0,754479314137418 -0,0290303470122064 -0,209051202351013 -0,310863087635747 -0,574860414035257 -0,920943877318168 0,451642167769713 0,0411682960176443 -0,358203318105192 -0,089487585901275 -0,311718972234158 -0,18474852084985 -0,803006324048857 
0,43633321411215 1,02832335186057 0,701957900380133 0,316505844828346 1,05531985731987 1,33429759148652 -0,335284439095526 -0,192529820019257 1,05827800138251 0,193615239179883 1,1562801502203 0,493426108938744 0,869643170767666 0,144335468343054 1,1111079189274 0,426174100663032 0,616554504523681 -0,470688848999281 1,22551718874569 1,43641718914044 0,801336272037647 0,683811384547783 -0,0636577988578301 0,877730843995941 1,46406132886785 1,15325168385266 0,151369470218272 1,03911327709812 0,427652604121922 0,0239327782638021 0,93636343203725 0,507271133575618 -0,0342906862895462 1,08244025010207 0,188718069408793 1,23921113702841 1,41531819448067 -0,247147077302847 0,905393696946249 0,80081716812609 -0,336699514725977 1,08846244597516 -0,309554415107711 -0,496453869598527 -2,28829515994981 0,924015051820491 0,572868450372357 0,952455543392776 1,35828169030467 -0,36726034452136 1,0429906886964 0,398950724093124 0,480513300015268 0,39658375100483 0,413406864908616 1,2542482238277 0,593707544981734 1,32595345064753 0,354170910223835 1,40379456773055 0,684653805320371 0,127327992348519 0,838354505112309 0,483509014069136 0,718488122187388 -10,6912652987541 -18,0542196036002 -4,24718508656259 -9,52288922969763 -12,4363006589991 -2,07880213946511 -2,97849890866754 -9,37057210611712 -19,1293283847499 -17,5684861455906 -0,591551212903352 0,234899284035616 -0,574692688466553 -0,289414427694896 -0,247668458340666 0,0817575538673214 0,700639310595314 1,18255798105679 0,296639342906621 0,482668483830737 0,0391391022074648 -0,471515772176312 1,07085195696896 0,170759093735621 0,43619555404803 -0,647696933203452 -2,99892224797817 -2,67077499423519 -17,8277191953887 -26,7123779824329 -40,5955009194201 -54,5476620743823 -52,6852897583318 -27,5030270744073 -32,394850612087 -24,3200642882925 -5,78030956155901 -5,04031322471099 2,48822880923793 3,77834033813983 5,68045981891356 5,05173994005121 0,131130003162591 0,644837053953448 0,760003855243964 0,284387391169175 0,452469194494776 1,10063910719447 0,103565762775187 0,823763408126568 1,48574159919961 0,446495298102398 -2,88874195409122 -6,56730937201377 -7,11132334943272 -14,1889745996816 -36,652040805072 -107,31232283883 -151,36204170658 -120,954218958865 -130,130346935418 -98,0821162399665 -79,7058387979675 -28,7882176926057 -3,62960493528487 4,28073092772311 13,1643410759066 23,0992677281941 23,4262806385196 44,8639228119744 39,1595937033716 6,30655967176611 2,5606473016943 1,17648198787369 -0,194894325102727 -0,248637894308123 0,884683471561165 -0,0619413676267305 0,940996738222999 -0,710816170520271 -8,91987852023549 -6,47512778664125 -10,4902410578241 -21,5909793932707 -105,138290979176 -138,803341883312 -158,722200428291 -130,109300531577 -106,112742482631 -102,93955380051 -117,523967741178 -121,846530020295 -7,59153820858424 53,9767430488165 28,3335400989929 51,3636452505069 48,2886482610001 40,2702861907923 33,7589141738262 34,3561337427299 30,6314182657711 1,34735591379248 1,37700585337647 1,03697360725411 -0,471975260848349 -0,21805663447677 0,837336318723695 -0,137024972245953 -6,20406921525994 -8,52403520491278 1,95377050581043 -65,2501006704445 -94,4165037936784 -136,72468891614 -144,93367725348 -110,908864542362 -38,6610920292101 -70,2929568129834 -96,8091719850188 -82,704225419207 -50,1648646411939 31,5359515561954 68,5213386293671 90,5632948572134 118,699037149426 98,8117651953128 69,6056038364623 62,40446397401 67,718045678193 2,05182788947822 0,556955660068557 0,36999234106335 1,02031511147305 1,24182595169208 2,24133911422591 2,34827146879986 0,406324492988546 3,54320096295003 11,0189381881593 -45,1205771755713 -53,9624766301518 -88,2141612248741 -90,6710923391384 7,12171592174132 78,1851403017304 70,4451995585017 49,1105316994955 28,762631641754 55,2917887555699 90,2247315397259 91,9291061191152 177,4224706462 198,153278833602 103,36902927934 68,8753651060647 52,6059140214675 37,6608960532259 0,224944358512257 0,116581819110912 0,398405181405692 0,552106495248571 1,7714746501978 3,41419898497027 1,03035847353959 0,737619863408741 18,0476459362926 10,7865656537686 -0,658587086884235 -11,6246718170243 -71,2812063334344 -31,7188524560487 56,8781010129112 75,3010626110661 61,2043445846416 74,303539788328 66,8722231886889 105,123559744809 74,2401058085994 69,2224794715422 86,57151395063 140,189026717918 32,3685816110945 5,04139115846767 5,46291859404102 1,87989031862865 -0,0258987148261523 -0,353511884499428 -0,28466313906753 0,955582255632722 1,54869983126439 1,67652357635629 1,76293623086572 12,0295793183296 40,4110331903869 13,3362602356476 -9,08226235394773 -15,0187324082008 -7,24797636277723 46,2843017121891 94,8618833628859 77,2177916369851 51,7919746037023 33,3389273176399 47,1387958557075 61,0899126014669 65,3237846311103 31,3053262624543 10,5470174618303 18,163784689468 12,6332317052811 1,14854201696609 1,96938452236832 0,796201907765206 1,03589629955114 -0,264497548488758 0,926898049598415 0,270183396944965 2,84304487340752 0,0496019285671793 19,3003237706459 23,3764379396748 44,9978934309165 9,53129355984838 29,2139109590593 26,4421730058192 59,5538250612698 76,783810746686 104,233602822035 64,6635262935394 27,9314586234282 -16,4396417858511 -32,9934375641832 0,253405964857679 55,4080276356512 30,8398421762568 -14,7516348764263 -3,17630185467738 4,89233064239514 4,08575230018395 5,61420476429091 0,713176771300712 1,12070873150061 0,669498474625074 -0,195907707441186 2,75653980503851 2,30934606554167 3,19982979647355 27,2791382753616 31,9702117144793 30,3918947293865 27,2995491783977 55,3744205215894 30,1017176442118 68,3517129449658 127,545483006836 135,435442815027 101,256347650865 29,9488759181235 -27,2800150314855 -36,9864861067709 33,2411593210131 56,1168359246286 -26,665364074722 -58,8554025290696 -27,0836072381634 -7,03192443358332 -12,0418554285313 -1,91473008042635 0,599699409329561 1,40368381430063 1,19810715184868 -0,0660021529147435 2,99197461004417 1,91643864037639 3,14060654417912 16,0884012513042 26,0029568790755 39,7250305399814 60,7605274799633 85,0383509890351 74,7573200731338 126,704024571057 166,818538881672 146,313288694396 80,3899441627468 50,9793547652908 -32,6832089405392 -48,0276499600941 15,4446186588275 30,7908761781306 -61,9192839945233 -100,426328263524 -12,1950349454724 -19,9494167223767 -23,8711434899005 -4,3229968308976 -0,39930614925628 0,833646854066315 0,289580703824002 0,857235643456703 0,793927808041042 1,77245969782164 2,01179618607129 2,63895768819865 -1,26114093633782 18,8725370598084 63,4138838895213 121,775462133661 137,02081192551 149,109837694085 157,203586297215 104,363922654752 48,4742031892317 -7,63941479709526 -59,2741828286214 -25,2122538392288 26,0145407209689 -1,80484491426046 -67,7094795658148 -40,3896646080901 -30,2775840751392 -57,0034879456812 -22,953167179345 -6,52254199692327 0,64140808068748 0,494678510374523 0,42016097647244 0,433910412892095 1,09580190249001 -0,13408532937686 0,119365796723717 0,0301116503328707 -5,26814877343434 -2,21259740769056 48,0896145006076 117,40215644758 103,654194841633 112,931744979557 141,294064293027 117,818947116503 19,5058547643761 20,6629026839268 -17,5427721826106 31,8750376303137 43,1965712906024 22,2281882526138 -22,745542927766 -10,1759719271977 -35,6023773059811 -58,4367854855355 -27,5587220147651 -7,90591504850159 -2,00621688623091 0,806566702705776 0,379669702465015 -0,289584204713252 0,250774266291208 0,807201552632105 1,58571371181755 0,16844620505816 -0,0819572335665954 37,3116419202006 86,0736342746269 99,7752498232602 82,2733758445098 62,4297523568937 109,260626005093 135,007218227024 111,271522970649 81,325830271668 66,3815104333478 60,17479286023 33,6601526985238 33,1004113684762 61,0709551080497 4,85325451151216 -47,9365162183644 -59,0105189392724 -31,8720451401429 -7,50839020663176 -4,63936105953073 1,34851456288035 0,64250717339632 0,456952238644355 0,451675571687738 -0,150749105305466 -0,66335048872459 -0,929668311797336 -6,90085860123736 66,3604907606285 86,9614919016475 101,851928158055 6,90549737128092 -31,3995475863345 -18,556378615341 4,57467800099909 -24,3761767025915 -52,6840924100158 -6,16880939070786 73,9554362298905 56,7253021905939 76,6492605297343 66,6011451580797 25,4935528201168 -37,0775147713505 -68,6680424693 -22,9539404649975 -6,12669297227422 -4,07482837796571 -0,0202212909867222 1,26027445365166 0,243160295389571 0,460769999963028 1,49130011763302 -0,312674947611216 -1,60564426458109 -12,0912008773535 25,5183766414677 19,2032479320618 -39,8064352217593 -63,1495353417301 -71,8436919567175 -98,0256952872225 -116,591570751528 -129,582987162797 -117,984002530428 -14,3678929298794 19,2215952784834 1,03322111589455 46,8574147011435 61,0578371297782 8,24572407177978 -42,4850708035028 -66,8277803560697 -15,762144546135 -11,5150976442809 -1,78388359308413 -0,431427613307339 0,0112750569267374 1,42135211702909 -0,122220084151918 -0,497123618405567 -0,615753753137371 -5,284348951756 -4,6309120700901 -19,4454179524771 -61,5747210278102 -67,9774690870917 -83,4366850731255 -114,582021071695 -169,914808012373 -190,001435068152 -137,783321633814 -112,956574768528 -73,2230743203709 -57,7148844774364 -28,4294800692825 15,1663195060407 -1,03684417375857 -23,3848172287601 -36,16664743705 -42,5710010190749 -38,365735733705 -17,2239041656875 -0,868937683321334 0,578785657923451 -0,0290971091250731 0,353424227937225 1,26739050504574 0,241207549707826 0,95428997964347 -4,02994003486639 -53,1741184815877 -75,6739478371498 -86,0400547986111 -126,523321682349 -153,928598748242 -185,03341757169 -200,76455572213 -196,26762547561 -153,212981990914 -130,468999324791 -110,572053881052 -82,3257511053027 -61,8726939398922 -108,771573544296 -106,111836428913 -94,4449275616614 -58,3682993270546 -30,9006530357076 -38,7063499218221 -25,3710264139804 -13,9614851418691 -12,5259887904944 1,35290183069196 0,964468933135859 0,160880310511996 0,717188198176669 0,512043220784239 -13,5367766868657 -78,4584226065161 -16,8612402953198 -50,7562628990001 -67,0181336975797 -94,9122562623714 -109,775538941691 -105,542629596535 -68,7565540202739 -31,5253396443059 0,022873882405999 -17,414146150583 -8,87902086903869 -47,3758557418627 -97,6510323668466 -119,79101752313 -109,700313111261 -116,782857810794 -100,506088581505 -56,2043263759405 -37,6770493171956 -11,4397733477267 -1,82825914412273 0,485416772339788 1,26498613656209 -0,469238138999998 -0,0330977140315012 0,886634730984871 -22,4341782227948 -83,7630261881448 -42,6584171063848 4,68275973179931 38,5855806399633 4,96586727035699 33,8512083680222 88,7128009407667 76,9931201607793 56,9927913954731 17,3128645472117 17,9289891073456 26,7656853052892 2,81973565795127 -24,7528346801775 -24,9608785524269 -10,6964043951418 -37,0665095091281 -66,2290933488116 -70,8030458271379 -64,2748810008653 -4,15506849699948 0,819000611257617 0,56783369766391 1,00387989401476 1,13351974593583 0,356986645413505 -0,522551678920944 -17,8540911792591 -17,0699350452405 -48,3192199996161 14,2634014543291 67,7752897189188 122,889337343012 136,626717246787 126,754382383358 88,2197537227028 89,5260711543759 100,278424936409 102,801592253937 73,5270666111862 55,6871333509217 44,1720711805828 49,4225572830377 33,3256657454563 14,6902354191867 11,1322121756855 -2,44215037476354 -7,33152652478718 -0,332118481616487 0,869798236591205 0,108700422596883 0,787267728120116 1,4476911702177 -0,405496198896647 0,626001985771988 1,40925395618146 -1,10199475672298 -2,57720579773617 10,2418503768292 46,0320651864034 59,0598226809967 82,9110643878659 64,4804677519796 49,7816959420152 37,3401542483551 49,0155987798664 73,527478485986 70,9361837331228 83,3547907430223 65,9950952491743 32,5111812175017 17,2710533139027 5,27977311650321 -0,0820160372474825 0,334494474115488 -0,578988627708163 -0,0666269617487173 0,894608798829559 0,785182742743741 1,24447834826692 0,989220313233329 0,567952970283452 0,663363414698319 0,0962075964364506 3,27104875492061 10,8988170007681 11,8480797920233 30,1954313371204 32,0359295248965 14,9602542698634 12,810821937457 10,2427882380396 -6,76853739856344 0,931898894005825 29,6932831921653 28,939590347721 31,620721706802 26,0694105883796 17,588514300533 4,83314083402896 3,66119656492379 1,27703457951563 -0,499351804367789 1,05684467453357 0,140520017961021 -0,364028500586393 1,44187265326766 1,2930065296785 0,288636418170031 0,447026136515578 0,717818281923705 0,157546089114938 4,15235299286585 9,28111163707444 6,58974851373375 15,999718333166 17,0527739372596 10,486937210611 9,70749031066968 16,3561198830808 16,2308746319017 20,3959099185068 21,575644930941 11,2804835309466 6,07044230957847 5,23028091263944 3,42949028153952 3,26889626415745 4,17149918088268 0,575847589675291 0,751468733802663 -0,47614324253223 0,180564292766786 0,706679784998051 0,465855287581053 -0,195028131011052 0,489367714355774 0,985474463055966 1,26506469734658 0,657174306585862 0,0526803491161812 1,28780235542081 2,78021040479016 0,396013315050805 -0,442612838361903 0,449514295349456 1,84346698782094 18,6286129548102 15,6652031068453 8,96697938479528 5,799402036984 5,38483567345991 2,94634055685784 3,0623806416726 2,65191332066288 -0,0589141813146595 1,47836665512842 -0,183377508638849 1,481280344273 0,637375045840706 1,31603085494825 -0,227732515092446 -0,154496943673912 1,42327462014373 1,20872031019885 0,69568792853713 1,40550593722346 0,833892181880159 1,32561405900605 1,43329615211299 1,10532466561337 -0,0108569534731975 0,828403439520377 0,210933355898258 0,983952293112113 -0,270525770063895 0,414669305751484 0,691812832429956 1,23964519513444 0,304537181449047 0,791322294895798 0,657171312968424 -0,257463293145463 0,833612293744494 -0,0969917667924427 0,930309259657 -0,444741975747026 -0,0529884305336486 -0,0837732749688336 0,305484364858958 -0,164759916353956 
-1,10751528428802 -0,278259511147321 -1,15476397842441 -0,441310213064956 -1,51445236956959 -1,06536613166167 0,00125431930188097 -1,46571836214364 -0,948464352059898 -0,790267746244255 -0,537586675187884 -0,24156957401552 -0,273048713842469 -1,27011032545995 0,199470581667677 -1,33408048336635 -1,35190850829845 -1,49085033838728 -1,21918630741083 -0,535078670059405 -1,0035093197667 -1,20768212481344 -0,605710464723778 -1,63144274868189 -0,923318093053252 -1,74054303371889 -0,770238865437601 -0,256926338220021 -1,50069486038377 -0,642023725646133 -0,323959262173178 -0,864788173081293 -0,762323935783192 -0,184397561473532 -0,853793704260548 -0,799231096455042 -1,04544574807246 -1,58554344503075 -0,108505479338571 -0,272355591159176 -0,653165891436484 -0,948271667794668 -1,04750688023687 -0,0428086610098018 -0,0613226300515808 -0,37733249534988 -1,06462623184275 -0,963556395351512 -1,36835690745706 -0,805591630105243 -0,159467121572492 -1,62877174627029 0,068779378318082 -0,226070619205552 -0,22788425071117 -1,68228678940487 -1,45500267635383 -1,30577485967281 -1,30044574994199 -1,55636296578099 -0,077580642286649 -1,52427294614621 -1,74747713169016 -0,416180368141603 -0,37967657578063 -6,50820943663778 -8,72606571525552 -6,16507026778783 -1,66084136769217 -1,51251560034932 -1,43138645848042 -1,32910838622176 -0,133806722340774 -5,2333399059605 -0,556449548291347 2,19713028968576 -2,11862478166601 -0,829734761953029 -1,42296746329554 -0,337602960946359 -0,459768612063884 -1,58945745853733 -0,671023060792176 -0,477556860208807 -0,265010234003932 -0,477641145833172 -0,716021181329668 -0,318706946507932 -1,74164991889357 -0,968839019704266 -3,43566555936202 -6,93654423833032 -8,79998796497592 -19,1501411717527 -21,8657938237832 -24,4354656409619 -22,7279201185216 -24,7585971279617 -19,964816534743 -9,66742286289946 4,19276186816857 -3,88726516605268 -1,8930165138478 -0,327946998701199 -2,0701691363026 -0,914360381236045 -0,360557434858078 -0,984186711579579 -0,344157565906706 -0,132776353482093 -1,35311610305877 -0,821120940443223 -1,71701492533465 -0,745296418925925 -0,879047983647385 -0,270577067547321 -0,64595471554915 -7,37477070334515 -13,3234848390096 -13,8833503007282 -20,2136156852749 -28,3264533931447 -25,4489663415454 -29,3646806632759 -34,1629794486767 -42,259914073911 -37,6119188766234 -24,7325485095395 -15,0690419768189 -7,30501365067337 -16,0777876317949 -13,7871608559726 -12,3610066838178 -8,30830563275561 -4,07481166969062 -1,13418053838088 -0,70209709068385 -0,0864181053908001 -1,74305359532784 -1,65436180562966 -0,0136679093468753 -1,51408510623741 -1,75700301098083 -1,388653698469 -1,43629679186044 -13,2672182610333 1,24865079850153 4,23787512157467 -31,2560904380139 -46,4392743683678 -18,4345791322308 -61,3220589528928 -98,165994459713 -123,169405971827 -108,34277063552 -67,3635657181793 -41,0340874997172 -32,7495907958842 -24,9983779123884 -17,7808568144285 -18,7615022160711 -1,80774862912282 5,55002363176412 8,49409505011941 3,6673031601976 0,208560251800053 -0,0479252075793483 -0,715685673303329 -1,29661658178442 -1,39385627079985 -1,22803802464116 -0,338592945981222 -1,28049684604551 8,82707955880134 15,6188503896502 -5,57703916139072 -24,6431931112763 -29,7090369603369 -38,3647894679633 -52,4458521473894 -80,3339318403732 -94,6684879460089 -117,876783055004 -101,827141168208 -70,532848247675 -45,0047973509362 -20,3771881540142 -15,7333445858815 -19,3857027579993 -8,15278346102155 23,8644910670019 34,4354887435978 14,9938298682602 -1,49870293195824 -1,28046719654996 -0,407633389070914 -1,06420545320759 0,0516805147001681 -0,00620629666514044 -1,67591495667581 -0,6199023773107 9,89877191262278 6,0715981776517 -29,2277880136404 -18,6811782904199 -26,2594015453083 -53,4308604101219 -58,439245461643 -70,0212713216763 -59,5492531422346 -74,5107196880613 -98,0343324526335 -100,510423241561 -71,8566024864679 -27,8858237197278 -30,8251865666899 -24,8982930167012 -6,29296508239128 31,9132815648136 31,7145056134541 -16,3816860742134 -34,1359180933574 -2,46546943170665 -0,0114140209621459 -0,968649985632644 -1,68794809223991 -1,46699741935432 -1,92129114866208 2,32299765627035 19,6921310139211 -7,42800322965312 -38,0818808805065 -30,0930284298144 -62,4760247264808 -76,9667078918585 -40,5703453573757 -13,5094443659212 13,2131357008721 25,3571479352092 -37,7832251505811 -79,2391032045976 -84,8028005944965 -22,2919982566307 -18,2622568141445 -9,61279210266177 10,2310102738828 20,2687442913008 -20,6734788684273 -41,9775934329728 -9,74609107606545 -0,571894518201666 -1,65973116525953 -0,617013637175966 -1,58112326787551 -0,233155139159063 -1,47112984879872 12,1430847467929 24,3654728424005 -20,0959217614552 -32,3318878891551 -28,9916670099521 -37,0836550623412 -13,4429344798328 39,3949036541293 60,1752244118366 48,1028240462366 45,541694181083 23,3547910579387 -47,8062010753506 -65,7726427577382 -23,5093214248632 -14,7302820924911 -6,39930832446735 1,36169095840271 -27,8453407555962 -28,4356073761317 -6,8420766608592 -3,17451327143689 -1,18773701239226 -1,07748187368532 -0,0579599122838351 -1,15426467384644 -0,982692123384869 -1,48246635739339 12,0464255913008 0,010449031322308 -38,7347263397201 -26,4199778934186 -16,4018657746687 26,7329927886863 56,0870303268641 60,2376548431411 68,7965555841271 41,5497194769268 42,0981937636038 36,6381557271681 -28,8308600821516 -61,7942015698613 -20,9136391669689 -17,3395111599415 -20,3722398344587 -42,3578371304948 -23,4949348754346 8,79435368630222 -1,12374746869424 -1,51110656845933 -1,09330208194569 -0,0367281706034681 -1,68808191339447 0,0023304405050088 -0,176912291534048 -2,64840911847251 13,2654881598583 17,8196958043203 -14,616104271922 -22,732303094462 -27,049587143457 -6,66763674357258 32,0276334872632 52,1730652090085 37,2555366832346 3,11552162912 11,5681513378594 14,1697719169424 -35,3842464094262 -18,2645974623347 -34,9348708197199 -18,4722340213007 -37,1618550294421 -31,7981624401984 8,48751412899682 12,4236772014174 0,465386198497379 -0,151651894767205 -1,38445718301088 -0,212225786421128 -1,75672971437118 -0,219671081765905 -0,0819295664089584 -4,17991573891992 11,9743201838809 18,3622128788891 -13,7174855226672 -34,7819606726017 -38,1381963275972 -4,35945274345372 0,851007335297375 31,2071410953726 7,0004021692448 -12,2655361826037 5,86198348665428 11,5817585384389 -15,0962514769621 -24,2286522730301 -83,730998662542 -81,5695035507367 -18,4484533443982 19,7033592218979 7,76169098332607 2,47343028509523 -2,04268733978349 -0,711590732856725 -1,65396180443727 -1,19069017609664 0,143796258760944 -0,624130255745358 -1,14164120963062 -3,420173014 12,5175745061407 15,5680156201832 -5,39116834146405 -8,03983457863868 0,30229759613726 25,124888759455 10,4951040445136 -26,262686707683 -14,3168805279185 12,5830031055651 18,6352203716312 7,49689513480025 -3,49900612660198 -37,4679869073345 -99,7300696206093 -78,0952623756445 10,3731679416713 27,7716854707066 13,9223000022275 -4,34364434302412 -2,21185343982953 -1,26518749991381 -0,206168740064374 -0,595705666768732 -0,245510940466355 -0,761982239118342 -1,02320034947626 -1,27190554462208 11,9854970364458 15,4774013600174 10,3926142421905 3,33996198216109 15,4947035551807 25,4336201846106 8,56316536725592 -30,9689266469852 -9,63399253274158 15,7377724134273 10,617857176313 -2,30057261512893 -32,6673113044818 -49,6464199784034 -52,3958146692546 -22,2089306321341 20,2804485185591 25,9358912102258 16,0847936719243 -0,000636661791435567 -3,89841737998083 -0,2858548266795 -0,261178524655397 -1,10346867838621 -1,29104842296901 -0,798656358667528 -1,61390352874295 -0,306149007678009 5,75237330146884 16,2185446055576 11,7451871397836 13,0511930712369 29,8191880595584 27,4528887709982 12,9904797052885 -19,3123492388873 10,9072534211103 24,334359370234 -3,95263057420046 -32,289391017062 -46,8514762161051 -43,5451494960872 -34,3566680892481 23,1421435101568 6,43406715342093 9,25417464097311 20,7231664961695 17,6120825348256 -5,88470989267778 -5,01700563442494 0,142352575518972 0,095142345592946 0,0268587154409682 -1,61593915122888 0,00102528745694358 -2,07793965448761 -0,99160583837113 7,01106604765593 14,5638686022706 13,3762466775172 27,3100498818132 21,3239639146544 -12,0721802863963 -19,3593443522133 3,82459760466429 2,7191937129494 -27,967808321029 -28,5514878948297 -43,4703650512023 -69,062628593639 -37,4154192110712 5,70429496964442 -1,54137310814685 22,0745971905415 23,7247359375131 22,6021951858976 -5,42046946435955 -4,64468426194534 -1,6651466060897 -0,298760292000623 -1,71729376517627 -1,00866786801245 -1,31418498372825 -1,38377656127728 -1,93711941755958 -9,21751502139231 12,8379869119245 19,3962990794178 10,3861453423785 -12,4044991043111 -50,2191502673402 -59,6148910774832 -41,9565006229533 -36,6612947765754 -12,0170447257236 -33,2052386490482 -69,9023647555877 -74,1791330855138 -26,492817661192 -16,3043021759766 -7,54132045202252 17,4623522746381 24,6368411491399 22,6166670454943 -1,62562236075515 -0,718033477211629 -1,3961428496689 -1,36833498215984 -0,806367157314648 -1,74807232597804 -0,170676180874081 -1,56564563786298 -1,43904372275208 -8,37345435521012 -13,1472005410997 -10,967647840583 -15,6039550562979 -27,0800715925506 -82,3238956966033 -61,317881295105 -66,5627688931594 -30,0649465505224 -11,28933766083 -55,5087705669183 -70,8362950515265 -66,4823263004168 -21,2356711736832 -35,8003942579867 -31,6384111291883 3,83089078260857 11,3764100187353 16,0920212453805 -4,01788366449214 -0,419484945919419 -1,02248491570806 -0,726471825277378 -0,0975427263922198 -1,75977459716185 -1,46454646088011 -1,53296499345392 -3,09848124834935 -3,40073912257586 -32,4560056771811 -43,5288986054592 -40,0925512621252 -48,1424071311719 -87,0578940818245 -100,837362874912 -71,6003251729667 -16,1233686727724 -30,2400981765864 -69,2359458320255 -83,9867633713903 -57,1737605239389 -61,1327449755547 -58,7655543042766 -40,2376546058337 -2,44301742725645 -1,77005437485838 4,51524833285217 -6,21385012847811 0,0579680638963757 -0,453184013700428 -1,01836707202226 -0,997543750707352 -1,36266459951818 -0,659294671681369 -2,61982572906795 -4,1930260635909 -2,99778005178327 -17,001026114518 -48,8635488873207 -55,5110946441054 -48,1206670292602 -64,7943116840511 -51,2293255182465 -53,587208836289 -45,8003885359049 -46,2984907018383 -51,4003660958465 -81,5125064806266 -59,8940660487694 -69,8409105212221 -58,2762258453349 -33,9678507823994 -1,00155281383393 -11,0730601642821 -12,1934398794931 -5,90382696714857 -0,649051240437216 -0,876397806630698 -1,34908681603157 -0,156921800211076 0,131087816469369 -1,30141327597472 -2,06758285344312 -3,04682950858778 -3,77654456170372 -10,2334041965616 -42,9163222228308 -66,9581700501693 -61,5908396613752 -53,1541058856724 -95,7407727052527 -90,6441646576416 -43,3839075880572 -48,6588334114936 -69,2686422133072 -66,4882326883151 -47,2428280969968 -36,360619933078 -22,6671840077321 -0,915843206587726 0,792665626083125 -10,710929036504 -9,26406686266606 -6,77826085966269 0,0657743898074595 -0,208268836415291 -0,905336165202976 -1,56134937022461 -1,67985835368323 -0,94886357213129 -1,46818157739444 -1,85791231803815 -9,21068497428048 -23,096913906333 -44,9539602396625 -53,6854867707665 -49,2209477155805 -58,1933181172558 -100,047453794003 -78,2383524234843 -50,6344049057949 -34,5695045321322 -22,8658664346292 -36,1912514952572 -32,6601129132577 -19,1200122759463 3,16639339733167 5,12998133005245 -2,47291737446676 -8,52724644125622 -6,25623608195444 -1,75189974528946 -1,18290547934316 -1,62026560745649 -0,39087892705666 -0,107749436944182 -1,3532098630277 0,0439794005585884 -0,330478547898807 -0,335778764751428 -12,5671569874048 -24,8264375382386 -26,5010636296419 -22,0452142495854 -11,9556990385922 -14,5647934340678 -70,9149245772004 -51,3517606437152 -20,4910004016237 -24,0240232978574 12,1786826371527 -20,6680998378423 -25,6788193686036 -26,4257090173884 -27,6168336111906 -37,9916634364516 -50,7547366247529 -1,77860703741567 -2,07525188821247 -0,873488424053209 -0,307181964683472 -0,309860360864991 -0,985675083844344 -0,698185779391448 -0,255934776769496 -0,954031712731865 -1,19496609297515 -1,5134762622925 -11,5601569975341 -20,7527284656604 -19,9395964546213 -19,3728170322245 -6,74831138099538 6,24916569976286 16,2818751564859 21,890040346929 23,4041480759333 19,0338317760405 31,4005552756259 26,1289901126271 0,122215721260512 4,98833395538084 -42,1782432040579 -56,9984144313328 -31,7809702257468 0,183786278500208 -0,802488832956887 0,122315121535618 -1,34825554078414 -1,21962750564828 -0,433832355888985 0,183969118806012 -0,0476556298596528 -1,20486394456399 -1,36950804348134 0,134333584502673 0,0361954979375231 0,642569464737317 2,59073063485949 2,89221455785582 5,65091088321272 6,71479119716798 8,05648110393645 15,4794723826653 14,8344868828061 9,33733666862014 5,47708136845595 6,39431336741142 3,12915897677278 2,6883211329478 3,93559917929596 3,64568144335215 -1,60971708207457 -0,190819138761396 0,136422512839141 -1,62449623245539 -0,13598568269381 -1,36330035383552 -1,59111491469769 -0,247659689774153 0,0619807170009642 -1,10014907778764 -1,75790711477667 -1,33022925502381 0,208401388539822 -0,315747630672805 -0,677046465599527 0,569180458355753 1,61749389050157 1,70865341642967 2,1803047164784 3,67085250411309 3,93574517291836 7,29676089787675 3,62478920456653 3,03813192848868 1,00613138040152 0,93461621365269 0,855778722883357 -0,144105303811447 0,101410096516424 -0,667276723510122 -0,312255205643989 -0,74912879642109 -1,29855378768856 -0,267613267562679 0,0135934959177388 -1,63928992741293 -1,12374008676727 -1,5274654409562 -1,5477074074367 -0,782313271701986 -0,402672554329485 -1,42215624272582 -1,13345073748187 -0,333999200254282 -0,0338180101455149 -0,246016844342052 -1,43487055632986 -1,4605128312554 0,201026044329792 1,86758460425123 -1,13492943164733 -1,76542978788512 -1,27814107002714 -0,864836593584021 -0,541821895387889 -1,42635372982752 -0,755485431498836 -1,3581494703395 -1,07548531838067 -1,63387728270374 0,00735997324635534 -0,413082009285764 -0,13138110933009 
