wih 100 784
0,879095166882599 0,339465732395919 0,920754498782508 -0,78636389679706 0,671162864988801 -0,166821136665392 -0,919546606895713 -0,271051899173268 -0,128826973536848 -0,551099195850073 0,653036726494392 -0,0412583393064073 -0,662348325247688 0,0307278120521544 -0,229375966280124 0,66330305050693 0,123541148919918 -0,461632274754587 0,545623935564767 0,131705521218862 -0,348414275474521 0,506815496619759 0,875789272558367 -0,033073176162299 -0,589431351773587 -0,37569165385262 -0,283893513142494 0,175938716723144 -0,379241616158806 0,231621603140952 0,974567373288649 -0,325166995305593 0,721626648567033 1,00831179285143 0,0297195870183789 -0,81228205703085 0,536849135276627 -0,215932343413681 0,59612665584189 0,486709415158996 -0,700340133155229 0,0691114719536156 0,0103048293877642 -0,543282863873045 0,99873318829118 0,944450161193203 0,129273652355305 0,0291479472976246 -0,402605286387505 -0,937836659035361 0,531225362120743 0,366306045746161 0,210155376813967 0,244787588381164 0,369807179741059 -0,616611027894305 0,474785761680407 -0,0350630232123426 0,814176756819382 0,0579638206842712 -0,871818319361076 -0,0843747487300123 -0,880690800869376 0,6573330760089 -0,45914209293486 0,0969102959773218 0,343901885699293 -0,608773298679357 1,00748771178334 -0,400396886729463 -0,786809390243686 -0,566141787599134 0,0555809550097221 -0,853488826515402 -0,127371683511759 0,600178724851784 -0,48811769672037 0,429737176903211 -0,0210578823285189 -0,524748695983705 0,505232208885908 0,698071508545051 -0,41034651052823 -0,430295637526169 0,71150555263675 -0,380629370614661 0,475786929723295 -0,512051637971277 -0,350367051459072 -0,342462819415413 -0,276616280609175 -0,395917272643591 0,0438939572596493 -0,477382280286171 0,231758333557038 0,134470078438592 -0,433111459199079 0,00687101551754551 0,916632863655514 0,129984733102164 -0,249036699939235 -0,234048942584721 0,143137028981201 -0,792149272623052 0,987883417539331 0,187055982228092 -0,607701934172233 0,140099484254624 -0,593178640052584 0,783318913659309 0,883949845061204 -0,943672801324424 0,997111392223383 0,347985420089727 0,562915989011542 -0,557709377963206 -0,659140146241596 0,559039819976227 0,97003733158643 0,877504610146327 0,456240615144615 -0,669696627424677 0,114786105273787 -0,250045796039146 0,221730069146096 -0,0425336961930163 0,298817958035262 -0,494687474683861 -0,115425671673722 1,08599295343921 0,494864655891906 1,03621719881307 0,624306828277463 1,0081388989788 0,887513285718132 -0,234979906635007 -0,322966231355606 -0,414817260736089 -0,321667409775837 -0,440228908225695 -0,773590443533134 -0,655639866189343 -0,911838379319514 -0,12152817277305 -0,198404347480893 -0,343490345219156 -0,673282482794102 0,161505236725018 -0,470999456767934 -0,801994984473043 -0,901949620076059 0,116805554159191 0,287369425892658 -0,61682834900472 0,836401586486071 1,19029523506737 0,71420541736315 2,26037541618201 0,885754917868609 0,637483602189318 1,67297979317874 1,04028614171856 -0,0628655005981593 0,523974422188058 0,659875602073646 -0,135749728617486 -0,340974571548197 -0,960922113913553 0,577947080887419 -0,142998350367826 0,778243435512197 0,749094237086798 -0,0853604302500271 0,316082870183994 0,17960899448726 -0,535631747339665 -1,09648911555669 -0,887734698450558 -0,598934032592125 0,868567773092367 1,0927141991686 2,07519077779349 1,71299957217817 2,32171021633077 0,44878436713816 1,74189829375722 2,22448477574578 1,69021981031934 0,428624221746695 1,26901534471733 1,13164771631555 0,828254340674296 0,199652715445732 -0,401210998953028 -0,0951130322516802 -0,720804843037021 0,930729804004653 0,140077082227364 0,745884716411754 -0,974772285968741 -0,997493946234302 -0,489719923598637 -1,26372479857308 -0,894812398552968 0,348926013367687 0,61700857611328 0,234261833410844 0,626539171433138 0,532181470073335 0,0091336842042747 1,35842415716133 0,58454471544432 1,02748758536773 0,60518647984581 0,952785744409334 1,92490409419905 -0,0833618582605025 -0,025024891439082 -0,045790268525481 1,73884541163193 0,591045198269389 0,544114375232452 0,658946703911096 0,749167114141108 0,249708016072196 -0,208470901315715 0,32390611970817 -0,51536968372448 -0,510368063047855 0,400386504747318 0,199228088287655 1,08567809929733 0,712051211440451 0,244384725894477 1,23701565011837 1,01652977806992 1,82003640812242 1,01375279457783 0,354080945615852 0,531830956737822 -0,890893618624128 -0,619504652378224 -0,702720243116438 -1,07942562676513 -0,916902509345994 -0,0583345513304973 0,67117608068933 0,773104843360907 0,734247375593036 0,217533000493743 0,863306961288724 0,315281464325054 -0,412526585782445 0,859821123786817 0,0505393748948988 -0,188811016420422 -0,0636557291031344 -0,649940261884083 0,372829824362876 0,105464743962539 1,41522814793086 0,006693287775316 1,64648868454004 1,0043383185515 0,85773777341737 1,20163115574464 0,226570783399178 -0,997083292774437 -0,181962209250607 -1,55808479620606 -1,68888758754895 -0,507533132984005 -0,235580177142943 -0,627117413305251 -0,620859352046544 0,150937486226366 -0,381416681858225 0,515262839583038 0,191269505791781 0,916978214671159 -0,0931682229247935 0,808268792803441 0,303690870465583 0,632358475043205 0,537458364593106 1,01662834624969 0,62903236166452 1,09543333312171 1,43506334930631 0,851759145970168 2,06209636059246 1,41064891139573 1,02771873623313 0,513051158356359 0,24426948854777 -0,51422075655868 -1,27522342078664 0,37354337016419 0,106856321182357 -0,337510270244173 -1,63335205420628 -0,383938675744935 0,356195460025817 -0,574986091314721 -0,138962581840172 -0,277644950823945 0,361754848527181 0,127075661852687 -0,29741662151397 0,742864445265023 -0,55396067977941 0,446524059413779 0,0716341007647236 0,151055370691141 1,09059442697823 0,0105928113649672 0,86580501540357 2,30088027676158 1,8990925503821 1,67630705532729 1,30560475510794 2,28037975573408 0,573514253786742 0,79894645360984 0,455266304393523 -0,327896919522066 -0,152332260556843 0,80925525699591 -0,708936195550499 -1,01050794273109 -0,252678477595349 -0,477869430788894 -0,611194029805764 -0,716037848442381 0,770105418938327 0,593278791469791 -0,932807983781998 -0,234819675861593 -0,154290012705395 -0,201400810827723 -0,347808465894679 1,11023690676948 0,0307280830212476 1,04970880711457 1,57607693619012 0,303011098135991 0,423564310840873 1,81698741320816 1,9516933878845 1,67564215679527 1,88389363802894 0,250611103819778 0,201199920771993 1,84385255435506 -0,492426992052843 -0,484109356805749 -0,726594772462331 -0,962106585318011 -0,21372758076968 -0,911268145704452 -0,909868510580333 0,650279556022056 -0,231405277643395 -0,750820427958212 -0,326998764318325 0,88812301185545 0,205671075483395 -0,193819991187234 0,239871139570063 1,01211237613178 -0,706084584510755 1,08581236330116 0,447425351968177 0,0830223240330938 0,245578484087744 1,37220400807771 2,6109325495117 1,83193297979638 1,66769368456769 1,17055475713376 0,535689359095128 0,963840509211296 0,0053737116033347 0,813427662044272 -0,393775595647965 -0,423084336076614 -1,11787478860291 -0,709987646523203 -0,747965871214774 0,565454814346325 0,358492964762517 0,765947019589564 0,300456093315766 -0,328940597870936 -0,124092549128693 -0,0845048515373564 0,117859179722462 -0,68937010771728 -0,026229728118629 -0,814346274061706 0,0614592871453052 0,741509223560638 0,161944950121784 0,913958291916671 0,660293117085137 1,8719480896777 1,44622417973331 1,9174055653622 1,47554082755086 0,941110113028806 0,198183298888394 0,129645977945421 -0,143184859797202 -0,812168345183186 0,72551642174534 -0,208718939361847 0,0846657553330491 0,337223447702258 0,761714723912075 -0,977479737224227 0,664472287381809 -0,119122443275078 -0,209639108541378 0,608866741700465 -0,564319134443867 -0,915399315467359 -0,755183122173145 -0,725034795598135 0,338677644644199 0,166644417041405 0,773528514368413 0,262711293525784 -0,232285396295268 1,21430901671515 -0,156618128161764 0,553975297321887 0,228727952981135 1,70737155283527 0,430375017398403 0,369116186132306 0,744331136328759 -0,292878543027916 -0,516666730619993 -0,451735905938839 -0,056186766141284 -0,394822241868262 0,00316772522819178 -0,139762972848897 -0,198030464891769 0,97300939076055 -0,744977011410444 0,80648445319725 -0,57644958154863 -0,311436614322405 -0,955699478982219 0,833011015900301 -0,901352932448722 -1,25085497395721 -0,735965649417734 -0,164418802307306 0,649745773254468 0,381265405908534 -0,515128566752948 -0,172935982006025 0,883443652521423 1,22921024962975 0,40470383648246 0,951252449557012 0,00760321587568826 0,770249526074911 -1,32797309851335 -0,432605248088707 -0,330862327280735 0,423754582469147 -0,212641453960525 0,20066711986281 -0,941854666874156 0,989601599079512 -0,0776041082069814 -0,886311867781208 0,158526366311218 0,601888949050918 0,48834748278109 0,64124872665446 -0,15899985609567 0,522127336373448 -0,148932499637923 0,625958281626593 0,36979005951639 -0,83954526589829 -0,481468839514757 0,0255055265062445 1,11852278729501 0,0496877187907509 1,01117524035018 -0,182693939979434 0,291467802306506 0,86470675219362 0,0256245576614812 -0,178874579781191 0,652850078570235 0,793156007520915 -0,411839212603872 0,795771384660153 0,928297096895427 0,518390906771452 0,226764019537659 0,48747635291198 -0,710940320511051 0,0414464558312474 0,957475211437054 -0,241567806748709 0,474568170177488 -0,655674464010708 0,62099363651591 1,08792917922056 0,633927512094488 -0,629277548896429 0,330976995070974 1,31660771702939 1,3005876254835 1,22141998543751 0,00982964229425561 -0,00194787475250514 0,946166323014096 1,56946035774213 -0,0419450849111317 -0,731863491216595 -0,953430546703612 -0,232264485477902 -0,211864276896968 0,259433880330263 -0,261707213346192 0,924331496451724 -0,293784272510817 1,04371461891006 0,570319065984376 0,888383600075446 1,05515632715859 1,31321517759584 0,768066705186148 1,07610160894718 0,224778432913967 1,359536852694 -0,947812086392579 -0,012475338088561 -0,706423614874199 0,974103780247494 1,35884725656592 1,39727140142292 0,10356465776548 0,235004196885765 -0,112983893047439 0,628629499256978 0,559882270590334 -0,780765470630571 0,685125732068579 -0,412285090808313 -0,0104034366649733 -0,873531191546263 -0,580516072708833 -0,133227097084105 0,384222039666165 0,829946309778316 -0,540325917930431 -0,343404653958766 1,25816265253401 1,32768397807767 1,78114539140918 1,46105999009955 -0,1666726176735 0,945195050505786 -1,04238488589451 -0,430956960267718 -0,190886399658666 -0,766510531135447 0,165729582156915 -0,326365810876541 1,22195719612321 0,613973479824081 0,418468069560864 0,341090302237428 -0,0295626606166389 -0,437362735043952 -0,776697271989139 -0,321069206785973 0,243920435937799 0,0924198046130867 -0,874872940516917 -0,768575728914847 -0,912150801632686 -0,30064733471756 -0,392984436824467 0,272756112842823 0,0229114585472187 1,03721351450771 1,33183347925823 0,601665681992045 0,880536117816388 1,0568249611288 1,07098932984373 0,0565805372682097 0,771342224802222 1,21991246130107 1,19537842869986 1,08169355226575 1,22688344360873 0,0252259855502314 -0,553214993285496 0,519797706610838 0,600950216090166 0,423188869222222 -0,131776539430609 0,698145667070402 -0,123604327580398 -0,276821704227341 0,857327751766166 0,0326099605624207 0,432742388424687 0,714898238094151 0,333716849469889 -0,421272131172686 0,191212257625794 0,13125803241328 0,222745718923878 0,637664447513967 0,499335055514866 0,411918973185801 1,3047202505615 0,758503650725143 0,0971630085742393 1,87894532492262 1,2097133076301 0,419797703833139 0,901756330030314 -0,918323999936171 -1,28262219435067 -0,0619948472172245 -0,471642956215614 0,456403952246616 0,108240213536766 -0,728870871683951 -0,754956116026703 -0,666711953296137 -0,206252618305914 -0,313926971180743 0,903955281677079 0,0833087513609898 -0,200801428320483 -0,609479266168491 -0,89912600495148 -0,0673056169464233 0,826304125216477 1,40645635682808 0,120755645922662 0,787894960356877 1,32600945477845 2,32713688267437 1,56237685873004 1,00655513461646 2,00412205345118 0,298160825482697 -0,120920060524415 0,497868791368178 0,546454452123162 0,85297948407385 -0,40358225662431 -0,361545766136623 1,03405796820811 -0,600547537278675 -0,424465691419143 -0,153877977801841 -0,654755758874881 0,954732614565571 -0,287914295032384 0,202410405109527 -0,323333499706189 0,324987006869806 -0,256022155965004 -0,364438361365062 0,743733399501371 1,45908163291953 2,2125388254013 1,681377218492 1,07193912848976 0,914519131484858 1,09343233726071 0,281539667136225 0,96105327553079 -0,406723846402769 -0,205254518145539 -0,909500170551143 -0,598149610454606 -0,347140770841332 0,765065181813586 -0,859774684973931 0,00829875351503587 -0,695254575394187 -0,3716051296026 -0,160717910678871 0,929358162901586 0,229978399941277 0,133553392798952 -0,509506317712951 -0,911541735860597 0,250690906557951 -0,443606986527564 0,884919784478109 0,12037624606272 -0,0302139808764483 -0,947292564758034 0,705525660487653 -0,0847737620513002 -0,975414954754267 -0,572940020898733 0,754162383714798 0,134147174102279 -0,660581536839508 0,232307875785973 -0,36435925542559 -0,510381595365676 1,02459672255008 -0,247931579258389 -0,0879836827286872 0,0310716169068814 -0,657070508981106 -0,400508664251961 0,735513761533719 -0,89848646608245 -0,45487236297585 -0,812434346310476 -0,630750224090814 -0,263107454368519 -0,963180949473757 -0,332123772029584 -0,590530215731849 -0,0966841031228148 0,497495033857711 0,13336747243144 0,609718860399883 -0,394118606957893 0,886943458463529 0,862806199022015 0,0260157328475624 0,235714847739749 0,866006756029122 0,322399233138037 -0,820096358663611 -0,734978041768533 -0,741539597069994 0,224010442636309 -0,134061972249568 0,186418628889851 -0,888471398433257 -0,450985914754622 -0,977569445008622 -0,489035265264996 -0,766461757817 0,451184605941315 0,730447475690192 -0,33715643553803 -0,148513357563533 0,796094966775879 -0,424720305497379 -0,171875456037338 0,67440336385231 0,0528359393619033 0,0532061049189882 0,577015072739246 -0,900024240567099 -0,196545702655304 0,485796964997965 0,103685734526235 0,547715656217061 0,905568860534866 -0,485495133195904 -0,826894306539765 0,775147815013708 0,876120344210398 0,429217369250909 0,174376480845499 -0,441265111511644 0,59910364990878 0,893631586772739 
0,312572906341446 0,311340179841434 0,171147876900931 -0,387192123347742 0,473221340839164 -0,382556277103275 0,873903374065366 -0,374013844649539 -0,99853538076162 0,319766702681447 -0,0815658556381493 0,771176420913392 -1,0078680009746 0,175744394971179 -0,867207985653609 0,361382174243436 -0,451392931671755 -0,884373167539423 -0,536352815885495 -0,963151449384006 0,410959909332207 0,69409891197346 0,740210978129743 0,627151090414566 -0,804891018169649 -0,975244176626087 0,844306817142202 -0,269351960814481 -0,652911071567523 -0,98970177403009 -0,4556159719788 -0,907578138655089 0,240698212794379 0,89077778672426 0,228223677362566 0,482326840815452 -0,531108249110666 -0,588391398759473 0,554205983164052 -0,0690070932720028 -0,804106623538425 -0,818642001428428 0,531772309767616 0,77656315195295 -0,384338875883878 -0,889609678085271 -0,515474458458427 -0,0690455702882619 0,592452751298602 -0,520999202229132 -0,153891004511654 0,0242864704168026 -0,939395531116006 0,527771863802928 -0,551811558049318 0,606787027544475 0,559442234888179 0,532309819662854 -0,593988072002238 0,436778543003017 -0,236278460760829 0,131973793950719 -0,728655553879666 1,01510255109223 -0,220028117990253 -0,183969975561634 -0,503544223640245 -0,888904935918881 1,03187293880893 -0,135591538563886 0,109734943866603 -0,845733823511888 -0,437874786643318 0,521136931850977 0,682015203216193 0,233787154253189 -0,79355549756838 0,967787022495173 0,0208200265799287 -0,916883220819911 0,526514298044038 -0,123619985393702 0,11760658630222 0,856505024116488 0,152502149816612 0,508430648302623 -0,97986956817743 0,701236217192154 0,431318259797415 0,601078807293404 0,907855516169105 -0,0408214558539171 1,00877682015017 -0,917905362021031 -0,800658633799191 0,258875157921387 1,20442788352008 0,991136979032039 0,263719164016198 0,473971783966927 0,260257310462897 -0,644753383668439 0,0778975040296955 0,0442586416875308 0,661308632397813 -0,245703743346113 -0,582495705836687 -0,522134573863778 0,660579881554817 0,172361000473504 0,391822145898434 0,577621880658492 -0,500178078951625 -0,690024058210027 0,89615656375672 0,873627764033058 -0,99805814351716 -0,622977915022313 -0,175239920401642 0,252826830306668 -0,246627982958454 -0,326369661944611 -0,395628502626777 -0,915616978947852 -0,724964973275566 0,479286572304178 -1,23730693201634 -0,95658947833244 -0,26258991251243 -0,294937686469787 0,787149696968604 0,24215839756081 -0,0479275158760041 -0,149088080645161 -0,902573314474534 0,0490119536500955 0,941225171039159 -0,794075997626321 -0,727650135947251 -0,562074083606714 0,0434601646414836 0,486881534266471 -0,992632410121172 -0,754581711052975 -0,807500896987558 -0,768699838772865 -0,664494015793291 0,396719505559836 -1,67631838332851 -2,21878976332064 -0,924639628808741 -0,193540332804408 -0,725976641298663 -0,118747118254418 -0,483492804751658 -0,411264607403237 -0,0771366785497955 -1,28904917043315 -1,76195290474369 -0,208850014191567 -1,31937694835814 -2,00707879032712 -1,06167709995808 -0,663517975723421 0,721332620384437 -0,15480079567344 -0,414847256037884 0,248701141553863 0,794221714910921 -0,244536396712759 -1,0117939935812 0,865483963784122 -0,876955103923652 -0,862095471784655 -1,10904694308675 -0,595022436897218 -1,71985936406802 -1,83929006903878 -1,34142163540957 -0,0802610424907488 1,56064831712693 -0,0998480866132346 -1,03709695674292 0,373558001301469 0,266858117353811 -1,24239536355795 -1,70441793388483 0,37661069353488 -0,730453143371514 -0,859502023300541 -1,87869986924653 -1,3997379368271 0,087487528563842 -0,375420364583108 0,825521691513608 0,0465103953510075 -0,672171864671322 0,0969220206793128 -0,54913762205395 0,563290489082021 0,66449084187644 -0,131551868552977 0,918366360670954 -0,024125717871701 -1,50127517604482 0,263287884070539 1,42205716161825 1,74402127306864 3,58432421757622 2,01649708620032 2,08215176966928 1,68550379465464 -1,42340042135013 -1,55020298684794 -1,60365348437761 -0,00270727509630844 2,51642488378271 -0,596463958029358 -1,09180784911984 -0,574818337379121 -0,938055410722659 0,104210884906585 -0,0959795449023939 -0,952265026842933 0,343603437888179 -0,152074474933246 0,957903808940447 0,586059400336524 -0,445277498645265 0,276755367706613 0,351690480226183 1,25148681104782 1,84673478593592 0,546189419962633 2,02891102465579 2,70514080282549 2,02315606840367 1,29490821605343 0,893949812326123 0,301389556098238 -3,01085381921001 -1,97795490758152 1,0581173130238 0,952256258033401 2,05229033959664 1,20848367022903 0,225788559464894 -1,29289830557319 -0,894659299296123 0,349810919332036 0,185523215420317 -0,73002417356697 0,937107804016702 -0,325687712084008 0,00794216724136179 -0,40143255016125 -0,533180183506212 1,45549317466471 0,300336340114719 2,15410965401522 2,44982386588794 3,13001676675234 4,35623737874748 2,11070338480304 0,114701147508348 -0,956983961036926 1,24882349299714 -0,900322813605696 -2,71564348478952 -0,786880714923465 1,95006863957933 2,2097387440848 3,09838710081897 2,70477025648712 2,16661924380143 -0,0778037953734374 0,290828467819025 -0,979832241076493 -0,765608476116217 0,275191606935182 -0,755114585930066 0,855318443680832 0,109617475177288 0,100653187581794 1,62121019650246 1,06210740081987 2,28045327337703 1,89121247717992 2,63686696261682 1,62908177708968 1,91658505372973 0,308559672498229 -1,95590814832415 -0,312092961505232 0,0825412779017249 -0,5675209673799 0,330790404980565 0,931270951089661 3,90333438439206 4,64349265251397 3,35359390979233 2,54738411204726 1,98174011100074 0,119711633686264 -0,718488478274337 -0,834972795180414 0,15738882660693 0,29688279526484 0,43888106727684 1,08803121805115 -0,119703400047977 1,20322066548683 1,50303317152898 1,01632773807068 1,25310770885299 1,71616313050525 0,939491452425567 2,3891895646519 1,40461220662346 -1,28738416585641 -1,28035819009651 -1,14607600870092 0,283191279118809 0,803265300809686 1,81958297196797 3,03212763226169 4,61708302150548 5,7501441937403 4,39724010206293 1,92345478030624 1,54835633644578 0,0889190805892891 -0,067985719027045 -0,248001991292631 -0,232473183991704 0,658608544783211 -0,100180903094201 -0,762020621998628 -0,439024162675809 0,770035020739249 1,46403711854824 0,318057048032356 1,27530873548391 1,09766594960689 0,947376548598392 -0,119666997555255 0,26775657001167 -0,442690286254712 -1,95646023043544 1,07952753978217 0,664360579129045 2,83894316696311 2,65009924043162 4,72006671493863 4,33930223430064 3,44351645783911 2,89509982008142 0,654944955893904 0,853414999420197 0,478032958043979 -0,655656193722758 0,335477568558907 0,925117823537014 0,118107645661507 0,0266050686905273 -0,586659167684217 0,196562126882489 -0,049004475480328 -0,411646035597729 0,656228803642966 -0,784730588717653 -0,648507091626587 -1,27233701702445 -1,56263325473206 -2,84769668224926 -2,95125506333043 -0,414382353231754 0,943916214288146 2,74986338647263 3,22841911874767 3,36611580370964 1,22814358934995 1,74183586819018 1,92183707751365 0,452884995722579 -0,429345396931979 0,370565681676749 -0,643323613256232 0,201184656170549 -0,765014513983172 0,419771053339139 -0,118982956199864 -0,0112016162163769 -0,0615654502949698 0,164489446877276 -0,584341378691644 -0,874001664045485 -1,28854876185003 -1,72311000581056 -1,28879564441085 -1,41102913330454 -3,33282094633303 -2,48359202048348 -2,12642560254456 -0,577575297635095 0,820799811466102 1,19846589798218 2,24616793770809 1,55190727981047 1,40073719934631 -0,60010953397176 0,102088518211637 -1,32216427016328 -0,566655164540668 -1,02852098446333 -1,19762044346237 0,191855039749278 -0,355192117389812 -0,240748860998876 -0,0427367549856603 -0,187433474291337 -0,638145710596996 0,00639853515780268 -1,10330829027455 -1,66770899087731 -0,616327451547342 -1,04011685416464 -1,59151203242877 -2,72541040577449 -2,57242363680951 -0,329524153418425 0,065427238796 0,693778235875133 -0,896702037713676 1,60365232871289 0,750204392422798 0,149490822336553 0,841868838820766 0,646854443573136 -0,737767763890922 -0,713699266094753 0,401552807217472 0,0659038095862037 -0,826458556936045 0,551947377500064 0,676866973084445 -0,74977889513735 -0,119609784085686 -0,0941803086014511 0,00342475616980866 -0,366951750796559 -1,04489416281118 -1,53697184388709 -0,527362415759986 -2,5154925842775 -2,24755065411088 -0,817299615956909 1,10176370272852 0,365986783517908 1,09398496742418 1,90685523835281 -0,434213652183678 1,48978996504223 1,23143178060142 1,55761076550989 -0,437332574128183 0,419889048465208 -0,465524488614719 -1,1115046246929 -0,684240376081908 0,329312513170443 -1,14134018590501 -1,46184312952981 0,662996053635556 0,191790180165347 -0,160164752390702 -0,113926197053126 -0,990376423727702 -0,942787367727187 -0,475805057138834 0,213670958820511 -1,63519181743667 -2,25015847676949 -1,65633297894732 -0,354922031367939 1,3683780775827 1,6284000862359 0,872974868258395 3,1813791732734 1,56490507906317 1,46658774801003 0,0387038795587642 -1,40665036320388 -0,82884206302445 -0,514020869440838 0,390303260597272 -0,663395302779652 -1,81653294207045 -0,208151957285232 -0,825940127272006 -1,77016439829018 0,566410838423449 -0,362926637053845 0,967044741081976 0,169302025402549 0,685024455060892 0,920550507773072 -0,551022012638155 -0,335639962544121 -0,787681279205093 -0,917100384768546 -1,25357489907634 -0,204857343241796 -0,104234615884905 0,775456963795208 2,50563591848457 2,3359360091261 0,0169178212949145 0,259267959504479 0,0978280307063257 -0,51039763166436 -0,247801939729517 -1,21687637925596 -0,215264503966846 -0,43899317645683 -1,45638742515643 -1,42437767439612 -0,615450241712693 -1,03031326623884 0,838185468955982 -0,51587338632206 -0,365009341359288 -0,86286821301952 -0,278190903028806 -0,650071502905879 0,790313161514 -0,571884562572112 -0,512308704285774 -0,257406485680659 -0,171059895071699 -0,370950870874963 0,366655153248355 0,86905794638421 -1,00126591741049 -0,542670686941301 -2,23921488775346 -1,95949549387402 -0,825339724892641 -0,833169139120019 0,737344345288239 -0,486744823420154 -0,506863364201527 -2,15634494824254 -1,9368408061138 -1,78113382175208 -1,01873123659332 -0,286810321549796 0,243412973874304 -0,279687734419439 0,774429982899694 -0,198769039164879 -0,54546097972586 0,5941306913244 -0,39304592402975 0,376343281914537 0,993574362827168 -0,0270824820978634 -0,283997722033323 -1,52401130794743 -0,658485103588468 -0,102251103709662 -1,36280506582022 -1,84097652870562 -2,51341027883287 -1,12499185655104 -0,513999952597234 0,250618389664327 -1,17991908733819 -1,53930055695161 -1,5409555219457 -2,05082841106411 -1,59590341466794 -1,37231838020797 -1,10635481945478 -0,663230913597215 -0,304964260532448 -0,81122760629741 0,671987437390902 -0,547736969080718 0,771980519185839 -0,277450679419248 -0,437935718660807 -0,869339213968785 0,0727799124610058 0,803757513991682 0,533644998326999 0,956477923506124 0,129637387295053 0,533480161760473 -0,615485747619665 -1,1584260800909 -1,15454068925864 -0,75353561325985 -2,07870739424658 -0,981457773845898 -2,05704710771734 -1,17244002942872 -1,88413983410246 -1,48592436008008 -1,77691843534318 -1,18941480291519 -0,764311276066088 -0,177247873106429 0,637853127492102 0,00298273279136815 0,599821229564995 0,566332295977661 -0,186471267986917 -1,00561924375683 -0,911413114166604 0,145632040211906 1,23539511346268 0,817375628700122 0,21814620374439 0,588558430505491 -1,3904965977799 0,00999336736661736 -0,306785893747675 0,21861287389273 -1,75374220244827 0,951701180489205 -0,491020738252282 -1,40495503934903 -1,52032579855762 0,230155915427005 -0,973265915925507 -0,173635517959331 -1,00840791476498 0,502112865064839 -0,992694681979208 0,667035827780072 0,641379945224374 -0,205152055715324 0,930796764266036 0,0186120415488841 0,88202298234474 0,700260972865445 -0,714031510458853 0,00968429375680905 0,534406956393675 1,30352703591575 0,428018540115708 0,342923515032671 -0,468836245982527 -1,47183706960129 0,301457737151548 -0,42520209675228 -0,138978996837282 -0,485144759821743 0,322083306745243 -0,69508768294634 -1,17704279544173 0,347959847204875 -0,395917326524451 -0,793007967310964 -1,15938185067732 0,649704083311601 -1,00645657298097 0,547260681877966 0,821321559268646 -1,00495686073833 -0,188993830851035 -0,0319033987672956 0,788282741630348 -0,584595572231341 0,399398011654001 -0,252306533058567 -0,400458782495331 0,644156352251384 1,16201171618598 0,608718165651655 0,260021363346632 1,15600197377186 1,34152551869316 0,152915563560872 1,06791804184261 2,17693953985415 1,91392585750704 -0,903318901169092 -0,112285657061967 0,005270857715086 0,0579669770170627 -0,315285494974317 0,624567380721512 -0,101252421561628 0,567063686793602 -0,625545475872962 -0,812505861387944 0,400814787956476 -0,0409541051729772 0,960629520855903 0,406558226454107 -0,452178317862391 0,0268049268288435 0,329550214424295 -0,0100423204282447 1,189682876557 0,871951111920839 0,904795107400954 1,55381548224957 1,52109054887178 1,15063082488238 0,767525632168838 1,50416871597417 3,36763214131819 1,49850648552085 1,0659826781008 2,33154353675316 0,80455627137853 1,84946779412312 0,226381851314506 -0,301176973196163 -0,710476081840167 0,173539233324875 0,787675001416089 0,692346206562983 -0,543417595337477 0,659368897566044 -0,117359080004434 -0,290015767061384 -0,114551148028597 -0,455309431231182 0,225351458667917 -0,69301752106238 0,929473757834709 0,58211753579555 -0,115206269509719 0,727684114449863 0,34363107271086 1,32340939848617 0,798998071977962 0,52620024749675 1,58697842664935 1,13148596136145 2,2456972444642 1,75276748356739 -0,0937715109655644 1,2880276680044 0,715352750168326 -0,611978387129882 0,389029255557986 -0,102629437361858 -0,944354528784076 0,930383086075019 -0,512524394155026 0,730840531920241 0,298387554083907 0,35684660599584 0,211347827257061 0,602584542457984 -0,534721208744192 -0,73015456652806 -0,613832954931919 -0,947597278623105 -0,748708242643848 -0,879587837218843 0,132422882963128 0,713855383954677 -0,201709485524401 -0,166296963696504 -0,398790641252941 0,585913468281497 0,213208978824589 -0,323723084188767 -0,525476001167609 -0,809605876751788 0,365334499052581 0,0605252323744296 0,291615481333308 -0,943746859216666 0,385522639029212 -0,332192583693506 -0,734064556597996 -0,417757366576344 
0,335244402491953 0,9886284578072 -0,518956108213947 0,283598861835596 0,804647428404742 -0,887292891176187 0,88540027336459 -0,222341753599507 0,567790068996873 -0,168267501550034 0,0539754750922926 -0,181413196996626 0,893648979318498 -0,136608375162524 -0,201915581165179 0,738891823632523 -0,40042748502487 -0,399194411141537 0,0783608202720613 -0,326386001066599 0,841346570728875 0,865368263314085 0,791372801592182 0,466154462921391 0,571323895208124 -0,68262774803808 -0,575032793206743 -0,752787697433029 -0,958323436257679 0,147391585748245 -0,790641199187773 0,789768260386565 -1,00422501885341 0,794552197170856 -0,300649134526688 -0,755646237118394 0,629016383007587 0,838107209370556 0,872879143433683 -0,418367503801406 -0,162988288655067 0,647008082976319 0,812147835162671 -0,855458450375005 0,608021720612333 0,550317020068481 -0,734239884102151 -0,555783457316359 -0,744241892765254 0,568580849504764 0,455246536310747 -0,218863259387013 0,585727357624804 0,588602206058982 -0,262823175714849 0,462173036561314 -0,810447446401539 0,0071863262480774 0,704571864010933 0,479572073826252 0,679127192330749 0,630583916021001 -0,271081061517829 -0,585105597666165 -0,396231600771988 0,130234882822679 -0,387434755085983 -0,84091281752517 -0,638207405532349 -0,303922661505965 -0,734751978396686 0,0207561325747143 -0,0697042579306074 -0,565962906356564 0,550681631752177 -1,37710373358854 0,483541934061665 0,290430178044881 0,790530706653856 -0,995721403404834 -0,958482392723896 0,984817168186572 -1,00332368393593 -0,530930932811994 0,686727097624221 0,420657886434538 -0,803662199854793 -0,600530322579658 0,0499144861103996 0,297864810652739 -0,820305693622962 -0,209409930713654 -0,579459128289922 -0,182859465498825 0,161534859061815 0,62116035828133 0,649573556443285 0,430896189749803 0,418654043501785 -0,782903577927364 -0,00823245584343617 -1,15801142737282 -1,4685268679495 -0,248410108139079 -0,416137014418853 -1,05938054487424 -1,40902200165033 -0,158473269901273 0,629555869590208 -0,449245249173407 0,519260827621717 -0,347230597514415 0,065125053825268 0,662404091886191 0,42728575006206 0,687085990619904 0,634813762701689 -0,642472154633487 0,184374764890045 0,909700541018108 1,13227892803107 0,498856261999118 1,60600385797099 1,76634980612562 0,91498445295443 1,23330329370614 -0,850989945948505 -1,56572287712248 0,781782529710508 -0,411140978773106 -0,121245799632704 -1,25386059361421 -0,240934610384575 -0,818063466342291 -1,07511553407204 0,246755167511294 0,686902062698252 -0,671025887407859 0,0122912547773225 -0,0120510514459744 0,357484988149833 0,106670408605797 -0,334701429375312 -0,511136950392044 0,869120824138125 0,913866828913885 1,39980216710562 0,610809883329767 1,32906941796353 2,44187317032649 3,08601981392103 1,42691190100686 0,207014084143941 -0,476782062858332 1,31101105390032 0,714197657571633 2,29135953396795 1,54799639494639 0,766842077883057 0,0136250050364192 -1,30082440904876 -0,0892996417089256 -0,321495011642195 -0,647832013844301 0,343367785648311 0,173428617951666 -0,191876579107181 0,390653939593297 -0,666034496653009 0,548864411025897 0,97349264965379 0,316396409330786 0,401875594910791 1,5799700468621 2,10109822744301 2,79618211692793 3,5252658591012 2,59837731535806 1,93755546014997 0,610176037930519 0,572335292285006 -1,11170287588514 0,147064520749932 0,0857977149182905 1,15856545687043 1,33247577415234 2,58321519386055 0,021105183101022 0,112788245015662 1,03891635806628 0,353202788922064 -1,10909162252705 0,163768050958422 0,09161671976951 -0,0506596432685172 0,624139108708618 0,626192677347207 0,622517920496237 0,187238596767371 -0,256115259022273 -0,0935527892737596 -0,0514635451126673 0,518751623571171 2,08325281658567 1,79548906378373 0,914554250648117 0,59300997247034 -0,71515343512756 -1,42093329108536 0,244699590732224 -0,736952858042841 -1,51811576664832 -1,73025766260717 -1,45301893718331 -0,832792154649888 0,795989550910939 0,51356249098558 1,96409224959165 2,08125693816712 -0,898547428741443 0,439214918399349 0,331663899368765 -0,0218259587678003 0,30394324419892 -0,197766438137313 0,60077882059548 -0,885229383385531 -0,83316987224174 -0,383205055297247 -0,395075094834169 0,121767365055088 0,254024052512906 1,40351297537512 -0,429372460151691 -1,27419121097558 -1,38200785575239 -2,28565732850683 0,249568598192451 -0,444395894994937 -1,44179166027742 -0,845026030768081 -1,25465007486693 -1,08344026874519 0,202355829013127 0,414066391789851 0,879099999911503 0,461523175256245 0,21032801413268 0,314012134153536 0,242995594944024 0,310444411980456 -0,44452504110072 0,689362678864032 -0,562247955053883 0,0297378580750907 -0,0366046490804388 -0,268487364475638 0,228603647826924 0,991992204285523 1,74399204877347 2,22848192975943 0,0637183176051662 -1,74498398580053 -2,71371395957211 -1,82651775103138 -2,36302429935023 -0,589285266632595 0,259744172658623 1,36123743731881 -1,03174672149333 0,750753924000451 -1,01111227101143 1,25049115038901 1,03015708865416 1,49256104055816 0,389205787726495 0,192569654184078 1,16881491834202 -0,149134453588288 -0,358206789812361 0,365532781641474 0,181721352001243 0,0585383120803131 0,474522127516562 -0,332209484656772 0,794972944788496 -0,0171749303706092 -0,44591232226107 -0,132568568041512 -1,10739397664411 -1,71904362665589 -2,105276498748 -2,23488832816293 -1,43412667829357 -1,76127285026095 -0,313567985095931 -0,682868496380311 0,268450536052255 -1,05116250841269 -1,65794400213907 -0,252653884016963 -0,440777282388457 -0,0548294288171038 -0,925250220600421 0,0248422371050475 0,135344426810467 -0,299360558554139 -0,308327304451923 -0,121365172197801 -0,718226621042926 -0,366686593188347 0,321501200812175 0,78942400754143 0,67535885315281 -1,55281732108324 -1,87092916127941 -2,06011380142755 -1,73589148015982 -1,70063033118126 -2,34866584310792 -3,44213529815625 -2,43923537287149 -2,81652784661086 -1,45988122256271 0,959457060464175 0,236785630632862 0,389875957690609 -1,11448707359066 -1,86369678347153 -0,958339601867823 -2,46323662681025 -2,96282473884117 -0,890873896994824 -0,370075393262257 0,744882953300783 -0,312903584137288 0,818658580715396 -0,607932278737791 -0,484939567819588 -0,863415428942084 -0,109170644667815 0,289532319401872 -2,25685059749087 -1,63119369970352 -1,70601494035567 -0,573672004058187 -0,856806455389939 -0,293440277453931 -0,634982233020038 -2,51015017591667 -0,79934606375097 0,455976302338257 0,531668015151658 1,17213789921734 -0,144415336740338 -1,34699711634986 -1,89504455719456 -1,90585530681795 -1,84140993762864 -2,59020551783153 -0,42688773920198 -0,79539253819332 -0,381374750741937 0,248348471767556 0,814181745504769 -0,238002855770786 -1,00945732859996 0,356445506309898 -0,75998074873038 -0,189866158795651 -1,77182511003391 -1,40659768735091 -0,464270382540068 -0,812617863017575 -1,5234930541673 -0,673815972760296 0,166171360131317 0,888932411092655 -1,76970372787133 -1,56988283353457 -0,252303036514851 0,689025749099994 -0,849872927372436 0,642410194706529 0,391312443568898 -1,26075386971071 -1,01903109968463 -2,3968980238324 -1,34056525217655 -0,176386000216819 -0,85555925071424 -0,0973089313389388 0,348391237690383 -0,92094651012993 -0,800223094699447 -0,189161062866824 0,103715064799627 -1,03493398238795 -1,52325155602814 -2,28559589330961 -2,79761279453292 -2,7699932781391 -1,57923969593208 0,154814567960234 1,45972139657619 -0,156623553721509 -1,4547632767381 0,508744854645992 0,76877227101522 -0,819732316568278 -1,68253165250278 0,847579986202062 0,511484471856096 -0,084830284669622 -0,411967985519099 -2,28271035025819 -0,717503533071043 -0,682487408519376 0,586696905499441 0,194331538703874 0,624833308345844 0,599866370041465 -0,611837355501546 0,223420096758427 0,426312401655955 -1,21285707823038 -1,92980654298016 -2,12418276977413 -3,5306992112907 -3,21873142544077 -3,45210535891441 -2,17626766034421 -1,28346236266295 -1,44621512411646 -0,632300849693815 -0,370711917670809 -0,183657426095829 -1,19158181088104 0,139012173905366 0,966171495233646 0,536564320097253 1,3817663105705 0,539454932424401 -1,19637967778257 -1,1609301516433 -0,63518430297459 -0,784188065888207 -0,137474312762245 -0,0926980953630717 0,977907362933929 0,222403546989696 -0,366984449562848 0,50995934533086 -0,550966575508868 0,232431477530527 -2,79137818252586 -3,77393661452674 -5,87336521901882 -5,12030462621745 -4,41229270360347 -4,43053079824624 -3,14177117475116 -2,63280988352771 -1,03337759191797 -0,81049930355628 -1,66511736358374 0,836753152624036 -0,264619911061624 0,595841630457831 2,22665089072397 1,28218801328053 -1,20662588225137 0,165820631656489 -0,741303677549983 -0,219916034434959 0,976812294074151 -0,894650600289397 0,354095266983899 -0,710102046569901 0,210873642058593 1,81654781065073 1,94777481594753 0,389442774409532 -1,92550873688706 -4,99727986286643 -5,1576207606547 -6,20183444654848 -3,66641891418177 -3,32208001637018 -3,78442842684228 -0,969975724403241 -1,43106955335756 0,180541240816936 0,251460956148759 -0,0103871371036365 -0,861467633863791 0,831495670572677 0,186432245950399 -0,083600725896045 -0,995419866554536 -0,249232931418585 1,48094151083947 1,11210520048325 0,012950416633274 -0,851921533095732 -0,138245767251556 -0,427777840896399 0,686357368667148 1,94684688087017 2,9599107971749 2,12868547998437 -1,18042150886329 -1,73766439521584 -3,08301087608946 -3,23063215808658 -1,95898049390803 0,180295650920842 -0,178819002043849 -0,722544387210015 0,445954538212568 -0,0448979005577731 -0,726787550837437 0,887532097414061 1,39346422201827 0,734117410125261 2,16839434923845 2,39897982600887 -0,0307203914751199 0,853950617895612 -0,188497650638388 -0,349756346095307 -0,917350673015026 -0,144540414290221 -0,812340634653944 -0,797100738563547 1,61072181608615 2,19301072217173 2,95715827792902 1,72826497715427 0,263756997169555 -1,03492679220834 -0,455620576144573 -1,45625134657151 0,504359184168688 0,689467133531951 1,69442483178294 -0,0673577794758289 0,544561852686956 -0,451286804864195 0,467103463413427 1,57400788524497 1,90143662903164 1,76397444549624 1,65309418912994 2,74224092356333 0,8983829289821 0,635270594547805 0,401636759840104 -0,249271463613696 -0,350860182103714 0,161284856619798 -0,625908596430189 -0,731881758126202 1,38438451378761 2,39820136657306 3,06280346987956 2,49784265363572 1,4208918577311 1,99403865567663 2,36863828474134 2,99704396708636 1,80739802638777 0,497757506952736 1,03815020809317 0,788876710642649 -0,035772282659894 -1,05313960185607 -0,176528320350325 1,63864952678056 3,83157897938065 2,86707626793815 1,231721120588 2,32910478812831 0,795846918128762 1,31853425352662 -0,505229931974917 0,354224116272697 -0,836330564714538 -0,541585515845029 0,70471149919064 0,385451269071015 0,812659948647753 2,2947781231873 2,05491565428109 1,30044113824151 2,40437203212114 1,88496019235128 2,79772461028523 2,59715883384126 2,26659637407214 0,333861786262395 0,45732259922558 0,362313094212115 -0,987781870472201 -0,513607526150521 -0,0299980420792764 0,794291088610551 2,3884392517453 2,51491132763728 1,33494550315989 1,01523671958051 1,97317468736275 0,445044967905293 0,783115198178493 0,713742468393588 -0,433703428552259 -0,373931565881854 0,835811388737159 0,670739257094247 0,878292481327927 2,86759491263257 2,32935876139791 2,16498282632679 1,74637895206992 2,46386183017186 1,38331815714983 -0,147648148027194 1,19197616819568 0,75008312732659 1,06822118595217 0,0911768449932443 -0,266850149057583 -0,487321839601684 -0,675715359602056 0,845964504026492 2,17357445188631 0,961029229179947 0,225667176913496 0,54281872717623 -0,551262653263505 -0,851337111361519 -0,49044002117171 0,133255346256305 0,814216141888317 0,252369472920952 0,449062947439411 0,317649321406403 0,663925799051505 0,594358488774963 1,84315721192878 1,46774542682739 1,55431433709035 2,00950696607325 0,234624619788534 0,208060547600732 -0,658974736700543 0,00211202800897321 -1,2020797905998 -0,603634341841652 -1,05491039447475 -0,253959101422872 -0,124385850170901 0,316397062596859 0,71301841743647 0,317487341155765 0,607045536815656 -0,379352702798679 -0,495923213846279 -0,490473960931349 0,768851184498223 0,711533990501506 -0,990393813182882 -0,315847268428697 0,446139091880011 -0,0498086273380586 0,501219269941424 -0,811269455100403 0,568796544402192 0,0107313682638322 0,127893172816728 0,943028627527079 -0,328225281888123 -0,908982631638772 -1,43579076170936 -1,98764881429686 -2,03449576162819 -0,442333330941169 -0,890321049596258 -0,190508895356674 -0,153988908368671 -0,709249174338301 -0,536768386168591 0,399918222148314 -0,0742313116563076 0,523718008824663 0,322954032332962 0,325664186145791 1,02888528749388 0,163332570415339 0,775005281378884 -0,253076905456054 -0,145514546914846 -0,0596769674881589 -0,0242320470351495 0,834187753241963 0,0350710648707896 -0,615734512998116 0,581520646809392 -0,179879440570001 -1,7327832714936 -1,28136626881905 -0,993677587452533 0,0732755636286086 -0,737534760433365 -1,19978799162752 -0,813182340818223 0,11635658852981 -0,309302782101449 -0,85502937051051 0,536546164500128 0,851205674024929 -0,909241320228007 0,531640545701716 0,732963228631303 0,568023081435376 -0,0545658604132045 -0,442540805946422 0,737947300466585 0,948458686959113 0,640628124000698 -0,799065312696285 -0,837897384897783 -0,861723387645118 -0,411273318179486 0,679219084688247 -0,334711692188439 -1,04555457225941 0,622360529131781 -0,960347156857745 0,435328051546561 -1,10000373421472 0,199652948316411 -0,655486858710757 -1,08588949669778 -1,24116473001404 0,212760690183412 -0,22850097906374 -0,46578488135629 -0,762882224626781 0,851160462541009 0,473072988910394 -0,769055726357407 0,576439218910516 0,256640012191069 0,902990909760249 -0,264419896604804 0,355948402758549 0,165528110352011 0,389484823909234 -0,0724239842838919 -0,455538877236741 -0,196085833705215 0,952870271621418 0,883246070748435 0,88359686472561 -0,805520787761853 -0,572602419560796 0,0693201518667608 -0,139177688328904 0,655070414370744 0,402562974139975 0,870130452528256 -0,231003162000569 -0,277541270821672 0,674361903975112 -0,830617516191975 -0,147012569205383 -0,37021159655986 0,445208778137102 -0,999803857886464 0,876456672780329 0,757016884562002 0,328413177480999 -0,923775338951493 
-0,808751698279752 0,992433268787893 -0,395486356194469 -0,121340339379658 -0,28302296941274 0,0335218550145066 0,461827798710479 -0,00338053728575927 -0,481856583161793 0,305269428419895 0,101001864095107 0,39403846294377 0,748677242822581 0,282713676301898 -0,012264450337503 -0,861232041102125 0,167951742014245 0,999526997311172 0,925542687245783 -0,301657881047995 -0,583361677416883 0,558460565292842 0,42852450250149 -0,161911607115137 0,563352487992545 0,745894858709839 0,901453217660174 -0,254990244654114 0,739169308077509 0,408138930736529 0,0699695951914072 -0,193705465054582 0,494397430659811 0,895745553242276 0,738255087378905 0,937466101926174 0,635623750598235 0,590378417458398 -0,591296008473416 0,890869456356468 -0,689660876170832 -0,482616699617401 0,461426533697868 0,577285009503252 0,752093317723199 -0,622731966110136 -0,523744360634149 0,622879794407822 0,68787380912342 0,351843419161893 -0,12235302676618 0,922333326543741 0,876877804444 -0,324525334343205 0,704989945593171 -0,348362011316978 -0,417240981457979 0,785275503176278 0,334157424883413 -0,0100675758669661 0,14693518406747 -0,264743811890746 0,276300408810067 0,12900169659187 -0,730558840408444 -0,641924821502537 0,972658447563494 0,965065697365341 0,79298723473265 0,198205070075361 -0,369402928645544 0,692759703639795 0,72428012664397 -0,91945044166944 -0,564839836098485 0,99568387550192 -0,736943763507575 0,989613290343342 0,184079367371598 0,219012524089658 0,289810586809475 -0,700367156993417 0,0764030504679121 -0,593825142426915 -0,450658827549731 0,166486564850081 -0,051733017242967 -0,157644720304931 -0,787174687301468 0,10630518404934 0,380808443069847 0,891292023666476 -0,672132725721094 0,515865125270308 -0,132194873040564 0,81235177429332 0,634075784051146 -0,145583027081496 0,511752759311766 0,653056052512339 0,014440224160316 0,330311255797253 -0,3720866550152 -0,0397847793247817 0,114022220799994 0,551753412155134 -0,57067687648224 0,8773314540521 -0,729363177152051 0,803888066319501 -0,450942624821412 -0,287953884726015 -0,351210068394639 -0,865692137463455 0,71899532255705 -0,126073628547874 0,675992933702716 -0,045206832428882 -0,19377274435292 0,411734732211944 0,730053139996003 0,293474644798293 1,19326943804019 0,164608547237044 1,51781379670176 0,562958794325953 0,98725243214169 -0,0561995127336853 1,13383558605308 0,821453293437046 0,558745788329601 1,26381720710599 0,0176338432009156 1,12352609419211 -0,430801342971155 -0,495490958409595 -0,79883768945097 -0,552583827616658 0,576802500087322 0,269100609109591 -0,146493660605391 0,117853593816334 -0,426366545296744 -0,550994937726691 -0,411325308919278 -0,0853876148106364 0,697078880413107 -0,289160625583203 1,04551814597408 1,2880224775297 1,89870528360046 0,00250181074987451 1,67807745969335 0,774964463357237 0,318572931830608 1,49074260054367 0,988241005890273 1,65640759963949 0,635396796457436 -0,462975165487925 1,20582517326913 -1,04992075909283 -0,990217110013744 0,177018746276126 -0,000469402825486052 -0,279390433331295 -0,857892253276361 -0,0996493299613222 0,379469941295791 0,0535191258016403 -0,349209477689562 0,289090207148626 0,474904576400903 1,02564227046862 -0,1615944894453 0,0393902547474332 0,331368399427862 1,09461665872132 1,73358133474743 0,574028173364657 1,60641618231665 1,83538775523079 0,781413329361216 1,63806591730598 1,25692222065964 0,509600921317552 -0,344309381326312 -0,757426336208646 0,364536375734832 0,176783835558903 0,0706462446342863 -0,972285456179017 0,0298223576603735 0,225583626844744 0,304622207689693 -0,290437509571096 -0,432563295575621 0,129083258470708 0,297203992469957 0,894711304494216 -0,0626664992481325 0,0409651285714577 0,258276967668141 -0,211081393911061 0,544347731926625 0,00695965306260301 0,667932451901862 0,317104124533153 2,34113730467227 2,6683199333463 1,93098306072162 2,67929201638135 2,23411542816876 2,59808688900898 0,336851247555186 -0,764399556826507 -0,569813692347202 -0,569376061400245 -1,33057744633218 -1,1297669216233 -1,07075262690881 0,483451559716286 0,134673802342544 0,986594540904698 0,331141913833503 -0,960441843747693 0,720612598339704 1,08831483519635 -0,541604531935366 0,937835434432087 0,82549189140699 0,506062395088321 1,41230804041191 -0,707468137050064 0,243716127955459 0,702669157040338 0,391867210846943 2,27320308613426 1,76846505869903 1,03898953716974 1,75898121613795 2,63234225936944 0,602577828383117 0,342710185588605 -1,7178909580866 -2,30312366856385 -1,25627572827697 -0,522271839571314 -1,22815256657509 -0,842050391992965 -0,0124477839398416 0,403116831553179 -0,399659743108228 -0,52616853972628 0,136877880603435 -0,0229577421540457 0,576130086639817 0,236464497258377 0,243830039390502 0,0672391836180852 -0,347139490394275 -0,826601909101503 -0,913861139173166 -0,487159794274539 -0,226104368758702 1,68102266696859 2,11956202541776 1,26971246159669 0,865440756317968 2,46926289323415 0,0562737198218501 0,214194253166635 -0,590246713006936 -1,65967459480418 -0,320984690448791 -0,695549574848679 -0,275477925349773 -0,0475377486969873 0,392925461110223 0,305168514019057 0,147039740653757 -0,900493702030219 0,399873816088572 0,74555602054695 -0,0182803043021859 -0,460597906767434 -0,625499502730465 -0,208164005098256 -1,28316337491985 -1,20033030050622 -1,10760338848261 -0,436192726108477 -0,506427893537936 0,458881787114413 0,470114039830279 -0,840413026947516 1,04339099388563 2,09274887090181 1,51111822175241 0,205333511063949 -0,835356597519815 -0,0764772063235256 -1,23849631459386 -0,403271356495419 -1,01746173659954 -0,0481263130370557 -0,659629083971442 -0,709915089058085 -0,123308399693898 0,978901751639078 0,461565499873137 1,14232994976408 0,818874852533682 -1,2682420673403 -1,81464222402208 -1,39442926938453 -0,465509335634266 -1,82229689629107 -0,723765917253754 -0,640262249666689 -0,911783826593486 -0,795522306813909 0,186029201666367 1,57630845995423 1,45537733890408 0,604726933805347 1,39858008984291 -0,286370269047929 0,304947969293453 0,503991662856142 0,498044417753239 0,0594318059414037 0,0362653857810482 -0,717439209967583 -0,0100084532088037 0,869566601737258 0,855695815904276 -0,686969240547245 0,384269267925907 0,50479375700492 1,054843767453 -0,925076874262413 -1,253824135993 -1,14211160487104 -1,73717823257353 -0,30359017791325 -2,27008114763464 -2,66821905647847 -1,45044784764924 -0,727088640475385 0,452329862034412 0,341787035727216 -0,415372846355696 -0,0183584985838356 0,926634428364875 -0,531640563799299 -0,281920166666023 -0,774501762540686 -0,14332912216453 0,139160072468006 0,489401685083124 -0,761358537753738 0,21248088876761 0,39133490239142 -0,91214455918008 0,987062902253435 -0,239462643555571 0,0962511910237257 0,0010185075437713 -0,994729195030024 -0,615066245408412 -0,415819233220146 -0,239556837940502 -1,20284858223464 0,233894387712812 -1,82090921579473 0,220548914201172 1,2169125158696 1,32197690243467 1,65821474867138 0,509091989375905 1,74016269862128 2,05933426633283 1,17301115051072 0,556042464967834 0,415258262317809 -0,125584556495598 -0,300491538844775 0,677405355789379 -0,0654328309779102 0,193077316186365 0,270145967709034 0,0539714337860837 1,00519478889226 0,92879874937703 0,838212852706987 0,153030964345084 0,0156666414279927 -0,513670892156091 -1,01429253058453 0,238555034329848 0,450431886563512 0,921854534156452 0,15923774741305 0,298160230584088 0,724906524697892 0,81104328522125 1,56313914785781 0,916064849950709 1,62298673071218 1,83329606548097 0,969241219996851 0,970771410653562 0,967700389892911 -0,414120702631422 -0,916498409085249 -0,192667004410574 -0,464651075269195 -0,81914740629529 -0,440121121434671 -0,274150979536365 0,724599420008829 0,363127833716061 -0,731841621466553 -0,187008098262312 0,854804509592374 -0,276211552164934 0,907914119025235 -0,122814482072242 1,07661594307607 0,220664999478351 -0,117961822156535 0,591976271188138 2,14158891841941 1,79844385354748 1,79371662831511 2,16012690425155 1,90607272780018 2,61805073304963 0,56936797006945 1,14047933977497 1,85407770040711 0,237613439544157 0,339271341947171 -0,387288853393043 -0,686229055993186 1,10704843059831 0,610709667146533 0,199048444273027 0,576920653335307 0,0431241610942917 0,027176175910223 0,413452058335637 0,0987439321880954 1,43708987415861 0,701043552564253 0,82792610165175 -0,355167430108922 0,1313959092646 0,613774127709412 0,254597842607857 1,88254349099501 1,52144242325944 0,0760880926409396 1,68236041611824 0,838621582834805 0,808390781619517 0,108481475536996 1,22427585630209 2,35903876291488 0,661902274285381 1,45778828154401 0,484899762398093 1,1306822341332 1,18802393180332 0,225279345791857 0,199422519495793 -0,893214356884995 0,959703159206298 0,350310297666148 1,50699968136988 0,751787751821897 0,0875200415591265 0,278588224731173 -0,0429404121268924 -0,437628815221199 -0,472647411232269 -0,657564427740265 0,808470446246006 0,697454344952212 0,95787614507791 0,886678811477849 1,66070438593706 0,328829599525172 -0,381677626551898 0,202957064258244 -0,245410091220363 2,61196082253581 2,09523756275224 1,7176263742175 0,731447058960823 0,741943834138322 -0,156447678558094 0,858039459039088 0,219892584309057 0,115040760199588 -0,904346560283329 0,917074661623975 0,55544579595719 -0,0855183678952937 -0,868739618626613 0,354372486234713 0,207656661167552 -0,184006932992711 1,23198007769334 1,18657186665745 0,97305436480513 0,185120261558769 0,900328679674879 -0,227857081359607 1,74829745631516 1,40758052147306 1,27267151513035 0,775298328192154 1,17038314226221 1,48776591735084 0,949364749005085 0,499786954226235 0,559505707540045 -0,359938016315912 0,027782061366185 0,277223289170505 -0,318110117156687 0,975213768163681 0,755323030785259 -0,150587793560393 0,0950910428416951 -0,0130139660044547 0,214018237881012 0,432239387778526 1,54956628197919 2,09382823943061 1,79752249550568 1,03091278458297 0,493683508896339 -0,871384582378057 1,20047153211363 0,588087161349978 1,22606239435013 2,14851166993883 0,818462776315881 1,19306534289285 -0,725553968467243 0,840960243259679 0,677438038272248 0,334163072222624 -0,666819518498784 0,266445227647511 -0,763890856817148 0,88660204646824 -0,35534529709005 0,196333847780482 -0,876708297086441 -0,539285075420911 1,27312557652246 0,387671294042912 -0,21254368301631 0,113237246465292 -0,138544039840113 1,0270144101846 1,56350719441617 0,888511759492188 0,304695473056671 0,809409173263169 -0,0643839169792584 2,08230142340565 1,8070231916757 0,972056199389426 0,801339509826399 1,14105363221657 0,352955729624982 0,506503931871711 -0,285785652312577 -0,269375077856573 -0,549083121945185 0,422695978285499 0,120506266910086 0,355457517943836 0,198263752115433 -0,297322938607908 -0,97798061407324 0,256690143881669 -0,180312355708586 1,23383003425632 0,858931944372143 -0,353084802925196 0,631194455110056 1,14188260901769 1,62888283535507 2,33419216618725 1,18757726033898 0,600964742978226 0,331917566217948 1,77577359455279 1,74568299980152 2,05144192754659 0,974401904254319 -0,414014553021181 -0,194785724746476 0,088681931921618 1,07788269544395 0,801881499964275 -0,492132245163146 -0,328522584488873 -0,494997892290538 0,254842477718178 -0,0808805574756684 0,620285956226774 0,806697690938204 -0,533872287309718 1,31069143630994 1,11304829858401 1,44854591074373 -0,83740220081379 0,263062928731895 0,091875445787745 0,54573520334832 1,56544606394734 0,260608652409062 0,716848242076219 1,35697832340678 0,805516405611793 0,763323982227448 0,734194172890192 -0,106931778687589 -0,926587210925001 -0,0948645899780554 -0,225093605533531 -0,562690295506935 -0,895440044683878 -0,951822702688002 -0,221413932092166 -0,605715232023487 0,967276993406951 -0,247190708660719 -0,819765842221217 -0,400063997903858 0,754723315786398 0,573674371434569 1,15521535828576 1,30757202054712 -0,61677099411439 0,818240455139675 0,274907147816502 0,931474085060628 -0,0887509358545898 -0,571092474404093 -1,37062506014773 -1,17928505659151 0,220265430305768 1,01595436803242 -0,508746695300607 0,226471942598734 -0,272925685915653 -0,0205046071024074 -0,877205127086718 -0,655496825098999 0,124976625553615 -0,972982555516772 -0,900863766470625 -0,803519166090942 0,994912150528127 -0,052465469851953 0,354610724288678 -0,810795869375598 0,24863304535596 0,382068594963696 1,0925278314445 0,74467981926076 0,224169851559947 0,523162847538901 -0,880345068671011 0,197896115236552 -0,253170666683725 -0,516601188950803 1,4457234645057 1,02255282217803 -0,512803003234432 0,222378678591457 0,248317712624359 0,274355227802659 -0,267341670879808 -0,325478656712186 0,124666968409203 -0,174662556227591 0,82302475779139 0,243459728459916 0,258209942545709 -0,322596693812793 -0,698361087235439 0,56465898548505 0,120876813112588 0,681403761795796 0,253583242764519 0,778616934357334 0,719864210360988 0,200874496057197 -0,439142338688083 0,0625188480696417 -0,101945021216274 -0,385959144624092 0,576430162391755 0,266146555110152 0,424824464706948 1,13073646135631 0,220786351594348 0,141865164545255 0,114866315434492 0,269660135010243 0,490637043599486 -0,304668218203827 -0,661620348840973 -0,571779119295066 -0,186656441618166 -0,338879183833245 0,400015292624373 0,233810000910687 0,847984800258996 -0,534330891945202 -0,66018807571355 -0,978781045190067 -0,92610156660193 0,300487269272825 0,06523030059469 0,56822066530832 -0,323442934260276 -0,0940897555849221 -0,649224233373798 0,246992279576259 -0,336866472078741 -0,066385529755768 0,50237475525042 0,551680915232792 -0,476142195958633 0,311626028928002 -0,473848105359664 0,97734763615527 0,668347936379 0,137097509989561 0,863537672935007 0,178372075427015 -0,471328543932178 -0,71584508539167 0,325228208576324 0,649090064740667 0,200222288100504 -0,30414567833924 -0,115974234722192 -0,388757519856094 -0,606767244239344 -0,521353949106349 0,298223855312315 0,989499405732246 -0,470086568690335 -0,348936687075891 1,02168528828448 0,784138061302101 0,920777977071822 0,724623003412908 0,530797737071652 -0,772562269569019 -0,550147083342468 0,700097068842617 -0,481529239335088 -0,482276035123247 0,238846942762669 -0,0564767239209756 -0,958654530330939 0,658946092998982 -0,717171353264592 0,536699376999146 0,607294928314187 -0,302094701138015 -0,40176451529423 
0,126616968402493 0,451389199834528 0,74213775238916 0,939687751241375 0,370754310604099 -0,747050878438164 0,796312662713868 -1,03545545598419 0,669524173134277 -0,358963494786016 -1,01616477870341 0,568984554915708 0,468421437107745 -0,0990282861979939 0,734222258233159 0,123837382310765 -0,418869666448705 0,932301906873174 0,926249152982285 0,67392600502399 0,675645687502205 -0,295562747502001 -0,200848462583394 0,735548497090398 -0,231216930390404 -0,636391068603533 -0,791684525885911 -0,379302552576289 0,191423980178541 -0,712101370857584 -0,191854795960144 -0,177037111995727 -0,48184756534397 0,289723125928268 0,267015168239185 0,086328123819035 -0,83912501543349 0,718005929495977 -0,622980520618854 0,294898301207532 0,534681563745856 -0,918034868585244 -0,373534416822648 -0,0828160471991775 -0,581078492473387 -0,170028399064044 0,652241849535631 0,926683702688687 -0,823080835876347 -0,595250948736956 0,578198494456298 0,488770993748092 0,56541917363297 -0,091647307860935 -0,193036804495364 -0,626208458817169 -0,396150512303733 -1,04179891942292 0,122516506910131 -0,0412427927796317 -1,00375452640586 0,12722683172041 -0,275286908367726 0,331868332776745 0,770676442870421 0,0706597399000975 -0,0912620823181114 -0,973241728412398 0,547629899791951 -0,403282773464065 -0,125784110996899 -0,230536476550881 0,434532402852029 -0,543458044969024 -0,94301306701546 0,507699244438486 -0,98554057688103 0,834227767760551 0,286258991986362 0,896876889940954 -0,337824165925545 -0,766993095039973 -0,604610637541652 -0,261713823855224 -0,338688286608843 0,270986160891153 0,209155539649641 0,561411575715631 -0,565687368803041 -0,155929810603246 -0,567084792485224 -0,875971467259813 -0,51894116875117 0,345476597766052 -0,00295531514948662 -0,970941333679113 -0,0759473956701543 -0,324294581887684 -0,63861632984605 -0,475333043554468 0,224397785330705 0,179251272293433 -1,10313551630132 0,219185660977043 0,200481784092519 -0,518934783533175 -1,18557633037405 -0,130663279209169 -0,228306545308104 0,214031229127097 -0,703815170482927 -0,278063288517759 -0,376590996654485 0,177179244930971 -0,751806803827523 0,714851233645088 -0,339013036313834 0,750540681038081 -0,597062727097399 -0,782186810793722 0,293323022086441 -0,222239303854499 -0,178849092885621 -0,907682123920975 -1,72984880077227 -1,24064146753411 -1,94609543713035 -1,69865433362534 -0,36681120018305 0,37424970362252 -0,534751494133181 0,165855322572402 -0,193688217876561 -1,27656443547675 -1,27045306134849 -0,0982021207646671 0,753334261361972 -0,229366795550081 0,213563808371199 0,895670581504106 0,251033850632652 -0,780554929610108 -0,256079060304809 0,172551817626244 -0,541810824047169 0,431476532985374 0,156360256214086 -0,353190947755181 -0,948124787666943 -0,542735970653743 0,0556122949820171 0,421950344280454 -0,655014328518535 -0,837624486366606 -0,039836562289797 -0,736463937513648 1,11620654934892 1,62651881584822 1,65584063299988 1,1512319014363 -0,115452905108525 0,828117811888805 0,434337065310321 -0,38988359685833 -0,326676836609884 0,284927794845029 -1,23000112257987 -0,423110813033821 0,0528438450442204 0,0603639777219503 0,782861658931616 0,821615021435976 -0,415837341077176 -0,619566716572699 -0,0831239524513305 -0,329428804306291 -1,576495311572 -1,40598323254089 -1,00346445185486 -0,759938743417659 -0,315648393466655 -0,874225726907436 -0,355430525730301 1,02721547181028 0,0288242841032572 1,76332149025377 1,20813519230389 0,711369307763389 0,332032069914821 0,565307030166031 -0,321890562565849 -1,97587476431797 -0,644878210398578 -1,3179382995971 -0,109542999065318 0,278103727840929 -0,452074892250762 0,65847524344122 -0,821003756182777 -0,0265075395104308 0,623293416531397 -0,277305127912419 -1,09747875559664 -1,53788833951138 0,164626207248159 0,779320987239985 -0,609286451590844 -0,00478779969238313 -0,846973522923835 -0,176513917518334 0,200853053656523 -0,0671690043019163 0,682983394138686 0,785830197951631 1,31065297807527 1,63349889386595 0,781287866082429 0,67743126522318 -0,683035685959351 -1,62074732479894 -0,52769209089627 0,125315564112536 0,813346308120265 0,302799298814403 0,69933291381148 0,436416383219946 -0,61885793920433 -0,878385239378069 0,176337555446514 0,701180344803269 -0,393106723070017 -0,329694889110753 -1,35707104268782 -0,258277281541489 -1,56639646474698 -2,71455362383926 -1,7123551181274 -0,256733957762931 -0,859292562509607 -0,845627510867052 -1,00488844809932 -1,06628198366348 0,0474939414273009 0,860540910483306 0,161452362306078 0,498244086285182 0,519029361336888 -0,057290878708954 -0,176069834218183 0,142551769350292 -0,981204500674805 -0,367926205480875 -0,371271974450518 -1,01268517232962 0,542200357225101 0,781744612444305 -0,224401714627943 -0,307783172247416 -1,19155249418263 -1,02374816877377 -0,378679620795757 -2,030359719723 -2,92413507601469 -1,10321456229956 -0,868979484384597 -0,395732413314902 -0,438411708972388 -1,3342702053159 -1,20607467151324 -0,602535081802221 -1,17196990132895 -0,97739734228418 1,81305404811364 0,776038871829093 2,0091759543864 0,933055929266466 0,0199485687399592 -0,482144021006094 0,0760989947183815 0,678779139278532 -0,495502582665153 0,867215502385498 0,00934776302999794 0,414757154351247 0,396254433346998 -1,22797002275234 -1,62485354372656 -1,42255529586717 -0,927173423541374 -2,20872132564493 -1,15576320235261 -0,177135270249148 -0,727583843479201 0,309685691567713 -1,02510855724161 -0,617905494138374 -0,551735864391109 -1,77916405251715 -2,17068240393842 -0,902771452950632 0,0168794469086096 0,329747290508981 1,30391295948663 2,42477521667657 0,123021205825538 -1,09745629322378 -0,197353801335462 0,845277143214803 -0,989045881989958 -0,58806301015627 -0,413933609718258 0,832171566870614 0,311222869377986 -1,38595153418511 -0,310662428561124 0,0813552379300375 -0,918462013747331 -1,17303401434266 -0,0369064158980691 -0,798498038820857 -0,366386330182145 -0,626218953533308 -0,955478974028365 -0,817333765694733 -1,03458432737016 -2,15723929156428 -1,30023087004842 -2,24938334714289 1,17186192609887 0,27902634426913 2,35150030153038 2,16834325060907 0,187929558566561 -1,02381102618272 -0,271542089938883 0,778165905881719 0,567946603356397 0,119339634399898 -0,428989835428221 0,448874834283952 0,231667083984399 -1,03483840940035 -0,865855279619863 0,223796359862967 -1,56953942691256 -0,717802244453012 -1,24016847755189 1,39432096492752 -1,01174982381812 0,328265696126565 -1,13760397271933 -1,96739368581241 -1,57336484778281 -1,6780163433339 -2,74814982295674 -2,58054111932718 -1,23090081353919 0,882795213014185 1,10044870211591 1,44565620926759 -0,597491252973331 -0,323809419148467 0,909585853461679 0,661809905347093 -0,0569315259249791 -0,387803910015305 -0,00378201122304483 0,368718299180392 0,681717683700855 0,729468980885707 0,855186751774779 -0,57158786157505 -0,163185240296681 -1,16146415887132 0,112381187993544 -0,593243012012298 -0,847650006785873 0,0986839096950182 -1,19893040808148 -2,27471659451085 -1,5752581671008 -0,887289194657854 -0,28814244020628 -1,92202638164855 -1,04366077818623 1,06229631140708 1,71749062681136 0,776491264794318 -0,554867138803042 -0,618428461946694 0,642682177579811 -0,497157548256056 0,0246080036583419 0,0102217392495605 0,0520725987445741 -0,473861582693117 -0,44217094322177 -0,445721112344114 -0,695788639331089 1,71225435063816 0,833092558698384 0,461221400299236 -1,08485774614802 -1,30220562570468 -0,0745102861731014 -0,399307603734979 -0,177057460797221 -1,7699638226379 -1,46089953471869 -1,64737359388996 -0,440817112691898 -1,61186206383803 -0,455927519239497 1,73625130762032 0,435316862656323 0,643274194051477 -0,418539334744049 0,0870668545955814 0,43918342881152 -1,01673435137281 0,892788824634556 -1,03243602773069 -1,04328754109166 -0,191845553658408 -0,780323386940627 0,397838366342319 0,884930138199286 1,4649571685948 1,99675024133465 0,00291244260133176 0,386011857164289 -1,85371937630536 -1,11767398700986 -1,11114547750507 -0,419674085275777 -2,18192522978949 -1,3679342370249 -1,27518065510316 -1,03853923398123 -1,35558591504464 0,301921566354616 1,41899901768915 -0,775047098455324 0,684470571059598 0,241235888503466 -0,0478616396319859 -0,654035493617551 0,233043842116979 -0,393953403296204 -0,682007270336811 0,588313060840624 -0,293190063986474 -0,107921562157252 -0,521466876687789 1,54562504226483 0,486529514699252 0,684247659766391 -0,190155649401561 -1,97821287009956 -2,39796621005993 -2,41008323574633 -1,83947720763424 -0,556401778820961 -2,17117170947544 -2,84388625072921 -1,76748984556211 -0,707727291322351 -0,0675750311125061 1,44165478724036 1,19999515672264 -0,246370348441081 0,75430312307869 -0,73381728635102 -0,0665009476383377 -0,12111375203584 -0,996210374103066 0,891302914343942 0,108353641452964 0,745502808775081 -0,224184796330252 -0,335578157251322 1,69385797907096 0,973649702218944 1,50175959027427 0,508188619387421 -1,02531294451352 -1,20139889176229 -1,92652211672212 -1,25636711644735 -0,727758855563247 -0,64143158940188 -2,61048816726926 -2,40277082323686 -2,12761013862767 0,401243922256058 -0,133447006941867 -0,0884288338305278 -0,0582558086469587 -1,69753813569944 0,917551309806647 0,421449940798872 0,191161279095139 0,156345649822882 -0,337145506613001 0,0461668191120187 -0,727234373815327 -0,424335181501261 0,323893788582826 -0,589228378489816 1,02901178633507 0,707363083363823 2,30504309570712 1,04263203824767 -0,561822648570887 -1,31801636247775 -2,4457947526588 -1,95307825057859 -2,38548352857048 -1,77027325580113 -2,31883698308629 -2,66730724193779 -1,12822517714187 0,391415460725114 -0,246496448100944 -1,53876357132442 -0,866465467393693 0,31004538270565 0,513307636733899 0,210411820151439 -0,502455889518765 0,627652971865632 -0,507836918768409 0,0445790202923323 0,867818644083218 0,480204568767981 -0,201194269609131 -0,959145122834326 -0,35205600593231 2,40061360394365 1,58762625286721 1,81697313927524 0,132919484611942 -1,78180187084331 0,474222136706182 -1,50224531701621 -2,11838570485847 -0,876378512404704 -0,775450258134015 0,602703969215367 0,681810569537341 -0,691067372296012 -0,114827768517808 -0,902247937095361 0,202737914367881 0,126899409895473 0,357678933969554 -0,939897163470486 -0,238655226039029 -0,471889260825238 -0,916479661706182 -0,599942791053506 0,262610528672565 -0,324281903642795 -0,981144932517742 -1,69598499623822 1,0805183061762 0,474741967000015 2,96103730813946 1,68908870098045 0,455487817615785 -0,514803492809654 -1,04904699710807 -1,77161995504946 0,054760562618617 -1,89495546188044 -0,974734465564828 -1,02362564809658 0,0634812888348234 -0,267678546226263 -0,0546044401581215 0,163197263413657 -0,884908469177995 0,142229239851707 0,851344877031892 0,684120324534274 0,792772595016077 0,199108751460864 0,079245531533903 -0,942145346741008 -0,723886883195444 0,353639933843139 0,522615425916003 -0,0264101797873509 0,616932263416348 1,36251523827724 0,704464017478267 -0,176679582064323 -0,309938521742968 -0,638208876917656 -1,53081440924577 -1,24535785166275 -1,61715944222762 -1,48057192166808 -0,251798305236429 -0,563373935774518 -0,782633601990487 -0,633363472550229 -0,282491632750577 0,0334813087930123 -0,972206411465673 -0,334087031538854 -0,502280617446661 0,152546773813462 -0,299501048358689 -0,871369082177389 0,0712870777452306 0,492321893236718 -0,10542188891483 -0,263561508318457 -1,03628006373509 -0,787636867706684 0,604383930501482 0,502338203238887 0,636335089198466 -0,0264110062080217 -0,177331499387822 -0,756030858092055 -0,952136758414587 -2,62044338651872 -1,31943822562385 -1,7003105911114 -0,626840968883852 0,71772861200805 -0,19526626053631 0,602384052964991 -1,29067119096084 -1,63163448923859 0,506706452485919 -0,814188268207427 -0,532962481996386 -0,360555806935097 0,761273899641069 0,22649712717082 0,115004081796805 0,216848671107512 -0,119646180906604 -0,478760564471237 -0,31669845278114 0,0809293037980794 -0,095062897214067 0,773864171096874 1,68136132038699 0,900345295526073 1,52603600653779 0,885949814153616 0,956282246976682 -0,567174766647572 -0,952816955490592 0,859363816126409 0,799199829067998 0,412979405383898 -0,747557271859791 -0,0371749766938503 -1,31730117084379 -1,01448277024378 -0,873825868518831 -0,436508952656869 -0,457479426571292 -0,308819707381791 0,794436802976077 -0,0463549179160797 0,564418743197562 -0,50875183261544 -0,765029953647392 0,355820102895372 -0,156265989511642 -1,20809485140785 -0,825706296093034 1,13426439598779 1,15888559711215 1,30432450119172 0,799816592558604 0,522449734174236 -0,155992183823695 -1,68935147891267 -0,772968178962444 0,494605043845972 -1,19687857062836 -0,924274566329383 0,0718197685139686 0,45337545760844 0,330534056193262 -0,596375067080892 0,0800584945803235 0,140717696853203 -0,497467364384839 -0,643021663726899 -0,18940305549725 -0,445276334047776 -0,145302911786473 -0,847706977171195 0,881381622496266 0,904400124085517 0,657803691195141 0,608812899754335 0,498391639370874 -0,0364753746721242 -0,505433607704894 -0,654591343917896 0,446915240287001 -0,668789989767466 -1,83313535580244 -2,0783021550318 -0,0231079122327447 0,228796772067186 0,657634390869986 -0,599657431449454 -1,27234702898767 -1,14512926434285 0,581945789320433 -0,612680192304441 -0,308889352892337 -0,729185752584844 0,487073874738843 0,795808919310989 0,0388257436902724 0,0834655895065347 0,399528898055008 -0,05663591296392 -0,250499351496543 -0,56131581751828 0,0945168038403938 0,471245698636479 -0,15837505747328 0,268748118591242 0,618196111996246 0,309709351518415 0,668680872357853 0,622664339329729 -0,277462958946219 0,767156963409452 0,502909313682112 0,791370464385629 -0,0571462873118666 -0,348978186648828 0,78264753936612 0,433879987265656 -0,52400992874564 0,271105122216022 0,316708647859702 0,904139386236019 -0,678837511419831 -0,3035019558699 -0,164564155337366 -0,552993765788124 0,482757876422169 0,561090914364042 -0,637574517894777 0,812044476107276 -0,45079856150492 -0,65801568028817 0,505878947710175 0,419660097117564 0,437547355470042 -0,14848975829116 0,437636982849296 -0,380326162138292 0,528243395665998 -0,343347946263871 -0,863513379767474 -0,378385494483023 -0,0728399072588128 -0,681717691928311 0,288401123345314 0,834362981048217 -0,133118409519085 -0,154746942859778 0,336046572582582 -0,170902445544715 -0,981327523014283 0,583757082773752 -0,417231689831322 -0,919180272073542 0,612441879552556 
-0,0787055202662549 -0,855848569681997 -0,574604599864704 -0,34130877537733 -0,628032933142252 0,762243332835759 1,02672829820137 -0,0869761648529143 0,894003338736283 0,102978710272614 -0,583411009183079 -0,687595739210036 -0,944602500831969 -0,674553440793848 -0,927129695219631 0,205009102601685 0,0996844649311505 0,862678874825244 0,813830781315175 0,181906458214622 -0,305924052375525 -0,0440171601923306 -0,96791821656206 0,43775249679449 0,0309644641031295 0,610245577483352 -0,335961761901329 -0,748615928203354 0,558111070123353 0,819979833029001 -0,00717917723003389 0,786591963416972 0,452192481957274 0,83408932440619 -0,380887550794199 -0,190447362362427 0,11847347079529 -0,894274099019245 0,303321030204967 0,00645082478891072 -0,803380244278059 0,817485746799736 0,192065926756158 0,370177468194222 -0,021619312338317 0,621895382313315 -0,0880103928899613 -0,366383694290211 0,376718355608598 0,73018491621548 0,0229025349296441 0,824219323492411 -0,127921362327567 0,00205437853077564 0,0215070407470203 0,992688106974707 -0,860553886071305 0,0150193703894541 0,655103227568173 -0,210902043576964 0,12505948194232 0,802666685193688 0,38597567462689 -0,879085173057116 -0,804928772206997 -0,3107834163988 -0,134826921788419 -0,853107398908194 0,710161915954329 0,336558166100516 -0,690121159927928 0,204929538830408 -0,342879028976295 -0,143373776462258 -0,0408716437389472 -0,236997543721612 0,700094333330796 -0,351529432788375 -0,511382906833871 0,438005830638774 -0,274573182015548 -0,940975359415661 -0,0971987609740382 0,855306102500705 -0,175541453937047 0,195977973051167 -0,0581102072055781 -0,52295646430985 -0,160542267191812 -0,345865522284516 -0,287971486274041 -0,807090278344715 -0,450778128579858 -0,421752659386168 0,818153210672702 -0,910559113479527 -0,91232351013096 -0,0050355115507575 0,5253695355 -0,233801249446962 0,091743613741536 -0,409558374778857 -0,607350417612419 -1,58050922726291 0,0755008643194921 0,491040877680181 -0,0830123115765341 -1,11666264120654 0,83798047418012 -0,937886874333151 -0,827180699690995 0,424730631860121 -0,4500589939535 -0,753276498268235 -0,908868499382187 0,0935534585280246 -0,0719242913724239 0,56391318634062 0,375802154607505 -0,090814031233424 0,70501424413214 -0,641646636991382 -0,0215996575690589 -0,648653427105455 -1,11653841296075 0,473274533189428 -0,429286158848412 -0,211722943055948 0,37689844613092 -0,0833074709416137 -0,643553509174184 -0,652492785802792 0,424100170015113 -0,541492012201064 0,063777676824187 -0,803291770002241 0,234064990677842 -0,190245154844456 -0,757638029370855 -0,172205242269099 0,959261879911102 -0,0957341602985485 -0,507444699217195 -0,314372427316735 -0,685974626070469 0,071267970878634 0,386673920340307 -1,10297690441964 -1,01928399721673 -0,833481030487398 -0,548765269707392 -1,46570301496172 -0,168934037602155 -1,22507347193143 -0,71811360573436 -0,35772020861868 0,309855963074715 0,878882336237997 -0,228846454548066 -0,344417060442435 0,386871749588022 0,490117302859198 0,682021857869128 0,799267966490553 0,975195788691107 0,53301897731166 0,859355432475983 -0,599836721586696 0,573340268280781 -0,942842087136964 0,93499089653832 -1,03971120034546 0,0329715625317928 -0,916212610692491 -0,421086903289901 -0,866492897767103 0,0924706992960196 -0,862936021292606 -0,892231974894195 0,191638324677696 0,591585042294123 1,97728413087279 3,55387293257273 1,91349564220024 2,44937015999589 2,20372112047791 0,925044704340837 0,86171044191457 0,983550782209809 -0,236951855878683 0,336763877850918 0,724677008125022 0,757414072305882 -0,295736706818372 0,353814799713948 -0,239668229844586 0,792586746781896 0,108009645151233 0,0798084408996655 -0,0393390271551835 0,126557449853571 -0,181862096641778 -0,908835475201998 -1,27228221627735 -0,552090960746213 0,167669998749622 1,46062621863079 2,56549630475061 3,99996012343662 4,64677920483466 3,02148872686853 2,82962210059713 3,43622349963977 1,89719549413681 1,53814305110325 1,04765759919641 1,15193919991648 0,335305707415925 0,0709522919838733 -0,0294365319120483 -0,322607758044848 -0,344302488097232 -0,170430844245137 0,221042698141121 0,279002671889908 -0,218379206500421 -0,0732353358836263 -0,441640654444821 -0,0333383970176315 -0,92873672924517 0,0365247132480104 0,112138849913497 1,53969052824234 1,658225955084 3,4118419146805 3,18322019199798 3,25271785696355 3,08589656556526 2,86022702408956 3,30352042357989 3,91848561049217 3,30218093397876 1,41681085953741 2,22588639211034 0,784755090743255 -0,661771625315864 -0,263532353351578 0,99949040131592 0,793377999051944 -0,577898672295402 0,251210580106871 -0,207867770641959 -0,166291505585674 0,161319059922362 0,00535983564201692 0,00991082532473721 -0,642737416024003 0,69723489719453 0,966778446637752 0,121363315162041 1,17091251666609 1,92423906796653 1,48221493047086 1,80526810838096 1,61138573031651 2,42208757704587 2,17526966104952 2,78406972132496 1,43119252371256 2,63811304166548 2,36977281989962 0,993460114266186 1,18453730092492 -0,582842829312382 -0,710641732416864 -0,0614671333512488 -0,394691477357122 0,212334506606997 0,424051631100745 0,150093724385319 -0,36251346617712 0,926333754698891 0,55941535397214 0,185638745210408 0,377256071671302 -0,0346405933313768 0,202517855375309 0,779681954261315 1,13828525764088 1,78453183234391 1,72114691937793 1,03531582573335 0,51462215665287 1,84548999289426 1,53236506557737 1,49403366774691 0,840250134326672 0,87426257715984 1,60493328598312 0,980356997885361 1,3829824087525 -0,567561299086989 0,327004065879226 0,868006944098171 0,0512862298219595 0,036783769312777 0,161101570145864 -0,676194827138602 -0,0742120302754047 -0,696797388858677 -0,421753230586995 0,579324891667178 -0,292657909173409 -0,0345145769848334 2,1174779874034 1,31252571738688 2,10584251471195 1,30930064285061 1,30386763109893 0,00322675060085272 0,484784742830083 0,511124345516422 1,38063489335335 1,34314368078527 0,11108997471933 1,10907483490084 0,782887433409866 0,702582971477371 1,46046146774681 1,03029172639888 0,704152981512606 0,735065223180284 1,21536934010201 0,0327041941838169 0,86078322430276 -0,630533499246281 -0,0161877133495174 0,965141886650942 -0,743991484773249 -0,471254024836267 0,836396605483978 1,62667886651893 2,20812547524731 0,622808367225386 0,782020308845488 1,16566627968063 0,966859845999836 -0,118825660779144 -0,671285479409944 -0,538679735354407 1,78578169277561 -0,145891084097713 -0,634129841365444 -0,18248344220703 1,35259576234109 1,45405732012155 1,59346113678521 1,47894208610278 -0,223825340981475 0,602127047285897 -0,806611714867362 -0,700704389833763 -0,0196944369862338 0,948310747917602 0,226067152119081 -0,0176788688272796 0,451292632006803 0,529909303852344 -0,0799253477587264 1,17156527722433 1,54789433617196 0,87904952329216 0,822583233325938 0,438061280241065 -0,425221812736425 -0,163615126416413 -1,72968996733121 -0,753192325289735 -0,00523778127701064 0,576449985640729 -0,440283862555201 -0,765035078104428 0,958311801619937 0,943192561998027 1,06104760490207 0,263851858485029 -0,502147346616285 0,213387655069329 0,746368502883761 -0,142768932000085 0,352927345799333 0,40775320395597 0,721642970583035 -0,325482707631352 -0,91162555126268 0,0251576539477133 0,020646915260083 1,44842649514814 0,264756917263785 0,00668934528848189 -0,610287012029601 -0,143132217628755 0,713819529893336 -1,4304778862579 -1,20978894467959 0,0732468419186561 -0,524523284215212 0,531804326009868 0,307110863814451 0,48176303102223 -0,260342190230418 -0,0422103997798484 0,430936742963341 -0,105575397134508 -0,719612270330905 1,2054999543281 0,292575383663746 -0,710978811670723 -0,310931459158195 -0,47376362650142 -0,143032117010379 -0,770426990736649 0,720603498624974 0,691259953564348 -0,869479377348319 -0,350335128131593 0,478043097067699 -1,35951149108608 0,222454572624836 0,119575129332769 1,13171502125579 -0,425578217469785 -0,778783633703997 -2,13476733108295 -0,719906891408411 -0,409070888625837 0,658021432488882 1,39857218852748 0,31609457404068 0,774376897420835 0,582687187484557 -1,1381024549456 -0,0406339529960776 -0,457454930148475 -0,506318235525539 -0,30474509714012 -0,636587518751939 0,16515543990706 -0,391871463617359 -0,696878354545894 -0,845540292256496 -0,227420309100268 0,402961306410479 -0,269758196769839 -0,933010509292444 -0,602236208731211 -0,725967101253881 0,85310315490699 -0,745523323498317 -0,699444346634206 -1,4054902555496 -0,938814953670891 -1,46116888932178 0,983146466444783 0,412819429204006 1,92910243909776 0,445315463302339 -0,956894848363762 -0,747392238087392 -1,28329621028736 -1,433028069662 0,42623646850962 0,755316463238723 0,117072456788143 -0,0403912256129261 -0,463056653734918 -0,333608521164405 0,269978685830818 0,603827772793547 0,398188808145503 -1,0582024087089 -0,548319219532979 0,21687104890256 -1,02737645203978 0,610564147665672 -0,42752282986033 0,655361823965995 -0,639697847732892 0,669452234108005 0,846757458633878 -0,616398686990691 0,799443232944473 0,882990503540117 -0,032003688153834 0,198798936571043 -1,33494145867075 -0,30101668002696 -0,29489228435092 0,141806519773951 -0,854368341008752 0,33188102350353 1,01177876554322 -0,762121779714915 0,497573470578048 0,612327053520777 -0,603746127744077 0,0210687524211202 -0,941733851020469 0,582810994918913 -0,814837329004843 -0,048964499144225 -0,0583806308024974 -1,20158907741886 -0,00175239039589882 0,14249850342052 0,913230301699031 0,438692818449332 0,808434315724615 1,81359637272143 0,684620437938001 -0,404599426601915 0,0150854779760419 -0,39238270565515 -0,712305440512115 -0,792595537918339 -0,608220185445363 -0,678360325235535 0,712059216843511 0,691813139781554 1,00665299464309 -0,341776854032652 -0,270971395138988 0,316889193196072 0,222400395442727 -0,873711991310058 -1,17763220765708 -0,799815718016603 -0,817760885129349 0,655913858398887 0,486017611402531 0,109365809139389 0,826171303790808 1,30945647796333 2,83134925369452 1,30460755474394 1,46749942766419 2,08843447800884 0,188700584884306 -1,13461431273521 -0,763733240624549 -0,411225828095847 -0,33303527235413 -0,712552387167688 0,299121048698519 0,883504163381773 -0,256358517561415 0,507392917115041 0,0507609456286831 -0,357331123482791 -0,689583273077099 0,793515448967501 0,413045659899172 -0,387257534973664 0,514066219293062 0,439574221543075 -0,728231419454871 -0,823136828765903 -0,0340360955910338 -0,508851957629202 1,29265951074605 1,21412085397243 1,51614088395813 2,08700565539533 0,696684464391621 1,3950681579783 -0,293159521213791 0,831360822022236 0,053412977695714 -0,191974273601039 -0,122350674189667 -0,398279053427779 -1,13514363048156 0,514697514031332 0,381725670783436 0,709285965947491 -0,879244153328979 -0,519219183067873 0,840789979037276 0,276245436899288 0,468783019892761 -0,348562544621375 0,32827074818866 0,675189427261502 0,060741484068795 0,589946061445748 0,956133363344124 0,54410443238995 0,354347829035834 1,09839063350434 1,47225933606853 -0,0542789045091265 -0,680541351120199 -0,437496508623344 -0,913083860770094 0,559727932177386 -1,22602872487563 0,295284904226095 -0,309287466815445 1,29500269334772 -0,479822742591289 -0,313118010212105 -0,497530687443718 -0,603147573090749 -0,432288354177024 -0,760652582805073 0,782866104536282 0,823310010658056 0,210169127448349 -0,762686666270456 0,632296848442925 -1,1009329644569 -0,796703702354883 0,62423516512128 0,681201524487358 1,6526815497649 1,19499640032511 0,142301523670899 0,215382980159902 -0,588799249898806 1,22847144187174 0,967438962922078 1,65430303644803 1,72242758632304 0,461985825672412 1,10591632580423 1,00847419641315 1,00256881101667 0,514277092121472 0,922749778093687 0,666883044884898 0,256625500005447 -0,612724958607511 0,84764126079447 -0,375180446951085 -0,217393265067509 -0,664551641962016 0,357413969233796 0,341920203201449 -0,0401387020123771 -0,917707146882514 1,27389041693679 0,82386496997747 -0,0434101102065281 1,72366394677643 1,80945714276298 0,0189314784513635 0,20691379899498 1,15569672282573 1,57439314181952 1,53970122329996 1,72688083813106 -0,15522696168093 0,927918019071989 -0,76456679351585 1,03361721590105 0,363174600864007 -0,0400124716954842 0,57124406319403 -0,104673395553854 -0,541264148566212 0,926113449387499 -0,609274020562742 0,281278931806268 -0,303920826876691 -0,356914114754881 0,737181464206641 -0,262024229120333 0,31274154843385 -0,22745152801314 0,0791564109079071 0,471332376654239 -0,0809248288256117 0,932427500083505 -0,66370465216795 -0,838704734582761 0,885660596254553 0,230617047382091 1,1323100482779 -0,0491610388119428 1,21521649671958 0,899741248452215 0,0687545212948298 -0,26180291817696 0,817587024195404 1,09486911298207 -0,0846150880871816 -0,347466851580862 0,741395172944708 -0,232755795305491 0,291694718688392 0,499493212811221 0,806584163152685 -0,499410912487581 -0,367813348854061 -0,647257721100089 0,744347677168616 -0,468500312291158 1,31819614520475 0,750746616887768 0,0967135122101161 1,80806790912861 1,15864802055256 0,160141313281604 1,30173253731394 0,449435215657794 0,83206298443624 1,13519878696185 2,24790500652465 0,0283058258589028 -0,0296143771896629 0,189566803291719 0,631242972293086 -0,0871986708132285 0,526671243295677 0,272861009138075 0,271698762880046 0,867620745741599 0,832762180423519 -0,114312169987113 0,799883578484624 0,0957973387070875 -0,142982517307516 -0,607517828159863 0,00833239402574307 0,752744535308842 1,18018648764172 -0,346433631022347 0,212487829494974 -0,335547370611682 -0,151532213171214 0,362782278802559 -0,155944776963705 -0,095223893156811 0,0187835087922046 1,19419568046788 1,47365902023728 1,26776566553447 -0,087222477695621 -0,110965403065954 0,323831229266379 1,08347534682731 0,332335919024856 0,748154237422964 -0,581673141700263 -0,576852556447164 -0,618444718568993 0,0860983973302347 0,0554605658888115 0,390713214264391 -0,110258100466182 0,619909236635702 -0,687768349701876 0,113817373580617 0,447559495452187 0,129638635646006 -0,215874726644434 0,149878242503342 1,02625295105891 -0,409795394374658 -0,0902966752323912 -0,680443463098392 1,03380707719501 0,2177930361344 0,469907571872093 -0,0329551317598004 -0,806718393063878 -0,337000547332331 -0,809740500748636 0,662898783140442 0,554186514516599 0,573872208070682 0,349299437668588 0,156911544714356 0,8353155037085 
