wih 100 784
0,371867669188841 -0,225578615346242 -0,472681753356773 0,57327496400305 0,666834904392203 0,44308130949462 -0,642084167437171 -0,426979712208704 0,0404006831680609 -0,537289245103591 0,941410719124822 0,359051724332429 0,0714518412677711 -0,182053006505139 0,0699529532351197 0,341877651813184 0,386509725273378 -0,225349356324555 -0,94079562300338 0,896003343782885 0,329212028887241 0,577427567452422 0,557661687484349 0,720119470335163 -1,00155779093994 -0,305174045206109 0,248869056198702 0,643715343938572 -0,635785611441695 -0,0799939183746238 -0,456120099884028 -0,42662615142557 -0,713451169058546 0,752584514361319 0,473266844709902 0,578031783165333 -0,58996487887139 -0,840907708725645 -0,49482001149239 -0,987602200839458 0,488452604185642 0,355519634015856 0,00135195834822688 -0,376841934827977 -0,708689561080638 0,0566938085907076 -0,458061611164313 -0,17507999258834 0,210755118944426 -0,185901506081414 -0,00224707497408136 -0,217439760202261 -0,490695834187629 -0,903129398111284 0,00912297630690245 0,783121194324543 0,205440789757521 -0,204120131103824 0,563560875092384 -0,0402378987273893 -0,820223945833284 -0,298075444718453 -0,811111562968708 -0,911275165884144 0,87784013138325 0,329505275056001 -0,0286182502653517 0,184316463088503 0,193386355764771 0,296323544952754 -0,286536077571755 -0,00518843251671128 -0,960520341059442 -1,25312480984851 -0,938340472649192 0,705116489020583 -0,581673268380633 -0,150046398729211 0,402913301505501 -0,089508598172268 -0,878925370333904 -0,60889271545723 -0,602420220231337 0,531102064513679 0,909574689036533 0,748505327468538 -0,947253188494284 -0,824182829712303 -0,268225162379408 0,681683962337481 -0,637121807297168 0,595090343772585 -0,450240219064335 0,521804892126502 0,710874576029886 -0,400730670802164 -0,106598815233153 -0,369056117699221 -0,561138049741166 -0,366230715583589 -1,3531684370028 -0,305332383973577 -0,0681980098459336 0,32125319834519 0,651474955181642 0,647996306445039 -0,564292431364997 -0,549352347712335 0,711230941622081 0,0467636739171117 0,22945718152511 -0,710786595139523 0,348796643679887 -0,368665343340586 -0,174731332610209 0,77947342428497 -0,709679895293231 -0,335270039508775 -0,809374316500792 -0,917739169133061 0,200574458595813 -0,1327634563415 -0,581444490035953 0,485063766134173 0,0609629730116276 0,213907990029525 -0,404998028418779 -0,479645577498964 -1,12949405970596 0,228981798810239 -0,593377905663998 0,466427753666813 -0,825750040136958 -0,514202739756114 -0,199658958441666 -0,240673101446013 -0,187390951274653 -0,405132306909424 0,601444651361366 -0,885142031012373 0,20448890171737 0,556091688101718 -0,547340304705072 0,662115376413342 -0,567343458706115 -0,913191571351726 -0,761140440097456 0,807210425080443 -0,38616579485272 -1,04048964594169 -0,656735898244564 -0,396856028190757 0,0522616699973442 -0,127162109077724 0,968936840307894 0,399190150130877 -0,409727030783858 0,556878675342404 -0,462476698481929 -0,238042182849894 0,385626329695557 0,985030229552664 -0,495622325193279 -0,747990304577934 -0,716038237781199 0,584984245984895 -0,895701479984784 -0,183036493005657 0,704369511984025 0,94321433547877 -0,10755274872975 0,648459633590543 -0,0194119330059972 -1,04283991001581 -0,239301308961858 0,512349677212209 -0,741766401358005 -0,229731801858926 0,090474913503738 0,166233279265358 0,232901104893087 -0,489764890937277 0,610380210220337 -1,16805887132603 -0,343430330229285 -1,26690312290029 -0,594121097923571 0,381042105943564 -0,160325673125152 0,908062734370713 -0,490848873201216 0,200464104620362 0,947815204146652 -0,0798809460723343 -0,109049606900957 0,347573561003802 0,231049543380299 -0,704212613533303 0,33937648742131 -0,211987939542918 0,847629073182943 0,2761720300851 -0,919516714223722 -0,40444902137672 0,107705906733109 -0,221616320583699 0,597425996284052 -0,266999041703785 0,492452549675561 0,589102516178081 -0,731454316043471 0,125845638128836 -0,871353144207145 0,229164364934961 0,223457975778614 -0,89706396173572 0,721862067135866 -0,511330955359449 0,465722145186192 -0,748276445633227 -0,273506202839552 -0,525692880913506 0,883203687903876 0,898012948845707 0,738787024560079 0,884715925193978 0,631141821188832 -1,01761243996234 0,0639362669458414 0,517719420305466 -0,509453562796262 -0,753995509844872 0,621727194696641 -0,508429800701967 0,152454641829505 0,892800000355322 -0,0160729011558941 0,443277355717229 0,0142711636899959 -0,765982769673908 -0,168034215030717 -0,623203360431979 0,570029104897048 -0,273296246213146 -0,0153279068332404 -0,264794638047653 -0,367762489306518 -0,51931524569285 0,334024691017804 -0,607515857107516 0,461424602688539 0,0148964829227349 0,205481143084895 0,284993288863348 -0,884913165650866 0,429775411840756 0,480957485389388 -0,649276795584381 0,0809853361847026 0,304067489870961 0,283254353376452 0,396916334839549 0,774103168523205 -0,256234934012441 0,925046960154624 -0,121014005806217 -0,492939286733943 -0,635244659678674 -0,418431952475664 -0,881722337431689 -0,831455992366877 -0,284299751326317 0,394621274245014 0,156427724024103 0,518914844100416 -0,60001945094612 -0,552804846840515 -0,208189754214829 -0,228344034139159 0,301882981501136 0,552685391742829 0,346056790549751 -0,354638206196714 -0,335567947467346 -0,974702804075875 0,395386431083969 -0,116279795302389 -0,777690319339943 -0,640016951899707 0,824422605525864 -0,452798001753864 -0,518500775354375 -0,652979393957383 0,572398464336017 0,140788625471328 0,316021655577677 -0,517813130752033 0,647961839496059 0,869389102997888 -0,235911824633785 -0,682189451126043 -0,956947698356657 0,815757298992239 0,265030012646085 -0,855052223601999 -0,337160120993789 0,721270743919047 -0,671643799036629 0,983196568650089 0,682409884327157 -0,0980581773906222 -0,414443387968425 0,337241410686191 0,573910151296502 0,474420550166884 0,645468891272076 -0,246553948314351 0,0616899797936597 1,01195004152595 0,678003335537769 0,322812984309463 0,695471013939288 -0,687834828419905 -0,107244452309009 0,388938996563429 -1,40651127855592 -0,369927259308893 0,71570655541781 0,636851046294698 0,887113804107785 0,719446402582284 -0,371378582516481 0,242993386961907 -0,714691536180559 0,0954704721783928 0,546628369846568 0,618204688899138 0,304977502491276 -0,52376086050163 0,301475947978192 0,512514669828093 -0,623628168749713 -1,07519551944068 -0,854179208581624 -0,733891438545383 0,401256590330334 -0,973216263028967 -1,10453427047319 0,450676569316906 0,283723389290061 -0,17665288589986 0,85456431983174 0,532241969520106 0,277551526137104 -0,50563725560932 -0,847048842422204 0,744924197756961 -0,371885050434854 0,333127999356937 -0,78338077406683 -0,646854684250499 -0,763795712923059 -0,479425122789067 -0,980283287407738 -1,00025460617663 -0,701622929395756 0,441282448277991 0,174462416986727 -0,637958022002036 -1,11641509995482 -1,14226457665509 -0,231679019918261 -1,35999682654957 -0,749219024202246 -1,33535003554056 -0,224102813068155 0,695379003565896 1,08607723330801 -0,185336108900299 -0,377617915757407 -0,0896934317846284 -1,57695677212102 0,067247802026322 -0,504051095608415 0,503979695815864 0,539689877849724 -0,485348632502114 0,524666274769105 0,654939527752742 0,00841393099862445 0,676703856057496 -0,103766586586037 0,946790381142703 -0,689951459650292 0,0923958248661373 0,446261179466325 -1,1379552011485 -0,970500083593898 -0,783912625883282 -1,27359738686713 0,155898836627601 -0,208399112458417 0,279857444497297 0,808284715929415 0,525673035637947 0,756659869440567 0,891761394482725 -0,000563981928207116 -0,00588090898388582 -0,100423751674022 -0,938887408355801 -0,641164922305541 -0,661520407204796 -0,615890755259837 -0,694360032633712 -0,89518608527992 -0,282272570617645 1,12582493181447 -0,310615527889316 -0,708471540623001 0,681446622865313 0,970146481297069 0,710193406731579 0,643226926200259 -0,657620677543136 0,206532281336761 0,253854910668962 0,368806928943242 -0,290762927432932 -0,959248088864274 -0,686669733008497 0,171992050563872 0,216481192005703 1,34588718214571 0,0204823620310877 -0,850299574500451 -1,217913574893 -0,0614418203150925 -0,257927395800242 -0,850504686508087 -1,25817007941834 -0,279221903016982 0,486714387459199 0,647581288658497 -0,483091975485416 0,571648751734055 -0,376274773954755 0,207258534032978 0,716490377760802 -0,0928171596181935 -0,183075695544246 -1,03380110611927 0,416511358142074 -0,801464191363671 -0,328739698217743 0,477944624908864 -0,0272600163802578 -1,09197868582758 0,0465617420054206 0,762916519760251 0,860100615257497 1,25791751487413 1,19379732007637 -0,274172682309948 -0,68696939572918 -0,441264610332714 -0,23575384778778 -1,00403430420028 -1,36351948130946 -0,863139725254306 -1,02131970309008 -0,0695641678723507 -0,316514697377086 -0,368789969259853 -0,588980396848767 -0,515141821437247 -0,950837751161202 0,894380740734144 0,229871302575655 0,0618228703000379 -0,336623671750657 -0,71329163518494 -0,68890817202437 -0,56598761427783 0,621071787037544 0,363992515139142 1,41743664885148 0,435744675434614 0,904131196165557 0,443850477124491 -0,162001172899912 0,3844057863751 -0,971903757405128 0,363302501492968 -0,602565912327279 -1,22986899045194 -0,1048992635264 0,0140834529236333 0,327588733303654 0,504413692680529 -0,694790879967632 -0,702869059049631 0,194178224701248 0,384177328988924 -0,0942771107384103 0,934319066575913 0,466596133550249 0,153329254788926 0,861292495117284 -0,799759754415257 0,832059328439103 0,69845077027449 0,180721719974059 -0,00837576925480825 1,08497255257335 1,13254753747192 1,39683796049428 0,790077469686819 -0,629699195739664 -0,550558187326491 -0,564448927890987 -0,944404947769609 -0,0523036334600735 -0,0530771829111434 0,408275519336536 -0,904943796636711 -0,430196691327481 -0,101937680704731 0,901386430256339 1,09688781341169 0,208112872098404 -0,0536121436902295 -0,401957058882168 0,858094245090408 0,0825464078276696 -0,313116744688258 0,13153845694616 -0,161568647432323 0,579941180656978 0,946359120788845 0,752524561066872 0,694203222302899 0,968371159936716 0,751154247330107 0,0842074932205788 -0,268111845476426 -1,00490930363553 -1,55708481788486 -0,6587390812365 -0,00847595930216499 -0,368553752952071 0,894121927598518 -0,670849297037717 1,20649109741728 -0,490988541630089 0,791460280027646 -0,0094200638737568 0,833808874633872 0,745394327391451 -0,137435981552725 0,358797753597535 -0,332128519923537 0,542915178273261 0,927218510580767 0,0263028170725117 -0,143207508671552 0,0757177940950303 0,181821036771872 0,438677207747775 0,0112512212051063 -0,171744426970141 -0,268098044031661 0,381639369213506 -0,789715919696915 -0,0776052831813589 -0,85220528587948 0,291470253651999 -1,0467012330707 -0,501756497297478 0,0556849880747406 0,480018133309555 -0,087039337429296 -0,431197357221504 -0,429504990200889 0,253046421697316 0,260486956501668 -0,211966138209408 -0,273887294001763 0,542579265057164 0,507006770378078 0,881241833274754 0,429868445808886 0,179220896899048 -0,237099655420925 -0,449416745394507 0,0995481236110592 0,438498083459845 0,445494523335429 -0,546853054562263 0,974522464148706 0,602111426886049 0,603532558398284 -0,27858808306915 -0,824450415633249 0,0568497225661005 -0,794071496708238 -0,527887917913867 0,601751857881386 -0,642505789349021 1,19898433696046 -0,681867831140975 -0,113220903642861 0,312410369219803 0,111450499771674 0,863430442396608 -0,0731317511895491 -0,549338430382923 0,237554061506078 -0,230991830810257 0,752740600259848 -0,80013810397761 -0,692412949312133 0,430284011187217 0,519480159672745 -0,33133870328569 0,0536564042401978 0,780837529907304 0,390611551035064 0,0138204623273157 0,367725283748789 0,59311085258424 -0,293546647638202 -0,76412689362697 -0,219295382675968 -0,157141390794769 0,258809420890549 0,542486966806317 1,00066203986378 0,173352448483049 -0,0220500066855064 0,0119858388172693 0,619551569145851 -0,300334381227753 0,665063737166613 0,425762951773035 0,158162099583635 -0,827418587679012 -1,02761713517101 -0,169247170522347 0,431554580985721 -0,851923798923878 0,435264924830676 -1,07846135310738 -0,792419629027695 0,846288196785913 1,05117780788842 -0,189739790580234 0,786386163636533 1,18571269953158 -0,180542347195607 0,066064666353877 0,131143110601629 -0,416738732791306 0,239354525860354 -0,337863246315534 0,496236480123533 -0,446733538123696 -0,475272069241589 -0,611110760570927 -0,23089528841354 0,55825093143569 -0,429221007040785 -0,886810242410631 0,788014959180299 -0,309829955124327 -0,53264144811512 0,468195781235952 0,583165282634017 -1,30947981437359 -0,369348880403353 -0,981919664031842 0,153066851742976 -1,07601559598978 0,054147692923301 -0,303519899269669 0,645634953203721 -0,533131042011332 0,618504795289581 -0,321662234484854 -0,487557291202045 -0,567444810825709 0,784550575771598 0,798525324910474 -0,546739966154923 -0,837996808924473 0,685098965244554 0,0305947440495762 0,65187345271747 0,148060984682233 0,914914159730998 -0,509868071451231 0,543203189491419 0,534953393440119 -0,926274627289089 -1,02597886734111 0,777123354952544 0,567657929749356 -0,975590084810536 0,0517281959776613 -0,246016976235384 -1,25322588379528 -0,76413964179636 -0,244173890783932 -0,759440692552556 0,744968660113107 -0,10640367100708 -0,0595753360629012 0,45007267660747 -0,631578450800114 -0,257071935501991 -0,149786399268462 -0,309415423870245 0,65803423517827 0,440588207783896 -0,7651415914529 0,7249407040886 -0,36249634751768 0,475500754502855 0,45843508974159 -0,120347448479992 0,442890704085088 0,918214723359163 -0,351755086885568 -0,840957539308672 -0,338780711326526 -0,109927464004253 0,811884426028746 0,789104835752637 -0,275819855551939 -0,494061238528658 0,546553826356856 -1,19471331591461 -1,03992821324783 0,457704144035946 -0,24038042145693 0,81107967393992 -0,673984424710838 0,0932840178203686 -0,424782019107273 0,107521308150289 -0,393701152042485 0,349362722719789 0,123289110360546 -0,837154201714771 -0,190320617407225 0,58163809544067 0,778457763236725 -0,953292157744163 0,820127892890569 -0,725809539805513 0,18896448830434 -0,793917517316861 -0,113311130905323 -0,303363141892287 0,764427577712381 -0,867257243347406 0,956511596474779 0,202036367179731 -1,0142098286048 -0,0347724070277869 0,174532354691456 0,213399732779176 -0,207286291006415 0,830970604865283 0,130319540819567 0,0548530159424682 -0,268352126235302 -0,878298919578283 -0,41000798120096 -0,68588368056975 0,286307880988974 0,428398061943911 -0,20486684784937 -0,719212005980382 
-0,727699162391251 -0,905774846708674 -0,20394200057479 -0,503633912501131 0,368697114846621 0,12816210694487 0,185210011440508 0,903209219562076 -0,864815198832948 -0,395777792468005 0,480345713584472 0,610330382101015 0,142329640188001 0,453297325343915 0,859324288064221 -0,243556818123258 0,963119641780998 0,225354119695037 0,206031529714915 0,698032883707073 0,986950291235066 0,393184838454418 -0,443729472167105 0,287624906337273 0,0166868208189804 0,754985709481024 -0,154414198047128 0,661594454893277 0,470742074446726 0,509110223193794 -0,0119631165558395 0,760722187156749 0,411101787960303 -0,395157161257466 -0,56402962030363 0,683979559956836 0,350324651749968 0,473656442432752 0,846997260195926 -0,126685981249373 0,795091328048296 0,28396814382192 0,089591272257471 -0,795360139479855 -0,635559701048013 0,53802138855135 0,913823248007022 0,286074360613869 -0,734455750051077 0,830473472553718 -0,640722043269487 -0,92795931106839 -0,766005951881788 0,108727784332775 -0,694534781326234 -0,120729696607008 0,538108929697099 0,508587397326612 0,47950000774304 0,614751140164556 -0,717285559446127 0,523249826494016 -0,568870993915306 -0,377305437637006 0,603817817438802 0,698027816007882 -0,81629942948516 -0,497167999191274 -0,0329539162227213 -0,855569492442835 0,325849066557098 -0,596349332882586 0,251441992163862 -0,841719805661553 0,775744164294359 -0,339018140587991 -0,730687527022767 -0,668289523651706 -0,100750763964262 0,451096824799925 0,84046767820678 0,560962342109789 0,392437763149681 0,639592382809512 0,149584679388794 -0,0843900895003285 0,52614756191078 -0,694457864364831 -0,692789257293269 0,507085887406817 -0,900329732684755 0,78588624370088 0,954742976487369 -0,811678511932045 -0,44266943738171 -0,840630090141091 -0,349472530386208 -0,725562934940344 -0,66750476395175 -0,573149142182343 0,0950082624316269 0,134876858164561 -0,852324749098769 -0,99271433172055 -0,684246112219431 0,892185637000356 -0,26346645607687 0,883531735309432 0,172850514382331 0,608414209415647 -0,422692541591186 0,181947341659628 -0,411922766632737 -0,98924285001174 0,782861081051298 -0,267968404695184 -0,892322443146102 -0,27918645020189 0,445765716900231 -0,375788543628008 -1,00044470760752 0,831453890229641 -0,889021496422492 0,280378060261408 -1,40441059086882 0,0239835414327936 -0,836194539799347 -0,061864578835359 0,472695329584628 0,471255564357525 0,678005199946167 0,71761893780211 0,801589684708858 -0,417301122124806 -0,625916534852922 -0,398280025652334 0,344533828448095 0,310203470731231 0,216578465357706 0,281297874956519 -0,776500984070501 0,623707169412122 0,0943631835756345 -0,323449562277392 -0,153639782378497 -0,244358517719038 -0,0661081949901536 0,6123657696902 -0,674959119995368 0,954203578876591 -0,648171112087772 -0,542651780583255 -0,0447296834465634 0,861633866817553 -0,864217663256032 -0,183033430437634 -0,38629486734372 -0,403715419606822 -1,23870260136201 -0,710513733239203 0,333942234266128 1,03383146257577 -0,200513197604599 1,00805393385193 0,987583707203172 -0,189055554077218 0,423005816979519 -0,684727114992327 0,889908349941997 0,338202009175711 0,459546448789952 -0,265157068611204 0,433717943518172 -0,906026277101031 -0,697907398121866 -0,529668280379054 -0,122363637222229 0,826184196496382 -0,0172003304629402 0,507671699088058 -0,319253979445231 -0,179359467155143 -0,174920562132703 0,395484381787722 -0,201414452129592 -0,183945265256851 -1,01362501979233 0,396741608238718 0,601402472106825 0,0267296560479008 0,96144000889882 -0,0204364415631824 0,693247553004858 -0,365402582869609 0,958912409648174 -0,320293880216682 0,458582471343515 0,507579391553299 -0,0661716513543826 -0,80538481719912 0,461243612472112 0,0476433206692306 -0,807330176958694 0,118303631761852 -0,251860079767707 0,755534255416995 -0,252658877938906 0,148577425588599 0,681132073920845 1,1874926630504 -0,0811211982819466 0,77267786301849 -0,29996320401835 -0,211009556148012 -0,541505818835042 -0,206217500849691 -0,109712724510391 -0,224391069349158 -0,177661076790109 1,34033770952821 1,21229090961003 0,755126475833868 -0,486862450653058 0,222132460643391 -0,958177946567704 -0,0091454706384635 0,603390557029032 0,208774865214657 -0,882892874741483 0,791252510666132 -0,0120473526731451 0,0839563019135095 -0,23790938485468 -0,684938493783319 0,323851414783246 0,286713670441442 -0,536609789278465 0,411998462900033 1,019204778305 -0,0916353321871452 1,04501543935195 -0,283231434290327 -0,016720967347011 0,718229051451574 -0,913155226615285 1,12446673027053 -0,445267204139653 -0,229109923161841 1,18277788697364 0,291895128835888 0,849015444191623 0,179513614753756 0,415555242075475 -0,0591952893488363 -0,649168943243888 -1,03566219172333 -0,90043013800568 -0,478588197715016 -0,309944051959429 -0,159998889599934 0,243097946604319 0,206295866215149 -0,215448091771607 1,1262428987975 -0,26901810422767 0,198347543343277 0,215497569187028 -0,41101624302956 0,558672448455271 0,491696771264012 -0,0445832625862782 -0,30281215666955 -0,603054432210609 0,815188820172748 -0,366872614136584 0,99208201942478 0,210151093713873 -0,267227363965202 0,227953399934198 -0,645396421563841 -0,131855069370764 0,342652574224178 0,392175973873363 0,111463470325263 0,650338866324027 0,523214937261728 0,513340731705442 0,204882037102507 0,668392005170676 1,05654694440783 0,662943265785879 0,849254039418653 -0,394411266920631 -1,28220548574422 -0,822349495394535 -1,00902119601802 0,471570054849778 -0,311076636596471 -0,0036699560398885 -1,15671540025729 -0,824883139741608 -1,09050209418005 -0,409970249622029 -0,572963927143238 -0,402440782068775 -0,412436224683293 -0,641262326939049 0,495949341428129 -0,735794579071118 -0,494586652719596 -0,0332081049642203 0,738704037184573 0,498761563514352 -0,480932019356197 -0,278034222157667 -0,267856861853605 1,33117855672777 0,650983827462347 0,911853072209986 -0,246324830191513 0,271645317355414 0,0882430810674301 -1,11697996574121 -1,21842978117025 -0,999864639185414 -0,102773147973969 -0,458466929651293 -0,87485862649914 -0,0619614568377624 -0,14596118417779 -0,703069089583878 -0,966680055228009 0,210622772004531 -0,537543254205721 0,634896723941504 -0,167325735662304 -0,406824466572069 -0,260616104505265 -0,420438258749455 0,355037275941107 0,607579991306915 -0,669006385765973 0,788057322938684 0,903891004324809 0,565049108065142 0,443166334614925 0,516711631633775 -0,0691307918526891 -0,0286234622362248 -0,936256865440555 -1,14163272035527 -1,68625491390137 -0,676340222677994 -1,01374488014917 0,178553625860277 0,0284963419940798 0,822693340114926 0,248907099714082 -0,398947820678741 0,786954424913844 0,689515799401675 0,511989631295597 -1,00448655104006 0,606449196223159 -0,766982993059321 -0,164411049951765 -0,525859608645117 0,165403473074549 0,278695772205024 0,831680334566024 1,09649361099038 0,667183810626601 0,388644197049837 -0,290340778465916 0,424038202641905 -0,304035966246645 0,576652337724624 -0,319516849584581 -0,349400346880785 -1,0097428089149 -1,28460222879466 -0,475555340706199 0,309401904755971 0,444267439506618 -0,188783175161618 -0,504695832071022 0,144202902371165 0,0577147249202519 0,339715517934697 -0,762595517944093 0,00684409013234928 0,838453385183502 -0,685329623641993 -0,187970688707015 0,505736386903784 1,02543329717438 -0,496706681992032 0,874857560813751 0,400477550285912 0,879453868900089 -0,0494316666176258 -0,0425638383655231 0,129669595982399 0,796646382496719 -0,684079925131643 -0,223750266822414 -0,227761516368983 -1,35655847613148 -1,02390304475106 -1,25136743216697 0,886319404742856 -0,0372673416083013 0,520114393664962 0,373573731177321 -0,140074420214337 -0,0469236984597734 -0,517725631910978 -0,274339663603447 0,161366535968771 -0,78952674201045 0,900428224331343 0,378351719783308 0,749255656837325 -0,140580786619088 -0,0938120610694002 1,02120401014864 -0,305044445235629 0,711111600391548 -0,205244197501568 0,155298968091797 0,00957719993838499 -0,565860326849662 0,828352774771847 0,211219101267549 -1,49354094830591 -2,19269436116906 -1,88211250402951 0,322845646903538 0,693723951250112 0,434399935506452 -0,328680718571777 0,943821062699322 0,737727090945955 0,241046807494775 -0,0229446723286731 1,07719912143329 -0,329616633624862 0,0670749331148406 -0,954195263846632 -0,421796878354732 0,575641058622468 0,72509205235702 -0,105970831505949 0,0963473180694235 0,464939444951658 -0,234739992863064 -0,320909815446466 0,300524962595367 -0,126181575987746 -0,323688866524219 -0,537635637435415 0,194603637816446 -2,11756022243574 -0,77902338254876 -0,335276204450807 0,998260644097835 1,07439780281792 0,588949015314236 0,069274165136771 -0,39724746709272 -0,351039258879924 -0,0239580678641544 0,719447848770953 0,795438935520229 0,842509278446826 0,935109231606872 0,404158637501932 -0,514508138950912 -1,03191877872229 -0,303396860475622 0,363703062317302 0,894466202765245 1,01805860776991 -1,07507058325061 0,268430690372767 -0,341405402738159 0,436074207470463 -0,00815748452190752 -0,910139239353834 -0,33038692190758 -1,14661251417511 -1,45688872811942 -0,204056777332694 1,16459478077381 1,00781853073185 0,0553368735066369 1,19493905604652 -0,756492705431095 0,979253699878942 0,483113675471129 -0,194145826519825 0,367033602932138 -0,581659586342873 0,520970930074116 0,867306571868789 -0,318429653497415 -0,957954957180811 -0,145185912802385 0,102986466802428 0,874710407726089 0,78550499299232 -0,453106287971179 0,857243551729977 -1,02195857502712 -0,32582222556787 -0,709796425052201 0,050777887029871 -2,28451510232788 -1,90153605655873 -0,637505337603149 1,99692239321648 1,12724704660951 0,642804200049298 0,332648738791006 0,0102243614498164 -0,840286238512163 -0,524334366254828 0,0372432540383345 -0,403056064483139 0,048912948536823 -0,886480461266983 0,235584701164065 -0,466530748474106 -0,442481176664409 -0,910339233346027 -1,04829943842398 0,325729840673944 -0,656065017102819 -0,557937078914193 0,153240177049419 0,304460752811516 -0,898304895302003 -0,273027022444271 -1,42583612486672 -0,458945773476036 -1,33074026155084 -0,826635065893406 1,39668669790016 1,52477048238702 0,256451114434118 -0,113857052954536 0,855605388290264 0,566397547445369 0,383847309063137 0,342895100531402 -0,985221638867375 1,07972292958014 0,180423429239366 -0,760055849971957 0,448474115322806 -0,931294358382981 0,0953103595305021 -0,362010306237111 -0,951211180461768 0,676191888258751 -0,309051239132467 1,06536011806255 0,546158424549946 -0,456020797254478 -0,269536794934498 -0,562229455389519 0,0472087550630549 0,0195912034224271 -0,246882297093095 -0,223905592100998 0,585194029482279 0,375829000038563 -0,134176153351516 0,267555245128188 -0,57420135287053 -0,924439758086817 -0,498777567730195 0,087509376107276 0,485518609646482 -0,884161398457466 -0,619532701802604 0,260317076719801 -0,143985235771478 -0,0118882447385984 -0,994788840756084 -0,921337793833332 -0,886118431963141 -1,04144079085668 0,0346533141643667 0,193131637660809 1,10390594894547 0,939568433390145 0,481024758512223 -0,238938426105121 0,242061534392216 -0,237356904812115 0,113245452646796 0,779714692992598 -0,273030647007279 0,517737200757284 0,217346139324134 -1,11063260761746 -0,326538580728645 -0,335655525220646 -0,939643372975423 -0,25597469108498 -0,0365752686533258 0,612110570055631 0,797121630377181 0,45196290954372 0,429816533180202 0,702834127254353 0,0357154419916418 -0,874323510349901 0,357463623776394 0,129911786600986 -0,0298512087546595 -0,599167630980152 -0,702960565463118 -0,0845146967439737 0,0569022930460653 0,704081561330597 0,357419362564587 -0,30840038437838 0,4121027189385 0,708613103909529 0,513041471356813 -0,280403332170118 -0,0885173482530161 0,627447239708244 -0,423717983544551 -0,145121200155587 -0,41757272405587 0,780379776211608 -0,243319924752468 -0,675071623426473 -0,448613452408561 -0,519932113492654 -0,0858107014732514 -0,0684168111715645 0,0426678689531269 -0,270902415195243 -0,699555241365645 0,250337899345216 0,301976640017068 -0,876732096924552 -0,336578334506444 0,321301858857098 0,142760910772244 0,491702497066716 0,525786422267857 -0,0928299609235385 0,241402438311952 0,93691641294824 0,302710651021217 1,4727172918632 0,534661995684879 -0,751887235606277 -0,164881770700971 -0,737947207118013 0,334170802285089 -0,250008713927101 0,0655932653885219 -0,85699406994428 -0,45459276084229 -0,50632225837539 -0,0584634818273057 0,110615596612819 0,485689967551683 0,154886145756362 -0,242345875052848 -0,521356122974491 0,274140515534164 0,228378276534364 0,597448111413816 -1,12554433744186 -0,246594162779447 -0,157972639090534 -0,57357571962608 0,197286591027233 0,0889426871251398 -0,357906607151686 0,5582943398848 -0,0023633733320002 1,34567647187494 -0,534842877691753 0,682368956761944 0,157594770810455 0,215390759759628 -0,140383102821608 0,12683621049851 -0,784574218022037 0,526182717796249 -0,414925144240092 0,497412816307793 -0,65585900835072 0,779202168625032 -0,718859474357168 -0,117837540908368 -0,111347541313409 0,13725740180298 0,487629935611201 0,55961119638927 -1,15744703911253 -0,163001826431304 -0,265149583085025 0,0835330562943892 -0,873191473750289 0,961175830872306 -0,126804118119457 0,177448987776903 1,008755818212 0,714925466604818 1,03519799161942 0,641457247443617 0,309061866352707 0,740947256098189 -0,676031269202723 -0,787085382946082 -0,566801009085376 -0,000507449282672092 0,96243363616531 -0,984862983299266 -0,239180247024636 -0,857834924957083 -0,378920617303681 0,0980247600280615 -0,150117811503305 0,870400120879896 0,474539331074808 -0,692835201602178 -0,228457223664746 -0,55923312182637 0,75385062563589 -1,09051273550562 0,474961140563906 -0,273484424918871 0,330321950826061 0,948214538474135 -0,0499299158388984 -0,0874057627554911 0,472829744428187 0,136957337275112 -0,503920400659553 0,934711188309212 0,231012772453533 -0,31330083562659 0,806728696032026 0,285740097551617 -0,505113936809787 -0,16535790885621 0,560190214491161 -0,846245020635917 -0,500898696329308 0,963012313373482 0,275613248884972 0,590357527363022 -0,0403370963942746 0,868448381857594 -0,597514049275377 -0,993865620109717 -0,527665370027908 -0,732338829854741 -0,497336032491501 -0,66032164887967 -0,972014746826676 0,233507153571935 0,51076622695995 0,695788878720074 0,858616259605104 -0,702857740752328 -0,665778386835117 -0,496962479711348 0,287384548146197 0,547505166521249 0,603275410566697 -0,0416072771011051 0,630617574537084 -0,114957485946724 
-0,0758307322120648 0,945917106969517 0,297266713777479 0,558816983920244 0,345922532947962 -0,36691304470056 -0,215754447309856 -0,335915034497785 -0,933281689090047 0,99118698091515 -0,268498697147673 0,840429306717131 0,749801670522227 0,29892200832149 0,300522688944497 -0,178745431469176 -0,654466615067739 0,128416200523719 -0,503679453334349 -0,982158232642138 0,844369903895518 0,996614404782281 0,16723030842924 -0,906793181911207 0,416309625399707 -0,795073499977815 -0,499696164329125 0,0534893370643476 -0,138291427634531 -0,0449277420576524 -0,635601285845514 -0,678089858053021 0,963754602419515 -0,917307908203024 -0,0384815770179584 -0,524679495110655 -0,273712368302303 -0,06101053965024 -0,0675941747152202 0,88853673737048 0,596415000049268 0,381797515494868 0,174283337995492 0,534841372857292 -0,0282694779306664 -0,964628180089517 -0,445971927060864 0,0493759906314605 0,220088347493724 -0,515353756670067 0,212340726222842 -0,515971462846265 -0,528758505310012 0,621945125635961 0,0498419286144895 -0,0677833256466448 -0,216651390112048 0,208721707036384 -0,85283083011166 0,145657844476903 -0,862550312929062 0,735418818161377 0,807037503088904 0,116312304820111 0,631444730831903 -0,58238334421025 0,87702925092555 0,637557206041956 -0,723062402477114 -0,268892393572955 -0,954343318833604 0,445139035350964 -0,725772214386099 -0,313931415667395 -0,468530129980691 -0,431071107402665 -0,155030311370671 0,638173376760179 0,104972961392767 0,37814553464496 0,655626712011835 0,4557471440007 0,838170705117638 -0,618251381434344 0,747407278689553 0,885031997002484 0,854491483427259 -0,653728468936063 0,0375158967400055 -0,965936954307231 0,696367094922103 0,512486878459486 -0,238015504345085 0,730992349658718 0,679212867044915 0,716387151180644 0,429933258380191 -1,04567848595038 0,940312864161106 -0,205566339306341 -0,600465440806215 0,171261813649632 0,014143552884236 -0,426726233894738 -0,56789371551987 0,808229114899352 -0,711218485787135 0,86296916059701 0,200383749181409 -0,413273540054029 -0,891240993702649 0,151356228993235 -0,89137975604124 -0,226308160273923 0,491842840885545 -0,311797201593887 0,913030132492697 0,431354181418784 0,391139273965766 0,764140841620016 -0,437864490539948 0,40918695001105 -0,41882501099057 -0,635335397017219 0,0889453431610932 -0,584976193538328 -0,498791804698427 -0,618991282939042 0,0369971844925751 -0,179072738904001 0,00102457498806038 -0,268463632444712 0,728460636761013 -0,470319394016322 0,214063197003379 -0,21621736138949 -0,234161331666315 0,463010889470202 1,00792342953035 0,956934797096623 0,601677897030611 0,996530189938432 0,149994543370422 -0,541985907771991 0,955113683442929 -0,40106812221238 0,469101483856264 -0,918551420706764 -0,673542367094969 0,0750075105218225 1,08595739330244 -0,774636925089198 -0,151519265278226 -0,883108408527194 -1,34564509403743 -0,589912250634703 -0,703249937500485 -0,154556246124717 0,476505823154324 0,69466613953198 -0,0115170015511492 0,812412597993253 0,0289168490750495 -0,289999152151714 0,743758910763663 0,384199942377797 0,458979504852512 0,603025108271513 0,561710288373892 -0,274004323190321 0,942579804161032 -0,53516050575104 0,487206712856183 0,509703687578828 -0,783904692162052 -0,395526452543911 -0,60480928382873 -0,780819085735934 -0,389759669402806 -0,164507704265069 0,424214004423116 -0,465447035971152 -1,11123324047918 0,715260897556795 -0,209455570812987 0,155743492608988 -0,716182480867225 0,614560403573509 -0,542976064631528 -0,517791580692599 -0,45958911560379 -0,593631572465919 -0,780642251356437 -0,797075191770915 -0,228013076087198 0,737717112654402 -0,00558688341099751 -0,483845134915367 -0,23352834894919 -0,38426188014315 0,207396464343762 0,901811049002168 -0,547905736935553 0,536280795591827 -0,0514631544445339 0,298240707953076 -0,348644400989846 0,400395517311123 -0,759792979133524 0,34033668284258 -0,755328415095332 -0,713950601145287 -0,901253293063024 -0,169983727649617 -0,253140142901766 -0,374380937186194 0,756572816649449 0,189389128863167 -0,948495378893467 0,0557452147261726 0,276437839342548 0,853990130673015 0,0982753578323139 -0,0154624263157492 -0,794774560413423 0,597431619347823 -0,697962404166706 0,302829501329551 -0,321330584571473 -0,635065825187236 0,457332965321679 0,723414880913375 0,180145204449755 0,587085146518198 0,417628520314364 0,584836420152602 -0,431744822765928 -0,139663475935834 -0,287636916909539 0,0773138686851485 -1,00972157104864 -0,32940397580425 0,520396498077214 -0,0078440134562463 -0,471871396986111 -0,368795995386394 -0,604801289978363 0,509016939438732 0,632053950287279 -0,807503683548998 0,975817868662208 0,781971505277209 -0,52358419600897 0,808978684628648 0,354609185036445 0,309297837953752 -0,257016680242668 0,478926124957386 0,358141368204619 0,419612108077998 0,29291915444373 0,728906211698568 -0,0305459756151637 0,915834326902183 1,2903757352595 -0,271931255179412 -0,247774794726209 -0,76040795958313 0,057266089170171 0,183798536333274 -0,44735015722518 0,375792675223403 -0,0319690786663157 0,383436006540214 0,181046756680501 -0,44378473450813 -0,608837195354803 -0,946106188289086 -0,373066573630834 0,747275829459442 0,268531265814543 -0,245425393815243 0,712058020860489 -0,483485631691921 -0,507703936986825 0,961690754895326 0,589536703308372 0,779522923914169 -0,142442216593301 -0,236620168181972 0,104952142173982 0,170120607278883 0,764433846266392 0,481326605757418 0,865424509149233 -0,448975858059066 -0,892386843974963 0,931154415521049 0,381673052251927 1,2836676644489 1,23507733230574 -0,605552494746005 -0,376013848281103 -0,599396301289519 0,741030548385327 -0,267830887570026 0,219777164557192 0,523920118182487 -0,120961898637993 -0,107541300898365 -0,00127761049974763 -0,270007675516077 -0,0713242678096874 0,81831347125936 -0,437821450478305 -0,121918896005381 1,35520703339237 -0,236721698320442 0,728170614405152 -0,0866078736903972 0,785344377511893 0,569689166245149 0,758923343745292 -0,094490868790834 -0,469310525245016 0,948693724100292 -0,523375925701228 0,76415284083994 0,33046197874099 -0,521400495003847 -0,637993929551819 -0,598689833759202 -0,10352850057607 -0,362868777048362 0,927619280864104 0,159779554098654 -0,555950882940645 0,482356511086089 -0,17891518956435 0,740233053763568 -0,339079467424229 1,08778519221326 0,0850842401560787 1,04992112539335 0,692539340268169 1,3700579651541 1,32071238437708 1,47657377435803 0,725493360446711 0,961341729242933 -0,140922055693599 -0,88970046186094 -0,247135770389557 0,460514686998992 0,563441630645019 0,136391780985046 -0,582990895289716 0,252165009324069 0,584713262230672 0,960345662068022 -0,225865424324069 0,775541582156991 -0,596751941728757 -0,494341978217697 -0,318819549055145 -0,304433405129416 0,857594238434557 -0,75156796978352 0,764701766423131 0,304140733824034 -0,61202163199337 -0,274159264591834 0,602968404140864 0,577011946452817 0,731976908255682 0,617919100313936 -0,0122261237174161 -0,483392548064691 0,865853597171988 -0,044118811697913 -0,859822420117835 0,00724093668964396 0,137151884837545 1,10985010003113 0,577036715542383 -1,07049320359954 0,452350577312149 0,850987294136826 0,695049196825902 0,113161664785488 -0,200952725125193 0,156583257631588 0,979798629553385 -0,0334671744731903 0,0569527687541654 -0,172472643611435 0,53562773542454 -0,639092797502216 0,0903203183891354 -0,174654500970206 -0,72415373688327 0,623956377765165 1,04767368382455 1,03877952401629 0,71314668708816 -0,332116428374931 -0,136068090963634 0,39627487338179 0,701311063281341 1,47677262167071 0,112922050899814 -0,396797194718725 0,505915124095976 -0,457967553913377 0,695306224313139 -0,771784035814835 0,249232281084722 -0,343718779765517 -0,0850688676491394 -0,38072483676119 0,257105244402398 -0,8992560391305 -0,361582954072703 -0,402649953991597 -0,609507704270946 -0,057367019328523 -0,678560030909163 -0,510674010461437 -0,452042272742215 -0,176549835695191 0,815179532625177 -0,584651783093655 0,617025618013585 0,218396657564557 -0,143179318843976 -0,300262915948227 0,258206197119969 0,854737455770531 0,198549505437103 0,485468091854767 0,277450527851144 0,890497068578413 -0,87611769460059 0,690173982762751 -0,350578761169344 -0,392373710662347 0,697610285227801 0,337353982491151 0,183684813240673 -0,0880109034263011 0,645639039208447 -0,174150955251872 0,375035922638353 -0,775302775310112 0,154680308935091 1,09454404563768 0,225667413167847 0,596493760150354 0,601441976030529 -0,22275574075989 -0,522536343694361 -0,666360155756214 -0,121291975389395 0,132288909197514 0,264680468606069 0,71695223364241 0,798057211761787 -0,31510132805964 1,00203481235938 0,0851799369893594 0,339740831583148 -0,689787241208993 -0,768571267713559 0,853862900562008 0,448188354914227 0,294770874458208 0,953513221623423 0,00862728215521278 0,994463281706692 0,710176771739742 0,2021655868001 -0,153645500032579 -0,0703242669783833 0,437139272151184 0,0612760060705172 -0,337188168863939 -0,416328638220575 0,126964110823909 -0,891083190512839 -0,637701042649975 -0,0849006071746126 0,555250050674847 1,20533457662655 0,190168467207952 0,880292488176334 0,282169648003217 0,176864451130739 0,141523183525791 0,226168414341603 -0,876481154073113 0,766305007633149 0,604400959000682 0,521111076816771 0,944375912244406 0,469254349970532 0,351449534408982 -0,369234298670634 0,47658401907412 -0,193658868191774 0,88626809269921 0,864549801598761 0,713021474916617 -0,0431529102419731 0,23539085120638 0,0332585671486099 0,388958145858112 0,16620367478441 -0,0254304465906514 0,530463652067618 1,03241106117703 1,5652553717021 1,73447803559046 -0,130005326003588 0,506047528263624 0,893637893933568 1,12223754167927 0,00119539679377909 -0,747850713380575 -0,00254411855365774 -0,149008044292343 -0,556347273276562 -0,255641176420432 0,75761615701643 0,915413301983822 0,973444880292497 0,59846166914369 0,441309651865512 0,18728140730018 0,93144186412749 0,561709921734109 -0,991383817847344 -0,100371193901066 -0,865710858859475 -0,956490458858532 -0,370339700831251 0,256271552273159 -0,698873266434152 1,01446294162616 0,237351647632134 1,13864444110109 0,723087166395335 0,594506248479032 0,561828418941744 0,848684272395216 -0,430942300770124 0,962086859350296 0,557197842050141 -0,33107753933059 -0,646354165909037 0,481659138588984 -0,470179688108905 -0,501919887707724 -0,561259988113572 0,961939345688571 0,490885308543978 0,194994439130875 -0,875775064407684 0,312359656089462 0,808237391894508 0,723684134185607 0,865408389855971 -0,849102327750168 0,47869287523406 -0,944417676951061 0,374017148414295 -0,752078960062724 0,454945016029978 0,824012341701656 1,14197752328694 0,980017486270335 0,819364491758575 0,123857459816841 0,416883984414682 0,377949311860078 0,681543212390512 0,316888469232991 0,447863687987075 -0,884201955861357 0,645266283241594 -0,835692041743751 1,00454599428268 -0,235471313260201 -0,203592912211637 -0,545361601303323 0,186825182861391 0,58191548910106 -0,00757399822884668 -0,689596309374324 -0,181328016595875 0,779870021851189 0,611235196076597 -0,127886584213798 -1,26853016847324 -0,41242678269844 0,258657958147036 -0,335138995798938 0,269834347683377 0,0481889274082588 -0,876044343166121 0,634614519858538 -0,98041828758943 0,6264648073859 -0,300416815361833 -0,488731931746896 0,690879905552993 0,466813991514327 0,220198096031609 0,0340026753160119 -0,821523641805176 -0,865332916443579 0,752038915340851 -0,936117034997267 0,784364283809126 0,602602860740264 0,749783203784179 0,0905147662112303 0,623655846673796 0,570059159960654 0,367386186298408 0,944867829101259 0,43098733804909 0,0346222631015777 -0,100555042969312 -0,788537462192673 -0,805528695431356 -0,174121853269711 -0,0701315321588491 -1,02149453210322 0,555936390105441 -0,043220689343874 0,997088385325107 -0,634835230935952 0,937393808613845 0,93310297009671 -0,886921846425317 -0,728959816551941 0,954526117243826 -0,712997500609684 -0,152781829032173 0,757032179465469 -0,506044258648869 0,827151945614995 -0,925779072817823 -0,482505615672682 0,976568335337961 0,590280388431631 0,0477493636590846 -0,675535912427102 0,289365378307095 -0,460989566292656 0,495530764190199 -0,503494130077199 -0,895980533060263 -0,685554361513259 0,894014598651475 -0,540248146520813 -0,516795755305034 -0,340063684190784 -0,653887580675535 -0,254119158116663 -0,585154647896189 0,177632176695481 0,439362633542125 0,182593257546962 -0,867164923813164 0,428799930561018 -0,867921849253393 0,87593473491326 0,579383323053107 0,413917774059993 0,201983703402582 0,408699896138251 -0,330164884165386 0,362867116073305 0,255998999271968 0,839215123790597 0,401158584572029 -0,185035938434715 -0,543041620491316 -0,32227342755413 0,760500282826002 -0,430764716682984 -0,574822362945667 -0,142401010543127 0,702717441419748 0,897469121541706 -0,645136036955455 0,573345895693872 0,96180638647253 0,621805543665026 0,751737629708985 0,296454474763489 0,954142225913015 -0,940109577531386 0,313896723383698 0,306789272157224 -0,642998906454255 -0,140700616789103 -0,56473756965891 -0,420745323715171 0,539413992066471 0,377024644927484 0,0247194647844033 -0,666236556093714 0,709194455696156 -0,832195677372386 0,641187601413516 -0,395410082531014 -0,00521755377725522 -0,905535948882029 -0,0373826658043025 0,866627627089827 -0,507804483626686 0,738660549296647 -0,0416120992353377 0,796982053300159 -0,254920974085644 -0,400455918985367 0,499169872670312 -0,764573169001372 0,0674622173896138 -0,473878246124555 0,829937810723675 0,86607196219585 0,613555043751421 0,814058341780521 0,265438896832618 -0,575039717641323 -0,918479959663896 -0,885553370238803 0,616494157854073 -0,321816334996202 -0,718099773201143 0,652829686926114 0,108843665298049 -0,5387390977578 0,732367698325361 -0,767066158534607 0,207118989948709 0,584021633138515 -0,733356507715946 0,707600336267243 -0,40835993356399 0,944421614143741 -0,336839755858422 0,909246020737958 -0,187485591300263 -0,782877974281223 0,102803610608614 0,497296608580213 -0,473552101437759 0,762625454068705 0,359559804505825 -0,822414439124903 0,492297527101951 -0,00867324960673621 0,55088949742619 0,0972387591360762 -0,355422058942692 0,841410085854165 -0,129774832278266 0,233172720644301 -0,427208967704865 -0,126468690607693 -0,555545860602595 -0,713896638273581 0,574346355355944 -0,135595335809282 -0,349759080282241 -0,469747084786363 -0,871592315024233 -0,435954051931103 0,409617050105791 0,928494376858268 
0,966313807169635 0,354047963917794 0,927812529585751 0,874826626685415 0,195230641850435 0,70126635929028 -0,000595898010526732 0,0291519029048568 0,305851514019519 -0,419023290114438 0,588796361980913 0,836782192626915 0,322487736519753 -0,905395078766739 -0,869201663663327 -0,901046499389611 -0,124225487633196 -0,429497352644051 0,535678447830855 0,34729220863171 -0,300460275976617 0,0237241484182133 0,127114556214883 0,713397899400676 0,516934686006996 -0,622782600976378 -0,670476118057674 0,942248901216943 0,561063472800034 -0,433323927999574 0,363007724811377 0,956522730050434 -0,652878190474776 0,425095277923839 -0,805341932856833 -0,87835313603467 0,0474321317512267 0,659284629896289 0,88361159867762 -0,0796253187398294 -0,172012153980676 0,831502478347609 0,926146825804234 0,964342677900199 0,249821976457385 -0,4240015279508 -0,0404489416464266 0,469701417958998 -0,280212465517624 -0,453213466011933 0,640248799374522 0,541059324213304 0,0119432913041945 -0,954099367459769 0,212530443901035 -0,0632915400416495 -0,778947791090163 -0,791466568608006 -0,647989208303435 -0,187874258719134 0,365901741095568 0,0516192695427081 0,463488860022594 -0,261865614003393 0,236554817464537 0,698474717908241 0,519153081400351 0,896542649725652 0,943606258765557 -0,873795836947178 0,187420237491522 0,311503068176119 -0,220518301394294 -0,293712276353601 -0,392147516962179 -0,0323787616213909 0,164440293438271 0,199867748918853 -0,530420794911434 -0,0466421138190202 0,432460497089076 -0,141765714836209 0,21930264820644 0,0203866589756222 -0,0772527453071171 0,815645697332336 -0,0613124488474579 -0,704200203577684 -0,792616508117407 0,261749482949155 0,928089025833467 -0,134512971354794 0,348995568803886 0,151386628993288 0,641467235770214 0,817798145863824 -0,626181634809813 0,274145170626122 0,00701413547243542 0,916722726637363 0,26527990852025 0,146556376686164 0,641943286264143 -0,189140677327233 0,542977589501152 -0,501501895222376 -0,0895875308034606 -0,580441815167073 0,493537765153205 -0,682914540287005 0,824322942717087 0,0710740335463472 0,762275929343597 0,403471915472999 0,376170246801527 -0,500365532244135 0,836166261685454 -0,496126197146929 0,92077127439844 0,509460471340431 -0,142997751097736 0,205071140941986 0,525778660885382 -0,524405301185593 -0,939071286601984 -0,621036573573717 0,996996719679067 0,474008146730326 -0,0370438053848983 -0,34190383594764 -0,745995516827673 0,661273230701679 -0,680049120927649 -0,315039782874226 0,773927475291977 -0,723789618225567 0,16036146177801 -0,537627284901879 0,534567407087467 -0,504994131541418 -0,0464989669990661 -0,469997434738506 -0,234345239707004 0,870550138318962 0,472965139970261 -0,02464155611576 0,378646174724961 1,21853172565256 0,88712647545862 -0,108492423267377 0,578917782980415 0,490751288297778 0,263000994069334 0,313673285303716 -0,234524453958671 0,776587325802405 0,271862271108075 -0,291048298689627 -0,988460402331447 -0,224413193930302 -0,975575785339353 -0,224723963468572 0,0321608894552496 -0,330980010042238 0,707624630872004 0,846294480060906 -0,319950199013388 -0,0429052175060267 0,539582195368915 -0,0103110594172412 0,205058691888285 0,322311563752196 -0,0584923433456661 0,433034271603016 -0,299518692167573 -0,57330628438367 -0,62500051379967 0,59700359879391 0,0770497102743336 0,378723765113014 0,311842570365669 -0,8657506559675 0,850021930492437 1,11830214296411 -0,0684228956658386 -0,5906834443016 -1,07194672082528 -0,883741514836703 -0,0762199695070974 0,0247861534465863 -0,592389316293707 -0,867084179415543 0,757365713843779 -0,834730506894517 0,952894425090959 0,70209921954687 0,169803878139187 0,986825571784865 -0,961603993982052 0,521995634882489 -0,851140957188599 -0,894429776784046 -0,582982775623983 -0,441337367296754 0,34099675951851 -0,674250943498945 -0,0610380281520836 -0,871471163920405 0,225049401569548 0,048191861843859 0,999413550113188 1,00716140655882 0,773140675492282 0,0378576930530749 -1,61680477565693 -1,45934550325515 -0,431232504429372 -0,306114117074144 0,569981471118056 -0,00935920763535394 0,124744946800802 0,555289596661711 0,0717386768350445 0,568051758302332 0,968493937560524 -0,169594272659395 0,416453444938015 -0,358811651096564 0,314494341169569 -0,348353027521955 -0,169814330000122 -1,03281545255948 0,0948111060499477 0,226786371170457 -0,231523553882862 -0,440464766864346 0,142609271693375 0,16777604455646 -0,0976678255626404 -0,0197377802798746 0,590284585275443 -1,06680725670817 -1,80444810461266 -0,746226687868838 -1,0804758897863 0,0722597653509914 -0,606812647783825 -0,704485342154096 -1,13846289890162 0,340340624271081 -0,644278462566318 0,796530775843603 -0,994998061021311 -0,203311492543341 -0,79677017984336 -0,546403752801291 -0,000487887229823784 -0,250131495754654 -0,344621206298605 -0,218555313033173 -0,261669766136698 -1,09884727309005 -0,508796466484972 -1,09247135843279 0,383171373665039 0,158233059995628 1,59883110863361 -0,193610648308764 -0,996743691207738 -1,00951375103383 -1,26730654495731 -1,55590574376452 -0,399151901694906 0,34199598683014 0,311051382855006 -0,675352176724571 0,136561549010413 -1,15003967409622 0,0379185857702575 -0,507399692852086 -0,830644445286703 -0,179765042678076 -0,49752844095463 0,851980633170556 -0,636413148084579 0,245010723790379 -0,554189583058348 -0,231480468826446 0,0830910249993076 -0,799376919598338 -1,06867281144801 -0,0608557266126741 -0,255106273164239 0,705616514703555 0,64537343496705 0,346611649568383 -0,176478134605586 -0,809236688886213 -1,0740927844731 -0,203274201670943 0,236637680032091 -0,639388159176935 -0,848838325556004 -0,454457964493534 -0,823392934096151 -0,933689167414955 -0,501330227995463 -0,818474336368188 0,134649004934946 0,373280042546208 -0,149058365633721 -0,0810930827284358 0,706459759807062 -0,754612002923775 -0,210396522579733 -0,718197860782884 0,670140606587179 -0,313827570997368 0,778410718601298 0,138055823920857 0,460925820227988 0,420104721100645 -0,061387032814614 0,342793599285786 -0,893131518706586 -0,387228009763218 -0,261522446522967 -0,985797210457922 0,0515980418919064 -0,356641087842693 -0,0219874225046266 0,280178342782723 -0,591913874000311 0,390072003013438 -0,312049147192532 0,519540277862991 -0,598591147164187 0,47412193583817 0,219898496666202 -0,986315398073579 -0,415704586890573 -0,791154183411821 0,738060195167132 -0,780694411947084 0,980151000547466 0,17791644989579 0,435395184817719 0,367604363741804 0,319462688096811 -0,0904401367084394 0,302392318722888 -0,240022511108125 -1,20382170743891 -0,997302199011959 -0,493959234792487 0,224693152624625 -0,386164100358252 0,263293044465352 0,929437263063428 -0,595701994530568 -0,512381438104987 -0,636733837290472 0,351374909431165 -0,320505519917319 -0,6638693688988 0,148187069336774 -0,903241350255583 -1,01412776482613 0,419946136641461 0,313627078667891 1,0346316193857 -0,421797989041709 0,816712448787482 0,779492951487051 -0,726857348963607 0,018366782495928 0,394360179256559 -0,484907590622625 0,603668382176113 0,892090498539732 -0,0924564056793805 0,193619053562369 0,685064177909941 -0,536300327699589 0,561437289326626 -0,605050793648515 0,514523529119873 -0,888019152907331 -0,261817683561416 0,866081374952801 0,445708528313871 0,444721098336215 0,502133887093219 -0,421759744411171 0,390549612179759 -0,913456818617954 -0,193732419548129 0,189767376172363 1,01268445091839 -0,029611314109667 0,204312324348518 -0,0239882078804683 -0,411365295766915 -0,0963377736579946 -0,555814403663827 -0,355602629934275 0,299326378975064 -0,581855247424206 -0,14156126486659 -0,575567825761617 0,871024090459848 1,0294627848689 0,707141902694698 -0,712973493943372 0,807127648792686 0,0886450756694823 -0,566159054793066 0,123996787545801 0,541004108149067 -0,800040924802 0,463756623381237 0,836252125870623 0,182182922241328 0,495839342607962 0,705628326174585 -0,559429984398679 0,158458969865495 0,348274610661544 -0,323991638417372 0,674710646304401 0,11955841841318 0,485478928966766 -0,3557575647355 -0,0284931163240055 -0,12032750093088 0,440534361630567 0,0190845701191153 0,354978808020731 0,850317315795693 -0,310535931288213 0,258588136833719 0,803868003014608 0,89768544868707 -0,769379364646044 0,684478530085809 0,732045948423272 -0,88496293642705 0,491830367754958 -0,300999388560432 -0,970466176972391 0,399319964342255 0,601228228794027 0,444360178619904 0,383806963870788 0,405887017887205 0,585999447255183 1,27071816109948 0,241367585007699 -0,235914966870432 -0,949199241929134 -1,09091733717601 -0,813385184838555 0,833068212923304 -0,667757734892709 -0,110651001730097 -0,55199918709287 0,546804367761975 -0,0316760973900345 0,323300804587228 -0,500378751006714 0,0393786338568634 0,657792780508642 0,288914110465094 0,324746484987021 0,328157305549529 -0,981912296850997 -0,931111234316606 -0,284787930704058 0,526871928282319 0,963017931877868 -0,75214567015119 0,147739827231211 -0,813230314048596 -0,683643661930865 -0,520996855333792 0,791354147543719 -1,02125809894633 -0,187474813493246 0,626190496194732 1,1804067627445 1,00209171133115 0,112298154143375 0,355652534559198 0,427276269488158 -0,454335413740111 0,104073075085469 0,842964851191761 0,341594291558263 0,810063318136208 0,69055168521941 -0,388037470297511 0,72483657055092 -0,548185153772543 -0,579685929794336 0,11399568403314 0,52395304851988 -0,942724595284825 -0,836717529714419 -0,879573087633159 -0,10317632064661 -0,342968084823221 -0,163111489530784 0,449882128946625 -0,243935834783192 0,242054418697904 -0,840551882664968 0,532630034931452 0,505780864611693 0,863219700499006 -0,502401615978699 0,548510686602085 0,711106037703574 0,0298723125048017 0,762340624395474 -0,168066170265598 0,971496602371904 -0,751689075740672 -1,09676718641386 0,128858203537661 -0,374676880389912 -0,569635270859296 -0,176677619383722 -0,00663315175655594 0,666851609793309 0,0604065954362549 -0,424491700355171 -0,096307125375745 0,748324549942252 -0,0814928948193833 -0,327674339838566 0,217842366441683 -1,43502447537085 -0,454917458892715 -0,764323844135123 -0,620238083391465 -0,770111318466593 -0,0987734463948617 -0,697813467762182 0,632285840343595 0,323060628473689 0,2428500501345 -0,344637204773153 0,534597857902126 -0,0512458139947907 0,757790412955503 -0,0734482666333983 0,034799704001206 0,212900148279151 0,805622707710781 0,282512642352496 0,284069013340016 0,984467410404149 -0,219057302189323 0,540178739454602 -0,294464499859588 -1,00342355272064 -1,01968079292233 -1,22617035954066 -1,61783955716887 -0,467702693932061 0,220980903220114 0,70330371733326 -0,661773237899489 -0,313846410066941 -0,12553555897856 1,00602442808817 0,441379334629628 -0,592847276405519 -0,01152318466185 -0,303999755895081 -0,360917324750379 0,603055336702403 -0,97310934415086 -1,13277184794155 0,826162506310485 -0,687804951628588 0,509884748986882 -0,974142126985717 0,681769668214952 0,952254680042138 0,415244015103363 0,722296891803241 -0,906824481411649 0,759442971136363 0,421056384243269 0,421613686998722 -0,249439726212165 -0,0162307987513117 0,440678894673055 -0,682512228378035 -0,917174082935145 -0,0819752929427236 -0,745598471389005 -0,229815526264939 1,11687064345481 0,147917049046176 1,20096709671958 -0,294825189408082 -0,887453038719892 -0,953058152713134 -0,909410245675292 0,0167704216253315 -0,280195447687356 0,546637319016503 -0,333084549455821 0,507022226816203 0,682815137777596 -0,226985497962026 0,63672938395222 -0,580080539289233 -0,27758703708992 -0,829319528441802 -0,768190977396849 -1,18476328688518 0,278504537243075 -1,38192053059624 0,412741320807268 -1,10468986641042 -0,217620578023442 -0,599091392928512 -0,968657359007874 0,120180950028823 -0,810788923951911 0,870351665007415 -0,626710596806518 0,683273019107168 0,470576507090216 0,596254103924799 -0,650973335473238 -0,0389619404612975 -0,49103458141912 0,113303509915967 0,863324994056442 0,494781945476526 0,665617260817774 -0,73893152176022 -0,0541554742172357 -0,47846998748012 0,251590496526803 -0,785781758740205 -0,851821471276172 -0,673745222003704 0,449631398606497 0,067735024101289 0,332939099469147 0,40868912835678 -0,763284645884357 -0,882818847627959 -0,440712828787772 -0,184229626322463 -0,429985660592189 0,466138250638884 0,431009403342873 0,445093855980147 0,679983839963135 -0,155413676154031 -0,119145839627567 -0,31207380024074 0,475260565474582 0,218481513915468 -0,89898387288487 -0,986397685585215 -0,713515054409584 -0,407321789134393 0,897762327619168 0,602613237721863 -0,630716481507508 0,0228550469075083 -0,481367745205332 0,467032868237973 0,0809532218434099 0,183923082824619 0,0609403924926311 -0,247198629568963 -0,646695105105674 -1,12832284330031 0,531255610882694 -0,405380219107041 -0,681264180130574 -0,424342266596196 0,126706629924605 0,257795878153976 -0,121269518885604 0,176225401961393 -0,911772863636305 -0,00277362766670347 0,871308641305117 -0,397408736196569 0,828133673103585 -0,193418816396173 0,334353637463163 -0,795160062624168 0,0608469168127833 -0,993319597949234 -0,866481198861305 -0,754536947541181 -0,796686709164319 0,213095739140351 0,608794725716816 -0,755303194206762 0,621181229894856 0,550151487984641 0,583144947612413 0,29835698740962 -0,738982869596203 0,659285236643318 -0,386320967599789 -0,50851836293036 -0,267077465434097 0,619358494118711 0,282844289650419 -0,802366939427983 -0,476358319138701 0,284648005057673 -0,628835430636218 -0,0709809879796059 0,247513697358588 0,225456694603236 -0,446888534203069 -0,0996096121764274 0,706424708232995 0,716620831145376 0,125815354617207 0,645260717033679 -0,889898587231107 -0,0535514660383044 -0,730313255640829 0,112116762579707 -0,176597381843643 -0,63925654734319 0,754618953759079 -0,593413983349872 0,275824062234698 -0,916133499278354 -0,396305434804549 0,169044825827938 0,404986637532598 0,292623246555036 -0,224131743776957 -0,659254904252492 -0,447977729032955 0,561725152154019 0,959584657765789 -0,809052174031915 0,601117581766202 0,217815182630409 0,701821353039203 0,780025765088912 0,630587029921678 0,188265257028578 -0,0265854174105744 -0,0326035369903862 -0,38978228473089 -0,409529073627434 -0,561501038946541 0,849568971518298 -0,477168478306488 -0,884472653274583 0,324913033385776 0,325270531977534 0,469839040988988 0,384493362010751 0,527230991879936 -0,744890617716426 0,815381974609562 -0,271910338214711 -0,188419783777652 -0,56622122344598 -0,322779603209308 0,181342065218628 0,535025695945196 0,931663363100386 -0,568367191497825 -0,796158656491458 
-0,652782882314474 -0,849892738117721 0,76380287574229 -0,0586622948155426 -0,94995717413808 -0,0972624360160608 0,246667028141579 -0,534698820368646 0,437769705255462 0,600590784004299 0,414907123708642 -0,145791439785465 0,869206245213127 -0,283539539901603 0,639177288177196 -0,245355494682584 -0,335952765842825 0,279151766312898 0,999034287495155 0,480989101188771 -0,0898183569785639 0,20860443515551 -0,956059286262802 0,711548527655979 -0,614883508266296 -0,113176354637859 -0,579264813750574 0,2906381150143 0,117692662079734 -0,543960733970543 0,660031778667203 0,0485434137455511 -0,456987833866397 -0,585390389883344 -0,717870032154379 -0,642349372315165 -0,816144509749934 0,63018298146942 -0,876032325482824 -0,532983902485714 -0,866264023841025 0,02226927631049 0,946496635154522 0,955600615102183 -0,135036161439027 -0,0211214343698326 -0,12837720547669 -0,892918078625883 -0,201653483143898 0,933963458069631 -0,45740940988222 -0,716534074239644 0,952094709565973 -0,0298906587258751 0,313125334447827 0,145404900113835 -0,887041234271089 -0,940953434329858 -0,436986568897548 0,170033220387798 -0,510655865506036 0,964769799916852 0,367931469708718 0,0488233282712853 1,05517408320483 -0,518644628422634 -0,565235911803861 0,595471563451735 -0,385243106845386 0,439510984972568 -0,246755709863979 0,170095198980189 0,271978698220937 0,608962827590258 0,428933175043791 0,932191804477461 0,279768287992402 -0,890552365314112 -0,132649577299019 0,423384237080793 -0,976744274487898 -0,679351907682725 -0,50083349426868 0,190538429365804 0,926073102333683 0,391484432657994 0,103240925634305 0,579334334318339 0,108279416323822 0,129854059747467 -0,769868978627934 -0,892630349946026 0,189206260904579 0,120970325753422 1,10713711436414 -0,676907803224565 0,852498241803289 0,24089763909315 1,32893556863847 -0,171979288410591 -0,0868124185115632 0,586006783653685 0,795342797163091 0,550808010846488 0,307901654642444 0,454273068809184 0,0663993874393251 -0,60626898273451 0,584839871458364 0,396794992415895 0,876649664869306 -0,986145930270667 0,206885646746966 0,155777657445449 0,154534648480809 -0,824612527800367 0,462683832275774 -0,83022930049197 0,0986554066653188 -0,351931469868754 0,432494082253476 -0,0894022738529887 -0,566585084890769 0,383336177207119 0,20003319230866 -0,119647180307033 -0,342315154409768 -0,0110849969866324 1,22083957419334 0,777129245153362 -0,367571914539239 -0,503866519605236 -0,84580393301437 -0,678820686688672 -0,280522869102447 -0,427140234592784 -0,361808375171863 0,0259629827436305 0,907778975986359 -0,543290285617937 -0,685029080834653 -0,27981184846335 -0,989642892472687 0,715242927214185 0,246114713952801 -0,833546808912797 -0,168292379426647 0,878715821109875 0,821515499475859 0,72866686875178 -0,482413442091944 0,150092195932567 0,556372270324267 0,48498889938797 0,658260005778486 1,66467427000054 1,07234285087513 0,23610460052999 -0,190073225699886 -0,256201224420737 0,330457789980034 -0,424912963825387 -0,47794419881939 -0,918706515927391 0,0248965910280031 0,531363045654291 0,915379656942995 -0,159001727099268 -0,591990818923269 -0,452439130377952 0,509420735980543 -0,576898289929362 -0,798040398536631 -0,491023916088316 -0,809955803488919 -0,481968836531788 -0,228294444616576 -0,224015499703112 -0,845511788390216 -0,264806978381412 0,573671464785219 -0,67759602040305 0,155168320213109 2,07893946815527 1,48399472965782 1,09771268853231 -0,0413618415439873 -0,282732674044975 -0,0167652892474579 -0,559291830504449 0,150083762041578 -1,04733315220029 -0,417046360564625 0,197145799669859 0,0119383416473151 0,517154133216318 0,951390531303552 0,712172195657423 -0,397851829860409 0,671984780991436 -0,783986111727257 -1,05622644912409 0,512074806890724 0,381013440169619 -0,418637877516871 -0,337723305458704 0,482557212941643 0,0296939792793406 -0,108815044236176 -0,240819748386293 0,973705248550535 1,09729351782931 1,08600094981108 1,17389880945828 -0,0943443123437069 0,266587801633114 -0,671875646002328 -0,432292234467645 0,173575728784954 -1,07313565390191 0,0631662871596374 0,250615409331773 0,738036099658545 0,58557932219737 -0,006978163496306 0,147751259118434 0,727719511409115 -0,00470086374317602 0,546251046482652 -0,302527368891614 -0,203914528770368 0,340489815041447 -0,44877450173687 -0,317160387578654 -0,251591986683161 0,318213627015659 -0,715360397022476 0,224458776751742 0,957835435800143 0,801154531982867 2,15703094870311 0,410730963422917 0,186770325864246 -0,633481209984498 0,433879839974827 -0,200021550702117 -1,26995118918603 0,0242514813221095 -0,680257684014899 0,711383793593401 0,257061423575871 0,0262915188678794 -0,975220607270346 -0,72304866769999 -0,44363109014507 -0,0168063063851158 -0,744043012683947 0,980939882491953 -0,326783131319965 0,471946489643749 -0,235181158950656 -0,901212808969568 0,435110575274479 -0,752576657538698 -1,10363174999675 -1,03309396289259 -0,285600793039467 1,9963497598624 0,757611015900234 0,241900932204304 -0,913342038810913 -0,286081737727377 -0,0583865577057761 0,105760934567027 -0,365585159616257 0,862753595070667 0,839753351866734 0,274484445216406 0,969389439685952 0,846421532558304 0,0245737457645947 -0,581263621975711 -0,269147606924778 0,870600546594953 0,411121066331835 0,690836245139039 0,412454538605259 0,872183379940657 0,599673902785917 0,202698786594159 0,132160117334988 -0,560680971582016 -0,641732571891577 -0,816502097132397 1,26210539248777 1,42802765439652 1,23286200446754 -0,329002531524616 -1,39569689006614 0,0407453254395907 -0,368249964096411 -0,526355011528018 -0,307363605314736 0,125496381146073 0,00610319174698344 -0,711957963924451 0,662972644078821 -0,278462744205109 0,559564512090037 -0,409382266711384 0,245120753801879 0,0697702537203289 0,92562644960455 -0,471051361196321 -0,556670131541462 -0,926695689241146 0,160752427120075 0,366170539455485 -0,158855252093872 -0,76751701929936 -0,396530588906993 -0,283277561448651 -0,208429275167302 1,09497602768217 0,894005315252943 0,353075539174375 0,0854882733901173 -0,0842757885072 0,558042582089872 0,564713493276201 -0,385106523705574 -0,137292640063517 -0,127182346183791 -0,457467411088869 0,0872356814354349 -0,269002651259449 0,855753878377267 0,665933427097546 -0,046039870033235 0,356134470553864 1,04948753420688 -0,556193837246809 -0,70540771467174 0,00312829757429088 -0,745474052292976 -0,696559950133988 -0,387376833832229 -0,783788222917099 -0,911606197391676 1,00246891176684 1,46887571516381 1,28433424023602 -0,832890749065567 0,374740289825351 -1,13801672310618 -0,792189839930957 -0,692622967799181 0,546563044416709 0,179839693219941 0,189443477953657 -0,701736473712188 -0,217013969235452 0,330735524583968 -0,759615957570684 -0,87696165049505 -0,490459407265067 -0,596577960880996 0,628534931633928 0,501677577313331 0,392086521950033 -1,1822760119941 0,222726403854044 -0,616222587603748 0,43981883627007 -0,70236092834803 -0,475645062050643 -0,463292169394013 0,165385621305923 0,314548280184879 1,03159742072039 0,361557456495115 -0,262660350909096 -0,962721668450311 0,332667716827065 0,147140159098471 -0,336916311994494 -0,444028495207667 -0,148201713267992 -0,735876874593679 -0,0476155876615522 -0,523174678940158 -0,604530429575022 -0,634693663834157 0,905787950132831 0,137888379568032 0,330555783394695 -0,0479044017785975 0,729608917551989 -0,374943267041904 0,229463852507687 0,379712382466622 -0,225666091389627 -0,060369253946295 0,0103613020296161 1,06885596839372 -0,218670640110289 0,447441929939398 0,255982912846728 0,774235523962645 -0,201171912574705 0,0639819570059885 -0,229614531707556 -0,439071447390918 0,737351283838898 0,871951045031063 0,112386355256838 -0,738169570999858 0,83798504815857 -0,0755348394426467 0,393741080994059 0,825444488796141 0,631042163365792 0,431561890853959 -0,548835538272975 -0,104448878108036 0,667745014060584 0,173697207465012 -0,457512847187244 -0,784225606883083 -0,0478923668352953 0,663816972858085 -0,29778594825358 1,08523049073949 0,40728705526379 1,27334933324599 -0,0867894689086933 -0,728801804194552 0,0599836416428454 0,22204159191736 -0,54343048769298 0,783127004363594 -0,69182947266127 0,385674746359177 -0,140151289581456 0,256281589756757 0,0872075655088994 0,712882861835126 -0,412752373899103 -0,913479789176705 -0,714775393240472 0,262215754486415 0,241621446084615 0,144969649229935 0,723492374253791 -1,20412034421034 -0,876195253209399 0,757626844362228 -0,214866698902546 0,931034921607652 1,06886631437754 0,254287825360123 -0,478120567850267 -0,538747544613919 -0,404616477584539 0,309139370391324 0,025062100311634 0,284922585591826 0,433521950632156 -0,802398577509235 0,684867880135852 -0,0619477304558444 -0,365603065247051 0,892839412990716 0,834855811794478 0,65491125741033 0,65747980209889 -0,605583871443496 -0,146775657368721 0,52295192544492 1,01166528659122 -0,850172903751037 -0,238828332907316 -0,449792391128133 -1,02865316788076 0,822358067230407 -0,275236309400237 0,630444519849223 1,4513362677654 0,340891437693327 0,532935830382741 -0,763849826712809 0,185121310688392 0,330306492560546 -0,911828450393698 -0,937863321546805 0,576501434687352 -0,914628045517479 -0,266086821447224 0,11201868257834 0,715171301457073 0,268376188597572 0,8980862100721 -0,545702421193572 -0,699906681613383 0,516665561226564 -0,0489594269998019 0,533252608209268 0,335529381259908 -0,78950357237459 -0,554680959406504 0,658788183680697 -0,366227072795008 -0,00714652809712094 0,919823992072461 0,881353387428881 1,30833600111138 0,38090980739865 0,823596905068045 -0,681880504646029 0,0420195871228119 -0,788121827538678 1,03290618613273 0,200879083776228 -0,0344672381964352 0,541286078351694 0,340542855603444 -0,313324906929046 0,616626431486361 0,476800611186326 0,893468077394981 0,543908419480726 0,491610006223854 0,902731491295089 0,963481474139163 -0,182734059914085 -0,765316690970456 -0,462832986975283 -0,248213381792621 -0,203483027975856 0,0317061197681886 0,106760780835761 1,1160455785344 1,25528480580935 -0,136261082378837 0,717385341816133 0,513403276535251 -0,672790041628492 0,923744515707768 -0,262427260457659 -0,406388234798645 -0,217558606107361 -0,429095525572054 -0,561480505277662 0,733880522572808 0,410321372507283 0,366672254901737 -0,0587143668857214 0,689192056467307 -0,208020633303164 -0,92185024550043 -0,616203122505947 0,966107661998219 0,882720022398566 -0,759148251732892 0,0480807898436111 -0,276813708315823 0,35908514997357 0,604791992650694 0,572725964698695 0,804344632577862 1,03130987150643 0,0337427369573269 0,41006564044554 0,902943661336919 -0,492732492015062 -0,472973960044508 0,93696771579955 -0,355357825944794 0,557153268691217 -0,532374158465874 0,258731562984448 -0,372235272266622 -0,0588441944461764 0,0817287112413328 0,431752694416219 0,365956212819706 -0,00337906123785209 -0,983635547695603 -0,442467055518439 0,441560001757465 0,34730015134844 -0,252670239120918 0,835468538492464 -0,236408985749441 -0,0481142611283658 0,630472755932224 -0,304243278929992 1,14894039594441 0,901981631973724 0,236614453901245 -0,298739822282043 0,358716336894108 0,108659603800032 0,350568285345125 -0,2741250634201 0,965825629087832 0,273808284443992 0,17649914697937 0,635617247660684 -0,0310835146400701 0,331491087885102 -0,609311630557873 -0,586033371230144 -0,318718754142209 -0,262834467963113 0,566590015661414 -0,0441078422903626 -0,209574582044127 -0,167779787999744 0,561972424759709 0,425206710126992 0,0325817225515707 -0,107912395452719 1,15400271851682 -0,338115339693677 0,392420405002137 0,199992161705056 -0,113804465112578 0,273530656030881 0,378761470434377 -0,347168552877741 -0,699624141043159 -0,201976564044094 -0,631161095822211 0,869536136946886 -0,74782713615018 -1,07938099451436 0,558872492758215 -0,741444069464025 0,589856994839723 -0,667230277452739 0,93511848267049 -0,870249089504764 0,323733464585877 1,00415970580294 -0,071370941066763 -0,655347842347283 0,116185241020974 0,882906278094652 0,0770762943732793 -0,751017969422776 0,52404251288165 0,0612687386986067 -0,738893753604231 0,831209664327945 0,710007393062139 -0,316552246867455 0,343927103360326 0,360898096413851 0,576154170034978 -0,303285091333426 -0,571100052539501 -0,628257951486576 -0,258721494870148 -0,0675711037289651 -0,0394846757908982 0,499029600895745 -0,691433222996453 -0,076489210669349 -0,771033084167893 0,3060194529233 0,119558012721913 -0,53698156371193 0,250127563922786 0,243367644918554 0,485631181647363 -0,117746643748085 0,422045388814873 0,842987422322827 0,222418405359606 -0,469727258219083 0,770277331886192 -0,206411917276894 0,87139492765781 0,149947218499395 0,0334850667732283 0,544647506900744 -0,251645850050712 -0,636101976445392 -0,396933948071248 -0,242080851696614 0,591509198015529 -0,164838364926764 -0,595790941501806 -0,264885442443159 0,982847403393255 0,709505546991792 0,148877928715913 -0,83220384296219 -0,162743491574477 0,405885453146882 -0,876377158653101 -0,78572391718553 0,656296129539969 0,747933848037612 0,118513048297278 -0,0202093409902034 0,670088959358297 -0,160436533109967 -0,692768247315939 -0,292769701163431 0,043234046164938 0,382399459072731 -0,725251085725803 0,690501721861542 0,0825099959031457 0,577146535135837 -0,284833760088538 -0,368939731344979 -0,151664370325461 1,01257621482469 -0,198323486274716 0,775679025102758 -0,486427245370063 0,803169054632787 0,8525608285921 -0,575953443824991 -0,950873295666059 -0,472875019202363 0,316864473514715 0,818766932937739 0,743999785652558 0,26637854025263 0,00214402898921862 0,780518485403628 -0,558456592476239 0,70409130688327 0,222805756590923 -0,760985430898659 0,909159973477982 1,0879190782792 1,06684026857748 -0,686411611640127 -0,643026637702886 0,843875266174945 0,744680364088947 -0,335697630711603 -0,069737225116431 0,132288633238878 0,729419058835234 -0,67211838066079 0,200732968474414 -0,0980845321039957 0,777108559335274 0,105567543438493 -0,279806937599412 -0,635928578417649 0,72392783309895 0,867930430945042 0,908379267946128 -0,369037192824545 -0,177254645669787 0,0806902638046903 0,522866684535207 -0,574708691384799 -0,232599285424261 0,464509626480209 -0,834635100951738 -0,646483948742898 -0,021695454417493 0,408161302808595 -0,490311461219879 -0,555926911087652 -0,498839323976739 -0,535333763588346 0,929451579308916 -0,320724058328817 0,528235525320194 -0,408623807393318 -0,943015661734893 0,435167543414646 0,757905684386402 0,0325160469955962 -0,188712583389405 
-0,00781010688151736 -0,379275788175236 -0,161920608473621 0,474796138548032 0,827875087046288 -0,00343698114753615 -0,960270508085222 0,925456017309828 0,254957523870097 -0,876864860619539 0,0759947846022501 0,0922283992557079 -0,230748439998807 -0,504010390551046 0,817286820873649 0,137843840977236 -0,705216087174886 -0,70005148440108 -0,653265917423489 -0,983661721364156 -0,648735821926096 0,820575928320727 -0,265686638222561 -0,647529557094408 0,285954610200878 0,207955147790986 -0,962010515747315 -0,170071614430967 0,124932659471199 0,807466205208596 -0,529183212359705 -0,129340692860415 0,786003532700855 -0,735271549769545 -0,482710334322122 0,789483913020704 0,917796687434947 0,960065311442108 -0,71969872189693 0,315660366462789 -0,0467430133876081 0,431335193005909 0,231586942600414 -0,675085331112261 0,459571845016743 0,384951727154348 0,114404812439252 -0,829897915357681 0,701494129654723 0,447176061761685 0,751704847977393 0,123637067588421 0,39958951044373 0,0045956769935854 -0,551558852829483 0,169219027906577 0,88401591315615 -0,516785988270389 -0,813553408544812 -0,382475414270919 -0,0438215334014975 0,20740814675181 -0,201966563695747 0,445664331612349 0,650721139403461 -0,797068605701018 0,302554624284398 -0,500413176867004 0,970233035611155 -0,985158791393452 0,206830955732427 -0,663580190785568 -0,977839130466979 0,0212666227300882 0,0555480795269566 -0,0884358780156948 -0,419638726264481 -0,59745048641064 -0,113630058608943 0,898002116075877 -0,908709254025586 0,863442442260395 0,124642648415296 0,675362934296005 -0,946632016336558 0,34478491429958 0,468675012993537 -0,220990328377593 0,81388695181651 0,345641855382034 0,902975465163202 0,433211864818327 0,772196151354575 0,661555736482278 -0,637013262670518 0,73931824882446 -0,366021594940066 0,793095996849779 -0,304571733003337 0,29250383175853 -0,895852430284959 -0,377962767103201 -0,837030760664364 0,619083055326589 -0,823246364749828 0,392746915589184 0,0889026733330189 -0,633593466263824 0,943999144905655 0,528759594558853 -0,418620285189867 0,473924806185332 0,59018214688673 -0,714560288189255 -0,476045324822426 0,0904362515185211 -0,919540333111084 0,119989062578415 0,38980853883986 -0,68916737652838 -0,239675740905359 -0,466108464888654 -0,344024894723255 -0,426616791699666 -0,878327509220886 0,799208160365329 -0,423292648006381 -0,666641196672603 -0,34623206092544 0,323967106808615 -0,801437675533476 -0,296285335018599 0,662126445237615 0,63576788175136 0,820227905811301 0,491326499986213 0,702445387860283 0,456185835593506 0,44647949038345 -0,365924907768135 -0,761591220074792 0,0977655580678886 -0,164996656901284 -0,717996052824877 -0,24351724759613 -0,582062927684264 0,825104397886535 0,461155654386015 0,123516541200604 0,23474108520373 0,548314076467135 0,330508486937395 -0,728879503794344 -0,689294311290714 -0,602039669796466 0,325319578113697 0,684928833678085 0,3133785171996 0,336827627558967 -0,633996245612609 -0,175056800938354 -0,237987225726591 0,719080177020027 -0,366821256662031 0,273218954613373 0,792124187115248 0,736526553536823 0,953602363489216 -0,534449366547095 0,0426388636422843 0,420462653583232 -0,374972860858072 0,655716116942398 -0,26394621402141 -0,967420891591719 0,562558239998699 0,574552265147007 -0,741059277618373 0,629833110249513 0,39888186121815 0,658720195634058 -0,218399187877423 -0,1355683110423 0,0464834097236405 0,350348595918235 -0,506377554070679 -0,774648686958127 0,31442720964898 0,115611559626404 -0,70697811277942 0,580949500911964 -0,87058359246077 0,938253088706442 0,0244567365808353 0,777560630982689 0,487684930196747 0,398451062958705 -0,791986753753389 0,036270182267426 -0,032379581037652 -0,330442957165262 0,85749861360343 -0,0296942337317836 -0,950464779093286 0,722455759301572 -0,188954539473675 0,573180069946274 0,361991569564278 -0,893923356364429 -0,355507999968684 0,569598772068763 0,201785904469252 0,450951969239476 0,628953259754365 -0,655779487789522 0,705024013458182 0,443732443725115 -0,750338654908785 -0,044584881044066 -0,513120842973694 0,393032982883178 -0,608529918622324 -0,162317325003864 -0,799102771163374 0,485342996956171 0,316370034345008 -0,263961187586314 -0,34227102514811 -0,0438849454649923 -0,44636648790165 -0,800088407682965 0,447998704817479 0,263446653795142 -0,338294902363405 -0,237725848937174 -1,10366343408875 -1,00088444314311 0,0568054861771765 0,49175200169072 -0,510220969132524 -0,271936890601421 -0,496610083329203 -0,188888479451279 -1,05564490861729 -0,873217847573433 -1,12394485694974 -0,638674183010411 -0,962661217529416 -0,498758175472565 1,00456805081275 0,95953974841897 0,10316086827184 0,23488151463428 -0,43503675394236 0,598374955928781 -0,688237147039946 0,0289592936100797 -0,204871399895123 -0,43584899467085 -0,542568465255142 -0,806114723432985 0,0394784965395611 -0,41716683513679 0,654793124661177 -0,420960519123647 -0,550607973232633 -0,817258893237673 -0,346709251989042 -0,41636819901352 -0,874323467437375 0,373250235852307 -0,90800244633551 -0,507884553061202 -0,810593866303268 0,451288993025778 -0,39256683007369 0,308408258622592 -0,378892646395189 0,815605405822799 0,44864667605366 -0,0887550302118871 -0,297002094539989 -0,84131645617323 -0,0207788771554958 -0,387629547387655 0,114781303980728 -0,806146532197464 -0,275491405320327 0,215260537122965 -0,295311213442424 -0,0315314354950411 0,244944632789506 -0,398735389418826 0,184725312290966 -0,746620170230143 0,473092286244358 -1,16750595754366 0,11181134875302 0,271851981493582 -1,22761707250346 0,731822279471227 0,505572462341035 0,129430636264055 -0,967189633794925 -0,726589221345832 0,574547959096692 -0,621460728351095 -0,11445266016775 0,0310373300340252 -0,0172732603113488 0,000239118836939819 -0,565806636521894 0,0220430363160809 0,143708697483595 0,552368674178949 0,563175638780299 0,057994218058703 0,790504746130244 0,182290212739341 0,564575656263057 -0,788907600628109 0,418594475240708 0,404498772243384 -1,06321122796201 0,261120316289117 -0,71208210329575 0,624199630669319 0,550407081582604 -1,02078479814831 0,770491517916298 -0,496550300428302 0,964833071116578 0,0506850229895181 0,840284679986334 0,581437671796425 0,320638268153545 0,52660257693583 -0,909369460765728 -0,292630592118986 0,0553798924678145 -0,227428704098787 0,343302987113649 0,742103749872973 -0,683662969789399 0,713778510630036 -0,346788389133757 -0,786574204812761 0,243912846530494 0,287511128157187 -0,367578406924752 -0,385935891227555 -0,760197277792363 -0,998560975164195 -1,26693266374822 0,586958945158633 -0,62050258754755 -0,976524419700294 0,0167905253856612 -0,389391879124772 0,784961594028535 0,697252404979902 -0,294834673496698 -0,115998620464762 0,270355990994401 -0,533903403462814 0,0182359660238917 0,384601801009942 0,199468265505453 0,587951303242114 -0,688354396430733 -0,98312212067418 -0,115095058442978 -0,078336686193379 -0,893202686905679 -0,280452313451049 -0,421073180941004 0,344395941996701 0,0522690134862397 -0,682679771564075 -0,343789700983836 -1,04461204779082 -0,776769778068729 -0,952146486126836 0,18284209944572 -0,0250494650672174 -0,930365095398677 0,72521435888965 0,000374606886761731 1,0443481829391 0,100627531915022 0,279866123850402 -0,48199150775444 0,446503461975238 -0,0863445140027801 0,3584342784807 -0,925330022599534 -0,540710202964206 -0,511815237429445 0,791175970010688 -0,395848900232203 0,219121031989984 0,134943120308225 0,804116516305666 -0,035961703387995 -0,579872149690653 0,587759362842912 0,252866012463252 -1,0554238364345 -0,0380972197041591 -0,188562252041275 -0,206548889086883 -0,224867430759025 -0,464969108248893 0,82238228640015 0,564675021250037 0,201795853301266 -0,566952975437101 0,613190022376502 -0,731312894049846 -0,634660453630075 0,244909008715019 -0,619429712028211 0,238372185020681 -0,467698318407921 -0,008706660422898 0,478139936044456 0,484684366685784 -0,961120531757238 -0,264385326409639 -0,18582810379761 -0,633067889837238 0,0604531907744518 0,150126832754258 0,491089389688537 0,356290175220627 -0,0385615257218869 -0,569517892204837 -0,0498797791451222 -0,465640736830518 0,169414479905838 -0,319366216505219 0,624356639634542 0,743868071585389 -0,104348432371971 -0,896400719292636 -0,558567825792291 1,00054635539065 0,641170594068201 0,360156941731649 -0,828071028338001 0,667794248483726 -0,12097609994657 -0,810112133567058 0,362375911483255 0,384072024360301 -0,159395285276422 0,8109718459883 0,30060816628629 -0,902948960933873 0,105765671972004 -0,768633738535789 0,0691942956357282 0,172211827841626 -0,627309701616091 -0,557967552395271 0,592128720103011 0,31784693340799 -0,353418427063714 -0,886536617571678 -0,677281266993273 -0,508230638853276 0,260800650498306 0,00685050738070645 0,126571491540154 0,720504959925895 0,612027255444097 -0,35204818805745 -0,667435049433345 -0,588154771943173 -0,399418499577818 0,527585794741041 0,724441660550134 -0,398842439629692 -0,499212989483447 0,0178552532191646 0,369858218578772 -0,253301298251263 0,828420404429461 -0,673026577913672 -0,230587965802386 0,240555948618309 0,269807920787955 -0,196082089476431 0,189235358478757 -0,388763738618353 0,124146859729949 -0,879402192516774 0,156375326967277 -0,842274619780271 -0,727989693416787 -0,0266649841446169 0,262061467096354 0,468387399115676 0,00134244355527098 0,697116587438281 -0,603659251311996 0,861136628620172 0,117387647861641 0,743467765560441 0,787424494643619 -0,897774988787382 0,378512279653268 -0,274976473631573 0,313758640477191 0,423841899782827 -0,544912040156082 -0,301003063107758 -0,0437076246843203 0,500373230862915 0,213411509110976 -0,205703797090216 0,310655741586387 -0,855249457937835 0,218774943784624 -0,0394114899038535 0,00530190572178732 -0,787325968783798 0,571483305176583 -0,685078893598549 -0,573849869269211 0,393725403238243 0,483711397112831 -0,842267495659443 -0,88055964292578 0,607558771474001 -0,721347278224047 -0,676217387222378 0,701738845601522 -0,142869372507723 -0,447033100347351 0,391921778579865 0,532751185276065 -0,937414986754003 -0,451955901397811 -0,287727534213672 0,944557692741443 -0,565513596411858 0,425065313509426 0,712209271455999 -0,949547217013119 -0,51072011189819 0,264354084238157 0,620080863507132 -0,15183954638036 0,307711998138261 0,504899327411736 -0,0424094412989383 -0,889305406491991 -0,96547750277489 -0,323046092198659 -0,847112425443021 -0,725311154633107 -0,220520540022796 0,31041308302329 -0,638740277723498 -0,346100256512177 0,295697502080985 -0,358035639955331 0,735282768062218 0,218659041737576 -0,800543338979656 -0,00460482132461692 -0,904227986056471 -0,166610719602812 0,496090653082492 0,0338758563970795 0,134515191117115 0,600549594509967 -0,340329579949133 0,0181465078942605 -0,587739720380669 -0,294604211445519 0,74820251705142 -0,860699089625732 0,852705177231144 -0,931110766886829 0,861801315122475 0,275653069138336 -0,214662426639083 -0,886853162891893 0,325885117482465 -0,784924745300934 0,616160595585601 -0,922494952288839 -0,625198220921371 0,155925633942881 -0,224308958842257 -0,261426129697271 -0,871814539779877 0,883632774174297 -0,481759012125552 0,637821552941232 0,348640558688655 -0,62933893981713 -1,14458079353174 0,50541428393739 0,262361722477458 -0,28833985069558 0,151235529952558 -0,864173357346344 -0,831617689193796 0,199529826711496 0,40184937137718 -0,00938927307736138 -0,727911863467742 0,433431694108969 -0,481431164313542 -0,338608797769233 0,491258836148179 -0,676011191334337 -0,202945991265218 -1,00846262652543 0,849994126196267 0,647566508125792 0,805006638650262 0,789986386260618 0,0929673679154637 0,650583895213475 -0,840430083104714 -0,964200326004605 -1,01683697858506 -0,67108236433608 0,417290472022313 -0,344927153770083 -0,557940176675073 -0,48353902464372 0,101638845280938 0,261433447312254 -0,894245447308877 -0,777567194088332 -0,212121582323428 0,15398325589249 -0,888385058803408 -0,340941975428971 0,937784166135075 -0,859689042749388 -0,157100868728468 -0,34582797052309 0,868196797992561 0,018928481834402 -0,243102955617736 -0,749612918456236 0,265159229616992 0,638491733478688 -0,214953006123887 -0,805609512819407 0,566569956826817 0,433125071936883 -0,758739060094697 -1,08890918617158 -0,843046409487651 0,348927845314374 -0,719912368253748 -0,238759646550267 0,910744666800084 0,695878617177689 0,613090370208476 -0,364575966501863 -0,437978134864682 0,760713927668451 -0,655947438996861 0,272677351470721 -0,446532879609562 0,269734208220793 0,561071959644957 0,671648622403792 0,936049727082858 0,302631910611626 0,862501115503184 0,813291796555856 0,0458638353299524 -0,474708515216086 -1,18354166864763 0,197653882895175 0,411779934098536 0,635047726622592 -0,0992445672878126 0,576302736086228 0,520255342489645 0,851265901302452 -0,470207272449981 0,187252133981689 -0,328406509085762 -0,983706950672733 0,933647344623235 0,392559459918457 -0,118639815641536 0,367952574194127 -0,226056852204359 -0,768321830582673 -0,481456054975656 -0,803891604586172 -0,90492294398148 -0,882000327794682 -0,310334795077955 0,501859626726121 0,749601193534643 -0,913160091772185 -0,733977961148314 0,446272310228494 -0,357463995596769 -0,317447810274546 -1,02322856584494 -0,384387869016484 -0,104915593481104 0,595479483730531 0,391623006645565 -0,12090991291605 0,0946851839907094 0,916420723666442 -0,430070010698205 0,868139350543424 0,0350572583135799 -0,281493004829035 0,210758156294647 0,106326393731977 -0,443713719014163 -0,503518514015206 0,313313375927489 -0,852757786243294 -0,226726465409676 -0,456655857837175 -0,508042269093667 0,602146108161929 0,315130265202286 -0,088518489935315 -0,443538241763444 0,87546977755717 -0,298296335545275 -0,864405581570542 -0,810390396284266 0,050875260101565 0,484142695042114 -0,869186634480811 0,166604531955603 0,845581155169267 0,226587811309036 -0,97559089124993 0,119418808800411 -0,643086577917379 -0,985004051778577 -0,992527791535899 -0,731980546138202 -0,172885869377288 0,643292714764317 -0,356607121027057 0,15334061502663 0,373246022297019 -0,0952090494821731 0,581062869993815 -0,0594750031846451 0,245848081615844 -0,238562047636803 -0,874589564455651 -0,290711076535689 -0,8790822332177 -0,805724722710492 -0,593072374979429 0,371911801959121 -0,984466199238422 0,0196004220232438 0,495827057298108 -0,834846469707815 -0,0444686882483287 0,753152666360345 0,547655775046257 -0,596471462149283 -0,0763432000871833 0,545281271780061 0,351988830602428 0,882075944949259 -0,468626999891355 0,374689790217828 -0,0459520681087551 
