wih 100 784
-0,781622202912163 -0,273637349326011 0,083442072941652 -0,537334390647393 0,110095893602853 0,442117281982713 -0,557668558994147 0,0456446004843441 0,344687606887264 -0,566285704938821 -0,947835336361928 0,284677262137943 0,35718982986796 -0,387058988772106 -0,205851971651414 0,104465171487237 0,80944433245969 -0,564894952555597 -0,534698984315938 -0,835929757785944 -0,434118751119894 0,341712772592752 -0,427270170912754 0,560936186311278 -0,0301426979322747 -0,446727132114005 -0,838744371069935 -0,93769335179761 -0,522867391541997 -0,338465198513353 -0,0043238554570571 -0,682177332960145 -0,625194954933979 0,987947274885375 0,0254087395284172 -0,015402757023066 -0,245485288612837 -0,68583196277871 0,0988278201216397 -0,860316024820558 0,372556877246576 0,0165037488600992 0,554954582153196 0,125198281177658 0,197665285133317 -0,285930678112899 0,819916022191994 0,684049539633241 -0,759990677504832 -0,465330654600465 0,63585960984829 -0,157054664716697 0,946854371605846 -0,924624397331202 0,348306647251487 -0,123263490856292 -0,846295693764594 0,522577371279053 0,492879791991419 -0,441608900847226 0,281490022267644 -0,618951295021289 -0,413100459555061 -0,266468345648731 0,487372236266937 0,827797194423323 0,0185181058826038 0,473371541543098 0,717882232524808 0,950999053630265 -0,467416853138723 0,669526833379963 0,496302116039706 -0,541138722461946 -0,0555461396537744 0,694823422680746 0,87250091137015 0,514877934115892 -0,585703770912372 -0,703944828514054 -0,241745412993085 -0,498141603813412 0,842953626046408 0,946198789430882 0,0337111331278868 -0,836299762000463 -0,629747475782341 -0,69634330693746 -0,353103132231417 -0,845395939992328 -0,141701172023083 0,324792762776056 -0,0256225583067612 -0,267261430860983 0,0882761922474807 0,239941162938368 -0,256059667729269 0,268778694601182 1,15208550658586 0,809098830931932 1,07432234890282 -0,191728837918348 -0,519421305071955 -0,224283581210245 -0,563026365492704 -0,704694370346133 0,588946313195647 0,659077074003756 0,265704857231272 0,761630532089979 0,0802154252452047 -0,329645320407898 0,133803566567499 0,217989343836229 0,803867865248181 -0,219557721375274 -0,446260029490734 -0,343388193107153 0,730549414062501 0,463262943371078 0,671350971518494 -0,0517518509317769 0,11798238541591 0,781882054906686 0,346945268228623 0,484178626859977 0,103972199495099 0,0745703387288355 0,643118276936244 1,21604864549238 0,620840065835478 0,393877405970311 1,13160195196522 0,205121139118621 -0,312266791108891 -0,573935461860337 -0,543191478512788 0,479582157168658 0,781476314463149 -0,0847854469135106 -0,311790412849665 -0,212146103893485 0,0763912713206275 -0,111066176624141 0,111898947704149 -0,807691497454728 -0,766511689103153 0,87505208528614 0,0497372005620329 -0,631227250214989 -0,275050799023756 0,910323577921575 0,44284229586373 -0,141633666105105 -0,486659808712626 0,372212750066961 0,665048017020085 -0,315425604056836 0,558279579914939 -0,0669099935988681 0,405835000470703 -0,324513930154649 -0,865895119359402 0,355001846700355 -0,44573968001927 -0,932662889994592 -0,160789442997324 -0,811929541803077 -0,271878365035129 0,489676521138033 -0,659832172600409 0,097432849911236 -0,0775441858987274 -0,10092053779744 -0,11581650842611 -0,202251945530697 0,63693199020917 0,98617298841165 -0,350915749847883 0,240223666750508 0,387491105833387 0,582548942272795 -0,503639359580919 0,536209252681809 0,47730987498972 0,330381642922046 0,761966263348627 0,215892420279087 -0,29647174776304 0,203877443899283 -0,485932483553723 0,620938596802969 -1,01167802905842 -0,292212365581843 0,465204343015058 -0,967960770018424 -0,252367918705574 0,779727313731042 -0,667640600289391 -0,00204263305963786 0,401332214930903 1,01501981877442 -0,0339072260661176 0,13887285070256 0,522734533918264 0,447722445295045 0,160546316142617 -0,32156481299601 0,864454189232354 0,650922181413082 0,79540969190848 0,804246126869601 -0,79455500326273 -0,555888914724161 0,440942655067232 -1,13643820267658 -0,754138794631846 -0,60708627492237 0,492442907094251 -0,315032576649012 -0,916805191151477 0,309789782776695 0,298165730585284 0,40561021243173 -0,123210279443478 -0,505333689647647 -0,0101262079666757 -0,89914002434391 0,235423802443926 -0,48633212583081 0,659572820449913 0,555346419172679 0,366140582436527 0,366099022424814 0,570129095891859 0,210159972265179 -0,719732288572928 -0,155569637684203 1,02785491733503 -0,511445889596914 -0,310267762801441 0,382191077748756 0,274800075306027 -0,10187889694317 0,465915033500763 -0,367665224609775 0,430587082765278 0,228995519270593 -0,434757952920793 0,135162538910576 0,551218810157689 -0,795189235717527 -0,998353038757095 0,186650506621264 -0,36543485165006 0,908963019903295 -0,570583575466351 0,209432152382423 -0,858251820467578 0,0836258377973751 -0,74034429167703 -0,458803484958344 0,0624451665501502 0,202184058768591 0,574419614021819 0,817261841897402 -0,623016366462503 -0,372155837187333 -0,244688560606724 -0,0743868892825137 -0,912164280811281 0,169307045891717 -0,524228470319895 0,439354361561014 -0,398819874759218 -0,152618835895282 0,615637395291786 0,947136214027311 0,772961346768078 -0,871438882573506 -0,158815779777656 0,357476234608444 0,241763296289529 -0,946731203558651 -0,219204957536497 0,255510532140279 0,250960487108984 -0,96338039590595 -0,535397257678511 -0,0974496218798985 -0,825975981620057 -0,150666863275578 -0,748438479889683 -0,656845704270104 0,653102103869018 0,0573005914190817 -0,837114468935575 -0,19280667647637 0,475894578425754 0,0900357884887243 -0,918186793744247 -0,260216272759097 -0,450843830289973 -1,11547868531196 0,00257025654569391 0,893537635207309 0,482683690155734 -0,559192413833814 -0,480642852071709 0,593419580673486 -0,808727471571743 -0,378703558622353 0,517290358545292 -1,16739902552228 -1,23678886086456 -0,800340353842116 -0,360970878325284 -0,940382917456673 -1,26981698097327 -0,805249234320433 -0,880465983968308 -0,952738847838855 0,658720180583804 -0,166789242918439 -0,480255956001707 0,525184409622626 -0,393462940611852 -1,27260432844605 0,361360352754718 -0,201965061686899 -0,516616260316583 0,165263268662939 -0,886327295507072 0,86302648363551 0,681951533056352 0,954721020341296 -0,384173295256761 0,198433119331701 -0,0176513482246112 0,0509976829109414 -1,00696132424136 0,0091303272560067 0,219692538530556 -0,583783228554589 -0,524523030875914 -0,168628511162326 -0,375391410758511 -0,501424649705361 -0,140508575561572 0,160516396586078 0,628152830121573 -0,315684027088503 -0,686707100728933 0,534257914250626 0,273780635524172 -0,803813739843363 -0,40303677376252 -0,0258562523929564 0,452588787803774 0,803746553817849 -0,0980807718971026 0,291475848712692 -0,255184661007247 0,46156331492379 -0,351068832091747 -0,109626517643563 -0,55851413629254 0,731985095205246 -0,591125251574732 -0,859380723404554 -1,08953325190337 -1,1161144989827 -1,40248135223451 -0,410876825742744 0,623446718753617 0,0682000590816119 -0,059460485300005 0,0203332084921952 0,574158881573052 -1,02274645446414 -1,09378256482209 -0,58927270511523 0,643562358434911 -0,400159964807453 -0,355454995082544 0,548635251135209 0,0412762144611982 -0,207253705728577 -0,480462704584527 0,331755294875547 0,0238261984684022 0,0767335521586358 0,346154420593247 0,184129117927825 -0,703120774645881 -0,214852658041039 -0,578263368376383 -0,849056931567035 -0,688342616726577 -0,528892839911367 0,523521843618231 0,417311686176757 1,22667543473511 1,19707061044274 -0,0197936695634238 0,590913603339953 -0,371385514809987 -0,447289093411292 -0,0989246859806533 -0,758141151200355 -0,962705511705245 -1,05945936469521 0,622735166386489 0,663253956788929 0,853694029656808 -0,577328527481925 0,758788438368751 -0,905881041003676 -0,589860212835515 -0,33782966064886 0,760321393308651 0,878573615170687 0,484415863223607 0,147009158974153 0,228782648978748 0,138761846910047 -0,0663604383458232 0,0370146515235224 0,00163404665248995 0,690950891624776 0,121163875473083 1,08078012712622 -1,05008460536185 -0,27230871927201 -0,444093429770978 -0,442147312481999 -0,653740349526069 -1,29605637406731 -0,781253587185582 0,311364754425328 0,307955514111684 -0,477972078087753 0,210056794344047 0,772019560633145 0,490761396510619 -0,0353930105027265 0,252825817479382 0,777272547675045 0,591649202310904 -0,752772435884032 0,409262227277747 -0,453989577670762 0,832769365532441 0,841267060145877 -0,209930339268548 0,655435162157737 0,756654886908936 -0,363402097034764 -0,130799838559823 0,182584688069785 -1,12839410839358 0,298598154331879 -0,987169454436655 -0,596499347410453 -0,788056891189638 -0,868140700409755 1,07229575565531 -0,3548795216842 -0,0773562627972081 0,0710459306114392 0,46454720111233 0,646970301176788 1,10809640814249 0,0520016987140734 0,51382235597572 0,677363104681744 0,0614769035836002 -0,942408412281406 -0,948420183254208 -0,413889340664878 -0,93271182661788 0,326126038212823 0,457392390227866 -0,22132397798378 0,543755367515238 0,345469598151934 0,648038842533287 -1,3995296116382 -1,46316949191676 -0,663829869267676 -0,59443704715662 -0,958479631196666 0,411751441082515 0,003128507707186 0,282642002024368 0,525834160141482 1,08097394525867 -0,422812914837526 0,25700862444861 0,169078225478726 0,0591104050509408 -0,2755472464818 0,0341015937079205 -0,100720004380898 0,153632976572646 -0,906487612923574 -0,254518429381075 0,143034871780252 -0,299000587012745 0,36275349424783 -0,188128217618565 1,09830732106358 -0,52152841639052 0,638135315402743 -0,15970034925389 -0,306606765591159 -0,949300149541613 -0,202429274902875 -0,8535613135587 -0,289811362725755 -0,362975492392903 0,967909090983607 0,0377575220720294 1,14020751842904 1,14341192360049 0,445403129138802 1,09467302694612 0,165658945638594 1,15073408301723 -0,697369577870802 0,828080071122731 -0,0975377101914741 0,224881507333387 0,217955334967646 0,683432150407536 0,560277994342777 -0,339782892573701 -0,25121899069083 0,778058882522336 0,950208772252748 0,153398400063402 -0,109940286153793 0,784427211902656 0,570411695625288 0,335432648124377 0,444077102584048 0,624434357970267 0,768763963145128 0,558759473813214 0,904736110468945 0,69562348370896 -0,00170975435743913 0,977810697291167 1,68569418425249 -0,233627051411886 0,199429050657223 -0,616365806498558 0,544923521125587 0,276042868219257 -0,604682635653411 -0,538501560420025 0,845140010612153 0,107668974763337 -0,592025617851775 0,740962791671745 1,02193766246647 -0,0768007838844307 0,793960468399864 -0,35268523040744 0,910023963686823 0,0924440600352577 -0,169245736296883 0,322200619806444 0,965738614599107 1,22604313724249 0,371046734343265 0,513936818927978 0,443368754440827 0,803840670501878 -0,0628361251778596 0,674538557912331 1,40813796979421 0,403954856869442 -0,886167984637863 0,341298939284054 0,603762578436479 0,715661203591095 0,271405538182769 -0,204364122484699 -0,48129106143722 0,184881280916512 -0,0975654374919709 0,540895556799705 0,448074965375804 0,593501261815831 0,632612782554758 1,25105641556563 0,890042196368546 1,10278403573231 0,773627638378478 0,585813015110568 -0,134990427118942 0,518306921099001 0,506006025689643 -0,133086743337802 0,15700368664174 -0,373926806292759 1,14069105604692 -0,673202963685857 0,0491231578949533 0,212236213184291 -0,0435139240790009 -0,354567366244654 -0,0430509565600848 0,395122108702521 -0,386172005712706 -0,413737964194695 -0,0791082986148739 -0,0555058783159419 0,833620690543054 1,12980503067632 0,613382258252362 -0,0022312956265302 1,0918692102019 0,122938237436147 -0,514272667029224 -0,108799364503944 0,24691722680702 -0,590773524320472 -0,489405793743285 0,0933040751916704 -0,961270324263119 0,633520057899637 0,844198933145596 0,572928666304607 -0,405714296233252 -0,832558620639862 0,241583371430653 0,13393294459806 -0,5780851657872 0,571944589694895 0,890555812369569 0,221154504830492 0,878790421140518 0,192087611791709 -0,906891888842395 -0,878488623918263 -0,688014425909671 0,833784301902162 -0,200668508402148 -0,0420298795569213 0,283233714579099 -0,112694845491922 -0,624019096052737 0,0731745458358644 0,0934362875871304 0,383738115794061 0,326902943920739 -0,357133261170393 -0,313665603974004 -1,04351083810168 -0,337719252316218 0,244672214746604 -0,214751310985247 -0,276939718006504 -0,204789837589414 0,589523298542099 -0,15187745384545 0,39245245595133 -0,22480373883484 -0,660889166282077 0,0928462740065646 0,588759322512324 -0,556620870457313 -0,84424025956635 -0,946428136636197 -0,850707206283749 -0,165570410640301 -0,27628071900066 -0,0888490818651758 -0,688783064940184 -0,286749452745583 0,489114192468597 0,63564667361015 -0,589422906508857 0,120540311848624 0,670787577419552 0,264480270213323 -0,54062726724418 -1,0875697365319 -0,497338824226327 -0,901770259832164 -0,741999838823993 -0,42925687805484 -0,547589258161647 -0,24694693777707 -0,673584080246335 0,943023644628957 -0,338974041494585 -0,928097284312399 -0,624832906532483 0,218841897013048 -0,148115636222847 -0,136374475495851 -0,813745795066909 0,440578686237479 0,302033156772231 -0,693271462171901 1,03179511038932 0,267674525317304 0,534734023381836 0,297578807249199 0,595880201711462 -0,414993952126708 -0,389702075204895 0,296502528837282 0,126158443236176 0,832971788104452 0,104451108223802 -0,590421051938785 0,61970406764946 -0,527864863434111 -0,683992041702796 0,315716567570075 0,991607124405466 0,921905955328864 -0,344231234106556 -0,0690750558651502 0,97670640614383 0,392250620530087 0,703083999369805 -0,885349116549802 -0,970386841785063 -0,569993237879385 -0,768727891106481 -0,170903270244597 0,70115409571458 -0,358795296515303 0,454511761713279 -0,298386792589916 0,484503939038506 0,201150297412097 0,228956655521163 0,431470166409474 -0,350601796908453 0,68598471269004 0,10027931048186 -0,964645078769853 -0,950553364337001 0,0115139377279466 0,47874936690881 -0,543283516584918 -0,115038966532964 -0,74836506212366 -0,535202961145522 0,909763617452131 -0,0681819221722909 0,541942245166729 -0,123933690139072 -0,732960687772812 -0,201817146790577 -0,632399984325937 -0,726579155174877 -0,449440164946845 0,429814704935441 0,308590001834575 0,0953633957978417 -0,084190503543409 -0,816936873086527 0,788032058950379 0,708663594436333 -0,402500097626542 -0,676112498399786 -0,720099805051965 -0,104825205801155 -0,656144137079506 0,155778938129582 -0,190510509805291 -0,346436113935782 -0,668578974604171 -0,131031615201874 -0,346187511101469 -0,0964070022955669 -0,0406462796622278 
0,912786940202235 0,241155442558514 0,225916135825856 0,77367149947823 0,966490347052905 -0,671213455214978 0,889494516034127 -0,826231961858815 0,797658557108196 0,260882069142696 0,971248759073539 0,141094650803391 -0,0141150841194185 -0,245943128150714 -0,95961110886411 0,334386734984344 -0,454078423406284 -0,87860396299471 0,801464411467748 -0,781929376303433 0,283671446872472 -0,135702726829911 -0,873007011410566 -0,400395316593783 0,352004394694915 -0,883076584713352 -0,249803722356607 -0,882783512400145 -0,11914712136597 -0,459887398025219 0,39429175372876 -0,859408805882531 0,460229506410456 0,310300168841719 -0,369673765238232 -0,817786114337031 -0,919507678548649 0,324185203887148 -0,0480289352944447 0,85874783311919 0,90818854686638 0,545161234211072 -0,190083092920304 0,0707799985032665 -0,694922933796337 0,74752810361164 0,350477827721518 -0,607111924359561 -0,238383629766017 0,315228830968926 0,778604958800822 -0,260059304940869 -0,155281754618429 -0,32210745804135 0,668052441416085 0,0447104933318531 0,110383280268795 -0,377467721280644 -0,582112068919387 0,845787751448704 0,574776168357675 0,768493150917052 0,289227483620052 0,253870971094605 0,8625218750927 0,821709049372153 0,667558272275661 0,682009167025487 -0,875186627260644 0,854381168823128 0,2560131067512 0,273621500867732 0,198616345158685 0,922367415563101 -0,70790673417844 0,724085398482395 -0,941695550994811 0,0624102354390495 -0,709149297812377 0,594011384598285 -0,239745585684328 -0,646503396726395 0,351806797846812 0,561828961521991 -0,242289697268434 -0,349429935715146 0,292252347957569 -0,221399381190847 0,638358236732288 0,582674347767384 0,0697561314208008 0,454850832604579 -0,0984360976225958 0,0770323508589503 -0,753565352185834 -0,873488786798335 -0,698792295523175 0,606796317644032 0,27900771762847 -0,400971296578935 -0,823201058947657 0,708119485473408 -0,740944170690589 -0,0828837918343121 -0,921245907652448 -0,452681912991274 0,531015880869594 -0,140990971175335 -0,652379017663624 0,931909252210143 -0,0173339095179828 -0,957744388691279 -0,674379097947344 -0,18698875474002 0,0800667058084473 0,219918154956468 -0,581744995474602 0,722677672756235 -0,506866434450315 0,191798493450379 -0,497524324072305 -0,159607080956742 -1,05657255222423 -0,544007014585835 -0,325006355710413 0,685260834966532 -0,622374151553601 -0,640600640438445 0,910937879130326 -0,717090214602702 0,51342086340402 -0,51916184420547 0,741332261450954 0,697049614292258 0,450816109455657 0,0434445756953521 -0,939142209818015 -0,560589320866544 0,496283716133327 -0,803604559732932 0,0760393651926399 -0,614023928220643 -0,592868864833084 0,70770206519196 -0,399799468056649 0,0352560964660709 0,164867132691796 -0,858564297487346 -0,899089978332604 0,149426443208119 0,714095353732105 -0,62150734703525 -0,215370469727657 0,779616620733484 0,932711410393362 0,412614818846733 0,971776550145267 0,805477550890695 -0,915255559046337 -0,870439102302224 -1,07974395756139 0,238595967069158 0,0990786011216018 -0,851276941451305 -0,550478155800312 -0,549841653811827 -0,833077707329865 -0,496054570057421 0,27817383294815 0,991708174728129 0,130125235818936 0,96717605715274 -0,783362949435455 -0,669793440826506 -0,792603478779586 -0,754520403472247 -0,338475674889981 -0,56782394868347 0,998005078179031 0,769368675742445 -0,332513076428643 -0,631073370162073 -0,740503648202078 -0,139588883347706 -0,240011290961293 -0,00019274857509121 0,437666121270694 0,77562954199395 0,68973995422259 -0,829925871899866 0,30177617982333 -0,732194935157135 -0,714486834216258 0,197369100292869 0,948675734762514 0,563551877707874 0,137964652094409 -0,79370523110965 0,229408603212524 -0,883088459642005 -0,180125770719978 -0,413302860171051 -0,204149426687964 -0,960312576420582 0,842821498639957 0,698110578143265 -0,634511995017485 -0,0298425403830373 0,949921420255642 0,982387133170497 -0,0108695907168768 0,689122505017407 1,2158440788841 -0,248693315219413 0,860262564219266 -0,840165075484726 0,479697447305431 -0,390121677542712 0,685395309615236 0,426256301724431 -0,096275847967474 -0,776103800541705 -0,381427692912184 -0,0855943544262606 -0,450796638778663 -0,219488296716587 0,625837477856954 -0,0180548310126828 -0,747347708277885 -0,578871626972062 -0,129520584840139 -0,790519744927777 -0,0832020023669936 0,723797964498176 0,0666578960019942 -0,748932201054614 0,216351877520626 -1,20487840060691 -0,138219168766169 0,0970249503959313 0,00161901242555856 0,0741121033312765 -0,542300685166322 -0,769411825856053 0,597503157293729 -0,950004545979976 -0,453625898188824 0,857336981812123 0,482196329237382 0,858946151683914 -0,912968444176173 -0,514918529339267 -0,551625107869175 0,724721400963848 0,109787027652497 -0,459314628716128 0,871446532829747 0,714155000963648 0,329141189280737 0,00366391943264416 -0,965103289009733 0,374397101286358 -0,446776903924704 0,106051462920138 -0,702940438376574 -1,0743916734715 -0,882941187276896 1,14597428923285 0,66632357532908 0,750470891260638 -0,397013048513058 0,274388834337879 0,628196320046672 -0,0528599284174196 -0,136366230974131 -0,772691942042368 -0,831888308449776 -0,498107487701349 0,225988885132331 -0,574156974740312 -0,781589471569687 0,659609488976549 0,366705105931065 -0,634386414265682 -0,635019164396749 -0,629055024959943 0,567419559166663 0,0898470886685307 -0,402684475326802 -0,621849072559064 -0,995276999807529 0,108197655523923 -1,1771671947076 -0,224446233263785 -0,791477115980152 0,510774304041505 -0,33340630019992 -0,139906629142526 0,0485047653843452 -0,08244729693746 0,617021342759156 -0,47550840838581 -0,507007019449492 -1,016237503199 0,287111750898083 -0,374393086203917 -0,50009385104857 0,384090999344089 -0,156119354007011 -0,197514257005819 -0,685879502046731 0,427011554291907 -0,41386631430211 -0,124123960281125 -0,42873865097831 -0,915539178075631 0,705265075013582 -1,13342388634661 -0,464061321973116 -1,26269072045496 -1,12736119958366 -0,871334565052632 -0,0887284408917099 0,362727786972124 0,843052986372244 0,0676902336739355 -0,382330750382748 -0,708757372334702 -0,606496479472225 0,471522403372675 -1,04894502304007 0,428790283973989 0,196729568922805 0,955415782084997 -0,469731758921922 0,636168767451033 0,131164425334591 0,292512224043569 0,0729601000415713 0,815276686211666 -1,01784487347908 -0,772154013600703 -0,900936200645712 0,471303488706575 -1,26861860609523 -0,68452928708286 -0,536388450351322 -0,0727580313727533 -0,748386767817106 -1,34798924419799 0,186007648295823 -0,433068606165303 1,22005990141434 -0,0279617304461087 -0,414453090457991 -0,112131627362199 0,152524457055263 0,228432568791455 -0,517758476683198 -0,840049661414381 0,645726552362171 -0,952927782580445 -0,112241621147207 0,294268710556859 -0,218789576834181 -0,185433139743956 -0,807530165586535 -0,342783095873812 -0,541749857784295 0,0405156667881484 -0,0981784154057076 -0,790133225729698 -0,385686881790121 -0,308331032698484 -1,08358274387412 -1,28117278092259 -0,772139256808825 0,176935866806965 0,00504685574772184 0,0307039471676094 -0,59187348616527 0,545010583606712 0,788403977724692 -0,760958446497536 -1,01311889805137 0,687927938355609 0,533267156095787 -0,853876473939445 0,19896252907562 0,51977085226943 -0,667634731414668 0,707405355552296 -0,277612190241017 -0,183372182429139 -0,881568301257924 0,934463184046013 0,49696444493619 -0,0259477940614657 -0,288140352411154 -0,157742866091512 -0,876661356269564 -1,00448847766227 -0,18794319411653 0,104322581850389 -0,216534621998108 -0,406644277773021 0,285484154648447 0,168732166114959 -0,0155265072419533 -0,401942328629418 -0,420102843516287 0,872987358269447 -0,69624719677081 0,744831520497995 -0,903046100224903 -0,781336412012393 -0,880601192839535 -0,502282208653177 0,127635051939727 0,039466613809254 0,246890397712302 0,95170178179627 0,426471855666996 -0,0472245431553427 -0,104700780528526 0,394459679957291 0,548575578548833 -1,20761519142535 -0,368270048235488 -0,737335840665265 -0,298291197521432 0,28239027054002 -0,624854618935736 0,976556303024522 -0,230304917994519 -0,460888676206592 -0,22170462989795 -0,432668219377738 0,442352346678361 0,285189230036015 -0,595504230088741 -0,213472262346008 0,530877861129118 -0,357594332386448 -0,197942744150156 -0,613382624036207 0,363297265957106 0,0507693172576806 -0,241987249398495 0,84025982256388 0,780208400684242 0,025429051516396 -0,955528460285824 -1,08074721316405 0,699966699311975 -0,738685739232677 -0,263341435645931 1,13944857953934 -0,334380352611659 0,542834136560741 0,12195257377761 0,679280909760801 -0,353880450264529 0,0166346312782537 1,39726534482473 0,639211291458143 0,580405145092854 -0,562760741953535 0,294692519799789 -0,822984547567322 0,794067829940279 0,528702849939929 -0,16219711039066 0,701639082062778 -0,34346569315634 -0,372165608256259 -0,543062291696479 -0,265509559609576 -0,895854230030935 -0,466057128225402 -0,749981071789247 -0,17804813120341 0,195182022567104 -0,0420993130257384 -0,43605332711111 0,687354101329759 0,225410648303428 -0,589171427361477 1,06759325383842 -0,601680566398932 0,646343929886077 -0,0826920379901851 -0,502507546886306 -0,445544686096228 -0,395987024829756 0,087365690788484 -0,436970614592604 0,0979054697034154 -0,344531654365446 0,304158927806365 -0,25608370121554 -0,0952495847982336 0,879607180664111 -0,291965689649329 -0,983029594378588 -0,863114865869725 -0,880726443471441 -0,634999373332553 0,437327591877157 0,323673685044304 0,902546401828932 -0,944283932706127 0,947261807990455 0,955225649431044 -0,0623839260175846 0,861520891924023 0,913029474363888 0,222584370156532 1,04379564918359 -0,314633917447941 -0,42359832509669 0,447565738852583 -0,556884214304495 0,0496750182190405 -0,232629855633585 0,361015900015212 0,456130882933991 -0,533507814934143 0,107737591026907 0,500665199539898 -0,89101139994501 0,407121775189654 -0,97229446827219 -0,282811462133017 0,765339137426664 0,388141646680645 0,0435982083416692 -0,315258019975488 0,0607179063615097 -0,51285482686112 0,613803018060501 -0,0363339067699515 -0,236459560625777 -0,473802835741372 -0,912594234163803 0,353206232117765 -0,322226264477451 -0,497459560902629 0,476245499054896 -0,547387346982827 -0,0414238458168046 0,193895939466615 -0,0128376311052406 -0,805032520551888 -0,0230123558988687 0,296897026086224 -0,660244131228478 -0,272128856108053 0,922279302821974 -0,343772222508841 -0,33784782563261 0,615254877280851 0,22629851615709 0,973675137928648 0,310463324582076 -0,373299394347263 1,0397492254073 0,263341422283198 -0,710908320144835 0,716679785095104 -0,0860725272293504 0,153525812971738 -0,898614601837201 0,664457569820768 0,185938725372256 0,66956464215113 -0,533205086538413 0,651911269475292 -0,289305268429176 0,215883531232844 -0,382450984827995 0,0961426536767725 0,00589370890215524 -0,540237352471997 -0,795932410572342 -0,376293460884364 -0,699804565056353 0,761402090529331 0,732645022936959 -0,557696783091331 0,0369413519385503 -0,685791619921597 -0,194388593341379 -0,576160342925505 0,742744827411066 0,837956449519025 0,622047113935877 -0,124290062860471 0,260169233114025 0,171361367710536 0,062939910769269 0,45552568942778 -0,610565542275276 0,817095232896937 0,369516681228706 -1,34597542800609 -0,0710407579072013 0,178536341025421 0,1127279512175 0,254325660984941 -0,391928190168797 -0,71122973549721 0,554241652672633 -0,665454674001082 0,8784027537426 0,518768921587809 -0,404675509540036 -0,26583693651419 0,739579414002706 -0,377978170332549 -0,658083191629469 -0,6674358908708 0,47366424030695 0,599634914050094 -0,52265959106179 -0,439800498875514 -0,702847566101304 0,328578318121547 0,512187849565811 0,0673095792768247 -0,762936744885672 0,743475741539561 -0,601530959672618 0,3576413925427 -0,998081620947269 0,156868313995301 -0,234685876420877 0,0237346659538156 -0,265520918867027 -0,906514748859631 0,182512149628935 -0,288428289898803 -0,485237441248546 -0,572057898484149 0,776605164658312 -0,294188611681911 -0,283798733922349 -0,628636689915539 -0,496404673606212 -0,707000996975941 0,304746489686719 -0,255596280112449 -0,130633906680191 -0,463705716209866 -0,0359344216904715 -0,113920565505455 0,857534095701487 -0,440688698271196 0,24773201654566 -0,230093340993558 0,32277815409781 0,549215369343364 0,557827467863479 -1,12409341870771 -0,00129474299473081 -0,24990214147421 0,595611888467405 0,823379442177207 -1,01165072671291 -0,484579087905015 -0,359035869327935 0,491154030789908 0,922917439696558 0,590844591087807 0,404587257737073 0,566861521937662 0,739625363547591 0,0844995461210845 0,927108959513989 0,716272684453941 0,760218857459527 -0,97707066573223 0,195022354243229 0,622554752587578 -1,05188493939583 0,407074446161059 -0,282632999585583 0,732948145076224 -0,645151496030971 0,240107803934902 0,190370151494714 -0,991725041030028 0,527962241581879 0,633059753277768 -0,476975431388773 0,47924704401221 -0,015622526679137 -0,517497648758932 0,306170251521535 -0,0744855323783264 0,0110791489903517 -0,167167270038142 -0,616323775520486 0,940141894330519 0,549788802519484 0,712936128218731 -0,177798693921433 0,477464325466613 0,285378742816646 0,559736193015436 0,316088561409486 0,107911675776633 -0,114117388009073 0,607075408727995 0,0869647484423702 0,311899941104362 -0,649774787403564 -1,01865366575383 -1,09607204807514 0,607404014750871 -0,94441907414303 0,671079335654901 0,314204670928984 -0,342069043192484 0,139944120282839 -0,60040325846537 0,778409680438069 -0,856142398704158 -0,0302587397167469 0,903529800559858 -0,414369628361849 0,217049014234914 0,682905041493321 -0,103187240133874 -0,214929233765588 0,0893798266857481 0,715165165315572 0,279793872930984 -0,918991162756021 -0,712200106322288 -0,42021787295337 0,197200405283452 -0,431635381707527 -0,0952498476846761 -0,983623655578155 -0,632783281776663 0,411770630345487 -0,893121824195229 -0,348631081959582 0,197435999470469 0,0869439601002214 -0,0864158224299112 -0,536902467045526 0,608898512459748 -0,207010169945449 0,235464616452773 0,462660730696341 0,70632322597587 -0,206531449652777 0,138112700273083 0,922770320151953 -0,319626185605285 -0,475805219226192 0,386816989265173 -0,018934215266046 -0,918923118677639 0,312331532325307 0,88235761085946 -0,226758250481961 -0,969661511753399 0,674145696029236 0,0977812307674931 0,963525435652485 0,713000719183731 0,101473862083667 -0,0880835919671206 0,150967478245273 -0,582526403386202 -0,348993827657299 -0,228126153756309 -0,0397439937853658 0,642423366160081 0,479943632967494 0,758695804531762 
-0,19243595519181 0,668700886796922 -0,252657199800896 -0,935490040948942 -0,891099089644995 0,553917925658033 0,607378158596421 -0,985718385248879 -0,48253503784155 -0,0397280645132832 -0,629538994049072 0,902202694692179 -0,312926754902551 0,233913900353715 0,95808007913802 0,923504425069891 0,0489935051555544 0,54535133842199 0,352352071312767 -0,377413838750994 0,525371595125719 0,985955938751224 -0,0585673120467942 -0,255343645403435 -0,498329192105487 0,874726949262207 -0,921921243793859 0,0395561247925831 0,0394614251191843 -0,98498885047352 -0,828753405109964 -0,726269798164946 0,193710532656163 -0,241124112389413 -0,429289478084794 0,305659505010544 0,32974910067943 0,240486702635479 0,772006728898031 0,221648591485184 -0,566791379218838 0,664802838522119 -0,41257495660346 0,0260284417964935 0,338144883220682 0,194537793576485 -0,761413165560626 0,936017113180041 -0,538750887654255 -0,266668474431254 0,719446139380256 0,408787510743776 -0,719369729789245 -0,15208355291808 -0,776116815230497 -0,185001993111446 -0,279341900324727 -1,00392365356589 0,556229051961269 -0,772439114308762 0,471895915937809 -0,438793031862256 -0,0310958697927207 -0,501319865660863 -0,213884864491848 -0,896250348446845 -0,246491107325518 0,976975624833263 -0,307985442459979 -0,317541360811516 -0,305264468487569 0,964042998850032 0,963187261034498 -0,640880986165853 -0,604141880502066 1,0137920268484 0,491000599534745 0,989819677192507 0,438721758716113 0,331390152354703 0,662449391258418 -0,84350346516249 -0,416321835147951 -0,694467195106521 -0,705011721502163 -0,240827147434495 0,986489846957857 -0,661087809563057 -0,474876108989869 0,760341567353224 -0,420432925090536 0,328712526801921 0,675190760619062 0,464175664542854 0,698447857304319 0,885768478592572 -0,257052658051721 -0,855563162116072 -0,574283135931416 0,556450620521621 -0,101128716936338 -0,308497344217642 0,492890788653556 0,907818945576105 -0,790125506529714 0,964511633892666 0,684432373710502 -0,794561063892853 -0,309476901787942 -0,648099824464109 0,400933601906616 -0,228210949850011 -0,416650794113942 -0,756465219052001 -0,427459454359021 0,309152452737391 0,98653264727335 -0,310768071193275 -0,709322068715047 -0,899377616431271 -0,842773499409642 -0,684113159618676 0,348943840049122 -0,127120963426631 -1,03418017112694 0,145010237819894 -0,985647134006202 -0,704721007727039 -0,462792197959331 -0,569021026997689 0,184031352767772 0,202234846704793 0,666726072631691 -0,779169995552365 -0,0754994646359319 0,403798562011283 -0,0702947149862202 -0,199661120349771 -0,828747966778066 -0,613238796955137 0,127202419218591 0,841728155488388 0,695474048053175 -0,823064126569415 -0,607712478133627 0,912309077179679 -0,0969863755786509 0,534979705248743 -0,0689488120650967 -0,697894845933584 0,768741211975402 -1,22790509925319 0,320459506161892 -1,56193581080191 -0,558217597627446 -1,24748746250843 -0,226602961437251 -0,791602291835225 0,614490087685538 -0,18321835554489 0,861585244314651 0,465248451769556 0,846704959425274 -0,606587063564917 0,213203396057009 -0,939002813929541 0,0461009923742655 -0,587275151757522 0,417928005358518 0,220104627858488 -0,580038175973052 0,228604073799983 -0,394781910170997 0,974220865397701 0,169168484700494 -0,57216174449784 -0,380443313723715 0,100800905156984 -0,516805994720537 -1,02598590892962 -0,902005916690611 -0,562959165728545 0,177984161747775 0,979660110044518 -0,453733747499298 0,209754725297246 0,805628376476894 1,01163606789167 0,341015810403104 -0,110675010580271 -0,462489436700229 -0,386097436872959 0,0584519267754118 0,273069772664241 -0,368684551915893 0,74853339381056 -0,901163518253432 0,403397676061304 0,00113603456646364 -0,638588540424568 -0,0334978779605617 -0,473403017957263 -0,752670861267012 0,906597953634356 0,717198417054204 -0,685267457155729 0,33467962573079 -1,31147748533059 -0,0633624612216822 -0,0335445883651877 0,652472286628342 0,518603550888427 0,537319173078123 0,460864266891477 -0,111034730178233 0,680110199158433 -0,438859958809417 1,03124361733269 0,933122034364796 1,06742764631569 -0,444353393413686 0,365139033891354 0,374432577657651 -0,276983482645446 -0,217532310311306 0,903443880036074 -0,876284969328036 0,272247728786491 0,4995349549181 0,403310557560903 -0,524704332618252 0,451559326569873 -0,920285361781045 -0,985317464558547 0,194358888539287 -1,18778951022149 -0,465433033939601 0,901691585235166 1,39520195277081 0,70038436003553 0,276071871170475 0,461370459748394 -0,165727775750447 -0,405034355417926 0,398050747591962 -0,188514362444468 -0,303715931046697 0,456753486930042 -0,325040068333425 0,315113782126957 0,571347345493412 -0,675458357796864 0,592349867688024 0,0177787914785834 0,713105057403975 0,410481293991629 0,172425287157428 0,419016574489541 0,0716693957991827 -0,839299503230188 -0,603074961458617 -0,859048201757095 -0,426652817186168 -1,06293969797591 -0,13098240830905 -0,229880842475347 0,946301287674159 0,400081068012321 0,613443785054159 -0,783763486848186 -0,347343303544842 -0,417594854203874 0,717946934801263 -1,01340265653242 -0,678571556073489 -0,00837537194097891 -0,154483583536079 0,00406672390544403 0,411913548134941 -0,948365146898841 0,204902052371794 -0,458877533469948 -0,77395875168026 0,756100890577455 0,562733790858155 0,756250048547796 0,559233167494482 0,230358867317494 -0,665652354987394 -1,15430297746957 -0,0202112282228464 0,376306849621501 -0,168157895704212 1,44872371898432 0,648288864735548 0,257433930770487 -0,432565676262286 -0,430436271885934 0,628841524958772 0,0209235449445529 0,324581049273577 0,279215877592153 0,63277897246062 -0,329394525926927 -0,217272896061915 -0,178254690784759 -0,509702470148539 0,576396733196353 -0,352360406277277 -0,500321610706484 -0,928112127623009 0,769506717109712 0,818057417621542 -0,274540381367229 -0,271912580023779 -0,806687823922948 -1,00542414238495 -0,0633652686325774 -0,471024122349941 0,133103195475213 0,0373521198845767 0,0585701416997612 0,585807490630592 1,02731645422406 -0,0824698716336186 0,290619609606688 0,972627005764083 0,968042543911222 -0,00387063920559737 0,249586146541369 -0,271387098444863 -0,00165751214745662 0,567369759427838 -0,71730154949059 -0,218795564940895 -0,932712512999389 -0,103433974915052 0,350088767374501 -0,445442525446497 -0,491297386853242 0,402221671996831 -0,904517337493664 -0,495458223692731 -0,827076079326266 -0,968701894287991 0,154002065209556 0,308662148441144 0,713151497067248 0,297223038982195 0,570197510424781 0,679163302781062 0,712867962682193 0,621837663684093 -0,327637239586913 -0,436778477599645 -0,0804657461269332 -0,771323242485204 0,90958516252562 -0,880108818483733 -0,799572567770009 0,0737372578555422 -0,400868918175613 -0,22255698926558 0,564986767779631 0,833366900038629 -0,0801143453843406 0,90691898854461 0,427724724101633 -0,82036424268038 -0,192859013684581 0,0052040084830221 -0,466130719113195 -0,887214116899212 -1,29173446361525 0,148304474528569 -0,817770939828935 0,824594879801938 0,0810187409632226 0,825013950255225 0,290372850084997 0,467703181417056 -0,393863016691664 0,179174360298761 0,646089891022683 0,957323417046334 0,313112853868817 0,756823818872073 0,451313968291538 1,00598966518364 0,908685178150852 0,897735977292319 -0,00521726849655105 0,339761899634772 -0,654638454957625 0,299849534589301 -0,333768527360609 0,28677839313149 -0,0929189500297797 -0,971778054751308 -0,151469404871592 0,152739198207334 -1,1498305184012 0,327440655632677 -0,988286519876506 -0,68698075631656 -0,468913514258358 -0,0602672059962586 0,292003508704717 -0,31106390432264 1,10597541153837 0,352963696834845 0,550909274233374 -0,330194504200924 0,0392869391861213 0,00336987258761215 -0,00817750967989809 0,722346335760951 0,185521269608309 0,554498466163976 -0,513921939576109 0,230214453713755 -0,448485190268759 0,381321387081805 -0,8573838774102 -0,20061454447029 -0,980306205892196 0,303139740492441 -1,01476941252998 -0,556621309465456 -0,321225226384113 0,0480624891556754 -0,30893440223275 -0,323797960465222 -0,456711238556478 0,897560308523054 0,323037218794098 -0,540357865779066 -0,169004961623904 0,704317876574554 0,965930589923896 0,264882367119711 -0,0520487066688845 -0,167441411524767 0,906328796304922 -0,318073957172953 -0,440929170136656 -0,399848979957804 -0,400027888776705 0,528008234113399 -0,634690427751287 -0,12295127666158 -0,995380452808729 0,32950551084594 0,607061036642716 -1,15887375686182 -0,183998095976935 -0,682210146360859 -0,0942186829999613 0,00646505148122776 0,974912802169201 -0,15923624526204 -0,496143884078182 -0,240272485486807 1,03685127729668 -0,192771341854549 -0,548418890175213 -0,125840504877712 -0,425592654573962 0,526453439652047 0,958168854738416 -0,480153166086988 -0,13924856361171 0,557884366473298 0,789369191552448 0,73176302543352 -0,220554350126762 -0,945095705713289 0,39898878650937 0,351610359755751 -0,805180804643639 0,441990053881457 -0,360987619906541 -0,478255029650907 -0,744233238672047 -1,3179284898826 -0,362629635926342 0,340306745163323 0,0310120653360453 -0,668923274884891 -0,601126880433262 -0,747588721314612 0,0990545270729128 0,225377130765573 0,451741879782503 -0,0930031504037026 -0,260036663370188 -0,685707363293092 -0,268771465226838 0,118892044820134 -0,744976346239827 -1,14597969028204 -0,508253342457952 0,422796124819724 0,828026302601312 -0,974704196223383 0,834602154741369 -0,75034611747694 0,446650668259712 0,971882232111543 0,0273270323053449 -0,239792450088248 0,260764713458704 -1,15120909067364 -0,13940908984438 -0,497865795594338 1,04945919830042 0,210342136513163 0,223983922227655 0,226714387816829 0,46585449440313 -0,113903477117043 0,695466491257899 0,856098531553732 -0,193450640845089 0,33687202751585 0,0347393799952143 0,268138219288165 -1,03405131418439 -0,183492065747829 0,200290576818113 -0,361604519893789 0,352765156341789 -0,790548016764764 -0,183073102946976 -0,927169094285492 -0,171890156113178 0,365393448137584 -0,110563856109684 -0,617535650080612 -0,874066673020332 -0,221721884760826 -1,08705359793976 -0,390927676332439 -0,395576237001952 -0,0741276056590159 -0,715861068903598 -0,30785539667074 -0,799229882066099 0,0916186454125797 0,0212772635042235 0,141274223785214 -0,666687180446592 -0,0574194644419734 0,343740324250697 0,327959929070517 -0,807528368403637 -0,374667337559675 -0,364690885620433 -0,648938869772581 -0,239001441159421 -0,815602177607275 0,915020445971617 -0,664659353670608 -0,290349449923387 -0,49745033838712 0,657708888295404 0,144599428521322 0,205486713562531 -0,0753887663933716 0,484050751794989 -0,666386984988799 -0,808616434713875 0,0731300354358056 0,197042091369142 -0,27743933256085 -0,122294810395436 -0,141503721662154 -0,111397448791837 0,352180460063747 -0,584913862560581 -0,737549446880201 0,0716966080738726 -0,0167176024847046 -1,07583486783455 -0,933354595346245 -0,828879375524592 -0,734174040494038 -0,376182739564834 0,0926503053592348 0,5158382898379 -0,954956363080927 -0,215160581384772 -0,313107956410783 0,790801543844547 -0,79168989245818 0,0802785713985056 0,750360541242859 -0,859165083693821 -0,624590036010505 0,507084118203728 0,594977192095261 0,554851520925305 0,34025288779511 0,522143209164887 -0,370116993228681 -0,140471734876787 0,165358094021427 0,510501776705932 -0,303295234088925 -0,373713331639216 0,464801377604611 -1,29567686621886 0,150366097567846 0,618400885832248 -0,588589273701837 -0,19560619880663 -0,489968938832241 -0,971161995458917 -0,470143013632395 -0,555346477137558 0,542290208538425 -0,167772877194839 -0,473862728825249 0,771636054720844 0,726021832898159 0,860074033777851 0,804869506919052 0,34835012805632 0,137928397999558 0,592742684263108 0,242065858657583 -0,214770940896693 -0,382120202598183 0,999696076519827 0,0667099937085094 -0,597908513872324 -1,20431753666249 -1,20993994049509 -1,28973482970468 0,269923225325865 -0,149921728931192 -0,538344331295958 0,692311983815774 -0,87063551379991 0,61750872887126 0,992736297717102 0,45016531530747 0,0341975695037283 0,458919672121755 0,546308295422467 -0,144701940811059 0,983164348523503 0,887601576201703 -0,672753637371685 -0,480714403998504 0,0981840391503981 0,376950500039876 0,798923597627618 0,843197078740769 -0,210717790034537 0,0521867374349728 0,858488616758429 -0,566829355852386 -0,0438403757879892 0,481696628401543 0,158610722134559 0,415137903982926 0,248276724777649 -0,701040433906284 0,631826107150236 -0,377913601498282 -0,697205425038197 -0,995312163543201 -0,00669026601869957 0,438388479279436 -0,0327908782705777 -0,00702010322958583 -0,770896411517971 1,13340152017328 1,03880406300577 -0,0799114346502101 0,495094459511324 -0,338795597297563 0,93047439826928 0,063188361883352 0,560035450166463 0,0163879464527184 -0,399935057138561 0,798671480153649 -0,477255398199119 0,179746359415439 -0,824958776008327 -0,603940020604598 0,4411232462037 -0,531726772413276 -0,028417375623629 0,804746158913477 -0,614268368322553 -0,80956426241151 -0,921169905825696 -0,658558250184996 -0,995565220650648 -0,363291084691836 0,695531406995324 -0,287584062388727 -0,770342181631849 0,745803737505859 -0,0424733461708536 -0,00820293093498086 0,738725846347823 1,29076117969044 0,447886424129186 0,862206929984643 0,917113807513764 1,17842366341477 -0,758256316863257 0,977409610420642 -0,00835863226913252 -0,781657631807876 -0,417856295941776 -0,172835422310574 0,209578708118373 0,693753298080905 0,858959838356072 -0,785744675137657 -0,904112126835338 0,594688041430827 -0,624696549723814 -0,628517258678437 -0,656081804784618 0,102664474040933 -0,466437706352474 0,897381338795459 0,826425125536759 0,384612871069447 -0,480435602430358 -0,738443265754906 -0,53488804760148 0,203671076855918 -0,0230287244874963 0,667897042938509 0,895042768967071 0,896843684015619 -0,404053793954085 -0,395253646608706 -0,742976122861956 -0,119151627227923 -0,0378263001382302 0,652633708251308 -0,490482103537102 0,29909954539595 0,027564158330883 -0,791877465191817 0,578121556174625 0,14447295445727 0,035641616753491 -0,767802474851262 -0,297348864919787 0,463968797398132 -0,410145911983866 -0,408656167256253 0,306815267060091 -0,607859784826071 -0,744341749029885 -0,894196149446932 0,368670963926643 0,339344274022405 0,894191202685184 -0,545789978081127 0,613396741172881 1,02679536826511 0,473087639840476 0,712448590821007 0,273957411258072 -0,0123588303545568 0,10034672955575 0,538240171099022 0,296075515357844 0,402527316993546 -0,95813747059059 0,302610485550648 -0,311406437857384 -0,265100583031008 0,870088381693175 
0,0583306693996714 -0,923550334884408 -0,678236973483057 -0,684452568194871 -0,319659846678991 -0,696000915971417 -0,847686269410571 0,416588619850077 -0,123899172744502 -0,478532611310572 -0,681179653865666 -0,66805680376184 0,465822499570139 0,528661092906289 -0,613554488010552 0,168297532044491 -0,160800253742581 -0,108637178993916 -0,548805370877704 -0,957454964659686 -0,493188419304252 0,830732181428509 0,327290751497089 -0,0507414934208541 -0,391158696141475 -0,939086789397861 0,496428569383345 -0,0614828073452809 0,301770623287237 0,418726428911586 0,283565928664946 0,899071034767401 -0,440665764481739 -0,502012471048537 0,165625353230648 -0,998308282537305 0,0290786086201742 0,0154042850254496 0,209647747997142 -0,86110718707759 0,434338861113845 -0,440448508596293 -0,458611819901133 0,141654348470564 -0,0836229217560238 -0,368682909499306 0,612928063353051 -0,994322953914539 -0,0979875073069286 -0,78095339032466 0,190242372616243 -0,590427136477358 -0,763346315412309 -0,308390866803961 0,362531552564758 0,223920814170632 -0,254518760182047 0,368826846137255 0,70302843881415 -0,384252043682889 -0,196107579780647 0,21011890266223 -0,888863889307367 0,453633745656401 0,234004372349735 -0,591513721124129 0,748343100431016 -0,0587883678615603 -0,660198125202404 -0,656546933592132 -0,937044152931209 0,711692751328663 0,563035034007212 -0,766895700110168 -0,427296305629247 0,906994109831284 0,238288032621504 -0,855548367549434 -1,00963299420003 0,962525613864423 -0,557716420122517 0,486542114129369 -0,967970158119504 0,0699329845254713 -0,78657094488489 -0,130614161247507 0,660050929296637 0,864355659882602 0,131836350105952 0,939318948249184 0,253164720635005 0,656025971520741 0,305672025230358 -0,428389941918321 0,293326181840431 -0,832029463792873 -0,635264394852945 -0,080529052539021 0,647071449615592 -0,78414395011634 -0,421739747667019 -0,602664717612916 0,484235769831935 -0,542102115474795 -0,941366349828655 0,339956045595006 -0,308344272058142 0,860902769598778 -0,989215143002322 0,416905346242959 0,963774324891209 -0,412453438974039 0,355189408645746 0,727101240370567 -0,82735486491599 0,314659562466432 0,174698660570572 0,0416546657205448 0,237516153130403 -0,636314174744659 -0,256421716590726 0,826544417924136 0,69688310884167 -0,765733590610968 -0,140463270935061 -0,815213143270233 -0,766798007760269 -0,149402471435382 -0,21464831586423 -0,777495358028974 0,485824979431048 -0,712495063956405 -0,687224979324796 0,479600816481556 0,099827138366456 0,779256098564026 0,797039663392442 0,495861311622023 -0,0221700428663915 -0,168593207674716 -0,864209624105062 0,729448067668737 0,777442860839854 0,705571345528786 0,97139006921603 -0,33963414759632 -0,700627847419575 0,58985434867774 -0,601626101227389 -1,06216681021918 -0,143448920148144 0,104062687296837 0,575680735958015 0,337415974446816 0,678183991989396 0,0723084764041279 -0,0515127738662341 0,228596424836151 0,403265400842611 0,831470132463066 0,0673670685896513 0,775792975816808 0,101681937097237 0,81443256064556 0,947780353970652 0,799196302501556 -0,638149524252758 0,860654079346235 -0,384842917197618 -0,630295052647425 0,469955711691039 0,660764571542422 -0,941224582449312 -0,594151922395074 -0,766211496784178 0,0403207734389296 -0,891632279060827 -1,04461613358054 -0,847754696324167 -0,822238077666915 -1,04644416164882 -0,2001426161566 -0,381632853217845 -0,162765309583923 0,229232384281786 -0,98127902040488 -0,950278311165948 -0,378976113642365 0,900454745527647 -0,670769083395239 0,198580982772429 -0,235547315233299 -0,869284249233547 0,335256383930673 0,96879994608632 -0,515298294723034 -0,225065829953459 -0,926727016788458 0,76274786139523 -0,853565012145816 -0,70542938460665 -0,554979106119443 -0,0216418411031469 -0,953611764155589 -0,527487509413807 0,209223340594231 0,0727722061180454 0,177039881821228 -0,0861036691149257 -0,597233564296135 -0,38243983846737 -0,646938046302324 -0,574883964319109 -0,322810464868662 0,0940014376898901 0,821827128897869 0,0178683539634213 1,04121036139515 -0,572186290375062 0,950139657311181 0,550458054974846 0,699721711774779 -0,869340202445217 -0,539206866269814 0,388040192493312 -0,149670126166248 0,539322048757121 -0,30868111326174 -0,559950855510244 0,730670310589798 -0,74724626223886 -0,976457647287763 -0,764652118486408 -0,890873696197282 -1,12503216762998 0,315133951466593 0,43705192585032 -0,72044901701297 -0,776630594471025 0,591219981898805 -0,651018075051484 -0,470343282873815 -0,0161821063254292 -0,0211056978313523 0,25122246775995 -0,813447375090507 0,748578463436352 0,119257586047842 0,848620482731739 -1,0315000229918 0,492245299644807 -0,221933127433747 0,706913433280068 0,889659109291522 -0,412362436301447 -0,422620045958198 -0,694248934342742 -0,516984175108017 -0,374270491077131 0,591799216790385 0,572686440898474 -0,580062938933896 -0,252217850412634 0,160513297420593 -0,869777533338688 -0,370823353347898 -0,797119870424923 -0,631683569545586 -0,348615509063727 0,444923938075267 0,845575617014477 -0,508183848452904 0,522365536516244 -0,740308878586844 0,0151830279453495 -0,333990003100851 -0,65477489270852 0,115146950396992 0,132920202366685 0,0975164373131404 0,0121091866037809 -0,651597775441428 -0,246975288121198 -0,590094796085583 -0,777846248929193 0,417523701151943 -0,832604157503037 -0,833856103825091 0,285178299258734 0,181060883425472 0,11813651033155 -0,0250912327035971 0,560151271453758 -0,513139402593643 -0,837837991387177 -0,776567008195985 0,582533273288342 0,643917455091565 -0,392933690495228 -0,254381027098632 0,91956697330655 0,172049310616977 -0,689063662034536 -0,793488664670514 -0,957544419642723 0,144254318714087 0,190495899191538 0,29512608518271 -0,2676598890551 0,825191330319659 -0,833955330722744 0,149922391168185 0,304158042679164 0,438441364750016 -0,551206269190263 0,105927515162821 0,545816338942046 -0,597317576751875 0,243623220142992 -0,10854077452566 -0,681851922447964 0,847652509733312 0,143379417976251 0,378075017984142 -0,736401524928957 -0,2400507418907 -0,114792522753234 0,163218595863763 -0,828402464043899 -0,140438607089624 -0,152430053176132 -0,318031652655923 -0,329194904661732 -0,372458911908042 0,15233132375974 0,6547086813806 0,920031190609543 -0,476289184028611 -0,641342462579592 0,081654214761372 -0,781833110557681 -0,0674605133980755 0,58516234324842 0,674907724168615 0,337268888705171 -0,645761005446072 -0,717557238500225 -0,516932624090193 -0,680551597303988 0,050429172309004 -0,316663571105921 0,275397198176529 -0,419896538796804 0,997049106879077 -0,493322596561583 -0,88277408219139 -0,721266164658505 -0,0375452953418789 0,746160727553441 0,452068468405053 -0,318068544591891 -0,722939484019132 -0,022396324142128 0,628115041767674 -0,176633022090758 0,45693449559026 -0,47614381726193 -0,298773277881962 -0,663120143135337 -0,0345025735127031 0,512409659529405 0,34313885833986 -0,69021569362832 -0,562364253777574 -0,0549709603542 0,492219149620077 -0,49240901654507 0,466932732456867 1,02732359066442 1,09181907256685 -0,289809666149577 -0,575684279623416 -0,186131092068417 0,371223439101549 -0,387404531967089 0,580226486734717 -0,78183153812292 0,0209870037057367 -0,562889514207604 0,00378328519183152 0,0334426909372628 -0,339371104275812 -0,452704278782689 -0,184604621088218 -0,621907580553348 0,92262357070671 -0,995992607980045 -0,924363974779509 0,0370267245911212 0,899757263022754 0,617265061602731 0,390477500414076 0,968090537441197 -0,0292676181305785 0,286063759655224 0,0474402766351698 -0,00158351970910374 -0,738455286625253 -0,0645041183998194 -0,365334288504246 0,637765411884306 0,296851108531192 0,0851655402534013 0,716787065433256 0,0249406067137668 -0,415875679116934 0,40762768523043 0,23747823617896 -0,356382336284478 -0,0336887250662136 0,0590036348826375 0,360552777136168 -0,807211923862567 0,302147246068581 0,880476689883101 -0,173918877853481 -0,242223733780849 0,312022485249452 0,787717258166403 -0,166040376034972 0,404438374267056 -0,874736447609365 1,06142783330468 1,00580807609696 -0,413543140289643 0,276494559651387 -1,02340883824213 0,42824659386595 -0,758258092522682 -1,20583663620896 -0,304121698292674 -0,805882992369512 -0,678660019447705 0,736806130418113 0,0144345526552377 0,269501466669144 0,157858072904204 -0,443030303927662 0,652920361931019 0,683087823867939 -0,55846790500252 -0,323906137965451 0,284804184393266 -1,04146443359792 -0,280892486123466 -0,735977444635214 0,162541947946579 -0,296638260490862 0,0908684455052096 -0,752019638126378 1,1594674753779 0,903921342670522 -0,419296271888515 0,988523343778282 -0,0281834535521019 0,499795220862272 0,473424108778696 0,274949193186976 0,473975507997057 -1,0257339622895 -0,479941094018774 0,575636874623604 -0,39218445296684 -0,574341194289242 -1,0280958129242 -0,31226895814992 -0,0802235889369017 -0,675056227832718 -0,82747727910147 -0,48172540326768 0,566594668298041 -0,955063255602941 0,495338963284955 -0,957370156221014 -0,690838526026111 -0,313066211353392 -0,310566919477472 0,688893604187078 0,0697294129140034 1,20841449797178 1,01299965815078 0,187287941572132 -0,569592582650555 -0,861336437766802 -1,15458588812679 0,0150136759322528 -1,13680219189264 -0,744867757186583 -0,606416609897242 0,145739178800569 0,454590636899492 0,431714501691962 -0,220956080745662 0,484166613057375 0,0084575090776173 -0,271177492520946 0,941045894077293 -0,149625396780168 -1,07783464344672 -1,06757604556121 0,0460499382036487 -0,491517715708927 -0,783056889413579 -0,66578705841556 -0,804059142979521 0,559807617385839 0,800334256952609 1,21604954635886 0,68611142607128 -0,5902439754215 -0,18277721280871 -1,35472503082702 -0,65787159889259 0,432401431686533 -1,02096455207895 0,0542802662164022 -0,174157370498322 -0,801810041706375 -0,751596410469649 -0,512957777824228 -0,566198425523886 -0,601295556312909 0,745898153712929 -0,0933040472534686 -0,0125227016876169 -0,841667372251872 0,304545174137385 -0,999435828997456 -0,210155637537357 0,236765942839162 -0,56256985706169 0,482170119575245 0,387458419940601 -0,417007371512578 -0,49264484236078 0,301006670661448 -0,15540078113058 -1,15452012881724 0,406528978491339 -1,05778503290434 0,325118224367382 -1,07330486940962 -0,4267264513217 0,736883881165627 -1,13021397361359 0,367216678047883 -0,297006439107574 -0,0828486172085759 0,120477466685134 0,686898708604954 0,719811961694701 0,631425795398166 -0,437618125343072 0,530945063696537 0,685218642950044 -0,126390870316758 -0,25948236899358 0,193843382679851 0,234830060095411 -0,931900076557254 -0,88470300382771 0,287696792535804 -0,172977089881038 0,968406998897657 0,642324836822561 0,0191641446908412 -1,17209992502801 -1,48554162533721 0,0297524340099344 0,0426641916864908 -0,830421499147548 -0,284204961491138 -0,745758673750275 0,718920095908163 -0,367431726410416 -0,932328844188311 0,438757473752689 0,769260746510134 -0,128987082225792 0,520135981647324 0,463890274355792 -0,491416547190344 0,143457263584033 0,473864013534564 0,815219604989871 -0,0603718707774993 0,0362743605504463 -0,938919002534367 -0,043930709503281 0,28214722435232 0,871962889267778 0,294363685319494 -0,424674483272669 0,514945313833194 -1,17130486732482 -0,98710551562459 0,32139581215108 -0,265145065264991 -1,09179123644228 -0,524393445012253 0,0641039127768802 -0,351674374250451 0,413193718157931 0,687479477842288 0,224144376805479 -0,115056371065181 0,271534307902981 -0,245988440520636 -0,11664999908903 0,660733528126 0,60041686156932 0,353018171850705 -0,196742790444994 -0,904650600075865 -0,11682097101417 0,726898519410022 -0,755373299336057 0,240475304985381 -0,638899247632439 0,0809989118444201 -0,432385451300436 -0,702295741478261 -0,118035163618094 -1,10598362182539 0,414659416508848 0,0450378839743718 -0,927247846679938 -0,387519426316925 0,550233796040176 -0,746071346189429 -0,559622378709577 -0,581999621906177 0,663910342517291 -0,679046320740447 -0,589508322037359 -0,226669180939119 0,0836566235030168 0,459731408658361 -0,709404085197149 0,0455575707812967 0,894127069277433 -0,399445195842591 0,524722364566521 0,382905068513585 0,745193345942497 -0,32097204612595 0,0114729663951095 -0,0453262005803449 0,163520956480756 -0,455157299950132 -0,889715176444089 -0,593736455613791 -0,036868854623491 0,298947911099631 -0,805288437596536 -0,152705064877048 0,595160497043346 0,293285976258771 -0,898758720300066 -0,949034386399911 -0,29682238252984 -0,38726021243861 0,176416792362357 -0,381951559208153 0,217152225120794 0,18903321292819 0,654380570998435 -0,645348027548333 0,612892162781657 -0,993012131131266 -0,399333622923279 -0,367041142633647 -0,419244910420428 -0,14662450493938 -0,173047244724485 0,791357516752721 -0,0532516975947659 0,678620674782552 -0,635613346297136 0,0960775683806915 -0,410434994523423 0,499150252189788 0,700876327185436 0,0541148940854917 -0,93438407670941 0,966765234323185 0,432133335906734 -0,672549767659285 -0,915427000845351 0,54358720183277 0,162400937088187 0,784905574023382 0,363620754718309 -0,759349874239625 -0,709076913236915 0,15490415491404 0,16669126458169 -0,460083255156203 -1,03122336386799 -0,724818143844456 -0,565950330629229 -1,10158161072867 -0,23472575978367 -0,391713207179078 0,62701657443471 0,307466589781508 0,574556831320745 0,943461210343387 -0,663321397836871 -0,755786609291783 0,810175039742758 0,804923908097178 -0,112775888868806 -0,0200049227430197 0,434546160022013 0,162421808859343 -0,130545033091171 -0,892263647279657 -0,452708129677162 0,243052494198741 0,752644922308161 0,343608154978334 -0,712253490386008 -0,980632578576136 -0,205839028066476 -0,20788545489009 0,312727413010383 -0,466926550189636 -0,410804149307318 0,580316301927592 -0,536900649450146 -0,784970683798154 0,57397011713307 0,793320582659393 -0,716799552784613 -0,612187696912758 -0,566317944991558 -0,221141072177196 0,159750753621394 -0,366083403483319 -0,607601210792391 0,471834110856397 0,935408912049172 0,747164159515828 0,673055229395356 0,337753792755349 -0,108307417227865 -0,617073520069342 -0,196212355765447 0,139469126609073 -0,670112508634279 0,117554013612533 -0,933279598940202 -0,177715163683448 -0,220480712766511 0,456390411014133 0,89452690204187 0,0161620400973851 -0,947833905209174 -0,00721459946941353 -0,99303583208335 -0,0755325623633387 0,241090631681738 -0,362332415391118 0,655737415362489 0,490444017828585 -0,892809159053342 0,0254418032148962 -0,331923225873496 0,0211450830692136 -0,312952468012745 -0,966900451254351 -0,0975090495511682 0,898761324376391 
-0,167774334640503 -0,73647393880562 0,390687522647854 -0,476055473323375 -0,654740443770536 0,483551980208959 0,944006945433681 -0,00322901552078266 0,822709487190452 0,554402392603296 0,389768455346569 0,524388011776674 -0,719458221263412 -0,136583735349061 0,0604834073671386 -0,169835017149188 -0,507814370344666 0,435701700117862 -0,245589288078424 -0,81881243309265 -0,39032034036569 0,450128661665756 -0,787811233110055 0,273064917068124 -0,939164284135174 -0,839585896053507 0,209506752985865 0,84800672662503 0,697015859498767 0,765101290651761 -0,565097137629914 -0,720724714336671 -0,800768614198956 -0,846286675065106 0,962045872130392 -0,513193507286895 -0,96477689249284 0,343629355895932 -0,357770600357459 -0,453495529166254 0,0275588284207663 -0,010468242441111 0,071559460341647 0,655262097477922 0,223527781695279 -0,887539035943512 0,183315492321215 0,215616721044693 0,933934375680586 0,806836806510432 -0,502394297543955 0,219987887209891 0,247329046121118 -0,310056407161452 0,257721874039122 0,364578271441993 -0,966181437947289 -0,899896126671994 -0,554409921376956 -0,832673193334759 -0,74347327358451 -0,92153834825631 0,282141272505278 -0,960587512797392 0,100103123338034 0,0709645034377945 0,293368417682899 -0,906056601108634 -0,13357269788445 -0,465731680283941 -0,259905493185302 0,107114764997021 -0,25424856160092 -0,855976435840583 0,101077996262304 0,581377983755239 -0,640699771319247 -0,468912276747513 -0,974270439169627 0,930278690997875 -0,0402728279441471 0,976030539773124 0,896157407606677 0,872629735081402 0,24996035742721 0,19739808895188 0,0144275073283537 0,491769310060384 -0,121513748892337 -0,420514636228289 -0,569759403551129 0,913378917520739 -0,135656797841391 -0,577562315752388 -0,766830861352588 -0,133964539363126 0,630133018971108 -0,0481411655603186 -0,56726563173325 -0,992669810541629 -0,309417158937166 -0,0361642260405151 -0,769761428154301 0,278072668120823 -0,060013428897281 0,295532849899082 -0,598287838746081 0,0380329758334266 0,536408868128825 0,637743789586575 -0,0139693162908944 0,477760241576921 -0,949270226515838 -0,502181892430409 0,19013309802657 -0,736071881334628 -0,832505627732184 0,350934837439956 -0,266137517089237 0,878471718803086 -0,974174975685391 0,721566091551 0,107958485453598 -0,842918816787362 -1,07190736215496 -0,448614622947998 -1,11045911405103 -1,05843347885477 0,471289964308545 -1,08406774124439 0,730323687911615 0,227747393380787 -1,12936717066256 0,812824293661022 0,0879772404318138 0,880161840172942 0,639734718556154 -0,481728679374546 -0,156777250235565 0,883401900229803 -0,246262156531703 0,958153495067454 0,93797120896148 0,227427925693473 0,579508178289303 -0,126276507922889 0,730556297345168 -0,726581261127583 0,0908419165548845 -1,12285950590959 -0,462597895286993 -0,927187603545488 -0,972754726606067 -0,678932033465996 -1,4403460049247 -0,849922026761642 -0,0771079025174302 -1,57949385899592 -0,335249519507241 -1,28723047805159 -0,179905494361722 -1,14273128418987 0,0075702509831226 0,24061011313131 0,644822745704919 0,602250725505276 0,465783052646693 -0,867925843757802 0,355472001400161 0,286842312135242 -0,390636975412027 0,660332016570784 -0,457138445597339 -0,243644808858906 -0,0580215697951709 -1,1306623860195 0,519701907248313 0,738952686810976 -0,556982509400912 0,0860427056623745 0,0201465925746113 0,820008612757901 0,0782175797184384 0,807289344622639 0,425259227650255 0,922483851690745 0,375476229204821 0,22665763489032 0,600576283002567 -1,26368152925339 -1,30923628848566 0,240039850932529 0,0319587564406296 -0,419299436296446 -0,253708733642927 -0,38664128970652 -0,180628731820339 -0,416417535847143 0,471576077144742 0,963654463569762 0,393070591820156 0,357690513270895 -0,378682414672488 0,466227045655792 0,0216218626931918 0,0760090622575817 0,900480087208186 0,521882945243052 0,928593825369594 1,34165296418797 0,764975553356196 1,4267767732504 0,869725622172934 -0,364973038499084 0,513999534933734 0,269009443980512 0,00144013603569019 -0,100661417585751 0,473829772232512 -1,37361951616 -0,733289295110803 -1,0254698119738 -0,791132820861247 0,190259892184441 0,219364480337026 -0,0444088559149607 -0,680371540556264 0,814933998282526 -1,11895576924351 -1,0080337060639 -0,226579066803806 -0,154929070144232 -0,531376762801856 -0,0448624083843359 0,907034152141083 0,598472028990772 0,505941447237079 0,809282717588226 0,488495034023946 0,181014118174989 1,43158018000147 0,832355464487124 0,726646745424313 0,656516459435181 -0,0235855837601897 -0,823052772460227 -0,919461428559979 -0,346253031848733 0,109626235155763 0,31983012697652 0,505667508174284 0,587454896007609 -0,323311669852114 0,351784590466402 0,351505546041632 0,265626300302296 0,204595628030539 0,30711182277615 -0,646639908108395 -0,84021151543411 -0,27256721257465 0,952170224152881 0,35801174104739 0,276963559375093 0,175472081569669 1,28170878765391 0,78804588491375 -0,147853312009815 -0,299071354491013 0,788823326044487 -0,949191723078061 0,681273105800906 -0,105401752506094 0,706704006003252 -0,774656921570394 -0,616990444026868 -0,994600885234516 -0,777209461257149 -0,846810612447595 0,0183886059231145 -0,34651673315203 0,166150238357918 -0,684072133021981 -0,47285681553381 -0,334779017404757 0,215327457175667 -0,727912427840379 -0,125226457679074 0,0941387113132465 -0,538173497637464 0,764856372320884 0,0309721865616134 -0,517416479104382 -1,06127498782203 0,079358856779795 0,518409488110779 -0,405092137322523 -0,451855174674119 -0,162337578531409 0,0210725673268392 0,490741734636543 1,23184136542285 -0,193882710251462 0,301746025808756 -0,13231748447739 0,464779496300849 -0,144556416245642 0,0834920433511621 0,0932538718985373 -0,428392983458387 -0,0112338724578898 -0,0146139845630825 0,314991946923429 0,27987824650377 0,516018364168922 0,314046738002504 0,357066915212449 -0,331397771826963 -1,23013606273893 -0,235623760579316 -0,11181298447074 -1,22093355974403 -0,316361241713816 -0,875509497436098 -0,5578655823885 0,158594341811731 0,378249892957931 -0,117339784199901 -0,0578975286610776 -0,238294320408588 -0,738367254246843 0,189086911726635 -0,189744497616808 -0,105350866532347 -0,849166504935434 -0,118464311509304 -0,619783370270982 -0,288553977049468 0,393363394653266 0,229995037479247 -0,407434940830421 0,206153482830352 -1,18752746228574 -0,438066902887139 0,117046789174636 -0,385906420384865 -0,0126926224314354 -1,00887170078979 -1,22201788054612 -1,41611589173098 -0,443400881058816 1,42982599629583 0,108616258650238 -0,745124080305397 1,0355422034022 0,147673030238207 0,100783349064403 -0,169732704964568 0,422671683205676 0,552414040000528 0,687754019079735 -0,771659316524699 0,0218482891822092 -0,191742260700203 -0,720263457261275 0,500656744902188 0,904327098203235 -0,50190338545996 0,475816184795687 -0,351066709629951 -0,0719204905678496 -0,514789614180384 0,0226672461110045 -0,471570285190979 -1,32937405425835 0,107899707864982 -1,1481864961071 -0,466812859715736 0,297389511401688 0,674501919088389 0,898329061044655 0,0304806948481471 -0,146920383407579 -0,448857650916607 0,943827067155963 -0,594681381853769 -0,444350159060819 -0,467651287356808 -0,120522955187287 0,477257123551984 -0,751405431322886 0,613389446203409 0,15634950145408 0,576698238307116 0,313912340793089 -0,586992905760007 -0,569649472812607 -0,0141332876351358 -0,910419109379929 0,238121283998752 -0,48322296476903 -0,339783923522624 -0,160321712652769 0,159135315532559 -0,447276889668167 0,508649114773435 -0,434493033323908 0,768637803174738 0,771743440334976 1,09031263921008 -0,0997267807314624 -0,328651085985909 -0,839282172025229 -0,844237167369797 0,708643472590114 -0,30882178788213 -1,15374526516253 -0,0329580468375505 -0,0609910326893024 0,813242825694513 -0,309124017051278 -0,0177291926201354 0,305818489766901 0,874233634618686 -0,457293433473893 0,318503356034342 0,173128440052796 -0,0241761838167012 -0,154555133500282 0,482257294818055 0,359741463672518 -0,10232635133629 0,432259118133639 -0,577394329940469 -0,72421955670819 -0,0671357940207649 0,807953507039488 0,0177779874617704 0,539574275150458 -0,742493854105356 0,543486511812095 -0,415094888850574 -0,324668316190947 -0,141215341546855 -0,0775443283746066 -1,09898788420892 0,468181606913239 -0,110443994468143 0,596558847239325 -0,74112684195003 -0,706038945808615 0,290275621348185 -0,860432199510513 -0,507842798789993 -0,180613150555172 0,464915488060237 0,300319707631945 0,266735323032388 0,163597981218493 0,0923718436845599 0,605775498822759 -0,417669764575872 -0,766541338501253 -0,583125343890276 -0,0752737926757927 0,400611749728778 -0,519418821636746 -0,0615645189162791 0,27871282562505 -0,481638943201414 -0,113274417025933 -0,079487759130731 0,475563223968056 -0,457517566941844 0,859378821071369 0,767645249999435 0,959695760595122 -0,934231931315173 -0,347103896412306 -0,518340136428217 -1,08229976394453 -0,500702253129469 -1,29170209189433 -0,0381547242892111 0,444200470930597 -0,679780549355869 -0,0542993278934829 0,0183777103766273 0,481522552087652 -0,551291686300256 0,0853853558581451 -0,122485414395766 0,685320176201026 0,659229684720096 -0,782505117812575 -0,10666869220055 -0,926142352796659 -0,613482528694451 -0,813563177460887 0,320759866324632 0,240139762551782 -0,862723736431196 0,0358384364460718 -0,473142362242495 -0,0872771260077647 -0,159111205216905 0,450673618414057 0,515462095555465 -0,289755365062626 0,0447714586936276 0,328203312203178 0,0554287410778888 -0,648130440435122 -0,788123645060554 -0,116502388311391 -0,177228981210869 -0,514829209369275 -0,428430610523354 -0,792031655044034 -0,429727034554258 -0,591710926286937 -0,105118002254319 0,243717070212557 -0,0533257558100718 0,437586827463722 -0,629088288042141 0,290072449732709 0,343647440657764 -0,892446536770386 -0,15487840671105 0,263072680538004 -0,00971603435939454 0,309580594873934 -0,239203599576782 -0,171407433860086 0,828042326079214 0,713080790706162 0,242761865454766 -1,37257994428432 -1,15242722442772 -1,1992294743411 -0,658235381400735 -1,57137736538365 -1,35353547786156 -1,01854613600832 -0,282842573087336 0,394412580614861 -0,0678610558830396 -0,667122563443701 -0,485512236763776 -1,14285325955594 0,0220145677921449 -0,73999847837146 -1,05436493002381 -0,141278600254442 -1,0554690835654 -0,6146460843017 0,803590571571158 -0,244245477694582 -1,01259823068186 0,0225807335208131 0,480611374601938 0,058601187404187 0,944266272682284 -0,797738238037316 -0,248129910949389 -1,30490741878132 0,098232961004596 -0,176762488395199 -0,495390347458188 -0,46464198863013 -0,520945205261311 -1,06715872009316 -0,222771349610655 -0,0663954886939437 -0,364615684612392 -0,717626362394925 -0,398661437593667 -0,815579633195797 0,598103044852739 -0,257298099225859 -0,72897492997698 -0,0987400989512146 -0,0188680038192819 -0,407451675178266 -1,01804514473205 -0,489198527856622 -0,108304981616137 0,34000023188643 -0,654531037229378 0,0834466695665042 0,872839275971948 -0,0991758547139126 -0,687487027837847 0,447343925363098 -0,213985503110163 -1,16915104584681 -1,01511136011635 -1,34400387551483 0,255031157836177 0,0322202877199042 0,201605277828022 -0,108319996048662 -0,303441144287346 -0,024214416570504 -0,680468310218838 -0,994444924031768 -0,759427855320511 -0,561177617970937 -0,977644604173523 0,48090187233076 0,262953511872326 0,342341117591631 -0,194453495001607 -0,152998317501387 -0,672325504337939 -0,880609724898867 0,644630976073727 0,0166585634815958 -0,915853982265033 -0,557696133704656 0,364531495522278 -0,49404810720842 0,256680564766547 -0,734553487709735 0,423743033269396 -0,706341549049429 -0,51288007333051 -0,913919268500292 -0,878853202272798 -0,470754485353961 -1,09444609754539 -0,314131050925226 -0,656072588566015 -0,943688515761947 -0,138490375801834 -0,0233150761387138 -0,972290424484957 0,831462551636262 0,903796965734733 0,697998990934706 0,927242535373493 -0,877654649207033 0,058103108793173 -0,390493697681132 0,618479420706505 -0,658662336022928 0,901891584088785 0,474744655962858 0,448793639149752 0,363452790124035 -0,10659585829324 0,624680316066467 -0,939635730184454 0,414735691420031 -0,897493477152145 0,304868223947266 -1,11377817632275 -0,566363183634225 0,457997924459502 -1,12097100444181 0,235182110592799 -1,07438610089369 -1,04104574918101 0,225183092365773 0,508431879363095 -0,499936053464801 -0,185226213391529 -0,55571583443563 0,690103443268023 0,0706293991487527 0,834527476135538 0,716647383146872 0,055482174283215 -0,71595627672608 -0,591122128477006 0,239268332046658 0,643337353902799 0,0119341358783536 0,158376000463 0,649297008458586 -0,141078097490156 0,456028275255568 -0,0233435721634701 0,480894757854396 -0,925104472086945 -0,74064524134516 -0,631005612824938 -0,297859689897352 -0,998578853296626 0,333561519818406 -0,0469036140473763 0,723998133220561 -0,663342834070725 0,87414381832281 -0,832936059142285 0,429556038989129 0,804071708889166 0,621363674587116 -0,034810312120989 0,0905569810717202 0,512206181178548 0,416264301851305 0,659872908034719 -0,761689252352759 0,302139231242609 0,0546239141526938 -0,261156174473917 1,28425176372885 0,603466542997614 0,44605946139136 -0,698159994251935 0,749288155480064 0,910648313640399 -0,753022254577048 0,559464029099114 -0,592980104295622 0,716727165871874 0,150753322075745 0,48579066644102 0,437307720210662 1,06526926900024 0,954473634963871 -0,606729896021826 -1,02053874346264 0,937149365382277 -0,822485039245565 0,4420476064157 0,267178870849491 -0,853839962221956 -0,122205937350634 0,292421955467696 0,774757202002794 0,713959447329046 0,74570285048467 0,960636340361363 0,332317033560929 0,736316179259861 -0,201452616496863 -0,629074677766175 0,474034292900344 1,01127177242561 -0,160326644145302 0,940438549280095 0,0939571170361054 0,80697337030797 0,911034505879707 1,02200267068353 -0,744985991175004 -0,581935283730118 0,93311016723988 0,915474860658066 -0,0776828983653346 -0,581728250178189 0,808242869927313 0,219314941294737 0,658106318037658 0,0270103607327773 0,649352053470259 -0,766437830772803 -0,0186075292579202 0,416170509254545 0,231362110682343 0,775634811733523 -0,696299342075464 0,840304502218658 -0,725058965072041 0,697898399414391 -0,889613934592109 -0,737771839752939 -0,891511079635882 -0,451609410521207 -0,146947168942095 -0,330519470914901 0,896559315771088 0,205253806222243 0,170295906613597 -0,929141022533663 0,480351508277532 -0,651638514240678 -0,767347519655757 -0,643326042532024 0,375745547166538 -0,0883316761418823 
-0,747489394472526 -0,0401796935945047 -0,63905494174675 0,322668528830174 0,877289979691434 -0,544222185146019 -0,767109225365702 -0,74282017335226 0,991421913754073 -0,577427983988594 0,204357574353318 0,891840043457298 -0,29805852903971 -0,0973038327029658 0,442775682924058 0,0288425332699847 0,336367005203251 0,981300694889211 0,693148628695619 0,766520166690851 -0,775573289818715 0,320708627526208 0,048536703508751 -0,752357745397855 -0,447700319524554 -0,382308751958405 -0,939989725069922 0,58258989250609 0,5416151469601 0,294129465407914 -1,00595129744225 -0,381785798500031 -0,967410949019545 -0,689113299204634 0,525489421487495 0,344733940537913 0,483868534069656 -0,0407077549097942 0,827896496692827 0,663480824700678 -0,953405195782991 0,854021508240782 -0,415075343718427 -0,546589280464621 0,467770961264601 0,970397692014649 -0,514460918697807 -0,747149169970477 -0,371205354661153 -0,547664118465997 0,0150230508085174 -0,74485145370199 -0,332677911626329 0,613022140077008 -0,308961626721833 -0,0750590083239252 0,904422616571532 -0,893558182674107 -0,236492138176876 0,252737745023948 -0,610986956861072 -0,356549087744122 -0,291296637022562 -0,309817577562698 -0,579363483316703 -0,424651926815556 0,844792179412092 -0,624301301416334 0,350557975723002 -0,938834552621162 0,52057377393353 -0,640984429362222 -0,872582886107482 -0,997203489659464 0,677723947780531 -0,659193227222056 -0,2660224359079 -0,405910837754719 -0,234265791048381 -0,426006093203991 -0,87474866047343 0,799605530182334 -0,0539476931978097 0,0812657033771274 -0,728522877052522 0,732039171176197 0,945297844536046 -0,586992972063585 0,613034015985808 -0,406565149777002 0,433418166596161 0,370714980349678 -0,819859081435335 -0,462239333834554 0,204181234140685 0,286300969575499 0,0505379715847721 0,798576228112342 -1,15435136821183 -0,287792867931092 -1,01304944906747 -0,968791049165868 -0,180489952164374 -0,519229340016316 -0,159668939801837 -0,416326893814165 -0,912121713628588 -0,369199026553842 0,895417920417521 -0,680071796098719 -0,824178149958705 0,292825736737425 0,326065660170471 -0,817709008116937 0,124935065858485 -0,416587439068674 0,690191949555202 0,61539428257837 -0,589033537722268 -0,324740984963423 -0,406072941518326 0,331790169166252 -0,386041505612783 -0,380792859587397 -0,312145421056649 -0,713679723239869 -0,749446166121159 0,715858590851379 -0,0208646957746791 -0,544455433235069 0,314258021867677 -0,0249553659330417 -0,482638970410282 0,773106152862057 -0,572566933030268 -0,984596249268862 -0,0981523633390164 -0,595108734786971 -0,834788637229865 0,625396956850081 0,624312573898877 0,306375863668845 -0,486357311812315 0,285218212550692 -0,591305572298343 -0,878042538641916 -0,991633108838219 -1,10534541697894 0,207841934938696 -0,586461819368105 0,404737860341823 0,211110200211514 0,366686646620329 0,298904565370132 -0,567457283617947 -0,140655722987693 0,242632089985235 -1,18592157741011 0,565283943505202 -0,409381730862304 -0,778574815249984 -0,79742096371296 0,715070621127432 0,544341571352986 0,0781905233478769 0,299256803697807 -0,30445933145649 0,433510677758299 0,71976692591984 0,0897869735894625 0,65371566021254 0,263575669724222 0,429061447504083 -0,266871115777488 -0,04419893570761 0,104880289226192 -0,464476743853899 0,0537443406460222 -1,0730201053263 -0,849870832436516 -1,09810585120029 -0,851913796149992 -0,726804934723981 -1,10413491578653 -0,716910015552657 0,591860220829373 0,508750343043072 0,373873612133882 0,436715447241548 0,40510617358763 -0,53624805555214 -0,275224308250244 -0,534971607759188 0,374503994185737 0,154189011700089 0,078340635547638 0,436718651218213 -0,0728463509952348 -0,819321689799873 0,0843837962618078 0,385797710579501 -0,530957821795935 -0,961767098496004 -0,965427332566627 -0,471561211143225 -1,18492157792106 -1,69015533180946 -1,03135011378018 -1,04755781899425 -0,136553823758427 0,733664221370578 0,722329891178941 0,676854936710688 0,554033452308598 0,10114867682079 -0,397838418957323 -0,599712387273362 0,611225244112874 -0,24968783932804 0,206397696774994 0,771499490783834 0,343292541315189 0,749715384215465 0,920957990973931 -0,614174156264805 -0,162128803206816 -0,262561045019231 -0,988861172952458 0,525603159736541 0,759243817427476 0,542605473843391 0,516557797903002 -0,354543157608139 -0,537405777018366 -0,866836693817906 -0,288736043621295 0,403542515567447 0,524513957303566 0,210654472729288 -0,643477548043963 0,705495488855963 0,00147266581124462 0,272771638914964 -0,16353818260934 -0,955159458267447 -0,205220307500264 -0,10806323067456 -0,0411196459420607 -0,344794387892057 -0,18438241131402 -0,323266929705004 0,656946743179334 0,954453129947436 -0,214068739936902 0,186113317916598 -1,01929519513169 -0,298283180045283 -0,832264889708999 0,669645593340976 -1,22127356736836 0,0754601419729191 -1,61766743762007 -0,499193507817428 -1,08885327507915 -0,202797494450954 0,933104837168562 0,159380433626474 -0,0848903215348362 -0,712067364248367 -0,150881276547824 -0,767235943878671 -0,535299258037671 -0,315987921118819 -0,276512204652054 0,575195088901865 -0,0541961664536489 -0,714811094141762 0,0390785533342024 0,897585357412242 0,540394980507734 0,767343924155025 0,571090275634631 0,231632075372122 -0,272523136310271 0,183235701700703 -0,873969618739368 -1,15953077261834 -0,78712934629729 -1,32278334354703 -0,2094279716879 -0,389528136595054 0,460462375530641 0,966075207327526 0,462402421486663 0,360712632266185 1,02761629271039 0,534230281798634 -0,718116238485784 0,289494241836903 -0,946276971811513 -0,593742071379406 -0,386679109511267 -0,243882448476523 0,476095820176827 -0,651799239563981 -0,949937358156057 -0,059599486146855 0,179034442570044 0,0506813828791109 -0,991546584641153 0,568187969859881 0,695214527734276 -0,606470642319217 -0,654123111738214 -0,725215452213855 -1,09373713370161 -0,480078568799086 -0,842032071699208 -0,0146931006868514 -0,170609471534551 0,82007823950682 -0,166224242486144 0,388847771914994 0,643648349114643 -0,646209315081146 -0,357306521199825 -0,238416744742109 0,912577679759005 -0,409004193951755 -0,817472372684608 0,378979413192007 0,545304775438106 0,287357293799885 0,592675007633461 0,232991553291822 0,198481042064892 -0,313263965731393 0,5502445576883 -0,73615887218632 0,134080893864381 0,219302831052137 -0,247135828425124 0,338227948966352 -1,12222680775168 0,228373729993513 -0,166183573624932 -0,080405350544849 0,20110356516729 -0,317566269415832 0,108490218421159 0,668074743283915 0,691782953507416 0,596890406102967 -0,275369031633271 -0,356203356054439 -0,507430138377614 -0,783695041198685 0,492803235425765 0,063311424903683 0,468761327026759 0,19686246213194 0,103681214538653 -0,116167455666465 -0,0708081462727797 -0,495434391954975 0,830414186449188 -0,732275008545592 -0,267304344518024 0,0962092523593188 0,0910680612107355 0,259815648071451 -0,00631239821375856 -1,0962474673821 0,85976848876728 0,376684135681379 -0,391627610777002 -0,285241297841673 0,106015355250391 1,46275870738136 0,543547424696358 0,43508099387294 0,0851534463794842 0,243013654250568 0,67169330284104 -0,140585009410324 -1,18608559151752 -1,12149026800737 -0,556200727825047 0,0284909229096987 -0,0221805883007769 0,00803144413119429 0,00946186077352656 -0,732570771828755 -0,364639804446897 0,826351851767076 -0,94495705758939 0,875236487556823 -0,559657156729011 0,330077961755919 0,348818166613567 -0,419842183208573 -0,478190232367891 -0,755629965959785 0,138137050329777 0,302967559429843 1,1679174818417 0,750650594736127 0,583335710222387 -0,0146530079069251 0,109848350758864 0,0946749990958843 0,087323563222273 0,344003008155471 0,446382106891177 0,620073792865484 0,72307017461378 0,805468921437985 0,00703344614905533 0,601059284787721 -0,633770413412654 0,717636949897686 0,647157634077967 0,554149543570294 -0,939049986235622 -0,881529993840248 -0,672360878405951 -0,268062995609981 0,0224241534133796 -1,17377414133815 0,47073396993661 -0,0356101267070075 -0,852712668347283 0,250492186722389 -0,619101131225413 -0,246628062789025 -0,066017856023264 -0,0594636412561091 0,478595814693391 -0,851588398955212 -0,209817564031265 -0,861282873252467 -1,04516211382567 0,140800157909652 0,453873348380983 0,406211035573037 0,220226896778974 0,0157501102395167 -0,617344673597052 -0,286470726422153 0,872933900128953 -0,871246968936627 -0,192590849272916 -0,149126994848293 0,0847921985534235 0,738895510300305 -0,239124604751198 -0,517360513315961 -1,00564809735175 0,068531650765378 -0,311093125017313 -0,284604009407746 0,861902760632086 0,529936082470772 0,535423067223776 -0,420433722271764 -0,0710228153875971 -0,813479798203658 0,177610757657583 -0,346656891054101 -0,745189901094351 -0,301575907101743 -1,06317427218003 -0,834985195735476 0,877908204965522 0,540216528348823 0,312548025888496 -0,755411966559987 0,920518423919935 -0,459693170507605 -0,185572135143333 0,323789169514309 -0,492850113574422 -0,544651325045521 -1,11926412902656 -0,0319598110895489 -1,29311509260065 -0,0194526502355768 0,556151684005286 -0,866032834357766 0,629256290425159 -0,317497598722602 0,0786507065124029 -0,331847401328526 -1,31628068992104 -0,515791444343249 -0,605867900035627 -0,59003055422085 0,44841019356506 -0,0890500997963049 -0,980566287140654 -0,710595585983687 0,0786356106041847 0,177032878233724 -0,891034346880779 -0,00084565389946591 -0,893771909689884 -0,434881039639885 -0,0789558015995418 0,580152920275896 -0,460800607475756 -0,41167147358633 -0,461582501644123 0,0591369286179362 -1,19160392581672 -0,150247999974613 -1,18842638903684 0,172522536461942 0,641559520804967 -0,144787555468238 -0,458929204606654 -1,02740637357796 -0,147659938501898 0,232429385746458 0,253229993939174 -1,12117442036004 0,770668507882349 0,163065552625517 -1,0530496445562 -0,194875850139202 -0,334804994526101 -0,455996255826873 -0,456252568515221 -0,185087838439383 -0,605667395068686 -0,562715375465221 -0,783959464578368 0,377179959105727 -0,469068047561936 0,0140755207201678 -0,190494518653323 0,0163475671394948 -1,07425923899268 -1,18175911934241 0,447617264989524 -0,137032100814209 0,933527794037028 0,678034604082512 -0,703514844648876 -0,258776127798088 -0,365639599912373 0,030479320732397 0,0297270315873838 0,191566605064833 -0,423623454552926 -1,08267198152265 0,0535756430220404 0,285378867759991 0,560269750399449 -0,993565705470686 0,00543583461480486 -0,24995171799586 -0,516364851073637 -0,959094681155383 -0,0791837262358066 -0,917076128054378 -0,729536205806027 -1,10104460763204 -0,20429748107402 0,443767806664688 -0,271784035961567 -0,409508303129589 -0,0934546227369157 -0,714403279282666 0,0400725988076753 -0,164579777062914 0,41004823611157 0,0185737877070506 -0,996750613410798 -0,677483271563298 -0,788159979830094 -0,491803221624589 -0,0994013031511118 0,072355281179741 0,800220787596662 0,0343467716812694 0,16999248469686 0,130251139771318 -0,958572696371428 -0,685023912386413 0,279627998689885 -0,109199114951305 0,821239102756371 -0,42167099797045 -0,889574343026486 -0,678242228973076 -0,129597307078973 -0,829669888663659 0,153286211917043 0,601939910202425 -0,264376384877918 0,332845531837276 0,652065370978254 -0,92470859949132 0,416004134749647 -0,819499674483662 -0,345003173407446 -0,269249869875011 -0,882129758438805 -1,12205645617828 -0,751736826996485 -1,06661793441268 -0,0350473463729985 -0,254045456238862 0,46831235557011 -0,773210384770104 0,660801043605953 0,28188248550313 -0,835018762539897 0,83521482757074 -0,108796131180784 0,131489698262041 -1,0834933528443 -0,193192014897506 -0,377547718561198 -0,616004025740511 0,115886927549191 -0,593910989556055 -0,954892838401916 -0,90273779427321 0,0232002626396283 -0,0892602435690141 0,59536988884342 -0,0989578514398384 -0,714925487439571 -0,125929044227298 -0,308920968095557 -0,336865666408587 0,31976011056319 0,495274568976321 -0,863736754477364 -0,959065632948237 -0,269939534419201 0,974120639966236 0,911835829716247 0,256312768590012 0,903693080864851 0,0806392221545567 0,0706561334228868 0,908701307497026 -0,230528411588397 0,831150580460395 -0,72875635642889 0,608432791757853 -0,208200630719049 0,482887479625993 0,214672544847064 -0,526074671890026 -0,154728517288881 -0,106713104886861 0,198314055142965 -0,230035691348398 0,17129395310252 0,79733580143823 -0,612040510780491 -0,00353486883578809 -1,00550381833398 -0,951057876813467 -0,606876837225989 -0,550419410511524 0,412632082506171 -0,117813731110614 0,8634795527569 -0,392262834742626 0,683281270669586 -0,150536389374233 -0,58983634985722 -0,962761067474344 0,0517760696315175 0,452690534461647 -0,579600284418252 0,83464913069724 0,0774973009020736 -1,07635642418847 0,0703156950200136 -0,0180511534707211 -0,497788191500413 -0,873840954024642 -0,85687288166967 -0,261616662011872 0,35617588722083 0,603432922338716 0,0476290302038346 0,76782394523451 -0,938456420760675 0,365371707022582 -0,0670447987542184 -0,156267276193901 0,475894495994615 -0,154511880614776 0,19024429994383 0,830954428713429 -0,327207692555553 -0,380755788827829 -0,466586190984869 0,973997283003335 1,04799702476443 0,614763408820409 0,733561402553482 0,759398679307673 0,0587490730455713 0,48310105488384 -0,93972945422141 -0,72687495311225 0,279862810642738 0,632307890740385 0,647313059789183 0,0474876484798978 -0,749939074924085 -0,249886029225896 0,885974099988278 0,44252235797383 0,6627173533665 0,413083625685164 -0,0961854200192043 0,641553154628817 0,736068648383174 -0,967094850015278 -0,482021463763749 -0,69692137168376 0,907201275216191 0,560758245934302 -0,436714057319136 -0,835315485190335 -0,792791676117128 -0,521302688974471 0,125828492054993 -0,523173272014547 0,624111191626253 0,751922214994356 0,736300006934225 0,653823712556424 0,0192910376979791 -0,139479834290419 -0,848178471332295 -0,800854357663699 0,778069025797525 -0,0413765066230718 -0,444341571719701 -0,600572888197331 0,669999610420471 0,907274492607687 -0,391183602388602 -0,299511710756989 -0,0537043364335473 0,746406319463031 -0,836466952120955 0,248595269076967 0,705581682627042 -0,113845548149902 -0,784555832725129 0,92995132872469 0,0226727171630149 0,3263985052448 0,729848641526059 0,351063615670128 -0,152326933365446 0,864463985052535 -0,990260083395711 -0,14031161806051 -0,377131218238705 0,300218912037418 0,49704917110018 -0,457774355638637 0,0255712871432416 -0,702961237008894 -0,538041027983666 -0,0913899412089516 0,360343544135775 -0,210030070975268 0,900384452054299 -0,180043172610787 0,505074346237532 -0,868146482763732 -0,367273444916553 
